23744
0.1386556111094208
0.03216382247894763
-0.21266418476986204
0.1156849218628306
0.010830265826981067
0.022314425946042302
0.2689311467078558
-0.3468190074465854
-0.2707271700624329
-0.15876767033093944
-0.11233286637076023
0.04174250296654212
0.25874932848564297
-0.27228686522633544
0.09050219989681482
-0.22260256625589633
0.14420468100520117
0.18272343873492614
-0.1966628563110356
0.11877082285362171
0.5128319526605866
-0.019277857264020818
-0.12059637593012673
-0.1635049649326983
0.17784405179099066
0.025395173252358183
-0.09942456252357851
0.2822879779169701
-0.05425298928727475
0.12834401062703413
-0.07783916148756531
-0.31946688077171936
0.09088954170146173
0.008131343648135272
0.37040269088408506
-0.06370891163229173
0.006815689809058347
-0.29342652901528204
0.08933341843362579
0.2437047347888219
-0.3528909334261494
0.07673498530716154
-0.05014432813812585
-0.3947679052206579
-0.06317825570680959
0.27092152423897736
-0.21597003309696824
0.03745532695528276
0.05968632098305824
-0.04560171198901136
0.144493833777242
0.08264382763058187
0.02346616674974343
0.10552612649678797
0.08799180794143227
0.12281299600942347
-0.06403773600408809
-0.05142785029573535
0.04321337409762707
0.23815500415903626
-3.138373671755656E-4
-0.06344312796151057
0.22790041381572604
-0.3495330375011785
-0.29873309155087296
-0.08221643910881601
0.14278837388999271
5.963290488366636E-4
0.21274369770768048
-0.05659817755541814
-0.30619895177347345
-0.18133020882999898
-0.19892047766516807
-0.04784419061126398
-0.4328856598524392
-0.13171357743151885
0.007031012035352679
0.151545467373032
0.05526221804799583
0.11900087947520038
-0.2828386109544504
-0.08487585480598109
-0.31180893320918907
-0.026089877860143957
0.14448166239847224
0.17128726804608607
-0.010527325221189668
0.3052348667729461
0.0905325201701043
0.07357761842926396
-0.4143154908919689
0.4190210171216349
-0.23135935781441255
-0.2820413683571421
0.04180117541611244
-0.009065299706683202
-0.1400277342142056
-0.14206791414051675
0.3001001175469357
0.05591422784092415
-0.0063383067545990926
-0.13027357562030317
0.04553417306311642
0.2058540785308959
0.12129357804124502
-0.11932118987858105
-0.346491264146126
-0.35991742330575804
0.08565655279116502
-0.21544145062126008
-0.25163812831366195
0.21392853623739216
0.18187326755507827
-0.09964592236080363
0.040056937324923485
-0.02443420394190804
0.07912915998730802
0.018747109895229846
0.09642044438908386
-0.03484233978806519
-0.05811244043904143
-0.30191000009855423
-0.2083806887651215
-0.2404882122451939
0.22948015087151813
0.14506576381819222
-0.28634033317348095
-0.025128617136199828
0.007399994715499703
0.20918241966196455
-0.11606489378804759
0.32130121028246283
0.14451325627385034
0.029202379455441685
0.12309877230864086
0.002826954647617435
0.06448138923360601
-0.4323695019587838
0.04561187469694772
-0.14238457159924242
0.0828474913107952
-0.05763097548497942
-0.14181380444623123
0.041602605730208554
-0.01108542741211168
-0.01414240033574073
0.39809593716285363
-0.12127837657797907
-0.5052944332902419
0.019840350377121847
0.31420016360938663
0.10662258290505906
-0.08315757835795466
0.09362477956795531
0.2218106660693412
0.08521898691617281
-0.07987667766403045
-0.20698912649068757
0.2547064798245087
-0.2920119214463137
0.2527868352419715
-0.3797904147774531
0.13323236584118356
0.057066768173057336
-0.06790126168530701
0.03588563803982036
0.01596743004183056
0.13871718398181795
0.5006898913547685
-0.06809152022700928
0.1176568313722535
-0.17213514673406563
0.18362603800802557
-0.4048363937519554
0.05911645553267001
-0.1526682038867342
-0.15211854979987194
-0.17976652515985417
-0.39274026959698055
-0.1409374219184519
0.2659763141253619
-0.23936900813684386
-0.015268643194305157
0.1557771227238549
-0.053042569205490935
0.3782206476228036
0.01465716598279692
0.06536378257880515
-0.3003045800462763
-0.058986314865961724
0.11867617696342032
0.20640053148974602
0.09471521665917826
0.2625668223224697
-0.21898414847006903
0.19823660764038653
-0.08238916504737423
0.18602642257297985
0.1468979402932141
0.0925760783370583
0.04925866834935545
-0.11837855329694978
0.22480636719744426
0.1887940250474478
-0.09619420483174533
0.444909658651808
-0.4477514068578725
0.13615496551141834
0.1156573463357905
0.17356697132442858
-0.07777631626639953
-0.31103111862884686
-0.20672138321158268
-0.049022628763896424
-0.07647883548685744
0.27289546769315653
-0.17966804950775933
0.21651652704688273
-0.2560353199499649
0.11743642011769413
-0.0451374577903621
0.08675313691237685
0.0079392356145085
0.43182299607441704
-0.1740381385077255
0.22066495863831068
0.011249147394415297
0.23631146714011547
0.23176943136045003
-0.21581541160672937
-0.1322668403064317
-0.16789306088660616
0.1336492625993431
-0.08427846428368674
0.14622745083693459
0.07335816630126378
0.09823253460788456
-0.2808255627826295
0.10563262576528216
-0.3487848938640435
0.3696806189074657
-0.030869846254920966
-0.035957106720271345
0.034323694568712135
0.11210794175596889
0.11198362533640603
-0.10742551075376144
0.14331205038172268
-0.11282340103776523
-0.16531992021709838
-0.40926945005346244
0.16965898395246848
0.09398151980613834
0.1028933932168144
-0.07601530871213669
0.052854491338607104
-0.26717029034772416
0.1165242118152739
-0.06298135393535469
-0.05992229561877638
-0.200755291169028
-0.21880941923468855
-0.4734528052590381
0.038485571063946435
0.022129919547653157
-0.48834984733204156
-0.005275153471848586
-0.025406860656775457
0.3759312662830256
-0.021184477879010795
0.09906299279595765
0.09045876167196806
-0.3238206204375082
0.03692085452135302
-0.3141534110114456
0.10219652757017997
-0.13645534342380303
-0.22350012507982886
0.28344666715511263
-0.19797288797069992
0.3273018961402716
0.07720848513161838
0.017417064525784554
-0.22125025129043008
-0.048595029084346576
0.10261864511402473
-0.27493761353615653
-0.030937868385105732
-0.17190543778013628
-0.06393310533501469
-0.18956662561239945
0.07871039229449453
0.16926187161613582
-0.31450756634805477
-0.3685037919077709
0.0803823733697536
0.12646586271375393
-0.004226074729422546
-0.07339751266875096
-0.12434473861601932
-0.17700508708921164
0.16785506482826487
0.40715068714073777
0.3392901235981236
0.2150453487170988
-0.0023512168529097087
-0.3340715893576212
-0.03881886135629085
0.2668987637174878
0.20650086975840717
-0.30082240312095493
-0.20403674670263855
0.12203467233784725
0.35164836761642815
0.3069522377906424
-0.16195547470485644
0.04256975658126344
-0.15942871449109214
0.3305912829242611
0.31265267418413295
-0.10826380877219054
-0.043888220196435436
0.027795890065796258
0.22614037203232334
0.33628176174227553
-0.059942470760630855
-0.5505655081681452
-0.7551172748576335
-0.2601490309701555
-0.0047972540670133635
-0.4413033367474535
-0.10755701921253899
-0.2041737267180804
-0.2583085199513932
-0.09937012564905325
0.48180177544504543
-9.546921337048307E-4
-0.06842790717459375
0.5036517490250066
0.28468380363794865
0.16071507250819433
0.6930315141160911
0.630794149560613
0.1506052860240156
0.07238286640741434
-0.058489975654359906
0.18029844939411777
0.5629384569218517
0.03234039553828851
0.2631974115734199
-0.4274945418593164
0.22152585393583374
0.1341390619131381
-0.39506903081949624
-0.2629868072171912
-0.036858274286629064
0.3971077594731308
0.13368295100355643
-0.3197172597710697
-0.11558427685211971
-0.006235603164792094
-0.09291248410543766
-0.06620433175427083
-0.1761360542207468
-0.307377643070606
0.306520252198048
-0.10282957766569051
-0.0531213217554293
-0.49497741969579084
0.014837810080235462
-0.06531385007631402
0.2622029019340672
0.027655645621644853
-0.49025703436215656
-0.18910579305417904
0.17377558719950167
0.48037237533703414
0.4732843117991882
-0.11332332656303297
-0.6736956628646902
0.3514008751432868
0.09452841703895497
0.026207104805753192
0.1573419350309031
-0.4620749953510573
0.23368817042482581
0.2203040272014882
0.16298015610373207
-0.4383747398008865
-0.5137375560848823
-0.060699037167318295
0.1847838879267322
0.030081304921873032
-0.18593589982811776
-0.19878108167096428
-0.14448156046064176
0.18599812943539434
-0.10217544478746085
-0.02536363068715499
0.09367907466378006
0.2850842720442046
0.36056070191718287
0.31906409017554743
0.4065861761512907
-0.051448574466594316
0.10921338662218309
0.3488091133747128
-0.0477052948074988
0.18569515640134857
0.09059675629099495
0.0968565334716314
-0.035429700425244764
-0.12988667463177878
0.37677729705054414
0.06747988023094728
0.03746925499129087
0.028649947620316165
0.005451285276357142
0.12133933610891713
0.1338908179437755
-0.2796334094866057
0.11413203180598765
-0.06908245598531888
-0.18769943007044912
0.34926419437613404
0.25075908038234734
0.26640159894004395
0.46268607125425515
0.4389653584010567
0.1869596788791612
0.3033288001623958
0.129620546119075
0.20936579839406957
0.0066197510064902355
-0.5037971648462226
0.282409820266904
0.08854991044110021
-0.4744291449887974
-0.683801631207559
-0.39342155600402257
-0.13751880128967697
-0.5554639906890885
-0.604991133495616
-0.14866685432323268
0.09696273008486299
-0.6065512343715415
-0.30047896725236417
0.01686690980305138
0.13734654529779822
0.36504112188756277
0.39658996492120063
0.4865762709033553
0.6162796629551437
0.507224817059766
0.6215718742865551
-0.6358960963424932
-0.04128478900484456
0.1826981294315307
0.47249697755668163
0.029875093569200078
-0.49477034225427896
-0.6635529385610138
-0.4845017675127231
-0.5330498281669213
-0.081743475614252
-0.26969344547696983
-0.7176958004448439
-0.6539068756543609
-0.5029166091640279
-0.41856141668549945
0.6974029349514309
0.11841415657251822
0.012426609218737747
-0.1014901204530762
-0.11856019398635674
0.05747243411338229
-0.11215619277579741
-0.03621151612890082
-0.2398617781563033
-0.0211004486115053
-0.4838985696487419
-0.06080144454423439
-0.11043456097665617
0.3214609428169416
0.10372360326318722
-0.032947863181137925
0.12325158392260283
0.19670432544564634
-0.12227907418354939
-0.15140163388273523
0.05415812935768501
0.5065359803907976
0.15971140006037982
0.012422854839312584
0.11420530741018961
0.30508877520020256
0.2649441052954058
-0.2644061630979921
0.41533214210724967
0.3648796620473406
-0.2239710404418671
-0.16480853421308578
0.12514636840002116
0.10758050728719411
0.16971880885229385
0.37251010261104606
0.3492738456484533
0.027534460908807977
0.22921557805550274
0.001453687785712521
0.01441211326052086
0.514361972584038
-0.4581506525674289
-0.23566729782949355
-0.20485818144995926
-0.26105114623974013
-0.13009079955574487
-0.15001944934584938
-0.39554608177364153
0.10647125368548398
0.09325423050627946
-0.0076807480399545955
0.35456580039157665
0.267357364484998
-0.1125879713043305
0.019658774214991938
-0.16572167532462587
0.1250571756056658
-0.12485182095690711
-0.15769680116383647
-0.21956542349276842
0.10326105788413009
-0.4081572987874719
-0.09216061214461929
-0.7018834740609835
-0.04135971928382378
-0.1669950065742043
-0.08259832530931947
-0.20747620164813335
-0.2394983748377067
0.1009073719949523
-0.3846092387443399
0.18303109759029274
0.12674452387940965
-0.03521970921004937
0.32523374659649507
-0.1261691319353827
-0.06722770129899451
-0.2919012831186826
-0.3150921196158583
0.07669491305377883
-0.34639252169084733
-0.08463645085279374
-0.4968765779739671
-0.42993706116998853
-0.14759607544237865
0.3461235101388498
0.13020566708974607
-0.167748986824562
-0.6497690970730956
0.11004220832009794
0.23893225016694092
0.2060026138745479
0.24047700690539242
-0.06587305355937391
-0.311167668050639
-0.15734461313482911
0.2176661230402278
0.264139632598533
-0.18389404531920292
-0.18169365619946212
0.17828405632964825
0.44169891564287933
0.11870606341997086
0.10021309070835874
0.007706531378173634
-0.12969360840074026
-0.1780209362971644
-0.3639638257746333
-0.013323637895911827
-0.34164145461729833
-0.14631624971339707
-0.12476937007467638
0.058890003785541045
-0.0010570362959898452
-0.12410428179287361
0.022977432873428717
-0.02654629160587522
-0.0812718299288153
0.5756794141150254
-0.4289314786635991
-0.1947841918723849
-0.5833460795290931
-0.0233849808045531
0.8308871351867486
-0.2832016943226148
-0.17051094145135687
-0.3806586362748351
0.2594451155184193
0.3572396323321904
-0.0970189043180264
-0.06694153333458426
-0.12540171188683658
-0.028021525303952473
0.012752136879786925
-0.3356178797389132
-0.0691621734192135
-0.28245858342565255
0.15822849617050125
0.22759475242590763
-0.16336577525764234
-0.058748796422693095
-0.027802817013462208
-0.35070752885765183
0.3613688842546928
-0.021312371542581875
4.945725526012573E-4
0.11028714109256874
-0.004162634544015302
-0.03023232840160852
0.0027325349086626954
-0.06382151333022924
0.3780759039693968
-0.0014502969222824431
0.09867877242129236
-0.15790769268780364
-0.07470582042703389
0.12441519362068887
-0.1115429640397757
-0.14479684630822848
-0.28391307075751815
0.17183515854418951
0.10928504812479467
-0.08953013918162253
0.15439039639705
-0.15975358602398732
0.6202772576088807
-0.03016052398264571
0.09802994081434864
0.4962912889670493
0.006846953513150772
-0.190299099626067
0.23422813682688598
-0.4856973786685226
-0.1964312457816747
0.12229268924908264
0.036207921630327676
0.31634723682041904
-0.19880267876030222
-0.1480430436692537
-0.09226808692858737
0.16661558790510925
-0.12063663299524374
-0.012470425825994409
-0.5624596652207267
0.48535377008078107
0.10987621332641861
-0.16496229349665437
0.0651858723926329
0.014877718997050725
0.27880487635132795
0.3368662641184402
0.09065674996727151
0.04207407346199886
0.18861303497004536
-0.08161101642928521
-0.16649152900114814
-0.3938269157135628
0.3428431347507741
-0.012903848728846482
0.02995003834008707
-0.47473620080536777
-0.17556467966853828
0.630190187103573
0.046107125582689916
-0.09851700451133752
-0.1566004544371255
0.07552733347731433
0.09251016076024647
0.12027658752894121
0.25205386163174165
0.24878179590614324
0.2464307792223901
0.28867856155162386
0.13071794070534867
-0.15212262001467175
-0.1346485081412678
-0.2017330798994708
-0.007955574965621577
0.4384281104424644
0.268828857171096
-0.196869372001216
-0.05926510580164726
-0.1614040149624794
-0.3651400564830999
0.07684390768659322
-0.14519956811320264
-0.07109141899017998
0.3225716914118433
0.06339442213263974
0.3195013843275541
0.23875931363877376
-0.21707846201576908
-0.041931973296195635
-0.39741369865177933
0.2788414052050101
-0.30766147469846317
-0.21965913435716988
-0.1634500623761912
0.00925459629722447
0.21485709578685777
0.032094123082691564
-0.33356570599990343
-0.07158903404730288
0.13030686472567174
-0.20489852856977736
0.29832404478559327
-0.057176272776593796
0.20155005573733376
-0.013497128451582586
0.06895199542533736
0.04283697253326321
0.15733845621066236
0.2554657772134322
-0.031655204034509825
-0.060204058800981175
0.6274300458350436
0.08633345346961821
-0.11581405366899516
0.026338171271362468
0.1123199249613458
-0.16923490877602818
-0.0011367698984118015
0.1738173299765888
-0.0019208557895550407
0.013732259370263497
-0.1318846557134189
0.3640372405581195
-0.01136323783792699
-0.1630968311631984
0.1346311992678719
2.091580062890263E-4
-0.12057180103007746
0.31687383682156234
0.04205205062736774
-0.24507555203666073
-0.1528234883890507
-0.06558272429233501
0.2990149204972093
0.08141618574274848
-0.10502889211829923
0.5962108478483784
-0.11990239921487625
-0.2081210418283509
-0.06246856372562103
0.17279543729349953
-0.23899257433192808
0.1695397536985861
-0.1956391293766722
-0.24551137543386484
0.4007698215892583
0.544373312085415
-0.03182082693206147
0.4261614109971921
0.15077499378538475
-0.022712960120022885
-0.23072876495594685
-0.16688791130977165
0.04297810810572451
0.0981564260785649
0.20215347428881741
0.02127868045905875
-0.19719187901737922
-0.1536404289649757
-0.002808616579856816
-0.01645208216505885
0.052369579326533015
0.09340641470447807
0.4905255563510984
0.14529058996170616
-0.12440235449462456
0.11534496701604871
-0.12987424747565
0.10883669251142858
-0.45627142604881615
-0.3127799403728559
-0.05065060494129339
-0.35560407012411316
-0.3221085803794953
0.2916246440654166
0.049768431243100486
0.35841484691729103
0.18764867321714107
-0.7330204715365631
-0.06849502238853677
-0.1426157174745524
-0.2911091506555866
0.08415082619265839
0.2287819633315349
0.08518960937280318
-0.4377583435589781
0.37088629679362234
0.027030397038906175
-0.020404644045426523
-0.06161078068127434
-0.5089016193230539
-0.19731620587815832
0.02495907284599106
-0.006328495799680283
0.04326325149913602
0.07372659440510552
-0.020282482849074225
-0.06774065831769198
0.162608631488041
0.04424695145993013
0.16091109086051322
-0.1726686526338461
0.05456659741109298
-0.030616827513557043
-0.09017923773380127
-0.15014591033447308
-0.3787567924349949
-0.2639709453405736
-0.13142266698469737
0.01067958645362263
-0.34045047997642647
0.08007603556179098
0.01887934007604574
0.16646302251956455
0.12354607394324607
0.24460352996583656
-0.04486691353629891
0.06460816927772488
0.36014374238454006
0.15084248411376344
-0.28150335656119346
0.13263141166254724
-0.04449506197758906
-0.10902807635353928
-0.09832106263450004
-0.21866338124522733
0.02586337125388769
-0.04582203417768522
-0.04919478257581491
-0.05541234917852487
0.09534459214512099
0.48491661428286853
-0.026196244477318498
-0.13964538889115208
0.22222545451509151
-0.0836906105525488
0.14056025480254666
-0.01557412650288308
-0.1576381670072011
0.1653962833552397
-0.003243678080942234
-0.020056820622056663
-0.09874499440740687
-0.2078383872300357
0.20834625670474108
0.24603827945028525
-0.23126434966222306
-0.28973641105118325
-0.17253820775229492
-0.049718297043607945
0.04032958728293144
0.3158475053757951
0.6619482392999455
0.03621943663155264
-0.10368730428775992
-0.42431063470782066
0.2540714975108503
-0.04641331759329479
-0.18664290866111743
-0.006739571908137284
0.4616172985102114
-0.09649802774720971
0.08259145469346041
-0.054102658874058275
0.43957794241199644
-0.11873467646273582
-0.06499968139039186
0.027699778859424564
0.07972859706381023
-0.13913242797451736
0.09332916907419653
-0.03263643527764437
0.0653170952918832
-0.3401425266754037
0.11804892249366267
-0.023148273333606875
-0.08721656941568268
-0.39602824357003336
-0.04969495108323615
-0.0033133059323410584
0.21068369147974392
0.16096721327887428
-0.38065629888309604
-0.10842469498573887
-0.09857180324192732
0.20671613925066723
0.08271131775561336
-0.15434981794495056
-0.060396112299741324
-0.1171307479876578
0.22992317343961988
0.18206811325085834
0.019607800965041285
-0.13281682089456368
0.2068781338210558
0.04687977979671979
0.050825336977886916
0.24324367307720612
-0.08954991412879001
0.16899662093022885
-0.3099624190637947
-0.08986267783767854
-0.16777192977035973
0.0784512388525844
0.17461420727046742
-0.21481114891558178
-0.09676180690132717
0.3457373730539593
0.13729441162505715
-0.22558053239530437
-0.1662682316197623
-0.39983581322991435
0.05025408575893003
-0.1710112153436658
-0.30608371885637664
-0.43342437170961595
0.28804191237537724
0.227510657184038
0.29025465494789476
-0.0913055235194436
0.24638819705119294
0.2371427003229672
-0.004828383869538655
-0.049774365447860985
-0.1367049105360224
-0.056734773298374376
0.11829532481188304
-0.10636764339999145
0.1372731962408736
0.41234128749949034
-0.3522912165364063
0.1595709859544386
0.1244258829527265
-0.09627905676123528
0.020153542743646596
0.10114735550487133
-0.09791015486808702
0.00552155599365629
0.0528013656293075
0.051024562483793334
0.11216762873454358
-0.0849741886029719
0.3641915340760029
0.40265813203820366
-0.31556785645517954
-0.19589290633515333
-0.0742910071052727
0.08623820660842255
-0.3648244153092141
-0.23555294163376367
0.0612796823396064
-0.1982264452174566
0.0688012963730767
0.14394900096648508
-0.22847691961579053
-0.15882442806333172
0.01208259165263979
-0.2044698799387566
0.19259168810293306
-0.12636040434656856
-0.3105751669830192
0.10911319202520585
-0.018354316991210682
0.30009260479040223
0.4806865526958727
-0.19742553089239495
0.15657543343496455
-0.04115791050777729
0.14074488266234939
-0.11386303532964484
-0.21719578882579596
0.04475465893016156
-0.10113475173883309
-0.068557572272292
0.39262210491087063
0.32037482170714204
-0.2471396266299573
0.17777854284333544
0.007038150119333376
0.3433744437008949
-0.03821088173876905
-0.0500933108661574
0.16203025022104614
0.03830528322586357
-0.0581261099735533
0.18206025856465788
5.238557037159274E-4
-0.23622644102130846
0.10258303986376394
-0.4693507025691995
-0.27211250088288436
0.09538893763082734
0.20684196324046922
-0.042957682515690675
-0.22515388265219755
0.023940229375294206
0.06672626426795952
0.24105814331400588
0.16753911366544771
0.1812412884774217
-0.0815736197484795
-0.2972062827609814
-0.28126390919636796
0.3170080487950993
-0.012658421538983979
0.10786057336028093
0.02990592436523742
0.034047571343986616
-0.26051355881243105
0.09188264898328603
-0.11011813609446103
0.13745544433586457
-0.20765003719207523
-0.09890772301528057
-0.030478574130268006
0.21381352073187607
0.34219989005286094
-0.0665296406184819
0.06436252426558166
-0.11323846792225019
-0.10276318483343422
-0.4216518390551682
0.08423311422162805
0.24820590907354734
0.22439307198964872
0.003367037188256958
0.532000468566105
0.14188759654272898
0.11386993937245593
-0.05968737603310884
-0.11369095870220745
-0.08278289543756404
-0.07070121838224022
0.12429211215889845
-0.2672816034411389
0.008663550818032162
-0.1559563858114192
-0.17567216519493498
0.39690008696039747
0.08142696336939001
-0.1972179170317203
0.20988761936468767
0.23763139143570122
0.10132074308713385
-0.17800131367160976
-0.2855547341606161
-0.015278855790904246
-0.1553119577416791
0.2030666769405854
-0.09587339607722739
0.028685137289799024
0.21742003832853862
0.35589273300115737
0.21744778567239986
0.3389094788335834
0.23201651844176663
-0.11775214754261576
0.26700866988170135
-0.0933761708119692
0.07657015945853202
-0.07846541220726475
-0.11498697688177095
0.01248334188778182
0.03557817585813365
0.12230112202985868
0.12966104352812632
0.2427960910373028
-0.11328212299337384
-0.10906731916399715
-0.036769652378318446
0.16623499858533064
0.1287711490451458
0.018711417685720665
0.18937096294566383
0.28616858917227034
-0.1299244126025534
0.07625597897579335
-0.052893018355843494
-0.4324610319661842
-0.19499738100886688
0.20890769162919748
0.09334935936022831
-0.30690985142278926
0.016969176548196352
-0.21481194156042213
0.2395539353630659
-0.09023239490125784
-0.1504466258053323
-0.027245547946102257
-0.3525018561947735
-0.09601579889722336
0.2698438809118691
0.03800025545671973
-0.20697420632857322
-0.07078945400310903
0.2560356539007245
0.25791286028789967
0.07295942796806333
0.252988893239646
-0.054286503976924166
-0.022255802822915866
-0.15864004996222691
0.10321200070290944
0.006606788431538897
0.07700530933258996
0.24142643598246205
0.10393908629197138
-0.13222992895541255
-0.13473848292402538
0.24300986872889824
-0.4482306662540754
0.10383215502124864
-0.061914377866215245
0.040991845332441434
0.2154107027007801
0.3086239207535151
-0.10586623786304031
0.08372701823009752
-0.15994568595009967
-0.07364632773023484
0.09909664416974294
-0.3269987070383488
-0.24555706619976236
-0.15513044385010066
-0.04727654033808035
-0.13209660263132697
-0.10943844405917869
-0.29959351431178544
-0.14513267882604647
0.31241613014635916
-0.003208109774687421
0.2023908991305591
-0.1817023107659249
0.06798627645724419
-0.2127082531783573
0.05031156599191562
-0.18214293001189158
-0.2604463843638133
0.05644654870763131
-0.28530033997283083
-0.12443215462214406
-0.2778120192420544
-0.2526018435675482
0.19290523810137716
0.09870605579275704
0.08959831726106839
0.09925445708218851
0.2771810030769754
-0.2760248810531724
-0.07342836661407505
0.004334421280843872
-0.0729666411148781
0.11195705106375374
-0.04196959786701075
0.042404586876638534
-0.3742806535005947
0.16284831291340346
-0.22850312216092283
0.10822101826053852
-0.08580560157033207
-0.05760168900943239
0.037646045899522494
-0.07797629895061166
0.007338062872092531
-0.10722071040908313
0.03652072894278808
-0.1296224445670575
0.11229511466568382
0.06927087959693046
0.12764590947544496
-0.25631032836032225
0.28005461674154836
0.1548620658629688
0.28187790324265544
0.132271445593001
0.043769747567482906
-0.08984281366523156
-0.1517590863757875
-0.04501152169656291
0.00672192745892134
-0.07605392336340472
-0.05232391537383927
-0.029751879853843578
0.17660800638382557
0.1951695717504369
-0.2993570485347281
-0.25949070102764527
-0.326044984670112
0.09660580377164629
0.27358691736624946
-0.057290310228984814
-0.2609972566000187
-0.028747597901503254
-0.15293981622422595
-0.11996083223396448
0.09707922610290448
0.18492770581778628
-0.0926026625439581
0.043334733190314306
0.07947355999402925
-0.21311657247034144
0.1886679617715788
0.2311454209922953
0.2380740595148646
0.06525501694392398
-0.3024650836262427
-0.03524662123001138
0.18219701949514794
0.3702684954583344
0.037425829717246124
0.14033045967751434
0.0250394925595687
-0.04136993369735349
-0.30666262063572935
0.2134610114324667
0.3280485600244375
-0.23679844109015594
0.04272294764651918
-0.10142235520793393
-0.09727525353719846
-0.07436179745528536
-0.009475956160551262
0.279953003816057
-0.01737169397212015
0.12966051523697347
0.19512010452940676
0.1360016934824546
-0.01026221543911234
0.018386017899675665
0.20055087164205623
-0.20263367284551978
0.008149385993690042
-0.14342182867860098
-0.07997089678628388
-0.2703246669686044
-0.18086551425511468
-0.13698416305908992
-0.35427494671969617
-0.14941163792520193
0.3037524072932727
-0.11045543410400638
-0.13808147718291264
0.029539447992924378
-0.08969869232012039
0.0998656369122064
0.2358027923930826
-0.17687281351097148
-0.07570236899507965
0.06212782271350205
0.19222578926811018
-0.08035697454308528
-0.14930614575584628
0.4764742403299965
0.11418856823795338
-0.269011189197785
-0.1436364139351409
0.13005233072166789
-0.13226112832260634
-0.13327245951267047
-0.2208559473594384
0.3064940748639072
0.08213649614124871
-0.01250558823720962
0.21543003511852823
0.20165559969437516
-0.4158913689557513
-0.3829723470266254
0.14262080084962356
-0.2354464164785658
-0.3242948344670466
0.1572530346471202
0.07654900286990579
-0.07731190177089482
0.12276424208746287
-0.1974068248436217
-0.11509205656166595
-0.2509437166965252
0.5631446656825014
0.06210020837349059
-0.20349316869636516
0.029772760190997852
-0.2615055871861454
-0.6458598800110857
0.04851608319557072
-0.02039102179947222
0.07684861815332396
-0.03731347777866466
0.14443008644164737
0.24978241012829258
-0.4296554458191795
-0.13512578541663206
-0.3453521748227561
0.3461458497347252
0.15546416622208173
0.08947040297103488
-0.29196806391181906
0.1269623613691294
0.1449877088626094
0.5146166674832563
0.04210626921264679
0.1683768982782604
-0.11066452021841389
-0.05490560837181196
-0.14717914305641433
-0.16395284383677902
0.09447372075097955
-3.9103471053690623E-4
-0.05316588440200918
-0.10711234032412274
-0.2635882791829319
0.10231822955491938
-0.16812842754312673
-0.026170317560357828
-0.07495065200013745
0.07472508807282384
0.03233726240613343
-0.011368881104059834
-0.14462504467226298
0.030287120047103877
0.15593758908576294
0.03241468064408205
0.1203188181936123
0.06393025491206214
0.1138077990486969
-0.26270463295336927
-0.13641464172313297
0.2638239823673709
0.05056119054977485
0.03009870965505189
0.27003140354099664
0.04721288687276751
-0.014557759369041962
-0.22290298335576597
0.005489956303367861
-0.2533274988693151
-0.5295054094992676
-0.14606476268396437
0.08528580086285928
-0.15547848841590398
-0.41834105230108903
0.07587993199464112
0.13413622675957262
-0.07637517875228683
-0.06644185209845434
-0.11753006882203157
-0.24481909866213744
0.17491852904995853
0.3642289139141179
0.08613256168651152
-0.2739138577020511
-0.15321275223655845
0.01263219497782703
-0.1624155809635696
-0.7434034480405254
-0.067482924823542
-0.17993503886413145
0.1303556077454283
-0.16899440613858105
-0.22561102757223972
0.064707341272413
-0.046816385367040816
-0.32674604323446566
0.015989166861999946
-0.08362506953962989
-0.16164951427369365
-0.18553891755661725
-0.2491380661125062
0.25201366241276507
-0.09720964088103769
-0.2028012563407549
-0.1171841228827534
0.039839468908501464
0.20198939041181632
-0.06009052261178643
0.17959526976460224
0.1799284294111642
0.035353719891290346
0.23654656264557292
0.42764164847859276
0.09936061344292334
-0.06553771677451307
-0.2517413289368095
0.08204347822853954
-0.14498197654046288
-0.46285073321510384
-0.40267051235089496
-0.19527401146276535
-0.18017942114412605
0.06145831033817237
0.05531164993384429
0.11269091277022501
0.22880358855428892
0.0016885044824366047
0.34756002255330953
-0.048989368105690614
-0.10406404767841192
-0.02928633102032195
-0.058381970679097256
-0.10137971094085188
0.16378456331489766
0.05043924252506343
0.18446713529319783
-0.19368885437091124
0.11916444186219816
-0.33588121009613836
-0.2969073094208387
0.16344937904161225
0.2540210416637306
-0.3797827430435004
-0.16948638098307275
-0.3631977334851176
0.11907787813292246
-0.12907979048871718
0.3551043225153563
0.1089092768316877
0.014293496591679956
0.04903150854938842
0.09718953131036127
0.20591086654813118
-0.23531249093258025
0.063948048633345
0.22176774556633996
-0.21135131514425562
0.31651449241283447
-0.2905301538419628
0.32663594566632453
-0.19259316733331586
0.05685439675979181
0.25204942052434576
-0.11768062598666824
-0.2235701937822397
0.03668881297734544
-0.14251191228013377
-0.20460257532609705
-0.012263369147484599
-0.4158855630587332
0.09030254696225816
0.16289185485461566
-0.028379263866809543
0.038772760070695717
0.2884869508577871
0.07944475447111905
-0.2591258626518032
0.20921325585031383
0.11356387441410186
0.30181469943093275
0.056139877803012765
-0.10699361904434368
-0.03524255271974776
-0.040051264095325244
-0.14039147812475236
-0.14069187979730946
-0.055729868666638926
-0.2818744473238095
0.1242804816742313
0.0762848653916744
-0.039412014490808944
-0.1623163768026374
-0.16715790252213966
0.1241140418221751
0.040487638496625185
-0.08448802701502782
0.021132741201726965
-0.32924261803034566
0.19890035520709284
0.03865452343686579
-0.03991844249022597
-0.12050367078886925
-0.2828101444530212
0.09385048268464241
-0.16301998051574168
0.2375703408103348
0.040338444897708076
0.016709853357336206
-0.049407073658444586
0.23543397131631455
-0.13167506313853983
-0.07167441057066658
0.07443945569098137
-0.018378901239414904
-0.25518692960787814
0.015313134862843837
-0.16415734665542608
0.14690839198165925
0.1613812071497202
-0.06506671418779003
-0.18302143395484316
0.014036413820215244
-0.1253928620222143
-0.08307145981365341
0.08557849701966189
0.030062561077578882
0.05823278159790112
0.08536051078738835
0.12077941246186255
0.001343789584170543
-0.04306290931553409
-0.031200890627267136
0.027621104540576088
0.006050690493740005
0.041373350030316676
-0.2050522773775003
0.0842267096293241
0.12060427346823999
0.0362281230773405
-0.24426637574717552
-0.11791451003126288
0.20552619204970723
-0.42586583799007993
-0.23631862840809156
0.28801435921270135
0.1472206415736258
-0.24923874689093806
-0.10825179288895143
-0.5833681060467998
-0.21715413291934166
0.25933906075209334
0.2400458985296201
0.01674813575647876
-0.0021932814862612145
-0.10868311607610709
0.1553265279844304
0.02839648199094294
0.09173032336631837
-0.021941330850625045
0.1584593942966605
0.10114822613852364
0.19382110812398345
0.34518309241855744
0.5479742414065426
0.2004688309314695
-0.16793449357496182
-0.0039623597965636
-0.4775730499005456
-0.09503033864993016
-0.08956089586593384
0.18959231363119228
-0.07910226485989807
0.22933826175640204
0.07311291338639507
-0.17239728486319084
-0.2663319605193435
0.10118518776285851
-0.23983870379392297
-0.16063036614575021
-0.4228234297630582
0.30707949465890994
0.004362518643620634
0.13411855045188195
-0.028296703755668402
0.13453619342346637
0.034688837317705924
-0.06212653821119299
0.2662713028137197
0.1547903247553355
0.11648071574239278
-0.3664537549691358
0.22524076967314366
-0.19503621278702743
-0.221914962802863
0.02813204502888972
-0.17241513146091933
-0.028962503819342685
0.30528824925679743
0.39628252816920095
0.19177054900547308
0.03081433723424043
0.3631581126290726
-0.1199339137757657
-0.2926535149599413
0.271827885218964
0.14096759179463442
0.42396246276315996
-0.09876796698057197
0.17856270840975375
0.21125182459393993
0.09138259679905693
-0.16136148849617862
0.07780441110256008
-0.19143320901475833
-0.12305874668540501
0.031678717953397384
-0.37875601989651336
-0.038394162079626176
-0.16849640092398827
0.12132347483218474
0.5660408201625948
0.05223133012150342
-0.21412342814293717
0.1542082832303301
-0.285258685704034
-0.09921987384826836
0.12576000212860824
0.07485049968687933
-0.28629384540844954
0.22150546564221668
0.02648161788258076
-0.452569605257239
0.051187712254119215
-0.1206416512977834
0.18219918199723872
-0.008459309166414053
-0.1253808116910307
-0.0826257448324497
0.24734621054677575
0.012524312992770171
0.1532089008420176
-0.13412516158582644
-0.04231475759680914
0.19341725090047307
0.15861618681133868
0.07910291453510933
-0.1214732079042678
-0.04531499836896427
0.1864251814758627
0.283173549055265
-0.05712221935360532
-0.38181713753790475
0.007789062570214058
0.03833246525987927
0.08077019460132862
0.14044962993914603
0.21955330032932838
0.012105351049870528
-0.38283258337910847
0.16995908332086387
0.25794650370019606
-0.02330965237795127
0.17540593032817423
-0.15155900346973455
-0.24274079416479993
0.3284411133734027
0.01569969276541564
0.13320803501373824
-0.15247415146860963
0.008018874661947653
-0.0752971926747434
0.3430367285043133
-0.010467429132100966
-0.2561742309449605
-0.28596677399153075
0.12251631644940345
-0.2738137386607996
0.11597188228981181
0.18559921954272224
-0.12126713126343124
-0.11079360512753883
-0.07099192510992197
-0.034781968882353395
-0.0647850583399935
-0.04336921619421155
-0.0027204529902747493
-0.3482574308800781
-0.243069143167144
0.1959188832444311
-0.1579661381324394
0.15749431039450829
0.22611519835728272
0.13487478957004204
-0.2739468679301857
-0.333793632813087
0.05836069557042825
0.2993974780202948
0.3978917623261559
-0.0823616631389198
-0.22693397666363513
-0.3350149988296052
0.17917098545034352
0.2839697802989271
-0.0798352600355805
0.07589063599857071
-0.03131933373379696
-0.04595876189670033
-0.08631662390415198
0.12710824955878886
0.03868210589081772
-0.28945605824184134
-0.11707728837169128
-0.4249696298818602
0.004476433781159652
-0.017777425374962227
0.11995833740366924
0.08397347489901134
0.33222044359327196
-0.35170497960314945
-0.11156584572366593
0.1068963821465105
-0.015923359885172232
-0.38831326586668674
0.10289429926701821
0.24970835142260142
-0.07648345125861447
-0.4949568676687882
-0.11272381796418274
-0.12723014384947273
-0.32814168659567367
-0.08622796329259656
-0.12350253800079353
-0.3786433756508443
0.016803989956590156
-0.18185802753415609
-0.34647319898462525
-0.18314541593144096
-0.1630335585305389
0.16026501619168193
-0.017399534880613778
0.02167816372304096
0.054236394940981994
-0.14285910063668772
0.2056270374407411
0.08284981653576264
0.027089940128908536
0.07333989617492262
0.2520057357386755
-0.10914500142254067
-0.08520141305686334
-0.2955795066634025
-0.19148900583619127
0.17262499007173926
-0.06723751771342137
0.011156107826372358
-0.22767739411719493
0.09074242611402233
-0.2583650730567499
0.38898627539744807
-0.1441666484018653
0.2150100795201035
0.2154372861448995
0.1682734091565643
-0.028272049478647206
0.018784911460343483
0.2940226405962873
0.3970328777340089
-0.37865391040723506
-0.03369530145666571
-0.28421876585751854
-0.12548340857941412
-0.3057103040966445
0.009559476581790367
0.09863611104962487
-0.0874936031149365
-0.09867331734365964
0.03560533754723913
0.3651932460485777
0.02066211846614785
-0.3036409108214552
-0.07481917671258068
0.29565051093133615
0.04621973096226934
0.049728778741257536
-0.07686471238442848
0.08879943999291001
-0.35424031124799804
-0.013702835272620867
0.23468048720401624
-0.34571444839179394
0.0830175498525396
-0.051543901987926036
0.053064278467642195
0.028171307089505646
-0.2776809959974112
0.011267398372540198
-0.015665192994843844
-0.1379490171928333
0.2872898821482765
0.11855857375574137
0.11915239086886523
0.02253172272751385
0.16379428555027675
-0.28247090494072896
-0.38885246338935864
-0.07920506039162238
-0.23773061018417907
-0.09919401394014585
-0.10075339272446367
0.15159831491330164
-0.11234093625073607
0.012206833873071383
0.26487303082647545
0.16137088472096905
-0.31077212873360877
-0.22031894001749808
0.0307042373474998
0.21485345658545368
-0.13112078602021046
-0.11437841779328767
0.06659312397602046
0.10370906056111864
0.05259953843683987
-0.28610283201741993
0.5128513505681406
0.3362331524063227
-0.008134268487960231
0.06729584969356524
0.0662984318532796
0.22851521207181122
0.13561066806663935
0.09767044734688701
-0.11463178429509285
-0.11990143318257329
0.13847209273061242
0.15603952236522886
0.13260975423863153
-0.4300362186367461
0.03217191263424059
0.25869149774974814
0.18386283391339509
-0.04915950502666416
-0.144240478532324
-0.05080041170539541
0.13453882389744964
-0.09362529657798811
0.06815738236505613
0.027562917570715263
0.15467091089540191
-0.14324179263668504
0.2762031533543729
0.12071833068657596
0.0028056008577504875
-0.15166699146644394
0.057065835319214775
-0.20382866193276306
0.05643768406955163
-0.03473484495161228
-0.15171751070249984
-0.0529684360524664
0.18991628569979388
0.21946769005631073
0.06788734656640234
0.08683509749314408
0.01607348060065254
-0.45145650338901566
0.07704051480134032
0.037066570462795816
0.118611660722612
-0.06875070869959303
0.39838348890339537
-0.19287641401716749
-0.03747280307576731
0.19013699461445366
-0.01179115978534899
-0.23053404060926988
-0.19550148695058475
0.529340977815055
0.19797565896417987
-0.046592676271764555
0.11420274630784971
0.20773103594532702
0.08496495148387165
0.18524285937423013
0.24689927979435522
-0.14711686071023952
-0.1541637110053921
-0.09308918117357716
0.22900895944738844
-0.187398434326769
-0.10942159069190999
-0.09038580908961252
0.057516969674736074
-0.5370660989805308
0.3927265891032946
-0.19447672500649552
0.20407979890419534
0.11225359094570625
0.20347588334960767
-0.1943159147374294
0.21965700178860367
0.025751952966791836
-0.1756918698112302
0.36358018982050505
-0.056304899723896
-0.01042269589351124
0.2140906884358833
0.012312627240491949
0.09369291927830152
-0.10461813528881177
0.12875222528644967
9.00424331741877E-4
0.13436920431815877
-0.3460641429622753
0.17958499486184837
-0.09422053854263779
-0.013225902005977012
-0.06180667802061323
0.07514951530119218
-0.21096822715488217
-0.2739933812041354
0.5067703935616876
-0.529914738267384
0.27781452168989323
0.2761417834000444
0.040991976080953514
0.20974080459701586
0.10731986953398596
0.2502462888388847
-0.24514100077714232
0.138217926303125
-0.15377359621338904
-0.21838081652256727
0.3195419864959186
0.25954081221553366
-0.19173282446805984
0.05826378558741773
0.07799803957442278
-0.09405217258022447
0.20457764170182124
0.06922729392640674
-0.1733137191430528
0.11510372722575946
0.1962499675184571
-0.012119229063240814
0.13820715114284962
0.09888545194802481
-0.040974867744391893
-0.38211191516577064
-0.27657070109138454
-0.1607472947811484
-0.08964693306978606
0.014700621682244057
0.0879401874866722
0.006953606197421307
0.008080118246197242
-0.0049255182393211985
0.12172150460066396
0.3105959111136538
0.3929139572835984
0.38734287605101564
-0.059569472963523586
-0.03781817425716405
-0.2346224556606961
-0.309139790894115
0.03786963596216991
-0.04590304193045652
0.03014742312156541
0.4809933647487655
0.2093441860200637
-0.3897827094435542
-0.2778888195153002
0.015390972277689347
0.15142133916825407
-0.15205952544917345
-0.08095658752517174
0.021947556458037153
0.1377025377756135
-0.37257350676288875
-0.22761895287950754
0.1292865921361221
-0.08813847163291233
0.19965074001797706
-0.103102800761258
0.2817902597368972
-0.19761913766816183
-0.17214373771800118
0.07973486836238097
0.2954612318125173
-0.09763888591235295
-0.332896365312803
0.46603685501675884
-0.3390488834561576
-0.07368485269789003
-0.21356611866540096
0.12205869100141016
-0.10317458298248333
-0.17780892620751668
0.34197588082183317
0.18513806772944957
-0.29428820412301315
-0.07921651617157109
0.05570190752844833
-0.16845418461976858
0.02733406620830532
0.2357776952913774
-0.265774402201677
0.25247155503595425
0.07260778412294165
0.015505437022144056
-0.13265553020011875
-0.44498048057825246
0.022172999613386857
-0.13208093291615347
-0.11843655592326108
0.3465317802634028
-0.05617745637190813
0.011004052803560663
-0.48903432626529125
0.43069780095796956
0.04474242271461479
-0.15510489418034756
-0.3650314546035818
0.2537078536652854
0.11933845084851545
0.09060649690239429
0.1640575516039912
0.10589022133135198
-0.18228726412996063
0.13370440275795212
0.21563128554122996
-0.19221392498209555
-0.01265815931633029
0.5041687532325204
-0.17645216114973336
-0.3244210288376649
0.14954630847902378
0.1453162916981243
0.0037377529517610125
-0.22217535388586082
0.2988285744138177
0.34729305185502046
0.020501558124350658
-0.12225565000077382
-0.021618071932875835
-0.016317061345169605
-0.09405798457234062
0.12906254257587005
0.004177560666521501
0.035837731094591374
-0.08066264440573795
0.025645951830089782
0.13135817912532696
-0.0029957269546312753
-0.31987701437081834
-0.2887831286949491
-0.221019134611152
0.06253471138795835
-0.12647136270466822
-0.0791993395619977
0.17212160126960854
0.03439708694749862
0.0588085880920746
0.17615196363762642
-0.3516776275901409
-0.05400582303227641
0.12858412233763117
0.2169543435180374
0.038433630497752225
-0.10606689570336716
0.13777349377093762
-0.10960078860205741
-0.08799971617010072
-0.16639436487346704
0.09665484352507958
-0.05442434450790695
-0.3312100582549968
-0.29046337403744976
0.18467786274362558
-0.10676815065827781
-0.42499790869058035
0.18159786532641492
-0.12315259163325659
-0.16667692088848468
0.15490729188659816
-0.047665798173075806
0.06556525964341389
-0.1779623297669235
-0.20469231120530976
-0.2825434543840805
-0.16485916067768683
0.05213205735827471
0.1068210000659665
-0.021358459287958736
-0.2559906564035998
0.19171305460149468
0.18003203173373275
-0.37123237331250947
-0.2131880639799981
-0.035964174452176124
-0.09057307178274179
0.09397024556862593
-0.13124135206101717
0.09394673915890404
-0.06572645384787984
0.06646295662990923
0.06243515954825901
-0.18490632434996568
0.2858776607337996
0.025217746900513805
0.21311360622615882
0.03513257529055422
-0.0687532650511705
0.026274271140251878
-0.3515479679898248
-0.08167269941474803
0.2037878177572878
-0.2215267195114457
0.006826968633181509
0.4015812180072549
-0.3207290140228397
-0.2106882960360056
-0.08200151924232522
-0.27384704441652236
-0.313710563362579
-0.11740739463611068
-0.23248939967834326
0.04337528000688805
0.11705856371708873
0.029269606242318055
0.08319372259086855
0.21300538319275747
-0.21662022200767062
0.557289151985395
-0.07479010417818562
0.05560114589031855
-0.10320873406840175
0.016646481360195083
-0.16373188533289837
-0.1905407730699622
0.17878950065344626
0.05207251654489919
0.26472617090003053
-0.019438508062116885
-0.3591837861220901
-0.052396069157123304
-0.0863216261533589
-0.10183829835697074
-0.4096721433122942
-0.32660598911184574
0.02966474742047115
0.4209822439486546
-0.015077216381059863
0.3487257734636555
0.0386842244516168
0.2566175526726383
0.09204618722711029
-0.061693113672765414
-0.21670139019274967
-0.14509856363464532
0.1570222289017387
0.0489898671480111
0.07993452008434522
-0.22547473968616824
-0.07213744062269162
0.08669392822144277
-0.37566450851648253
-0.1511984280473729
-0.24103646357140462
0.06981681865484017
0.529598911559285
0.17314230913381354
0.04384693892331908
0.04481289452620624
0.009600041981991067
-0.13210685803209304
-0.11805070476600432
0.15748856549666324
0.05369316593224425
0.34936785012991317
0.08229871947021747
-0.058311168914653835
0.182644062986009
-0.2441752634298287
0.37787779844745156
-0.15068324300622662
0.23714629621524586
0.019498626386665524
-0.05221469865287879
0.37908928221756377
-0.0037747087576354144
-0.05146976783736806
-0.25605151563416423
-0.1807103599480798
0.04105712867520852
-0.010913505240751638
0.054804493632460774
-0.13036270129714253
-0.18641134446288762
0.36554111877460493
0.07046208326249247
-0.007658977113988533
-0.06519581019431676
-0.22377274724249363
-0.04530166340994952
-0.010594681127471368
0.2756112484941667
-0.349797276218877
-0.017801565038939843
-0.11937098962214283
0.08037902428245694
0.22095721349359132
0.31764218937767225
-0.15971249059771403
-0.24430278587855192
0.2245117243706128
0.5034220173884196
0.18227664013323802
-0.29173734382254035
-0.22311874124589962
-0.001761724195137536
-0.05819116802072094
0.24720527280703403
0.043820474308943244
-0.07457600234064712
-0.08104870199093439
-0.1352828506747575
0.09335470516129186
0.19157651646840534
-0.028657436232456947
-0.2161857447185878
-0.09817525150693884
0.03335738041540775
-0.11346626529134773
-0.09390550239222079
-0.3121887756170957
0.07372668138051469
0.01831200650636504
-0.023410124512039446
0.0029032605516198756
-0.11739781412040035
-0.0125591020590141
-0.10329392262755795
-0.08267710735511052
0.2750876811527216
-0.12028952366747743
0.06815274879818048
0.09669852773226706
-0.09881235274454074
-0.42301120367177253
0.03146744893381282
-0.07175542535181462
0.04389321514993427
0.15151111931587402
0.18565349169068235
0.3229268922669025
-0.29949304653819003
-0.1250435935960312
-0.25711440689211135
0.051656045026492695
-0.3551933866019541
-0.05218796928356681
-0.14248616849454726
0.08094267529121921
-0.34350165705570046
0.250916181505625
0.17161599455413784
-0.14366690660569756
0.15656310855040698
-0.026514890439820846
-0.13941974963470757
-0.18650748571793035
-0.14073321654439258
0.0876940592370114
0.08193344100284197
0.13154870315608458
-0.03770009311232113
0.029878120746498222
0.1674677902051239
0.23475865218022302
0.07817694028982834
-0.19548683641962292
0.006043960194445626
0.1176869021293997
-0.27133016939891447
-0.27906403753965064
-0.14976284101019915
-0.12087129137428912
0.27647828327187146
-0.03505844816346339
0.1256224310779098
-0.04423716763968383
-0.03886523919390692
-0.3043159475771722
-0.15672574328917802
0.24225508647226124
0.3408136740899151
0.09149353726195629
-0.013843346093699289
0.1385766609754991
-0.08731122070063635
0.017993593451602865
0.05482882864318205
-0.3946257126631093
0.1339853925417207
-0.12884210169472243
0.32400109231347307
-0.07845485669367423
0.23650072405098374
0.2574700110900417
-0.28797884876810653
0.2675650470813337
0.09792636816994096
0.3433674891177036
-0.06458023197121558
-0.24284348740020145
-0.1482033365367682
0.1790219765977492
-0.09666295593173352
0.012269075103753605
-0.17299200302238338
-0.04687387658199388
0.09660931825777574
0.40784701293569753
-0.19419281520547896
-0.009355696628289648
0.041650757793653403
0.31773289016621725
-0.10408586418232901
0.3170076714710144
0.052795593630624464
-0.36629434741089845
-3.469335811005288E-4
-0.08422453903552402
-0.13496598201713486
0.09496691759288135
0.4271267217525462
0.22738424591712247
-0.20251277574042204
-0.17903324788163455
-0.08158782989702018
-0.4352769327286842
0.08319784181569687
-0.5861251574288948
-0.36561694070952505
0.177563787480683
-0.029962598137323323
0.10987290218043172
-0.28391776834772087
0.11075512079766914
0.017225309644472067
0.33087978374102495
0.03766186974808563
-0.17702019473241948
-0.012879013084207337
0.08297141200986914
0.09618961956096861
-0.15797182657141182
-0.10572570819447685
-0.039179993399380345
0.11184504270836003
0.09951030814840564
0.019167410019890942
-0.05904194157372931
-0.03616968737630851
0.07729898056616855
-0.19025364392076283
-0.030542054982184333
-0.506640402235833
0.03519135492806698
-0.09069681404074759
-0.189958842155147
0.1717760481471175
-0.19544535922976025
0.016486549391264243
-0.007301522936385136
-0.16232124919603486
0.07625161000176013
0.22200217625354496
-0.06342416879986204
0.018341328485674414
0.10067841803642547
0.4550112743751187
-0.22000201324310922
-0.16521046471957576
0.05713931745377348
-0.07917396664525936
0.09264447831816569
-0.15883044790892736
-0.0490367545393663
0.25142532169872356
-0.1366629814349091
0.09745756816741019
-0.22164889052527684
0.3312293332622592
0.0876669349236085
-0.052115211793025897
0.20118290115223322
-0.1126089849861322
-0.3876105807518844
0.27909255325896626
-0.08556616041664927
0.13162441059317517
0.026965698728254325
0.134339409610813
-0.1047644340581744
-0.019842495146746932
0.09147218242078835
0.11462678216697718
0.08044512725263572
0.21178191939229665
0.17980721377285022
0.37206652974978793
-0.10022650138767986
0.14262386987000245
0.1492904928852533
0.26271685253497956
0.08049374983720144
-0.16557982998825121
-0.052596776118792626
-0.011102144950342827
-0.13294827403098236
-0.31791060927695297
-0.2990084344181819
-0.003965551607415096
0.019077699372277657
0.04656324142413264
0.04801815878506522
0.06595171739428173
-0.01917984806359689
-0.38584879879743006
-0.06581610145438782
-0.018523159125796534
-0.07150614088402261
0.14714729918583255
0.14759370599975738
-0.13747590209843205
-0.22029051937430283
-0.3630610597541591
0.1666368655005186
-0.21408599225572336
0.0729511752429536
0.132840836231177
0.13784170398849355
-0.0666898720014729
-0.19008211343199935
-0.14759206774858874
0.09038724895002356
-0.035884475478776316
-0.05294911257095001
-0.20526061403945772
-0.10076889617566441
0.2021484730008631
0.04928210046341194
-0.5054538890246424
-0.20194001788086538
0.07153469113121583
-0.06487242307065398
0.028879365145695935
0.015691556197327605
-0.3265781757367283
0.09727937705208355
-0.0756017959795377
-0.4118211326199437
-0.15469967754082717
0.11669455215437369
-0.13417093170940372
0.053954724012861104
-0.01635164103304591
0.09307833308397392
-0.011746219422585134
0.2382272767446093
-0.2944470386554056
-0.061741404986470155
-0.16394431711791663
-0.3862425178528419
-0.4727493238574949
0.2387222613449195
0.05602589877495659
-0.29040631361299213
0.20587067371511789
0.20872309131501018
-0.0173804387661286
-0.003410319457705223
0.02478055278596056
-0.1946820485083628
-0.29449050833396007
-0.5033125492192733
-0.05700582668472757
-0.1468224552711723
-0.12471805142041514
-0.35938813236209316
0.006850733434355798
-0.3212565017127637
0.02871957959276525
-0.1882068356424325
0.05005210201071644
-0.14234780804991506
-0.15107256969793673
0.03639417421573897
-0.005502369338894756
-0.16968781534838015
0.017549430696177464
-0.2961124046234312
0.06071368278676146
0.1616622852665528
0.22075642202157875
-0.05404572232967597
-0.11197269024416455
-0.19898938095747593
-0.31036253852598605
-0.06249295899934998
-0.05830907646437625
0.26579049267731736
-0.1370540501705105
0.2637733999730109
-0.11532641952445055
-0.008120443794239342
-0.35736155032945366
-0.37402330514889714
-0.03541820142017438
0.2754489111467657
0.2504239499310713
0.11269979792458772
0.03879889776276968
-0.018430398200336602
-0.13272508708648936
0.39969595852661
-0.008101804039579674
0.1528507223243412
0.1640208690199021
-0.18560075172423618
0.22518088418955529
0.14778929667966176
0.0689314239126076
-0.36841173850388137
0.04491773799038492
-0.5233291255236432
-0.15200651161816192
-0.3430630309978355
-0.06699425354191732
-0.21542973432547716
0.15358231522217436
0.20828607704845653
-0.0993498136919348
0.09057732578501859
-0.12375538320427325
0.10038010544480352
-0.09439049691486351
0.19987492623702866
0.10818281086240007
-0.2397045638684229
-0.5626185460101442
-0.015438119426946102
-0.019010946651014823
-0.006719339674322461
0.011341919868806706
-0.019363935184494162
-0.08285008273818772
-0.15014905620508384
0.07826243074558162
0.015070740276130732
0.07719486060874375
0.1759331974922108
0.37917897317352534
0.3088451825648606
0.14653469924720505
-0.3406423989864724
0.018220668133423774
-0.31402798606708504
-0.06605736645222958
-6.801191056918687E-4
0.2027494391625025
-0.22980486197265845
0.2097282981323949
0.0625983645980349
-0.08051939726144151
0.07808921983461331
0.15684429014517265
-0.1473369831763147
-0.1540886436072566
-0.3152804644436956
0.07064013188587882
0.014156085884572274
0.01264876839327516
0.04976576364080286
0.18294942887710455
-0.10978038880829291
-0.18039748864447175
0.183393264323089
-0.018996427444715833
-0.4457801359660698
0.10416161041888593
-0.1915325341655834
0.14496718473791165
-0.16455703722179088
-0.31943648124208823
-0.03999985760741369
-0.16812097162671846
0.1837071825678377
0.13413318185590825
0.4053578327370394
0.04776846677277669
-0.13529455722222167
-0.1741380477275572
0.07607471819358187
-0.09147304878987508
-0.2671450962397824
-0.25805554045915313
0.0148719701287647
-0.21019165553992167
0.015056580436941181
-0.28534623228765277
0.17715044548224948
0.11333511058548405
0.14782554767785433
-0.21201115124672432
-0.20820972569363533
0.40584635447217876
0.0954525598077635
-0.1863464382259142
-0.18290991710299834
0.05327532556466674
0.17695729527281678
0.06162704785137653
0.12036774031019822
-0.18507605038501326
-0.20626044287707096
0.18611986260496338
0.11023341555675248
-0.01316475875207385
0.1693457286505975
-0.3951768585779478
-0.2641143678489745
-0.02164009033904145
0.0645513496400006
-0.17588259841241716
-0.06556488396389241
0.010760404440377822
-0.03043034654747292
-0.01761979761338095
0.16767984000713793
0.05684184568158971
0.06829728819873052
0.06690529634346369
-0.031155184178728437
-0.10931588487562467
0.19090956074791537
0.11876386470732736
-0.05987727744127596
0.1776748330577649
-0.08165127110481407
-0.003816959300929623
0.15409702735691294
0.048135190391582885
-0.07670269781511833
0.0022557010627679264
0.04445414900704803
0.01142736772108074
-0.14789539440330382
-0.16861398517238146
-0.030592721168538863
-0.07218198093074117
0.2818212286947495
-0.05821509229174318
-0.09670868782327564
0.16180460554738613
0.24942050722598139
-0.08071294952331796
0.09983292025196418
0.3069716726957913
-0.1181923472516685
-0.08802585946962932
0.012147154716827814
0.2438465747247622
-0.07970821599424262
0.026459013405670063
0.03330595358297878
0.06225604047051241
0.021952251286678673
0.014997510122702097
-0.27381121699516703
0.031234303085492923
-0.2941287462027274
-0.0738583773146219
0.14840261452371406
0.014427470825680544
0.18427623837303997
-0.0199060446111875
-0.1480438968544032
0.25426688133620107
0.2879174278105062
0.16629888805798515
-0.14000185429673054
0.11715320309747582
-0.09462513433872144
0.08511525217959487
0.050132201559950275
0.16569593284094666
-0.17928872549385333
-0.20180567860898513
0.21239622229294258
-0.045878189277177184
0.35734875307104197
0.10340227192701346
-0.1450887348628468
-0.048591758640904884
0.07756087749083963
0.08943686710550186
0.24497548604469666
0.03140852621110248
-0.3160678289886126
-0.06816862682915596
-0.11464730484192849
0.30870329354097437
-0.060407561974518076
0.445236941447243
0.22888874272715612
-0.05862778554312185
-0.00462732717541936
-0.0872340454784027
-0.17593175656154816
0.020668227554649615
0.06435018178875426
0.034141377488560616
0.25724334914674485
-0.25396331002168687
-0.1885775803831252
0.10973733535279069
-0.019565661061893173
-0.1689590792690717
0.31544169112104053
0.2555348497922029
-0.5151876410965194
-0.06815456695058263
0.07349496913769063
0.08729081740972287
0.08002162051816236
0.08598184883804161
0.013066850644832923
0.04567589673444489
0.10419744956692992
0.04885975761798661
0.08564998410655864
0.0064159186668553666
0.4182973369620978
-0.03105447427338441
0.25336924381646897
0.09365216584401476
-0.36336997263371595
-0.37931316629984935
0.4760928215276248
0.12869460197052154
0.1131581086411859
-0.11089540457528638
0.011902900775058857
-0.1332944929780958
0.039257769659368356
-0.09161667197093329
-0.1155790183162569
0.24233452106658518
0.15801431666226673
-0.411935098073837
-0.11266225881641163
0.01600908449352187
0.3069263561051861
0.16469412253959298
-0.1765532289610707
-0.2502627481035831
-0.10239779137229164
0.04446156025434099
0.008551087651434225
0.04150682480945872
-0.04518551868737595
0.15258338989059098
-0.38420232122783543
-0.023839867374192608
-0.042767976699154824
0.1490347168854381
-0.33794868088934926
-0.3014280434729118
0.04807231092713332
-0.27885308494049704
0.055469711375286335
-0.11985860561127254
-0.3124725253740548
0.10158718565511345
-0.16914209209730946
0.23070077084284174
0.04181090163200146
0.05600971923369258
-0.19265561121006872
-0.056102672512703226
0.12208504129029017
-0.31128022836979796
0.1649245340696763
0.3214168295147859
0.01669196944773558
0.08785946437219054
-0.24941626804808315
0.03209323040111694
0.060649781991016144
-0.14528586494094192
0.1173662883360829
0.08428091677153843
0.02421164610719187
0.15004466581795325
0.1412345105421655
0.0359030269799353
-0.37914284727503755
-0.22436288042544572
0.16678998048558252
-0.1069734489080074
-0.3125362767242957
0.0065066819921159565
1.8764149264887048E-4
-0.13956351345108028
0.06570896866451399
-0.21408407413922978
0.30572308046189856
0.11184367390885337
0.045553253293403456
-0.5796988097856125
-0.06986914975512608
-0.22196290183145082
0.11433260904331365
0.12139114003906973
0.41751924056532197
0.3092090108629353
0.1538940572669949
0.17148792430579643
-0.35646288861310116
0.10740846083616272
-0.04985046270458782
-0.21468118525931623
-0.18125438320744658
0.10567675771491346
-0.13817307531896877
-0.06818775626221071
0.08522706754328775
-0.4775653402891224
0.21391982876765417
0.2436732573103289
-0.01336193728645615
-0.016674647327001847
0.07669013010701428
-0.19217423627641347
-0.18243140974188607
0.16553123115551355
-0.004459230842016487
-0.014186777350563038
0.06358779541734852
-0.027798162725438055
-0.16640062771562658
-0.05432497863236355
0.13843949697278835
0.09977276234198945
-0.41199235951625446
-0.30339281713252503
-0.15789592854575826
-0.19519479844974363
-0.03805289497600515
-0.09383235097682985
-0.15378793787748812
-0.009689593645608818
0.02399642151218814
-0.0023019239142343874
0.06116793555605413
-0.14188144427218663
0.16401786062342613
-0.1830441649306568
-0.2207298475868671
-0.16283920001242114
0.21412602347395526
-0.121250464102807
0.13922906447704375
-0.22143236092216415
-0.3363587719692593
0.02291076146865523
-0.2937002789719656
0.166202221708945
-0.054352187619870665
0.03961284171290893
0.06004705811403413
-0.09539760210383812
-0.3205853464370173
0.3166866782798011
-0.2577649269552084
-0.14082702967704502
-0.02119477309883902
0.36965658071259205
0.05539938290305355
0.17721535677384762
-0.0299186802843689
0.16598063623154274
0.03659474756198496
0.13553836810913353
-0.14645183317477628
-0.02303014331353076
-0.32401459683221223
0.05201485453941255
0.30027789771696844
0.033852015892860784
-0.11870868931612218
0.272152410088334
-0.041774640785784245
-0.3796104381221748
0.1595002053593071
0.0418544765912349
-0.1917897812236142
0.027964020609566015
-0.25629567861887415
0.1279825843684462
0.1022774128959858
-0.1572557118811869
0.35216925475209304
0.0549761479031496
0.08562733933737635
-0.13503891029309895
0.03096387947541517
-0.34398140749993256
0.12155823308738677
-0.17921014077494712
-0.31729128657945427
-0.17437989577164348
0.062193040743280914
0.4218083561296239
0.3570391241986235
-0.20236625278314394
0.1880556825581651
0.029217451381205968
-0.28668272734525785
-0.03302945402173867
-0.10771568675221915
0.047236517956441494
0.20968888755437132
0.21034369162186325
-0.018772105268757253
-0.1777815522943919
0.634578000221851
-0.2048432469566319
0.27660106502710485
0.048348502520700755
0.1690500059121308
-0.2478393240379206
-0.1866321720387291
0.1947815890796523
0.09299187045176628
-0.14802147390779544
0.1737587657248334
-0.4042755172725702
0.15311793660956083
0.07685984047290928
-0.13322833138973264
-0.0710315389139349
-0.1147971814086185
-0.08778125669537476
0.05985961954011962
-0.17463882033283284
-0.06971910468933609
-0.244385898108829
0.03441017632637521
-0.06147646373129321
0.13008967692333986
0.5071997903840358
0.028784475188703026
0.08065059900437672
0.20804753887188113
-0.09146098114727741
0.24741805685817583
0.1536398871084894
0.09217707435227133
0.2537901773747041
-0.1085989286966574
0.03918855212525568
-0.1340399895403577
-0.04297483948917076
0.1774941372210875
0.13491032026248914
0.320269168912459
-0.13124825529636755
-0.03787744930906047
0.04533607738958126
0.032029392126433465
0.09475380205625517
-0.07266748655482538
0.25946634176682964
-0.03578862346647781
0.2863323339703547
0.06857001224920094
0.391275224020524
0.1384718742307504
0.06796487088490587
-0.03069778415672518
0.19589409360703125
0.20471340918936384
-0.1862617667628078
0.12597332779883505
-0.47653133300120054
-0.07544823101171128
0.18047739232436788
-0.21428212708658637
0.23343304836762624
0.015541809251714458
-0.4240156187360127
0.07652090239213628
0.43392316708138634
-0.24023560531537128
-0.01088712343204763
-0.036562559915388614
0.13782665912394973
0.17316814771787492
-0.05748398332456944
0.3481743169235739
-0.31220063637815615
-0.34656631940647414
-0.3160572553808898
-0.09215921310417004
0.40592762163335605
0.23246361991399042
0.2099876484738241
0.19956461944197593
-0.18238367440337083
0.5580054223651775
-0.0058052444484744834
0.10307219856870997
-0.19790737388512472
-0.0851985619211626
-0.2862364125920603
-0.15840324081976162
-0.08641378695634262
0.1218382613740376
0.09602152290049874
-0.1771415001922396
0.14852072301871874
0.0720935993751321
-0.10216497781019143
0.27963113615033036
-0.1395451083810389
0.03976753325867696
0.05003850716376284
0.5083281009080861
-0.2395549771773093
-0.514537628255422
-0.21107106570362633
0.053616162289702854
-0.32249946652935435
-0.00715967034361202
0.26610462696716697
0.15964078671526993
0.21644398712293011
-0.0629604543584957
-0.08795380678617713
-0.30342774700484126
-0.1730903813524784
0.06904134869116046
0.11211015326284968
-0.06982691994769759
-0.10442591351449891
0.3175772028447249
-0.06180331917375899
-0.031106986911782594
-0.335376383941709
-0.2563662242505308
-0.11266608425078602
0.09949139154222929
-0.18802521742478226
0.31412579848080824
0.12154686797160126
-0.09504322983979113
0.25774809831765466
0.02868594078893263
-0.038030822573932976
0.14917102361155823
0.04383853026043617
0.11247082293624451
0.12693296692669806
0.08991968418855162
0.12040284904205459
-0.06717484189452684
0.10073882884614314
-0.12554663514175812
0.04891816938905082
0.33887832388421324
0.14285785480506938
0.0027532708307561296
-0.010190753348048925
0.09435278365576492
-0.13266069905736025
-0.060685903131940194
-0.10864849484132713
-0.17609842352919175
0.506946985606917
0.184111438607036
-0.05284944731676627
-0.15579544093839626
-0.28527411103620376
-0.2540571060740359
0.20533932485765094
-0.3614342575293072
-0.16304824711561794
-0.28711814612569186
0.07016440502220948
-0.1568081503572364
-0.4088907124269044
-0.02645101250248036
0.02977667906843298
0.05115477001479331
0.0061760922193824985
-0.08603222221037415
-0.02017162779716156
-0.06758226846884077
-0.03990752029606379
-0.49951023017231777
-0.052321255636242396
0.07724531871642909
-0.14425942022379867
-0.26328660170755164
0.07034466231289331
-0.054240248477466314
-0.008282471659406869
-0.08112833825180746
0.03204072757307448
0.06835254301551337
0.3488038323868554
0.2561432437513433
-0.0889617483961293
0.08044681326967235
0.18580533340553704
0.2749292435424737
0.08840868517704949
-0.03486537552933281
-0.09142019228538975
-0.4316877477528902
0.11994737872472015
-0.09448970632808207
-0.11869863586171166
0.22443892366741985
-0.04459053036013525
-0.33346559528218855
-0.09172523510401577
0.05105909677012054
-0.051171086978128846
-0.07783746821126276
0.198173666942186
0.0071804295279829615
-0.019188189613525877
-0.32013728369495564
-0.499681607077044
-0.06434158552933009
-0.23061837225735166
0.3092053897826015
-0.028542792783676958
-0.1700747749921835
0.08941693033751964
0.15071458413511962
0.29529506446161663
0.002327596312117519
0.18461294722784832
-0.3456467371426925
-0.20393300356357089
-0.19897308814461148
0.23292765264233184
0.21802752044958026
0.11543154925635762
0.08578168080334675
0.12746548473631386
0.048452045362813286
0.18040842885934222
0.09535602883850039
-0.07494069108457214
-0.06291186513082359
-0.18203929334864052
-0.11321708111896894
0.035726752800875686
-0.25255178565975855
-0.2615528043768715
0.14756501523289942
-0.20484150790086064
0.06465661580322771
0.07216243586711323
0.03704267549772422
0.28941264051854754
0.2542310441686117
-0.22924104810084725
-0.04144810717353061
0.042812679850851576
-0.07105833082355394
0.010979408589803594
0.1347218219044144
-0.17112953867299194
0.3766608764384737
-0.1573276670155011
0.24958039906986912
0.05776601460244596
0.07411065917671233
-0.18712645314995857
0.07607623896752298
0.14246830007225278
-0.26846855590287594
-0.3145881340959256
0.23531605212049378
0.24283064606721877
-0.26296638114073895
-0.01816914279680613
0.018050643076592387
0.0264679808031693
0.18802747160966496
0.10369646337806489
0.2825305901610824
0.13911480792229677
-0.38360967364093224
-0.08830909912423673
0.381677670475582
-0.24776395361846737
-0.12959125517918094
-0.2392627493220755
0.148226885673549
-0.06716567639504692
-0.22558624208327027
-0.33079149883650716
-0.2474208025733774
0.2640406718087886
0.030105887704899532
-0.2703495164380706
0.03452013646897788
-0.28509198421130005
-0.08944821604238844
-0.43801078162231166
0.19181060370202638
-0.10901632895536346
0.5718752448173673
0.1094458925257441
-0.09727101398010897
-0.08989383643247896
-0.2498538029432635
-0.11048936741738867
-0.06745329704341847
-0.08693118349015667
0.10423140228301964
0.028755766381699896
0.26947707101766377
0.1440544388881759
-0.16002304221870023
-0.08803378571204977
-0.01222324250956984
-0.1493891182788456
-0.14098388410684032
0.17695221101302727
0.3974140680118814
0.11526351655542405
0.16949344669199332
-0.24290670173003961
0.3090857105716539
-0.5544509785912298
0.3633248180451635
-0.18300423325829307
-0.1288861651032521
0.028633758140420348
-0.01528761913107857
0.10799611903060445
-0.10292523729514842
-0.25709172182088963
-0.1510099243954241
0.10321974527365296
-0.20971071517235806
0.05498545803541843
0.19255351064522538
0.3742937549734119
-0.3096851560749715
-0.4810629496489563
0.2504061082919426
0.04538840576594122
0.2558832525367027
0.24995386541694253
-0.08615362008636109
-0.21840405493579904
0.14295182527138636
0.05120398240080361
0.07569817752341697
-0.3119185037484065
0.12262345908131729
-0.12330531966514241
-0.10285201844881231
-0.04633713237887202
0.15821844451826783
0.2156852186893472
-0.14837054140940228
0.06725582371956941
-0.175973474108727
-0.13208619984182912
0.15504136236308125
0.2070835845680497
0.29671947104339663
-0.2711062830993647
-0.44746715088448685
0.28960938700897776
-0.05262093902847496
0.475360913004136
-0.033468340904713026
-0.019000408620047052
-0.2469965881059527
-0.015012158479234759
-0.046370610143350956
-0.15089408129842466
-0.007192358748805425
0.27524267832177174
0.0014038866735510734
-0.17081049063651874
0.08257978251841808
0.3297347465616299
0.12354775734773671
0.17157713877967207
0.22585779944508247
0.08539730850919454
0.10698349915208141
-0.38221309510265367
0.0886486151088435
0.12514237826510594
-0.011680335636470002
0.03539416687002172
-0.04827777215984155
0.05577985159821908
0.05232975355839919
0.22738725748411165
0.10674378193599346
0.06609535808255207
0.24688894908019257
-0.0735541010197329
-0.07862200164237658
0.09692389003543733
-0.3637701878387456
-0.08759909919378672
0.4073716317413169
0.023231682864666214
-4.3781485593432355E-4
-0.14573545697489884
0.2767073668351478
-0.13720511820701814
-0.34776612347858515
-0.3364176415404465
-0.31420231841155744
-0.3027035593073188
-0.23396848914933024
-0.0853120610517815
0.3400286229966269
-0.01990556797707628
0.31387405384921907
0.04613637693887392
0.005984578044697192
-0.13562039251196312
-0.23389961995019456
0.0716018633937842
0.01938313329531381
-0.3398131102609178
0.04485332090732712
0.43513367128511454
-0.04036815909179264
-0.18775669727575503
0.029099624893592753
0.0026668747152132663
-0.057004266252434814
-0.1476236989746788
-0.16335523227317011
0.048858494522677355
0.10401665959716683
-0.18515842103230917
-0.1806043642891623
-0.20037306794912874
-0.17608944751880806
0.16415715989221166
-0.40251342257115863
-0.13103772612421669
0.10101572199467511
0.1774631603478861
-0.2844923636875005
0.04043672552850309
-0.2843258596581652
-0.22543664168301702
0.06405101863431742
0.3053286033969681
-0.04478894916941821
-0.13192034885319798
-0.043601816162896205
0.18287681532317956
0.2773286179636771
-0.3211499888116518
0.3662572089266652
0.3501929472805372
-0.01772680390720062
-0.0323770973021284
0.011893400586822919
0.39960679214306577
-0.0013509419729618444
0.1567099880441874
0.1430035817132951
-0.03010579600481554
0.3772610229526108
-0.11629899022066051
-0.22792733387376032
0.5320704710267854
0.37208963416939644
-0.1232632569578368
-0.08052322262237743
-0.32516507074047374
0.01834379906020544
-0.14198093570601175
0.11099750535228046
0.5089702119131104
-0.03128191294171026
0.19851684670855763
-0.2066879778168489
-0.17807204721949088
0.2566163038008362
0.042370222525796586
0.07070339347416295
0.2138898984309341
0.0500733057156444
-0.2514607103430704
-0.03190210124668452
0.10545402863578275
0.32413394946309637
-0.027621561661695743
0.2840066810596356
0.02918470910945239
-0.023449872700021565
0.06458700740714417
-0.04316686927360122
-0.256432270199554
0.24970234067307745
-0.024286541579701188
-0.3963576561877116
0.3586726428459374
-0.09651899779447926
0.06546479692713218
0.22194189678233522
0.10789750481373767
0.10934004221690019
0.06644822436546467
0.23501235273182433
-0.23748460269990096
-0.18858747369777484
-0.32480673736845356
0.011281218326735398
-0.043518701337254634
-0.1426083590667441
0.22288734839542113
-0.07491284991710695
0.4018365065627171
-0.16859733275623834
-0.20428192060235345
0.07029796782726902
-0.08555736400548612
-0.028013768157576332
-0.3481000830755549
0.20115077082297517
0.3386653824556498
0.1210930515223375
0.17426281053635934
0.14485597387109014
0.25546030146944937
0.23496541378494418
-0.13102210204267478
-0.1139541767456656
-0.32994432055243045
0.010283862159219927
-0.13985791210282325
-0.03594308996116547
-0.16285172310172102
0.1448367988792562
-0.1860098728727001
0.17221155244572017
0.07594381488755789
0.09787117028096466
0.02619033247987771
-0.19595318532123665
0.1265223720365829
0.11755118674826247
0.12653821971101184
0.3997839409466839
0.38941463151486144
0.07061721953565968
0.03118140206979908
0.26338300093833594
0.16663885145281862
-0.08356980795837482
0.17465767775706778
-0.37847556698769813
0.06948437286758147
0.4756881408381016
0.12753057801440912
-0.34514155455307427
0.06626062913707169
0.01675843724654715
0.31497219660177295
0.13079203281499355
-0.03944157045870268
-0.020001153256993278
0.15622730512881944
0.353687930399988
-0.0616760323695684
-0.475253766148314
0.011822121607752006
-0.1662094925694793
0.07240794450735234
0.21852627147855502
0.003142605513563892
-0.29740960985581116
0.013342529330768453
0.04578408795001212
0.05649516490310879
0.10260127431433762
0.024328469884697355
-0.20038852505277438
-0.051444419830482736
-0.10132732100589946
0.25428977313245044
-0.04534486355227236
0.09499350124211325
-0.14328956050512195
-0.020979839588217884
-0.014815017218736579
-0.1870464632454351
-0.31371673851622917
-0.25996695474035214
0.19799891209235385
0.3027761092512993
0.2584559549342098
-0.19403735802982836
-0.08528185433357736
0.12601449909291873
0.1942463586144287
-0.1412207730367978
0.265626075631825
-0.0030780819497677474
-0.07791140745438319
0.10049757814352145
-0.20018853714741203
0.03209390487692252
0.3494734224155424
-0.5760321880383493
0.05591376682395002
-0.11072850999372359
0.09754813188241712
0.16833668591801856
0.05429374813804793
-0.3633025864592348
-0.14940232259051428
0.2580918299474659
-0.020134715264341383
0.1738267708996991
0.32232521330380715
-0.07282773192085895
0.05751253688339655
0.43792861627227364
-0.2047699176838378
0.1373629690183625
-0.13164469433172088
-0.3421236278034292
0.14474740401098762
0.20519489429410484
0.18427948161125032
0.06729695266897175
-0.13850662073499248
-0.10583199638493156
0.038121797926486484
0.16360489160685276
-0.1904670172006167
0.10210733122504562
0.06623240285162456
0.0908370636001987
0.23031571245739904
0.26370480338221086
0.13981342228597757
0.26569000787958647
-0.4080098746973397
-0.32050478149852035
-0.16610513270038418
-0.16631267143112416
0.5526859575374047
-0.126476299370161
0.43222617127807006
-0.11307584424129123
0.13651579992320384
-0.22102261356727443
-0.03214139909009315
0.26059605633068333
0.1456262178366525
0.14624363400159102
-0.020415454109660305
0.07816049552955841
0.07881713246192963
0.014151737700633021
-0.14762220582282423
0.2501012640242265
0.35592939984218175
-0.3455705363086165
-0.10563182307580016
0.048109470185232144
-0.039903584464715786
0.1251905727782657
0.20061586528009726
0.10256123704992343
-0.14896672852027112
-0.1865707636344477
0.1600518522384088
-0.24255379798063736
0.02964549490590695
0.04764503678034743
-0.08742987333055811
0.1524644301727759
0.05995603995158996
0.026293069794054425
-0.035216353156642746
0.5115426109183027
0.10546791361385872
-0.19086617980600573
0.08931036405667768
-0.04115446471105194
-0.0057123372274510194
0.12744537453943183
0.27470330822430566
-0.18265539014823082
-0.11293308482359864
-0.10531126003302248
-0.22045523958255067
0.35073354915617383
0.2607996618537293
-0.31122552695066386
-0.21797647805823145
0.37419642036715456
-0.0702689857218812
0.026472736179467327
-0.26835065128096414
-0.06355973289619511
-0.17650280596687307
0.15149310869720328
0.2122723077776513
-0.10423999405434557
0.09177612190602626
-0.02670012295111736
-0.19714086149039445
0.09685050335227863
-0.123981220486681
-0.5364561998176111
-0.1748701641995106
0.30075910076771356
0.10794526703407374
-0.18214894996618827
-0.06478720282630056
-0.45125392344237303
-0.4600326572340097
-0.14436486635028342
0.35163613509536956
0.3698526107088793
0.3803288045724711
-0.15699337017085033
0.12432167063207072
0.025400610955738236
0.2860247190779851
0.2441618144233161
-0.02025363798931862
1.8834121045565775E-4
0.03741637373222507
0.17059169245678885
0.1120944578144579
0.31484341570741725
-0.18404453622135516
0.09706263478160726
0.1398369751330847
0.27539323517835884
-0.3359449325829521
-0.1997284856205718
0.24752446086034505
0.017194250248511806
-0.1007632113095537
-0.07682009720536545
-0.26130244805975467
-0.11175944176814391
-0.151740981184076
0.04158047067520235
0.08698367473619198
-0.22567562879843045
-0.2361301783725167
-0.057378366618687525
-0.46993997202587895
0.07377280732555555
0.3474657389665505
0.030054515680565067
-0.25343026646236033
-0.2554505684166145
-0.27531931127665427
-0.14278812208998246
0.08640862125104098
0.17277030668863538
0.3189163390803241
-0.01907128279389284
-0.3005886020077393
-0.38970149415740973
0.1044642083170951
0.2356236609244406
0.17804608696332386
-0.14834590621382496
-0.1592658988928488
-0.005667926849311297
0.020176502274671902
-0.03511077611204034
0.04086867141529461
-0.04908532103207898
-0.014983079184308783
-0.06424985039461503
0.12363597010722287
-0.3992964942006627
0.02372731310502443
0.29778299451255685
-0.08393651808387957
-0.07169429137485478
0.0920890954296638
-0.06923708523796962
-0.06810526163444808
0.07300606607653327
0.2490182837159197
-0.008453752954932316
-0.04071700924883098
0.035592511053642154
-0.06641924491087671
-0.17131494580229267
0.1185252168149706
0.26249175428111793
-0.18417336471205226
0.05690831472573418
-0.0052524693444617205
0.10959035106826194
0.4219926316173713
-0.4462573706799413
-0.06514790492779006
0.35335662148884495
-0.15391769625113552
0.29011609363568897
0.3778456551806481
0.02756176847160882
-0.0057215152570060995
-0.17281981117676543
0.022230440942074887
0.11442965431873538
0.3383400909114626
0.19018322447395408
-0.054653173086350704
0.2878292638436962
-0.1614480259882514
-0.020501674257041143
-0.15263890859695467
-0.09082382338003232
0.2649266710047877
0.3004858955634508
0.2804440965682695
-0.22965986172883743
-0.5495801213155606
-0.01718812251804709
-0.07188545990749257
-0.1667608127869603
-0.4027557752379318
-0.3237068454855891
0.3965150566993382
-0.09526162245310853
0.11079862637093602
0.016034924565416487
-0.18844297068929675
-0.13616719253976337
0.08540220866505419
0.09526103785714687
-0.03764186630668362
0.2135797752084768
0.020024875466484175
-0.36070701182043435
-0.15729488754790322
0.023885855959165807
0.05229714961176974
-0.09488568603309952
-0.43303624137614244
-0.2515169170602589
0.3355633627587574
-0.056120908762689825
0.059275249633009
0.07062039986038962
8.546232620489616E-4
-0.5471730418321067
-0.17279547534260237
0.40686660828358306
0.27200201950143615
-0.08599864944779337
-0.3718063349895849
-0.05472924113481437
0.39799554845240437
0.5631702307527443
9.045259282655415E-4
-0.17503867001941045
0.004278215501033845
0.045677634700456854
0.49820041895611566
-0.022887278624291404
-0.23683150503197523
0.028242881640695234
0.1759288224805993
-0.14446770611234758
-0.44111084625731156
-0.14931766075184322
0.05899705711686703
-0.13551056804244924
-0.23639777581934482
-0.32461984818637113
0.07967425051828611
0.13589837487691367
-0.156686034222772
-0.5271901722372366
-0.391926775984904
0.12494731570630559
-0.22789562198853
0.04424433722405281
-0.07843143993340768
-0.2525273129984403
-0.1433247138820554
-0.21553111767210517
-0.012314793633903464
-0.13318093964306155
0.2983030913588124
-0.17950516438624362
-0.038598176832832565
0.11194933088225138
0.1606483707451726
-0.30345482583378824
-0.22497778238822502
0.06195524059156994
0.14089453901899918
0.21908501974248662
0.033955099763909605
-0.1062056044768881
0.045663098062602776
0.17411379661792875
0.05695704408918117
-0.07905731070538988
0.28730965807049924
-0.2571925868386531
0.4760808486884286
-0.0973526528289104
0.09602702195106982
-0.13720081601335335
-0.48807814845335
0.2593515434845103
0.20314952541157708
-0.03819581903365598
-0.15573387235765757
-0.08445137145915772
0.18573250997539173
0.020042034181277976
-0.05883958493809836
-0.2708089540439129
0.010058775915636966
0.16679235977661344
0.06978801426065546
-0.3380373291682396
9.026750749728832E-4
-0.3452426433325871
0.23995337408989112
-0.2247855741956205
0.10384288540650219
-0.4383941375044845
0.03748644173079155
0.21578876009694728
0.09888489891045343
0.18761539353325543
-0.13576944926956996
0.11127350269136041
-0.06488449431695832
0.363986284010138
0.44142962072268366
0.24027887870711198
-0.07298720427496676
0.20153799274595352
-0.0018563926515865986
0.04817724781339393
0.012413187384019565
-0.04548528028762019
0.18388303252628868
-0.1747850328880821
-0.03822797668332497
0.13027806449973064
-0.16449137377304363
0.31537605656122014
-0.17327213932479157
0.17189269965003637
-0.11661396462289524
0.10379249166756453
-0.21492833850807672
-0.14387284458919
-0.0653394350219888
-0.10936064449025447
-0.42568247325717756
0.14218195351556823
0.12420952107465398
-0.3650880759343207
-0.2846984935691186
-0.3783442871000242
0.25238518681773886
0.4403950925292176
0.012837549829978557
-0.059004781718839154
-0.03368141411068388
-6.523620033718233E-4
0.12108615807351125
0.10776309745686223
-0.17487642707964396
-0.13313631891270614
0.02735341678562629
-0.0877931106600184
-0.3152084326880428
-0.15960283354502644
0.380041181519867
-0.2544820345111354
-0.26496227896292307
-0.08633046356088167
-0.048983706493513
-0.10025631204030572
0.1645762306158693
0.09814003518326708
0.06627985894988428
0.2453755137863723
-0.25630362689322184
-0.14200531125223376
0.24993826598518284
-0.259000594920638
0.13904936231062753
-0.24695264452331503
0.39553758628964464
0.23989544632430743
0.057215000176379587
0.08355163224414856
-0.14859349830593815
0.1107816199083097
-0.17421927355985367
-0.3972206434930172
-0.005099280098951619
-0.25058406548966333
-0.005595917072272111
0.12697722386634125
0.15352415409623238
0.09790165402705826
-0.19414857434749574
-0.1724643358762565
-0.005281165063936535
0.0759912542579782
-0.21520292666610666
0.3614670157497646
0.1891474952541458
-0.11888171122333592
-0.3280496401634624
0.3031202594710001
-0.3396591546758585
-0.23974715947172864
-0.5500547266766177
-0.42223450444548377
-0.18409939488184957
0.4131121230045238
0.19278509670204746
-0.2267842052350146
0.27128338702087473
-0.23868443989204607
0.07986512775369167
-0.08677442847190323
-0.03210048227659698
-0.026350991709561147
0.06805052456132063
-0.13722129572895977
0.2407462430379284
-0.306679820161228
0.26770339913911917
-0.3611449041055117
-0.15463985686866752
-0.0388055333945918
0.18422525055830774
-0.20913274329932752
-0.3217213474056329
-0.02134359923698999
0.29683672866397237
0.3860340749594623
0.2114102330743103
-0.09076170237809707
-0.024234008319789214
-0.15909565411237475
-0.14225919973758552
-0.15936726781460195
-0.12837253103385537
0.20555909311060622
0.24280429959563485
0.3485679986798145
0.04099252614046349
-0.014637320113576822
0.09990246167127141
0.0024073509659077613
0.06429049243081454
-0.006870982317966666
0.2717377660055636
-0.02376688670207903
0.10065270326404215
0.08658891070885964
-0.15509443099703624
0.1282059791127115
0.0502846200426221
0.5134300497070479
-0.04138829741963609
0.02154622009439388
-0.13664337897929138
-0.04898492618795883
-0.04122158409666061
-0.064935412153292
-0.1184665533714262
0.05790163524489834
-0.14158183222980278
0.13213982100466098
-0.19195835558482474
-0.25505529140246225
0.3189568313243906
0.12562021917122818
0.07878146030341664
0.02663121223093296
-0.0733994077695112
-0.3010284392605228
-0.056756819565669886
-0.03202091129695028
-0.18228389015476842
0.05692802055249624
-0.17952801443014932
0.06523817678595586
-0.13624568603941578
0.3395763538772877
0.056169278691639325
0.08345038115883828
0.07839377129113259
0.13339214451382939
-0.36963413060141614
-0.00740877510884082
0.4245649165632187
-0.11281226598659481
-0.29842120980518233
-0.1911338984590593
-0.03108781632876192
-0.12029678869505579
0.2504873137421995
-0.12152014722293708
-0.24390983568165198
0.1533341319273519
-0.18518626257157322
-0.0485927715120967
-0.015730764038425344
0.21245630075127173
-0.25188634205286103
-0.04353885417212428
-0.07516359432270495
-0.10108771481769167
-0.06957069394232977
-0.2473129777666834
-0.11450524522259997
-0.45878464712193784
-0.04091882999172611
0.08301143925972118
0.060041831428806494
-0.39596625256363227
-0.10858156190923693
-0.033159644042755364
0.10026172731125226
0.008700681248172375
0.1510485544636534
-0.49259226566935393
-0.2748216603182087
0.1344779943846066
-0.010474596308240894
-0.16389346623615242
-0.3221019434947908
0.1415540026360722
-0.03513585765174171
-0.437866710351656
0.08680184153331652
0.22795620676520906
-0.1999935575351464
-0.0646065249088781
-0.34785334879871255
0.08860366821892865
0.22932791992718732
0.021478798098272245
-0.3202702565889234
0.190666710910522
0.1604953839653526
-0.03306733378647172
-0.1778953235011874
0.039959981729351904
0.23714289534716157
0.10009546309145413
-0.24720443185701216
-0.01996432466914621
0.15913135278340845
-0.09093122812005636
-0.1388838966619671
0.3317426326253979
4.3850561645502847E-4
0.008733592577734926
-0.02411416254529656
0.11026351215878144
-0.3071821759612359
-0.04265847811674307
0.16268191033270094
0.0587061828825719
-0.2250122667878529
0.09994897850693907
0.2779371529308284
-0.12925259091906266
0.004607871896149958
0.26073721671913574
0.08649987273957695
0.23859469371293218
-0.23570008257525038
0.05978630486281003
0.23781344668563414
-0.09109552330520147
-0.06875815214632386
-0.21515159537720624
-0.17479103278286065
0.010132600582461935
-0.24333381552370006
-0.42662575559169247
-0.04681488993115441
0.2130401051561389
-0.13537940919397087
-0.010726062608804723
0.11854409749135042
0.08891059092794475
0.12346130981508323
-0.03355121208770174
0.32368587836920304
0.06514180801847626
0.025434869368129092
0.2097105609201192
0.07074662697007644
-0.05687506426179058
-0.15832889853619714
-0.27552785828002596
0.15681076418480766
-0.05116540411451825
0.11089868969421737
0.05368292597623365
-0.11195305217813181
-0.3990333505718739
-0.360774789775788
-0.05284938582014649
0.04901587912340858
-0.28294425433467596
-0.10645166944282061
-0.09184709775807977
0.11046393584178951
0.3438485061894
0.33512883851603276
-0.3457976000350357
0.1463769241934362
-0.1581481417601548
-0.033423138962249355
-0.0733098887443416
0.09442417705265367
0.020496832621913444
-0.0741912881895801
0.10898357944441012
-0.055120411994119344
0.07365467569477098
-0.2977051365018183
0.11810148642500733
-0.08907418002990991
-0.2993280054374834
-0.13768773838433868
3.3132842128294265E-4
0.31984251706028943
0.06949848724415117
-0.07326289009665446
-0.3864073241236681
0.22721639297350765
-0.05314917237046684
0.11411802111705102
-0.2586733944464423
-0.18329011740739282
-0.08983293356169045
-0.13698089403073205
0.21667229553907477
-0.04035372049608427
-0.2387611507118421
0.3452163939069896
-0.023192245990839064
-0.07116374360896568
0.5395569374908784
0.11364073302961228
-0.26960956676500974
0.042182073904771925
-0.36609500715668897
-0.22487915968645839
0.2647590258937056
-0.016909696203759695
-0.3297989710817718
-0.3060533994998766
0.024844436012361935
0.0407677136758284
0.14729310664567646
-0.1448494193424845
-0.2010135443574299
-0.016561511896635094
-0.21838593666978182
-0.07610286549132692
-0.23796123130613597
-0.23413545511537404
0.07976679991306466
0.053215505358388794
-0.04703794372194196
-0.21692386268952965
-0.13589425090906035
-0.17848588314871683
0.09877036392447311
-0.08700080171589158
-0.2907246356375344
0.2057261884737966
-0.06701263466655716
-0.02142083749444732
-0.047826415919079046
-0.2581749024231923
0.07109399895317946
0.3161136685143982
-0.07302715983323387
-0.034829705401968836
-0.39901735765292673
-0.08078604512578076
0.1757832485104113
-0.0812928046860947
0.5023601959092432
-0.24133414586400384
-0.1418612832620315
0.05940216991968541
-0.22533554168136746
-0.2426376912248431
0.0835163404554821
0.30926412972338385
0.0777226333470889
-0.13835980618700852
-0.3454984393271458
-0.08200258085192774
0.04269600861627049
-0.278731745858014
-0.23737442604920483
0.1678774387231284
0.21239129452486968
-0.1483967145488167
-0.40495479384367816
-0.21555716870916153
0.046889847392988945
0.11928120423795407
-0.13000363457641306
-0.12236202820785207
0.24337659038762713
-0.24991731269237127
0.36087661202820553
-0.14243539868402938
0.2608703471173182
-0.2928832036557734
0.3087310450412835
-0.25463285808141556
-0.17794062104465447
-0.06287279182472819
-0.13551797670601531
0.21229181187641627
-0.020386094433582094
-0.29597056249987036
0.010750029385308243
0.041695386128141006
-0.09475765961151687
-0.08203147455096463
-0.3283700053046492
-0.09600109158576536
0.03309453683848242
0.009290963431742807
-0.46732136286648135
-0.14325828732928964
-0.10745698598996181
-0.15750813442276257
-0.3533004928666656
-0.23843106462694724
-0.05063498136910607
-0.12503597822867069
-0.02964332966384673
0.4945771431762784
0.2103573611726982
-0.17073474540626454
-0.20113873877026986
0.10567019367642548
0.24712131927799022
0.42008883450238493
0.09849703040458173
0.1058882652964449
-0.3291398731660747
-0.10310877573553098
-0.27992336050777566
-0.2007559851234929
0.1598489381908446
0.05677329728457084
-0.14539979111796336
-0.16663546353070804
0.24895661214379997
0.09617332266343855
0.3552315814973027
-0.25302604742540147
0.11044239980413005
0.14250696124826173
0.18160939623361425
-0.2835830920209928
0.0554370339609147
0.26307739962432125
0.24367830723132317
-0.031758874730657465
0.25378554313642787
0.12482505046409452
-0.020314504296779858
0.2222995932286883
-0.023421209541611167
-0.12673625790358614
0.2455726902777327
-0.21469010166301444
0.07905259868501377
-0.1498711376195867
-0.09520417261614353
-0.020360176844864093
0.10558563718222708
-0.15247873558673128
-0.2826833293483554
0.2522328446428874
-0.3993329243876658
-0.21700167525870273
0.21892397071755884
-0.21085647867491156
0.22251963754535262
-0.05993384761523436
0.13818290335275527
-0.13064328888672916
-0.11728224787845884
-0.15318354710166557
-0.20093805130431394
0.05724061494107073
0.29193626701228864
0.32644909625299817
-0.13391314774758786
-0.2638072851137638
0.04007636095853162
0.03672915891669061
-0.13120119387756668
-0.2389209965867328
0.24055210361201187
0.05363420725007816
-0.10431355531960283
0.26695429340689686
0.17781233499461305
0.10033525488334054
0.1729991698828199
0.03524848720237228
-0.5065550881231012
-0.3407770255089113
-0.17077075644860656
-0.05984281107148624
-0.1761351141010282
-0.014189564847002206
0.36874415752407425
0.2773372672504235
-0.10257400760290167
-0.057100888611190566
-0.07354130435174526
0.08625812756598289
-0.32647641130240856
-0.021632631457394212
-0.21552039447491433
-0.22886030859518572
-0.1478056332895931
-0.18064304216291324
-0.07253750500877361
-0.12704238502636447
0.11538523122738155
0.6963608987569179
0.2335499343339916
-0.004799581762374117
0.0035310810664735013
0.17155008609908484
-0.11535237490361747
0.14969132395656168
0.23179852520141322
0.07294594787716539
-0.2996459964984614
0.21837297865954322
-0.10450360577533953
-0.3208893464864723
0.2325688760197519
0.21073554919014964
-0.2915855534920392
-0.10214859357972086
-0.0968681366272906
0.1528984018321859
0.005896318423539752
0.36422842157737395
-0.29325343303508605
0.13795140985999488
0.3231414895662064
0.12824266294801198
0.19093017275875848
-0.036197878238957495
-0.6935005466336234
0.11867039670616898
0.0018808185550970437
0.34299302854943425
-0.12427405551072775
-0.03909930815869821
-0.0014186897832088054
0.15390734161744904
-0.12803451718252
0.04731991082393694
0.07759685356159851
0.13506772767662498
0.35959813611811037
0.05402334173224829
-0.1596899624452949
0.2953411013936465
-0.1164336156659278
0.23642091539458432
-0.3520409441104762
0.02414512404978405
-0.2641778321343647
-0.19354482386157057
-0.4334280312970217
-0.032164276560985715
0.04040931362700439
0.3372197953450674
0.16374675520887338
-0.47343905531253816
-0.20965648532919826
0.17880988969532355
0.3447695957524883
-0.020715168888751537
-0.0735149797310321
0.12177831236368054
-0.07284844253873202
-0.058594786705637385
0.09719914466555168
0.22308930794432733
0.336492415330038
-0.11977838009346949
-0.01352678926256655
-0.1037350599856633
-0.25589747037380284
0.11999869888748688
0.08074291482470865
0.1584977634408236
0.19488586683210365
0.13910877380924405
-0.2186496117006684
0.1390188856652704
-0.004988746393463225
-0.015274757430432422
0.1305449270995442
-0.009304297913950137
-0.21159954174584159
-0.32330997686742424
-0.27176950447776915
0.007354669241978694
-0.18607040278814563
-0.09773185018378844
0.11578812482834824
0.14933128239818555
0.1093753101073966
-0.02482828941299145
-0.385070650489106
-0.17761675717493242
-0.17964361078033136
-0.053233071411344965
0.004001412781471616
0.02868712503263135
-0.1840352474708269
0.26221387267805163
0.08188431855058342
-0.21068476110995396
-0.3032368844250016
0.1562423158855723
0.3831587398416149
0.09207921794507341
0.1488877530197426
-0.2145481402294675
0.04521666909782901
0.0787554724794639
-0.24522159923461512
-0.14750276282378363
-0.19515652309740572
0.3268376935341904
-0.20656844310702493
-0.27631493950592695
0.007656245069408551
0.16013477954192204
-0.19653203756471502
0.17192094509113157
0.313026233386344
0.12145526506068845
-0.040021327611436355
-0.12130451207718371
-0.3075616511643678
0.0583088161240042
-0.35416302790977816
-0.13547804104565647
-0.2708228483608158
0.41549402666438184
0.36913144412410065
0.1276344796552255
0.32030435843081323
0.22151246255717197
0.02843972734056196
0.0804861700488106
0.14340598519130668
-0.018438520498877238
-0.20909719570508525
0.057575745753375374
-0.012533624263025636
0.25576757819341567
0.08319042641552234
0.2908610716431604
0.09000623455914794
0.09531712674261157
-0.14106416250734663
-0.2181931983229861
-0.3539365123359116
-0.3737025403176169
-0.3790452434558956
-0.1965272743044193
-0.14668652852258543
-0.025645049009995122
0.05846122130531533
0.13472476199110792
0.2691983194135307
0.12372125229204703
0.18986558633282488
-0.1674691562139124
-0.2304712394920603
0.21432154960183603
-0.053956647208334395
-0.22458942467296714
-0.243797176898915
0.031029962726777518
0.11569370923275936
0.13730178473527416
0.21091381232729067
-0.18117827005156312
-0.39755979716835893
0.045495355602820774
-0.1344521581441337
0.16301582506612564
0.13806388096603125
-0.0361648724603681
0.16025851423748388
0.25265814289754807
0.008207652352701269
0.19177037224032237
-0.24742113757245152
-0.16482962898986073
-0.05909489481950403
-0.02421458738266205
-0.052918639882130546
-0.07183465567237199
0.015028507795239811
0.14797157962896126
-0.2891841020986546
-0.0639608123615219
0.06727722747136612
-0.062224411182346284
-0.37733593075662586
-0.07575849717724137
0.47551310929087826
-0.13238948289402944
0.2972276916350056
-0.03843483351199939
-0.07044934329392348
-0.24677827228399993
0.06448294465983077
0.39149812090197095
0.01123918648019847
0.13999130979867982
0.27522163206840194
0.019436755611370198
0.09378286236424856
-0.025916013338507533
0.08204688409154141
-0.23980359706540436
-0.22720304741795722
0.12867949394128642
-0.18786974455354952
0.07208040754239815
0.04456084360801588
-0.24315651990745046
0.0765573625288774
-0.11059155433918041
0.2871473371480947
-0.351365503058371
-0.31903876818051796
-0.20467407866245907
-0.17213340377519498
-0.4089557252610714
-0.17946188628786916
0.20048860433489518
0.2844636167557031
-0.035710097578142135
-0.230321923885256
-0.021011797824518598
0.25428323715992585
-0.04379384388235081
0.055014680429819725
-0.10124225693054849
0.22860189306938314
0.3732708203034171
-0.27826305045127225
0.0872396526554422
0.2741289373732739
0.12819477787582517
0.01211313860862447
0.20254840533537252
-0.08619626259500122
0.08644942649086966
0.03942843816897981
0.4161517599657619
-0.4512425998852012
-0.30544707200068105
0.052529571723362055
0.304836917125604
0.15960742191292826
0.3212224488440841
-0.14172518938312867
0.07774415346770001
0.07722120455448789
-0.07857992581828677
0.2781132490640869
0.0781740785863401
-0.22585183709205284
-0.15774688056976224
-0.07707880064271988
-0.2497954116101219
0.14259071814847837
-0.20920248570286695
-0.027493901253832657
0.10450339319201722
-0.22175528931591995
-0.30565984011007413
-0.005296887203286708
-0.25115688299006256
-0.29959061683450655
0.13974042868776287
0.14821770173212606
-0.17221121827257993
-0.03223947536756103
-0.0676911466294119
-0.19439362523740508
0.04344555222399582
0.0621236529750599
-0.04305034675603921
0.018605104066688638
0.10909518256147187
0.15068628178895255
-0.2583328067357104
0.23273257814881582
-0.18818067934759192
0.02850430548080264
-0.076914588764707
-0.14972372794811808
-0.17455819890758822
-0.21204966411559803
0.11076991234431932
0.1246321393450739
-0.19222216369896566
-0.3355507715223485
-0.14540907302820563
-0.0321393853859886
-0.03754151022145342
-0.17411645317644658
-0.2102630700237868
-0.2160906390460142
-0.14188777845465078
-0.07042561526809583
0.12904775001930235
-0.07641224782103072
-0.19699015872189043
0.3310964985731934
-0.047325356665401976
-0.2505112100298836
-0.004289753808401946
-0.15625781546255202
0.09156952584373708
-0.21946821889597515
0.3437955238320819
-0.14029070421897008
-0.14623625613272564
-0.49130857103398945
0.3715887278106304
-0.2091902322972792
-0.03585525216885807
0.16510915991865782
-0.1310529414244367
0.35745916051189297
0.08831903268571778
-0.19147689020131137
0.3092749723090907
-0.03668632910015549
0.009262306536196826
0.037367379576156656
0.025941835032408628
-0.17331886250275164
0.04348737217699997
0.10114635896075332
-0.5120521485828868
-0.23004628064521132
0.31844345127753526
-0.22641599273949387
0.1593107492489262
-0.09195849825119587
0.06031509843120091
0.0723411652812512
-0.1010631431642367
0.19049970238602237
0.18642541207460103
0.015715234055570036
0.037842463030315666
-0.2607249091768797
-0.10290968813095928
0.18593852328006086
-0.07954822132885812
-0.028147759103056277
0.11607065014052707
-0.0865478646018512
-0.12223708722348522
0.10722898229603853
-0.3681182387687341
0.08021665598466474
-0.07169822483878348
0.05537958217042287
0.14217505313060944
-0.006635341459854917
0.1764210148785796
0.16902174092512304
0.02264977074529219
-0.1853061441504648
-0.09862346247219232
-0.09533518818619485
0.06636569938184168
-0.2611901118336099
0.3104514937674008
-0.2118915078961541
-0.5705760799410575
-0.25888516535034994
0.16109577067354572
0.08441808052011933
0.14055230213209313
0.14958303482366123
-0.19993306649718393
0.052658319115766426
-0.10039660826142405
-0.1295250862399171
-0.1120983885347556
0.04085371020823355
-0.1508567665765862
-0.23399570721807297
0.0845760138107653
-0.020014493318504727
-0.22110737552972115
0.2133858032492576
0.2019569360055508
0.4116118887817674
-0.28649014096166936
0.3735544148837311
0.11510889006314302
0.026252013654078744
-0.18222474777086503
0.11685084716458753
-0.5361462366308657
0.09620476865298017
0.16410301712415318
-0.04349542305616886
-0.31295215747251226
0.05223503514280773
0.014345355131695665
-0.22760644046520587
-0.13200015528420803
0.26602600095183637
-0.21439407565926175
-0.06872105475959404
-0.23927000108143553
-0.2728934859376429
-0.35819695982230104
-0.27609078432485556
-0.07838462954358814
0.18187945632716407
-0.0060832682238669685
0.48071529870174096
-0.02217071325743072
0.15843460078074098
-0.36543857081076087
-0.30562357617758107
0.009330162932368956
-0.081760613615584
0.3859558207116891
-0.20173372066244807
0.0353608598814281
0.10424102991678591
0.06403823017839465
-0.028358670759746768
-0.27619972472875787
0.19002017735914145
0.16287492719285684
-0.023723492021814594
-0.21016597773357573
-0.2950286387995044
-0.2660761340229301
0.01796419875519386
0.06563904639100904
0.03190280354894974
-0.5482776998576003
-0.3091850830746864
0.08670810567316398
-0.0791522118966624
-0.026692394780445283
-0.04571484047910831
-0.0981510110083856
-0.34222150519562866
-0.10347117417540021
0.21718475121730638
-0.08402667686308771
0.1353532391356826
-0.028886686354865514
-0.03754950769949303
-0.0607803269339251
-0.2203473254208109
0.15632221510389696
0.19206171281540377
0.12348998450217948
-0.2194726048111666
-0.25660411882264406
0.07055174692189102
0.13026606544657757
-0.2653424914749881
-0.23210246980655125
-0.35771415624708014
-0.044250844532800704
0.14288774458826073
0.05729104032551838
0.13393909486685154
-0.2222468084132412
0.09620148680874378
-0.13815112602176388
-0.3330404956824546
0.042110656946544006
-0.16931810979316939
-0.06723029543463872
-0.1635754297210575
-0.06136783140616207
-0.2445037123506641
-0.23885960266107734
-0.14852895216997927
0.03565749737609105
-0.08949768015691244
-0.19238182901158374
0.03903056268081859
-0.10960940582964258
0.021190895126340745
-0.16973838323208892
-0.41360348202441716
-0.09670364430548035
-0.13262671926894198
0.13141998599988594
-0.3706573526426713
0.1405403185389898
-0.14827759680309824
-0.08647660592742443
-0.20510464411065035
-0.1434983765878223
0.16272826948441474
-0.23137481592598114
0.0532150642310694
0.1941807384314053
-0.24050783014705415
0.5101984632592012
0.03175742647218648
-0.3011448197252157
0.4203773721727198
-0.006339641653591999
-0.03949458525814638
-0.4029083485014398
0.29939017008598107
-0.13927015918650615
0.03364557388734673
-0.32706139924240407
0.1992873678693421
-0.09824746713565667
0.07445883660804795
-0.04025895054921882
0.023890131017899295
-0.0979612618921864
-0.06865707440617104
0.17109561303788323
-0.23338862886559014
-0.12904929774686438
-0.38711580281321134
-0.2565524257781795
0.23743027556014035
0.24019501630943127
0.07495037367613173
0.37889486582754967
0.04203208812148454
0.1595325292702895
0.18354108410129774
0.15904220043774223
0.0979272649649553
-0.21004116468732328
0.2012449919442026
0.10349418110453172
0.18486494469162298
0.4039711630251248
0.22773213442587148
0.13813041810092003
0.01095661212728437
0.2586014962805584
-0.036658129858198926
-0.09571744675932516
-0.17311993796313319
