8178
0.14798596716878007
0.08181686035873732
-0.5643606130284102
0.3518423332892785
0.4685252787849441
0.07009407254494174
-0.2811896154099972
-0.5218600860483777
-0.011451491769875649
-0.029237527503316398
-0.08547854347899332
0.16248916674469438
-0.039669744861848995
0.14485444746771906
0.008239497703642585
-0.03063435831984662
0.19600100949095392
0.04630262615242311
0.2926950220235506
-0.38942063662630877
-0.30877346983882914
0.32814155460444994
-0.08486263327328808
-0.2071750623998821
0.2730992536711979
-0.0707494548825177
-0.14909982613446443
-0.024648697806597127
0.228779531362527
0.07550154461697811
-0.2758410845013335
-0.017361980928400078
-0.08751504729536463
0.1769423281199385
0.07225865512997613
0.1315624375474885
0.14617748670562303
0.2930778827541775
-0.20022951407174935
0.14889743970010813
0.42016049560176816
0.0037844596235587767
-0.21945069616975124
-0.029866914372772297
-0.16928365936855783
-0.009291465165373162
0.288874211348828
-0.24351991146576757
-0.2883850265447849
0.08572328063265444
-0.49170484355845834
-0.25171212477345434
0.19453394967046042
-0.134606651544373
-0.4118271364709878
-0.12837689649971554
0.019176989869967628
0.13436518678417753
0.07436502774784501
0.009794503099535888
0.16781687379463717
-0.166297193109879
-0.10008808361554529
-0.035516272885855536
0.30101684094503905
0.25379722611496
-0.14225934909379198
0.052807209395754166
0.18437214819809103
-0.16806401811740845
-0.04906926200385175
0.029374213499605645
-0.10725596278602392
-0.24240050487580767
0.22680140128149315
0.017055005402684096
-0.1472833505235291
0.192414111825698
-0.05086375043846683
0.04763261207306972
0.32784960316266276
0.17390120011800086
-0.43746246735314803
0.35541974365446066
0.23269147559975162
0.20601384277423201
0.031449983232254126
-0.039254987083351664
-0.3067018930926737
0.09418181176516888
0.03793244863691442
0.013392962384366623
0.3027491679604002
-0.21263699393820257
-0.03467837056414732
-0.23625619190944006
-0.12294433679572325
-0.29898451965347256
0.17233724959262253
-0.14429622326305272
-0.2609138033515789
0.22719441263894125
0.4757252930620771
-0.15534098385396156
0.22644820792258644
-0.06162870608771122
-0.01826563976887378
0.33505479211645595
0.14774925596570715
-0.07013209607535324
0.19679477231027875
0.04258573703236748
0.052860596514811176
-0.1994196328843497
-0.47870251126074825
0.35578324166840486
-0.20125157458954213
0.22124129537381956
0.06473381295083336
-0.23018985389949106
0.20918317456711769
0.3526094385215335
0.285021510927596
0.11411264639578618
9.299910656599402E-4
0.2759170076480348
0.09704392926214848
-0.055519912880706845
-0.04870776321762034
0.05945605313575784
0.17137249591943113
0.2638371748040856
-0.2680853031293548
0.07960591813094839
0.32008342199812706
-0.06911430448182519
0.18378149184898548
-0.3397900770932953
0.26500704364128386
-0.10815899208438425
0.23269751101884642
-0.12204810022186996
-0.060600089735370705
-0.10616462246109222
0.27289339992534806
0.08300132099579736
-0.08304694819089901
-0.1514334529282687
0.1936605349030926
-0.46612205612819946
0.24760699272241432
0.16956772781637033
0.08118327394281166
0.0999344914184685
0.19232113313139232
0.19323740605304265
-0.35050329873501407
0.06614114953274611
-0.17590426231833248
0.14625085659176634
-0.23466004778942998
-0.3160584476909252
-0.02215472108211193
0.24082177023365228
-0.007583171451504132
-0.16159946847335077
-0.0122230485877997
-0.20386064217381383
0.034484310777802146
-0.3113497645921436
0.04176001988629979
-0.1626823643322239
-0.013983432275093978
-0.13017723655074925
0.21884919020979232
0.12681077784958342
0.17925262948290488
-0.13591916097774526
-0.4301890170663216
-0.18418687111201762
-0.14122672509123824
-0.14204158350034612
0.13743928452502446
-0.11865609535972732
-0.3535352952849645
0.1882677882730417
-0.01713881665408258
0.08987581700139563
-0.12176331960764078
-0.14002105006365204
0.29858875300547866
0.3703481199334522
-0.13637251340165027
0.13499095795789443
-0.30279099334254844
-0.1104666139691541
-0.026867937274764078
-0.06690869408083605
0.2997001126849179
0.14582612420830432
-0.10018472433281142
-0.01848585352017386
-0.6156123290839016
-0.704980380433631
-0.2660286978909068
0.31077910778281276
0.6145033308881341
-0.017238595428933197
-0.4945349826819835
-0.08283093802287211
-0.41614936619025855
-0.03803911497944008
1.0074385935034855
0.23420395071923125
0.19651435186253755
-0.045727215116176334
0.04181662978178197
0.260874016210699
0.6907442019456541
0.19702499345409813
0.22786228605643402
-0.49145312740854974
-0.490819270768028
-0.17157993609202468
-0.057132048741169665
-0.02425463162908563
-0.09321425760750811
0.39826228690348575
0.11004356009330128
0.3812120692646451
0.11483986480047864
0.1556034046394828
0.1207806183772169
-0.06009880612808702
0.05542804126928201
-0.36069703042772167
-0.37761692430478633
-0.3294057034879288
-0.06670287957064786
-0.27930361854918123
-0.2662698184166232
-0.42598674812942416
-0.23383115109180322
-0.31979612384795836
-0.24001759063378342
-0.00369846974325536
0.008090543129220223
-0.08715135466693016
-0.1872789530161285
-0.35372399622479866
0.004848719521362063
0.1290232328437666
0.3564015366246126
0.23188099795461586
-0.03460044206933261
0.2856070676211718
0.757540556134369
-0.07108679221160297
-0.17860160217348495
-0.18635061749666929
0.6134600008420588
-0.024288966616703697
-0.2098890893664083
-0.4560680819427767
-0.06765472224279268
-0.03158343943854451
-0.5838774616947038
-0.0889786294730291
-0.3380356977401092
-0.07574653148046445
0.02796369635650529
0.0721219998258639
0.12559687292134583
0.0974331988624128
0.0028945993655804594
0.500105203453673
-0.09148874830953521
-0.056798363190500835
-0.3289202782100944
0.05064711653008094
0.5329122414544248
-0.2390312159163357
-0.0743999316621313
-0.24165002827456591
-0.25075803608749403
0.3903074762236903
-0.009348896621233569
-0.2940305559671651
-0.2492875786334795
-0.3603400473197101
0.44429005932599774
-0.09275297587648637
-0.028649256084687498
-0.6101738769399648
-0.1658040478699745
0.19550231366681803
-0.2506030666001346
-0.1819863597816744
-0.21701937666834478
0.1791096968097819
-0.03303824192087694
-0.19615117272493934
0.19412386791188596
0.2029328511448085
0.12610685455132958
-0.17566180327787353
-0.16851002704769352
0.2210246823847275
0.40479496931791825
-0.23087000188063464
0.02789580568763424
0.07499706734912821
-0.15931251750827394
0.4652139949208601
-0.2402869675171168
-0.2505893935788841
-0.19401782486754268
-0.031603068921910095
0.376168858720848
-0.2185032262868656
-0.10826598542234889
-0.2689910101800454
0.15710104854556853
0.44217922264345116
-0.14831799281949948
0.14082457909119944
0.1996147739125007
0.17657694361786336
-0.13189136881155902
-0.22236820535762927
0.3200536618850137
0.00264597403391422
-0.16181207664382663
-0.11330956861872461
-0.33903911246499585
0.23708287007508225
-0.2532987594642197
0.010637508824242083
-0.26458209058775134
-0.09999384739999104
0.15713001546463526
-0.23435911470562604
-0.15210280575084198
-0.34337756637399736
0.037571912558042556
-0.4980561000647441
-0.3692536645272767
-0.3434539142069153
-0.03754784383279952
0.39183341581298686
0.04485076110148779
0.23098314632888883
0.37172385306371314
0.5362440952011025
0.1424143377329144
0.16148161955262985
0.14580468078942999
0.04571591127473831
0.04137195605007668
0.3376619369657698
0.07259375953092032
0.10164892839553355
0.005044034850001946
0.2741728383584837
0.2882637389412572
-0.08763435130888514
-0.14324441013000572
-0.1316078679351631
-0.03335859677023019
0.2613011842342828
0.05792403362712322
-0.199459432035422
-0.21971578789954177
-0.1493346285952233
0.21171991227104506
0.39265984048413605
0.28208556893374126
0.25154055628451
0.659870091388918
0.11345408004308194
-0.349478438812492
0.36657203776385355
0.2671253745425407
-0.06461375020039148
-0.019875450787929565
-0.3361040009611606
-0.18382230714209474
-0.5310900160027991
-0.7269928219564074
-0.3662348309866716
-0.4998512073265554
-0.6010924077292654
-0.4635842240582155
-0.1921356146947192
-0.01507297972530565
-0.15223286650124038
-0.15403736095846107
-0.071121959988849
0.3352326777097141
0.08663756552468356
0.10557019878310424
0.186462906639281
-0.06367354375942823
0.11597834944190358
0.07697544007371808
-0.09870521374789515
-0.09584146741365257
0.3028193110712681
0.09327362225289361
-0.006088160169128284
-0.2023162353570096
-0.02046572638891188
-0.17649468345170505
0.23573084457331586
-0.008461935389974537
0.06171612258205484
0.1534595759317772
0.007503308950344262
0.2408494750269573
0.26770219692598246
-0.2693742274995612
-0.23652919888155055
0.3451287516438513
0.140865315473119
-0.013117517907471517
0.08174630155175916
-0.1368976486528754
0.29390586269594055
0.17820176566155976
-0.01524675056244928
0.02393971651195901
-0.08530810605206965
0.2490171518158651
-0.08799120468916986
0.38927648242592816
-0.21989727203580914
-0.2404668995895496
-0.008254722082657245
3.0814911517314296E-4
0.1644148011534309
0.19082158604434718
0.06092515863985131
-0.008223503053800096
-0.07818886972703554
-0.016232125499594994
-0.3079972375746683
0.035857580695187394
0.11548034631708855
-0.19895465048332173
-0.4025078894365224
0.28135117414678124
0.04272933031209244
-0.04283772302674044
-0.26131678601957414
0.007639017979339777
0.08205175003703777
0.023575709135179052
-0.317406646977942
-0.03459715830554206
0.1568158567184288
0.04000431190436445
0.10842488104423587
0.09736212048407834
0.01564146806173081
0.0021849605551889496
0.2850092868608015
-0.15645692296222366
-0.06189619661379615
-0.2878971614549285
0.24473717409393272
-0.05568921021489877
0.4307161827988857
0.14964932696151464
0.13906420668861627
-0.023159883454783044
-0.23517108022344854
-0.23150798096411696
0.18811525431031517
-0.014217620002889932
0.012854950111474642
0.1696151333133938
0.14391646160466368
-0.1556647780437323
-0.08797133720110818
0.054379280590043634
0.023560807661035785
-0.24554249364646563
0.20657443162704464
0.18645819289214577
0.10266831776137825
-0.5169283012488143
-0.4775820856263344
-0.15559350467672411
-0.17328178436948888
-0.10761830058716503
-0.43840647930797005
0.15073497857304205
0.07490435775763214
0.180221398699711
-0.22702361799614562
-0.20865544960447618
-0.010710401482969277
0.009239779934504276
-0.013353682725504952
0.08688998503264163
0.22413677620899586
-0.10032814807236448
-0.05304303570679086
-0.3971822976856695
-0.10523654228175616
-0.1908979385207281
-0.20410453460048156
-0.12172541290424665
-0.14947069153770673
0.21997531738363035
-0.41055169907126754
-0.2575270059907892
-0.40079389927032927
-0.0062418238446137935
-0.006514564952222739
0.3180036682637346
-0.15025836486326785
0.10621775362485315
-0.009113126091315848
-0.017687073117325463
0.007080484347832314
-0.059799859971148575
0.22653988829958704
-0.06787996386732707
-0.1180938299842665
0.09098546394876117
0.04270394894425039
-0.08008275182248148
-0.0393677254709544
-0.20789527326694635
-0.0703886193671441
0.300056565818875
-0.12350346232358006
-0.09997008746738355
-0.006092494030601695
0.4944820407769303
-0.1510389378712231
-0.2466737218067687
0.13244030086730194
0.13770102178576463
-0.2933178789803731
0.23088156000009322
0.029831404140819126
0.13314269267407922
0.13125037268849854
-0.14428770725606724
0.14876284726466754
-0.27911643297705563
-0.1554629724972534
-0.012982812397077693
-0.25506748065252166
0.07297659054033966
-0.11307345395141957
0.002338742572287962
-0.08775413066589018
-0.22301334135573564
0.2327715949028018
-0.029937064213191207
-0.07664212403782322
-0.1616096074993817
-0.09851878017427354
0.4936451381580872
0.2473142263325066
0.1442816866928092
-0.25471228518501615
0.17930690545864916
-0.20642796537878466
-0.17701458798606062
-0.018369592587910048
-0.1858221735514978
0.33907071124023713
-0.11999855567513784
-0.13413226171059622
0.13322550383319606
0.11019818919022069
0.3114256240108563
-0.019036648021204926
0.22770576121811748
0.010659098969329692
0.07598556880263616
0.2966191167366673
0.19919214951891362
-0.006173570281310386
0.04136576270130501
-0.17027032612697865
0.16450574079002317
-0.23254900759122382
-0.10569930547615967
-0.013056623789007894
0.17810336971170734
-0.25370124543355405
-0.04632017702062685
0.2698010836286589
0.13093721368311464
0.054793638750107426
0.002196191773771217
0.35593687340742886
0.35632830106142926
0.3580153335698253
0.07945250801483833
-0.07244736844495879
0.07722636125862843
0.20809180997710622
-0.10460972789824532
-0.32106138705725434
0.07197219501588108
-0.18712839601203635
0.09989935658937626
-0.37967331260125164
0.013860272776395628
-0.00919347225046046
-0.043239675816700573
0.3329034341406596
0.13263680111814077
0.3083772878647031
-0.04789863183389219
-0.11226986909113529
-0.029867830314156255
-0.03969289689576496
0.39746882880878565
-0.09623060964650448
-0.03325666167859596
0.19182475372984578
0.3284309553961182
-0.18933752372716794
0.32103389428441487
0.3107388781317545
-0.09809165018176197
0.24741425580360166
0.03253741020167348
0.01230520031535727
0.2886911770478402
-0.060980380087576995
-0.06343035024392668
0.05476179423574595
0.1500858046967658
-0.05102888682265938
-0.29706427624505244
0.09379957702176239
0.1709715327881991
-0.18409661107949976
-0.05462230083143998
0.15720103494668156
0.15281798306121744
-0.26690105172232653
-0.20087455216447553
-0.015654061694901026
0.11932391183505864
0.1253704374777487
-0.13724550242013944
-0.07997369422525943
-0.32296666206251545
-0.019559448304738082
-0.1197651035009346
-0.2657054886098763
-0.2507366792360467
0.15467754065580208
-0.030492726624358854
0.1737576513514807
0.09834742811266893
0.13654896302660316
-0.5426697875299791
-0.015706594920374222
0.27099134000991737
0.016145372993913717
0.04103422966009185
-0.08012607588000234
-0.07094027812066099
0.05623086156644569
-0.023941475523794983
-0.47101604565203603
-0.0905796308927629
0.48971136654393127
-0.24330289386401996
-0.11345415081097848
-0.10999704117839129
-0.1284255618084731
-0.13218391981775826
0.09320443821568736
-0.023603418259616513
0.039513813171443674
-0.07270861833462305
-0.23471764837700124
0.17178789862385177
0.14820115161643688
0.11854107549023125
0.4920655231050428
0.0038631039366709254
0.012498628699158765
0.07336255374441342
0.0950053165325944
0.30109847762004177
0.2062268861612777
0.020849734327764533
-0.07794661126241115
-0.12889193480476652
0.13126203097918923
0.13437289497102894
0.11936845551728409
-0.043763488638104406
0.019182029744125542
-0.11212708102648357
0.09509839643082704
0.22308251176618143
0.09979665144765128
-0.45710551848729886
0.13130179864416816
0.007388114799500582
-0.20907794447696515
-0.16646798127181345
0.05358787738359301
-0.17861797711810556
-0.02854368589460774
0.05300386195301911
0.08538476423264256
-0.028677393617436316
-0.09027038907696446
0.38913299340139645
-0.18068333781855753
0.06695750041437523
0.3807997141368897
0.1675897549445594
-0.2022448136743553
-0.4823595727179332
0.17619382625782848
0.14913128442174306
0.08619815938634048
-0.29700305828823426
-0.1252744500768829
0.1939644669991877
-0.2093788557358549
0.19490195498308016
0.011537920666039493
-0.035215561510560385
-0.24384471863702717
0.2665554190902148
-0.016261104162288036
0.37618732045442105
0.1526411334696196
-0.036547399542715124
0.19359448344358843
-0.1699806950219789
-0.3007204309412954
0.4722935624877665
0.21230002876650406
-0.022401172523037614
-0.06652926670376084
-0.17243395779824847
0.028537858476021406
-0.17500967968680806
-0.19760506752104356
-0.09732105152491899
0.2258872985643107
-0.23988202724159213
0.08526213176913831
-0.24151737084415772
0.011731871010540029
-0.18756789491907994
-0.17764758746060824
-0.19654567675928128
0.032819172640617914
0.30470536107503643
-0.15760927499034635
0.02392719457387087
0.2444991673138469
0.24444401116671674
0.04848551993452149
-0.469418306678758
0.005988189902576327
-0.7868734302790873
0.1224454803368986
-0.10923581418909388
0.10503422390981293
0.04333061875139721
0.137916457660452
0.1162322812531764
-0.1790934580763765
-0.016933704125382802
-0.09604894715485451
-0.07898808364963594
0.07312417828916061
-0.1320642944632252
0.04589697368828224
0.42342109920049203
-0.2436278275124887
0.1671513629082451
-0.36122215884886233
0.2882605922200702
-0.0012849710455574363
0.08141155620012104
0.2957416964928582
-0.16701372627328445
0.141083483358983
0.21178680936231653
-0.0645665278893912
-0.1144137829151955
-0.16196644056113216
0.005226652707757723
0.04108148560312876
0.11521484196993657
-0.04660159370786747
0.011431282625124897
-0.22224598838994827
-0.09945318302798928
-0.30181944311286546
-0.12321843195159202
0.12473563843884745
-0.11254346048993887
-0.09207510777437607
-0.16056353214619679
-0.23683712133138615
-0.3548479083831564
-0.11646239806993666
-0.32168218911609936
-0.15354740681773715
-0.2341924750027866
0.02155552442938063
-0.30832228092680913
-0.2712089282080516
-0.0225787767494655
0.07440575737223735
-0.07144557299285285
0.047225817534078646
0.0351322701317257
0.23829555718382053
0.08021460020242509
0.6029937679800159
0.2094577440619197
-0.41759529810255247
-0.13284966814009166
-0.10758906726069517
-0.23320405263757907
-0.002866196728224547
-0.4404210012158231
0.0355880335621066
-0.14876263024890335
0.06638631977578678
-0.1970073077499506
-0.26260793856048287
-0.09834518969428138
0.21250085327474164
0.26011626236495106
-0.12033103748686036
-0.4196568109169781
-0.058068170495940076
-0.19284369516895494
-0.12917947896685797
-0.08121217368315592
0.03514637154346722
-0.4203917987574377
-0.18641290619313935
-0.10189300222506537
0.42780952960285434
-0.5124687316146015
0.3857443893647434
0.06434932817584664
-0.08474400041886525
-0.17656340827548828
-0.03376663709485457
-0.2644565569466922
-0.17593395560021652
-0.2904281801963484
0.22879335664761521
0.29587218719277397
0.0359423178569916
-0.173469134226559
-0.04283679788542638
-0.23414587986848337
-0.12375361174214611
-0.18316678940340783
-0.2085103313800404
0.09457724696734013
0.04387525397257514
0.038814505946789354
-0.026991049818701363
0.12050994894627837
-0.14000247289380005
-0.2430427960727141
0.0010621490358569102
-0.08248302877365149
-0.11173312996155763
-0.17339655477827132
-0.4804391741528279
-0.19434099900313584
0.2235998408849759
-0.06598350145896081
0.0727876233897997
-0.3484314749352179
0.08801556489134993
0.021117864369391393
-0.03451995610064644
-0.2228872569863293
0.16318708588285205
-0.1992088438353607
0.20811760587725395
-0.07638921385826213
0.5366134702155428
0.20966742334011684
0.15265642678554342
-0.11709843473267503
0.16619232923832566
-0.030773133552849836
-0.12241533481658336
-0.13328357837544977
-0.14066792626218622
0.06425134768535957
-0.16077281766726434
0.20850810232313322
-0.059900877931536284
0.06904392515729237
-0.16841899121621814
0.1840145525924868
-0.08472858339939193
0.08113667980185041
0.14991725634917377
-0.1658190219792288
-0.37823638118184516
0.023708560330298445
-0.08126939813055208
-0.057958674981925765
-0.26983878005173084
-0.11025623652828265
0.14823717265101496
-0.08327230043526267
-0.01468108764695153
-0.14139005800531315
0.09431999530493271
-0.3272277900274845
-0.12077950109126352
0.17733382837316783
-0.19032731272807724
-0.17618107524633425
0.21154111870086778
0.05123395190978668
0.01572264631765245
-0.050036730753253746
-0.09695010906006873
-0.2832351809476172
-0.16438598105902588
-0.05851798987215301
-0.11631243405210778
0.31523221571204174
-0.029732559958654647
0.3133693453743161
0.04106267725374275
-0.26831274797637794
-0.521544536865425
0.07196647345239025
0.06242099675757443
0.15214289356392977
0.16144578442999466
0.07680422933560634
0.03947245887576343
0.04187864608052077
-0.25269841530845577
0.3038504664344602
0.04207315332968833
0.1504246197821426
0.22996971900021018
0.004231576647742098
0.277474220611228
-0.1968763920250627
0.48897024303312997
-0.002227982795212914
-0.1220067372211952
0.11383794500134528
0.27479877610155296
-0.0496756300100017
-0.1750688839527714
-0.10724586059644499
-0.40172198705708334
0.0916024518280655
0.1616954227032644
0.1863947212572185
0.06557041694599763
-0.15452939149311873
-0.420996645479344
-0.02158973063938081
-0.31398324453690046
0.2942395099206016
-0.023593381415507583
0.0024573715618039444
-0.013915954811342272
0.4629369770339456
0.3921663664447359
-0.10007367765292506
-0.42358616577781905
0.09625053937140177
-0.14234874205971823
0.02519053784835575
0.03622045241510556
0.11927683823405194
-0.002625967693699303
0.1697135010475136
0.1662188299430376
-0.2892559483582695
-0.2671236050596171
-0.1396808384116662
0.3418799800969536
0.1664089665292085
0.23963016892089414
0.2178983622121968
-0.03688715095979994
0.035903375511846296
0.21669176861124542
0.5000674871935938
0.1822029252537902
-0.07371150952393729
-0.26049265626345486
0.15525194951018834
-0.16524041391696281
-0.13636749765702372
0.03374105041320299
-0.1743018014344246
0.1686455711417873
0.1754980180960133
0.05664390774327771
-0.04209593185320944
0.12663487564337148
-0.2532452000323831
0.08946121821578798
0.36976749391710395
-0.20627971049725474
-0.09860514128749127
0.29958577384524016
-0.3077081633750235
-0.05336517472820862
-0.020492978847885597
0.04178355286433949
0.15548577096293192
-0.07264201643846432
0.18390230648823835
-0.2037574827037744
0.47940763708183953
-0.240660971487906
0.39392439634252846
-0.4118963136092977
-0.24926284546113864
0.2401535451619087
-0.16840062292763977
0.3308756978665915
-0.36649062677721445
-0.05751685604689608
0.16554580664795207
0.20066800304373478
-0.10527384896657255
0.03827508778122672
-0.08491210041351958
-0.3817985220993959
-0.5224922598191699
0.28999350219728565
0.3001878318816251
0.3037689730487974
-0.1155589251377863
0.20587139192691195
0.41167572523300233
-0.12162240283576696
-0.1447927563117161
-0.07569957352802044
-0.22536951650723136
-0.1853228451171734
0.08365962007044106
0.0074183691048340245
0.2708825270677779
0.14954535114719233
-0.03408347962477257
-0.11760058232807549
0.3378099588895057
0.05490740245646372
0.027245811030429768
0.12493789576835752
0.157051743911603
-0.19654386809602353
-0.19569089814474006
0.05493871372801689
-0.13042275968549963
-0.1596687229753666
-0.14377894460811286
-0.006443270619616127
-0.45642877134280085
-0.5720334734718742
-0.10811965246586537
0.039440484784356994
-0.0707601748925135
0.14345992537421112
-0.26129968622148586
-0.10747497659437362
0.17501464979077352
-0.13420212546337879
-0.259252750707168
0.04301901103442015
-0.04833302069502826
-0.007829397489587593
0.1248349892219876
-0.09898751881500846
-0.058955581289373116
-0.053314379047519005
0.0645774531569985
0.6157009684794438
-0.0799306376985322
0.06296603175733495
-0.02644745822290644
0.042793756449099114
-0.44971137790714133
0.03854716095111601
-0.10256575571814629
-0.0836805943379249
0.24592024453148037
0.1654862726587151
0.2007821638715147
0.040892424970493765
-0.0620375912861576
0.1301975290876992
-0.07760099226765543
0.21116292368443235
0.009205731877725552
-0.16727409821310096
0.4780065223631602
0.618796749209008
-0.21114931270200632
0.1566715091023576
-0.06364977644058664
0.36199033691242966
0.3384838491174207
0.1474857842780404
-0.26956964078957707
-0.002468072063189323
0.21283284390796828
0.022855339620104317
0.04875652831070688
0.2692360011487893
-0.0946946862946163
0.19643314353874963
0.06256566753241624
-0.23283346920089462
0.3987736088682984
-0.5513299396751761
-0.26586190174415364
-0.018852276778897746
0.016129425770206044
-0.08496952384391253
-0.1613139346034935
-0.1190011882076246
-0.40598018818187703
-0.04792933318418184
0.05087769479278233
-0.010105358316208426
-0.25711520439650504
-0.25085319882570706
-0.05929604921721482
0.053536652084984884
0.022726639628623754
-0.0454465500320346
0.5050678001665246
-0.12576353097806667
0.434722080885049
-0.03951278055343564
0.16340278824114118
-0.014152688447132581
-0.1497038692138126
-0.24525985237777048
0.28794293047760744
0.16592840608538617
-0.014012942141719109
0.025180036342587628
0.20644199025370258
0.06239753667317593
0.04711066315776093
-0.14300066099530637
-0.0026469099204786527
-0.04456125815518125
0.18658242648520723
-0.11982135656383441
-0.2631982509598178
0.027654951981758293
0.047978590480445796
-0.35385762341642857
-0.3244952334584212
-0.3242830850165008
-0.1680007753002843
0.10814445339964847
0.03676384287065115
-0.15173756180930612
-0.005768921078413439
-0.12495684028765162
-0.023913179331306916
0.0091028523128787
-0.2670345532721666
0.041164753235306245
-0.1592027796836717
0.33302525308780057
-0.39328093183515844
0.01671679841051677
-0.21564332088179056
0.19555157419492625
-0.042297091643526456
0.00329474816077382
-0.32375918517955565
0.08265779174136463
-0.031162456321593403
0.10393713730309202
-0.024425896876895968
-0.1391713315509926
-0.10709810563823222
0.03341110532568781
-0.2712172511909933
0.12204909765676562
0.39186545810649903
-0.26201171637046955
-0.36896606418525446
0.48066266763361104
0.05524530459611127
-0.21301376275661302
-0.29395868991096175
-0.08305575905681799
-0.1825739319456613
0.21351611273576454
-0.21821327216570513
-0.061634308913346675
-0.17554209534044374
0.20179919254609935
0.044776887123056025
-0.11404249417816562
-0.05836005150961975
3.163659041781385E-4
-0.11933225702290598
0.144421931274291
0.21903125161161321
0.29193875318607776
-0.09878460226451277
-0.10064110940066105
-0.06082987499908813
0.29857376236335603
0.022210933266432913
-0.06863467517981746
0.07051703686686885
-0.21768426178731787
0.4435614229926129
0.17440215522044167
-0.28659314776271894
-0.09289869161899843
0.1551291806378866
0.06102413007699142
-0.3001600980243946
-0.1401908299655142
0.08724154019578363
-0.25891391299083394
0.018277243158901637
0.08633394814719854
-0.0581483185367359
0.4535525156318394
0.006784943349624248
0.17511609776136705
-0.037896735368486346
-0.034849133005671155
-0.1491691657084078
-0.13910235294038084
-0.1666461766686841
-0.10280072876056841
-0.10160289259329994
-0.17189252162110863
-0.04741277777655907
-0.016392672370206387
-0.17855429236984374
0.15263469834847937
-0.08423024196596329
-0.4034065967043125
-0.016866463229867273
-0.2602654414342933
-0.09747394568146361
0.09929287356183909
0.3217860870493337
0.2229927952637903
0.1296979490359824
-0.1771269641418319
0.2856717541213131
-0.2824918552017511
-0.17730992235409268
0.6384604802808989
-0.14199068321428243
-0.22979154123592235
-0.03855304827549416
0.2356410560788918
0.08153242718954606
-0.46170823608231965
-0.25383776768237065
-0.0011900767252299822
-0.15457482176572046
0.23767438505713914
-0.22323786884500785
-0.2639381708679141
0.017904779080714528
0.1334869270476074
0.13595814410537352
-0.057559624313337936
0.1266770451172444
-0.10828902253984672
0.2729966380714332
0.19430035477211205
0.13027576560750437
0.31850152222781103
-0.03251339107768221
-0.3566636371212882
0.3359244524882079
-0.2727482329666538
0.17129502068597185
-0.3668703088370054
-0.37588880563433974
0.08766452523038404
-0.18022189884393408
-0.21700942659571512
0.04642632607296591
0.11360093542774241
0.05293561844784818
-0.18148440557419654
0.005986073956393301
0.10285867981213466
-0.03012232438279321
-0.17867347072795484
-0.07244890862862964
0.09446978520011823
-0.12345549203634598
-0.04786334036042861
-0.08532981482205049
0.33914411790506094
0.3677939418132923
0.0485147613287227
0.05997609439977624
0.2401699965026067
0.004737706089549262
0.6211278279546741
0.2306149809228955
0.01997170780694163
-0.327033924527461
0.06291128249051434
-0.24618448358456294
0.05304862206337466
-0.3471659270916526
0.3897097427039339
0.34505643898291743
-0.2367709229616728
0.026589771359144795
-0.3827619946220895
-0.5149590927288235
0.0886615697526695
-0.018438708640731542
0.33980468706685607
0.23995045844630647
-0.3343080051562395
0.21713007874257434
0.09450297507848432
0.015272793056538742
0.19127358598291236
-0.48604700975795145
-0.05862526782654426
-0.15715308012146764
0.17958566788762076
0.04521154162614082
-0.06653740017450858
2.0433577123676736E-4
-0.1596481901716923
0.08335178711046871
-0.24421904933633065
0.10941313334948354
0.38138430051931205
-0.059192838149480634
-0.05903162432734247
-0.12619895395711245
-0.2823229119764739
0.19263391048617254
0.370509574027716
-0.08072665881903932
-0.033819706690590715
-0.10138336420001091
0.1726548652965027
-0.07368395569277336
0.1422781197712281
-0.3312430167324931
0.1598372014028563
0.06805314863118343
0.1473184090849373
-0.26495616773315667
-0.05317175822005167
-0.05520245488277438
0.040826278745021434
0.16167284921627115
0.24109550493776388
0.32571145347974734
-0.0756113036643245
0.01493084807818107
0.003544018886179403
-0.020367470199971656
-0.25681567710665054
-0.15177769262653387
-0.15569800947784374
-0.139302537808866
-0.11643754522514312
0.04542494671347472
-0.13058111550132281
0.04071104159045566
-0.24782645701197353
0.03426000191325112
-0.1366983349249772
0.3434394647776972
0.1492535292208633
-0.254204415357748
0.05516771937540599
-0.028643677504972622
0.02414996900186564
0.182522917740055
0.10976983073771698
0.2618363133266761
-0.06229508179252399
-0.193128218084765
0.429752192930095
0.05654162500512804
-0.17889980671478786
0.16525007181448542
-0.18060235927942417
0.005228034911165331
-0.13254243607200675
-0.12846770710863878
-0.16122882843762815
-0.2219389896485387
-0.04973309565615348
-0.043591397051124164
0.14746858755180267
0.32040189578408773
0.1546094411502188
-0.150058061839774
-0.25689231618858427
0.00943268631691625
0.3804495674663045
0.38242189866159143
-0.18163426466704458
-0.2543213558596548
-0.09214592127328329
0.03407513924994237
0.07906661510527203
-0.2059436442666187
-0.27852584301652533
0.0466934906796939
-0.02548029813639483
0.018052761219732257
0.13610845813028302
0.3988609162129501
-0.36627833191411824
0.06487561453844685
0.2274438543562629
0.07643366505822062
-0.1387811953147717
-0.03285756370421345
0.042404623683604196
0.052559139244919076
0.012166130025898756
6.680059447955643E-4
0.2970786630702357
0.20468193401111767
0.10167786809505985
0.1958813698097846
0.408269697690286
0.0790321269598872
0.1734882258480014
0.42076442354325405
-0.103580325446968
-0.180260776538367
0.4355594420100388
0.23374842946418198
-0.19758105583756475
0.06973796374993088
0.5318381190026855
0.017361771770980593
-0.02867218858404684
0.11538648470085577
-0.01047220148238589
-0.03093047591925817
0.13712425015440727
-0.16141084441117629
-0.07957875722526041
0.18845701392483083
0.023840762663620677
-0.1326487339582376
-0.7216757317621604
0.30338430858436344
-0.05996654246699438
0.2930613770006762
0.19729820564022096
-0.49855894762987574
0.03729538534168721
0.21337273242258453
0.12465586600443619
-0.009639819848670085
-0.1553341414884005
0.04673932246654679
-0.5053658553451763
-0.5061911647525372
-0.08544501878528168
0.19145039283256568
0.22389143355451147
0.0776482909747408
0.19175503873474445
0.054315056390168995
-0.3200655791660006
-0.07499624543493537
0.11069311895791936
-0.25415277077396103
0.21682023431048214
0.031243624989717368
-0.20649218153299495
-0.024616452292790497
-0.007199635248003062
0.19586091490752222
-0.26611833770108556
-0.0020571796717516865
-0.19281301784496988
-0.006454933740027262
-9.834664743444623E-4
-0.2728314198733895
-0.39081942328058067
0.3898449285198533
-0.2901721428803334
-0.02218852831246068
-0.5245438406528894
0.02586185043505437
-0.01873566747409513
-0.061152879658427806
-0.09541637969422873
-0.24100780957312118
-0.14816751302068773
-0.15081330639604115
-0.018363877448855846
0.08133801994731948
-0.2303325456912544
-0.15614970533648898
-0.0019859291958297795
-0.36246326524483763
-0.22875864349524938
-0.37417742508480484
0.057823381443745464
-0.3986310275476428
-0.02648330328430279
-0.0017784951590258035
-0.11676944901918146
0.11574332132345905
0.10399754390789387
0.03334454918904172
0.032417851507190835
0.06521679087744024
0.08481278242581004
-0.17647480704499152
0.14508476743628404
-0.03788144057258494
-0.08581932565121964
-0.0641845312669281
0.04220916900702849
-0.10823902372286703
-0.02728000513128913
-0.35891148330243144
0.11732889401938451
0.1781297059108913
0.17095383916858922
-0.05974420946573671
0.053256859321371836
-0.24705242899243346
0.45613960412000953
0.34199909562137204
-0.28484497413785415
-0.22881048431851747
0.052321652355520845
0.28951264827612405
0.025839194252483124
0.13220029778590803
0.06462848400632892
-0.19521626253534688
0.31186875831568456
0.21302147238842345
0.09730453974793213
-0.21485820188410362
0.03803424261805595
0.3398607903376849
0.2151758793799936
0.23475429024211875
-0.13130764471449038
0.07103055463304357
-0.20032327497824928
0.06332987059901826
0.1113416837789115
0.2752019258927329
-0.25974104909279505
-0.14259688131868445
-0.1564384572480402
-0.17268871898861587
-0.2621175012018199
-0.2027633804396779
0.3003717701317631
0.012215218989602733
-0.0516802791282068
0.1933196714387227
0.17287055179908706
0.06926392382925906
0.0783326015869825
0.27329687156461063
-0.05016715959924687
0.014122447216802655
-0.10036007652322705
-0.08319429944647788
-0.06584107820366254
0.12373118329206748
0.2396642773917082
-0.17259934023518472
0.2215181296725547
-0.45669507969089634
0.16691713919822962
-0.037017410605911766
-0.43409533155124963
0.12068106694336299
-0.10923809069177501
0.11232834051528529
-0.347203499700035
0.03521396806800125
-0.22247598728739681
-0.3889161057880747
0.05818676680532515
0.049941864499640165
0.1782124361349635
0.20671343952726812
0.004768415542975076
-0.04560101403329205
-0.1551209894864217
-0.36699559285527517
-0.22037824509681922
-0.34510758634143834
0.20364715943973596
0.07771942401786774
-0.05218436014049063
-0.19126202260054612
-0.09429146605064796
0.26259511035208344
0.15565098141542918
-0.6793084930970273
-0.013278729670878488
0.0635051212572004
-0.09811796538273727
-0.3750649776023821
-0.09382241101432776
0.14156470495917306
-0.11930230631485457
0.1426664077716928
-0.4463732197980582
-0.18916811170595907
-0.06508607616252518
-0.17356376593605394
0.25086233232961563
0.015259954206160989
-0.0245394243356429
-0.06430977216950375
-0.2083417430928356
0.08322466778277839
0.07101177305031449
-0.22102831504275694
-0.17144943307220228
0.13229423662774772
0.30472716432025965
0.14877460205199333
0.03730329525076998
0.4526065092583258
-0.11755905499012605
-0.19461432955221036
-0.24580162192279553
-0.4391654116016219
0.4468513383394514
0.13450560227444885
-0.21500079666916255
0.10551602886473781
0.10633142009720967
0.34961520207979624
0.1652946273051372
-0.07565113726296853
-0.2340372422110024
-0.08750440866598332
0.13750603873790768
-0.2572411739145864
0.0819604476924639
-0.0051923640889951364
-0.16443401119797685
0.008772866725160337
0.2323260286100145
-0.4478231845452183
-0.3523833435361013
-0.22330013054152853
-0.1379836282091748
0.04226098290185787
0.01620522518615722
0.05253557351240609
0.30542149048295436
-0.048244595747020926
0.08551535162490237
0.09394629056691087
-0.3025907804832325
0.08339733430369638
-0.08124447570840986
-0.2119507733217606
-0.022698253089574984
-0.4791438414088722
0.21643064757048872
0.2614121342341906
-0.21596280345855953
-0.1865824056498285
0.0066201020834593454
-0.13528577552795698
0.04982135886664055
0.1157935617801143
0.22426492123439667
-0.26744937313067696
-0.08345725359167219
-0.3401126116708577
-0.10003847576890426
0.02265830716387866
0.003248744178209283
0.08753965287985765
-0.4213031541547872
-0.3021165107269687
0.016386638452364384
-0.3306048798929348
0.1671108435104267
0.0032016043499899175
0.061303362701763515
-0.006979436892781386
0.1386820021359917
-0.21566189283671428
-0.06481449592463427
-0.10761888407107957
-0.12367237684843975
0.027213654768149655
0.2145652565709356
0.30537945132732885
-0.2629343902993953
-0.08700302261733822
0.11083673272167073
0.2643037970131553
0.07547516340343335
0.14065778469407794
-0.057596879594901666
-0.0925891156122712
0.1272708457923905
-0.37193404629452975
0.1435652294807106
-0.06603533448109437
-0.030448089346969492
-0.2704163632552605
-0.17568540907496483
0.17178034124414215
-0.13327742968253034
0.2557434485337326
0.11968521353262562
-0.16450490620665645
0.172954592742086
-0.14822193659001345
0.056717063738375345
-0.07473273768508579
0.014733955898047362
-0.08237993560725601
-0.057553385716615404
-0.15438833658192244
0.38817505773503486
-0.23053975910654365
-0.25339661935369945
-0.1535667714127145
-0.015683386660434378
0.21020045213011734
-0.2587347988208982
-0.23922193356637442
0.0016169585680784482
-0.2664812200388076
-0.07957047882517317
-0.03366842795283786
-0.2517435059132544
0.1989648428572556
-0.2999252461140081
-0.44335366447824986
0.09198083416976297
0.12069362524241387
-0.09740057101405898
-0.4941136267187064
-0.3550990679475828
-0.11410454010565994
0.049437368369068375
-0.12438082909935272
0.14305936916043835
0.08825348108612019
0.0404006964497274
0.16253252079496752
0.32431304832653557
0.1704591038896147
0.013323773899063033
0.10853139024790062
0.07232838272966802
0.03149841429796534
-0.49901008571146055
0.3010887549750334
-0.06553683925534054
0.05376331624862993
0.10407134834223968
-0.07270824010502006
0.2611325791761569
0.22166665721550438
0.1076687258656496
-0.03350794670720861
0.15643411391450535
0.10135143927053546
-0.5268549417065753
0.12134124954725577
-0.271943102374204
0.19365749817742708
0.12588210175043424
-0.19596057474165443
0.0931891497688241
-0.22697045905036173
0.052642853177903993
0.03320943531932776
0.1854162507334718
0.10158021194514218
0.10569296691237647
0.46892191967247104
-0.2526237600520384
-0.014789885924320666
-0.07132411242804335
-0.06011677556853057
0.12137566419098732
0.056201482579148886
-0.020276824554616307
-0.17406436223246785
-0.26079906824460936
0.07951820858939494
0.025871304197552063
-0.09505210871164808
-0.3221512385281137
0.2862690685892197
0.34052987657032896
-0.22553115799134046
0.04514729455546896
0.23193977775685864
-0.009146372732003468
0.49408693819049254
0.509649479627253
-0.14513432969068346
0.1940692089474108
-0.07540107477696856
0.32885606208244234
0.18150192630637133
0.19850472999654425
-0.08877921336664742
-0.08820286461567393
0.17108755603356182
-0.015525163839387533
0.10028434277437215
0.035082701812252204
-0.15741517703238733
0.3843127463868234
-0.33232118837683977
-0.1559014705169991
0.10612675496048167
0.06019617636638033
0.15684238360583136
0.2612015660929555
-0.1237099835239964
0.0668203414452983
-0.15831654641151602
0.07910959501884916
0.34649809702027634
0.11356284167430941
0.030773642217912598
-0.12532313588813226
-0.22184313250968085
0.41095746819706375
0.05349409245688848
-0.12401136882324845
-0.043614474018807685
-0.11163686533577862
0.05998368138778997
0.3144597148373447
-0.030378834823618955
-0.006178791709080492
-0.5020709920932551
-0.03424591413350539
-0.10273246996863833
-0.020454258408896392
-0.12845485864681536
0.19974899121644504
-0.2920232514963172
0.0586711832264476
-0.11366458337595324
-0.15155200919126077
0.06587269571329109
-0.1916667774844786
-0.33565884040147337
0.073155443703124
0.05796721707875832
-0.08701841856968699
-0.07080429467560942
0.06149401230840193
-0.05366207740566322
0.17595292773142007
0.16506982828257885
-0.4564859018312667
-0.36152758668286267
-0.1401907036274769
-0.00800546510362457
-0.34253618861618274
-0.40443122501613615
-0.3142114298028108
-0.06123900282111712
0.32106010368708804
0.3709006525071233
0.1099393734164592
-0.2497762853455142
0.05675254420611968
-0.3927319685916374
0.0417739469470436
0.007169282343844455
-0.09341062316486975
0.029971660795894788
0.18870837198073975
0.28347682135692037
0.2895001205390247
-0.057301957496980666
-0.21429282876905048
0.23323540197729783
0.05701760771241376
0.20234632103272465
0.390566550834517
0.04621013277170259
-0.2332442454294909
-0.1830092596481214
0.03971270052525794
-0.26794797233323725
-0.00794269980587265
0.09666603080892398
0.05937223620960903
-0.10135419150695028
-0.04092953084474636
-0.283320741923095
-0.1717459385775633
-0.08232830577639504
0.13306285358125272
0.0688485485928658
0.05566404505362532
0.08281887994115428
0.17062713626101603
-0.029074102340281145
-0.01949700321664188
-0.2613565075867503
-0.382410732151921
0.05037668174207713
-0.10869951012801217
0.12254666206951569
-0.03323849341872646
-0.2018176154778494
0.09600492877861155
0.1670770076028079
0.08449497090858923
-0.008238986924107808
-0.4156848668792129
-0.4912606837123662
-0.08951384427672539
-0.015787214963506338
-0.02412556197125312
0.14347542074904823
0.04342918501761823
3.000989962655097E-4
0.1846994681440928
0.18120620670520146
0.5452528945205652
0.31388096153974343
0.5865560382364673
0.3053974282758993
0.34577455985512345
0.03831360245707693
0.37443636902545346
-0.10738801796134445
-0.011779819952568125
-0.408151352932478
-0.3046463279678154
-0.3117082819146996
-0.3485499400356628
-0.48022690943951774
-0.07630604562164074
-0.06349865320768974
-0.13045945951266108
0.18737180151476415
-0.18415703247123766
0.035016913398226775
-0.2702024774397965
0.061687300930553295
-0.08261376021572832
0.45128927697952126
0.19909795796719473
0.030198546221713255
0.4946593790428467
0.3529355188660488
-0.026957543213387437
0.05737148212220338
0.1118862388372702
0.4298021981435564
0.2735909532168705
0.32865005587889246
-0.013681017100031955
0.09077363836974187
0.09944985522943013
0.36312471793474327
0.4617282975405753
-0.16269159735656347
-0.10918383696232102
-0.39355459530134485
0.4044275179381018
-0.17808140278213452
0.028452218738869845
-0.021158735489764696
-0.20979871411088813
-0.5371379094587516
-0.06458265574193944
0.1690249518204446
-0.49926065610441983
0.029115367201379846
-0.052609930161655605
-0.09758574297786864
-0.05294591064183693
-0.27985503095288766
0.1849646225371054
0.19466970569495165
0.09386678867858557
0.19649652431256348
-0.020274461150858257
-0.18218248157650246
-0.12375066862590395
0.09241513673298112
0.07682823940100614
0.03130296347952795
0.22885020024937125
0.150172453566093
-0.04457692446409176
-0.011024486621580705
0.16853323272924167
-0.008964218636300498
-5.98308139007124E-4
-0.23421232276638998
-0.15053760167230743
0.015918705680367608
0.2098096786119865
-0.02124666944844206
-0.06045141952627472
-0.15496771512800894
-0.02736047203880386
0.12809356667003155
0.06234728532942957
-0.02704966144462921
-0.05535059300845834
-0.25051238147301674
-0.040470145072163
-0.6265705029488962
-0.04865003778497451
0.1398449978013607
-0.24185417821522034
0.17449522187517352
-0.16804004414018237
-0.35512324934417777
0.11907975798421233
0.05540537350575087
-0.1146439212575999
-0.22959238217690212
-0.4560547939067743
-0.19280236211555346
-0.2661913574625187
-0.2448224258150176
-0.05099817880614373
-0.01597980619876868
0.1284457645609898
-0.08777560197557766
-0.05177279141258283
-0.1523329937980292
-0.1559417692886044
0.26201611414254794
0.24708969647440865
0.15673074589178237
0.1760197883689567
-0.20857815146234654
-0.10085455246857651
-0.28101768147472395
-0.2552202220292971
0.08634611427417654
-0.12742934079873441
0.002269623291949651
-0.33080750788121616
-0.1867645007661252
0.18234804980150365
-0.2820282772458335
-0.10107705009139875
0.28059863038150556
0.06021373340663336
-0.20694338805914855
0.07682186117838928
0.031369495761780955
0.22710088912264123
0.156534739980696
-0.2542339081369907
-0.1608112312280392
0.20931880739281802
0.23448666604872934
-0.2151761442415571
0.04205458455173198
0.07720019937006431
0.03542568143026361
0.021336705338918436
-0.014844733054093617
-0.3753541296912471
-0.06308357117204001
0.1784969062477427
-0.10123015015491219
0.02436011917500723
-0.19171620526674685
0.42567212927653053
0.09621322238360844
0.13362712416245523
0.00521278013551655
-0.22038853444562762
-0.31709702565485987
0.06856739541041229
-0.11866727293822146
0.08546415948286927
0.38791119058540213
-0.24748357925127792
0.3600158698891704
-0.11237175043768567
0.1366671041376624
0.47977544750617923
-0.619322419436928
0.10888345719016322
0.2956046435323588
-0.044041457720805956
-0.18257133900602074
-0.07654332111117026
0.19524637011131254
-0.07205051626858071
-0.5090550608806979
-0.2360903351107356
-0.04947652995549769
-0.210141931715272
0.24528568638174092
-0.06369396835701771
-0.21590163138592394
-0.04691499227715206
0.001206100273581413
0.21790709223376648
0.44173839481652843
-0.17890883712290012
0.2196134606069945
0.1510643858686665
-0.02289704223491658
0.13331679965580048
0.14855357805077773
0.07088380110924516
0.06616736898952917
-0.11123965562479414
-0.1069159429837963
-0.13927796914305107
-0.11655823253271985
-0.3527281473813489
0.05492652402207171
0.17714398429445102
-0.3047769636526998
0.03254716974989634
0.09273751569926703
-0.1145538315570997
0.23579560030471264
-0.2295052182542209
-0.08246380300625643
0.28577259240683867
0.07256149507107522
-0.1756299110627865
-0.13114050854363327
-0.17239981979895386
0.4177443741909998
0.10202500360170852
-0.18756915250079123
-0.09221343519267088
-0.4504978388836455
0.29899103602894683
-0.059145687120699016
0.12432149021504209
-0.536506167415559
0.0018752710597594372
0.31742370567507655
0.13703502527694947
-0.35836221329188434
-0.17845036399998904
-0.21690458023245046
-0.001758350298637884
-0.18748649047258345
-0.11271842637556756
0.10412550703317579
-0.009688168168791809
-0.34662098269100067
-0.3768859967682856
-0.08160912931575143
0.07368808234230999
0.17354376667777005
0.22239586659162133
0.2856488876768725
0.15632882004102744
-0.2876078264663165
0.1571901754152368
-0.18832884220103113
-0.4553639372259639
-0.5243578904818269
-0.2577484391339131
0.03941391107100361
-0.003773291321740947
0.25918677078342633
0.21657351786481513
-0.11928476966927175
-0.22290004162535923
0.06591029184420145
0.298657489006463
0.37324202075493945
0.33073942793911326
-0.06873649808361615
0.15213210238972677
0.2981455063705296
0.025188951306874444
0.09939669602591737
-0.12257940446782356
-0.1358766328402184
-0.28843081071320825
0.18604350374734882
0.12414684825118895
0.029211764859916965
0.28190203837033195
-0.04284019240957174
-0.03652921165002947
-0.20004366637638143
-0.1287414416110723
0.18188363864474388
-0.07337505495237082
0.021573665500943053
-0.11738641179807262
-0.026923929539260205
0.1460556460967627
0.1166722054692637
0.32450378862914797
0.11269337228342172
-0.19564013288216617
-0.0997875778685235
0.28304836885725315
0.13990999169382767
-0.16187168539396007
0.058096928263416475
0.032079495863275076
-0.30734164455986657
-0.05280802759933838
0.19077573358095576
0.043319168202535445
0.05313549793740189
-0.21954679780280428
-0.29336015710725283
-0.3552468086332245
0.05822735177382944
0.0011115551742605602
0.20212877321158654
-0.12371736775456674
-0.6668678412026694
-0.2515153485327219
0.3116597632176208
-0.04501941209144665
0.25017935237708416
-0.213631007444331
-0.4184925633646613
-0.08781285719506099
0.05836842653798589
0.010148008463601877
-0.2252998699084914
-0.2589442201831806
0.052032403103014144
-0.017101095421086586
0.06931379183750458
0.0070799981695401784
0.19963977362962593
-0.454807922861359
-0.3409741306449553
-0.21653763752283622
-0.06981962196506841
-0.31443603924354097
-0.2952843388363041
-0.048254417299165756
0.16254409819536916
-0.14816702458366238
-0.08945131073401973
-0.13563256573063046
0.046287867260568626
-0.49627019644350445
0.13032420922786367
-0.008644519288860725
-0.10471549297688273
-0.10909536758321392
0.10905442020936933
-0.053406141609425556
0.34893495839405997
0.03070404320562323
0.04163312874181967
-0.24745213152845197
-0.23013452849173313
-0.013366495785753859
-0.0854412446268199
0.08239230269282359
0.04212956489834717
0.2860701501961998
0.3050682756646249
-0.3042532243298595
-0.23894797521441724
-0.5427131118990478
-0.013403099021458273
-0.10686230877779516
-0.12773582059259372
-0.04286531015423392
-0.028966629319341894
0.11384108542895072
0.07283552685161528
-0.02868401396943923
0.03621073587397537
-0.09448236556938985
-0.0599482765575796
-0.09991603769038773
-0.15367618315925366
-0.13584226437776878
0.1635324399366818
-0.09731425533467489
-0.07399444334959432
0.1260085757602763
-0.23036620092304144
-0.3810965833070388
-0.3982545101048393
-0.11973396442499569
0.004932641235128891
0.11315275166610064
-0.11994065918183079
-0.6006804491886322
-0.13666464517653995
-0.1026239711306406
-0.060055030476313935
-0.1397251805835851
-0.24859399520101272
0.08621268808698138
0.020098832968514963
0.1473622804328528
0.17872931287376004
0.23379949711323278
0.2291854250855729
-0.06837299777066212
-0.043795545652987475
0.09799422804966886
0.2743557575441
-0.034878171583636895
-0.5811504914035497
-0.4525920793484652
0.014823309562421394
0.616783320506237
0.5762395932214857
-0.6052293284750044
-0.6092957296302739
-0.20418035741474716
-0.26569069080835184
-0.2752195012719804
-0.2594518471063058
0.0960787779795654
-0.15469306061939725
-0.24123567366722348
-0.18411376862903286
0.24775722365969394
0.5493559811778179
0.563650169348718
0.24567970878807158
-0.011874041918693307
0.3378465514989145
-0.3395590345321066
-0.01328736996978427
0.013750430365688075
0.31056596509631473
-0.08189163263952702
-0.5607885624328811
0.08307093306532687
-0.3000779830738856
0.24224897878337492
0.21875333706606695
-0.03536041236799478
0.06680355544714525
0.3020426476842505
0.22295258518025948
0.14458902590031356
0.0849384836361211
0.4018790473842642
0.201134629784715
0.1490400622431395
-0.04352527215061511
0.3517693871774559
0.1980213523581108
-0.0193534843711627
0.13606642333370556
-0.05072539042544494
0.18229555888350868
-0.09949721348618895
-0.027780503827897967
0.06455290819897738
0.1261284406868027
0.024768786366448182
0.19079531863874194
-0.03620801170124529
0.07827749181321807
0.1320096018098906
0.194655137837345
-0.07036022020591083
-0.23635396094391603
-0.3150641748563358
0.2292309880421998
0.30392536786494456
-0.19232576306260044
-0.29609876421594356
-0.2239293194656735
0.29197528111180937
-0.108724813150502
-0.2264375169900157
-0.26698792054369086
-0.08029039113705705
0.042395647845245195
-0.15451620975599933
-0.38700660110090973
-0.4574842228203725
-0.2833954867524091
-0.061063371019150416
-0.08527647990856815
-0.08494202830921802
-0.04925813880690083
-0.3229173850034616
-0.2067887270384823
0.37494303676342466
-0.34226002108160775
0.23369315932618273
-0.3714495171628453
-0.03272640428799689
0.2407443123207231
-0.2008305095389659
-0.1556873151270539
0.046960771985856055
0.12462271042291519
-0.008694456102902162
-0.3655183080289236
-0.16785914813889075
-0.16312499010671144
-0.2352795863077751
-0.27681676091842733
-0.09539258195405109
-0.2646466374952831
0.18104086237763958
-0.035092430226566045
0.16247040814751304
0.13415374018051082
-0.30470394451246385
-0.1349652641859129
-0.3402098788745178
-0.33933305469962055
-0.18444088684518237
0.07124569943667211
0.132915884083054
-0.0969308607000515
-0.17528138905830642
0.10372702216810677
0.031186805557388994
0.3363712068340107
-0.1741047385665469
0.008829619323226581
-0.19646212190483633
0.2812435854651901
0.23996668833384324
0.059747857839713744
0.4236252428040658
0.4510873865298228
0.07043111353393153
0.051215461681686794
-0.006379339502458484
0.20325428867608433
-0.1619608909981841
0.3382564883388028
0.17839284544147002
0.1418153684765752
-0.4090498390590183
-0.15856781357388997
0.19063714861561692
0.2890384146589996
0.028446258333086564
0.27509630370116867
-0.22208682234243676
0.2949684529223708
-0.1319523319665314
-0.027063294500203155
-0.12955441637992204
0.08226933216985867
0.006981719017897582
0.6002202203284855
-0.04407144785232771
-0.07113984646199206
0.21471818359015565
0.4783804744885236
0.182230973179361
0.1118333647244093
0.06575112586015686
-0.00834847388496906
0.23620918337393634
0.2798082967707657
-0.08456870161337164
-0.32748098556030136
0.18838029810890633
0.31018437585656455
-0.1036329139760756
-0.07148820485812668
0.17870101851456338
-0.004947146250617179
0.12068374692421958
0.44196118905269116
-0.19460166447706762
-0.15971306858604936
0.5806210082799665
0.33896532444283894
0.09968526197957006
-0.1707869611208397
0.02409077990079266
0.20980012839259696
0.42931610156218963
0.17896229388924162
-0.013118452941346071
-0.26677517378310156
-0.18859440459777213
-0.37044949615606115
0.11949372566587278
-0.11042985508007808
-0.012498761685087267
-0.022624911931695142
0.18198755054370422
-0.5935439404592726
0.0046267674849672135
-0.05596517071594202
-0.3965318693502256
0.28421419351005395
0.20234571431096562
0.16120440005874628
0.08141018831213437
0.167970389831173
0.13274256911149282
-0.0807113051588121
0.017338205177417076
0.2691784783960304
-0.055378441390694554
-0.09859648063673739
-0.2047275620215863
-0.055208514451960775
0.18219406584701123
0.34174141709452005
0.4003449039297902
-0.09852275004373924
0.05514291092609275
0.03268292556569014
0.01268582266455355
-0.05733822851320055
-0.09580733540490274
0.18154022088058439
-0.26981897805731625
-0.07235712949071682
0.40868294406893557
0.23418745488482726
-0.3598170041649472
-0.10839103862306004
0.13389464278042681
0.3434162402163323
0.1718812013210437
-0.25799529191887804
-0.35958392612031853
0.07079789940008985
0.43508725687231736
-0.0917248443427138
0.05901103067233719
-0.11345510480203777
0.18487679986607974
0.12296658391755776
-0.15280875024031987
-0.002906590172298289
-0.047131231409902864
0.13997188259186283
-0.5282683536006246
-0.12980026555227372
0.19360499556564895
0.28807169800486887
-0.16606285929205192
-0.24357049256412838
-0.321139880230955
0.3928607888916031
0.26859631267769
-0.45448881520497714
-0.30347435100730386
-0.1747830552714053
0.2424722244646632
0.03353962891696239
-0.41037829625015143
-0.2949815953242518
-0.158617824725931
-0.18866585705898975
0.06553630126079588
0.06277374737460081
0.025024977780416596
0.032340887391238055
0.03111474116182378
-0.09475853026694701
0.1400458816935433
0.052241239057094914
0.029784020491984923
-0.33785800021431855
0.32176674016133133
0.18033285238641622
0.37983634650765635
0.15561257784281432
-0.2219384405183506
-0.08457083363254177
0.33720949473464584
0.47137434051899463
0.5132665814626959
0.06237993934123582
-0.34866995998524264
-0.1322045170689558
0.4738053330093751
0.53214913911408
-0.006229307147682415
-0.23474132549764112
-0.11745255983723327
0.08155778614197591
0.24169972011574684
-0.19327518563834142
0.15202180153006892
-0.371172325535326
0.14769247353044462
0.06892338153040017
-0.03320726603697455
0.4421346687569512
0.35982502427199603
-0.10875942245827434
0.0950193622911462
0.29185947065874857
-0.15815142573965163
0.10688659201645419
0.25560766657557094
0.05783786346280176
0.1970684799390537
0.10588156621346709
0.08293284593627542
-0.14319137590771414
0.21005636511262907
0.10241329977626946
0.18694262562000297
0.2310873103335481
0.2636468608441291
0.24726371949756484
0.1754702628578746
-0.15889604756630707
-0.16511971025258626
0.40375980078481655
0.3327154012554676
-0.06993588571779932
-0.1565730458394126
-0.4548433072094982
0.05686772440656971
0.5531076433858385
0.15768843448323813
0.1042791781958096
0.06214745200301835
-0.31499673908547765
-0.28973889893796345
-0.002955209788857281
0.1394310959075104
-0.015939993217959324
-0.09290515402399936
-0.2086499466483701
-0.36216410892371254
-0.19419166539802574
0.20501861622640047
-0.2673937748718011
0.09987501734463654
0.07697242919784142
-0.17086195299569285
-0.0801671008263125
-0.12023559877271638
-0.2487772848268728
-0.3404934019492617
-0.28890003811782494
-0.13809164012366557
-0.2656231469524913
-0.25471233646284897
0.4032402194275184
0.027950431775213374
-0.37244636952740817
-0.252986929887418
-0.2090893858413844
0.3204406096142266
-0.06598448966131074
-0.11407471122591381
-0.08922684929507264
0.12416908121417582
0.10208249164602269
-0.19796757129640302
0.20384161218664174
0.2327103002389751
0.20129723738062147
-0.28897835243219633
0.214722878100995
0.0835012987086652
-0.12632887750071556
0.1037846326716884
-0.41356980158167367
-0.022224608563060265
0.0814081263381886
0.26137402466464726
-0.24786684085446611
0.20921769998910977
0.15224684883643272
-0.0105632859994275
0.13935855528422683
-0.1141153838261596
0.16197816024205144
-0.11709964205453097
-0.17891033493155697
0.13075429483405845
0.2652722970481914
0.14000379038174743
0.11109328035523676
-0.06795317744982562
0.07512248205500825
0.04133777530220448
0.15480920319420743
-0.1294550729259265
-0.16521112983412256
0.14779173188406397
-0.1419558991853707
0.29385327184260523
0.019284199488153762
-0.11588128173686482
-0.224091541700148
-0.6330545512355612
-0.05010786769048406
-0.07373624402733396
-0.37020477984396666
-0.5988682076207935
-0.2856346717009002
0.22469297964790547
0.1338734124209142
0.15726581564533174
-0.3600796032059639
-0.21117945900844484
0.19242346962654336
-0.18696168953906447
-0.1736653815396937
-0.2487805984651951
-0.048239681403440544
-0.005084523913804179
-0.08964295285222967
-0.07764623819957522
-0.21812595585771
0.15178470420163515
0.10921111499739085
0.2422404883227573
0.138360108322599
-0.3594359606459232
-0.3336784367614748
0.024327177168603633
0.3410024587950279
0.6028760498579883
0.38471814608588834
-0.3350031165993989
0.0014328675773553337
0.5000557476876603
0.14444410914580283
0.04540890945635494
0.04866634499452493
-0.39124033596516605
-0.12782436939437294
0.007802654072804005
0.08568682041019715
-0.018053981959209642
0.1528295692040741
-0.3834019490409923
-0.23262509834417489
-0.3524941951924905
0.08601171823674261
0.25527428303428473
0.2696337197651552
-0.3333615230545682
-0.49395980501972614
-0.01654514772744611
0.06681722434769997
0.0854347159043068
-0.44766068919543317
-0.05421460205541144
0.1221317379026814
-0.13633999618724615
-0.39944484016850956
-0.023181928928829896
-0.31987622732852555
0.2588609811743278
-0.032774433989775024
-0.30700968300867576
0.121532272478806
0.281142282058836
0.058214122358218656
-0.31379145500673
-0.2864594722282775
0.18081873841346444
-0.09855847791847164
-0.23292121862846982
-0.00785471495741429
0.18057262756163397
-0.11544928068733849
0.17255234254534643
-0.3635582864217372
-0.07541742143594193
0.23390357810630974
-0.01298078114328005
0.07667964770013141
0.3408868981602575
0.05547630834135623
0.23907351370384522
-0.2646650390257829
-0.24318061053509057
-0.07661756894287047
-0.286769283927969
-0.15768283489297333
-0.017050874000148278
0.18394637206823863
0.05330535348788601
0.032222909043871505
0.09340995302245153
0.09570861822636087
0.17506287062752907
0.05921819732130079
-0.08343727574387755
-0.18322393523560376
-0.17165364396950497
-0.008380210173015096
0.02020286979270465
0.2422180770081213
0.07228361304692425
-0.2724420623821809
-0.16883172530994406
0.02820320125404135
0.018011982122876243
0.029328342679058556
-0.029154742563405
-0.035484198491229475
-0.04496916967272804
0.10332644292490892
-0.128691649011182
-0.09571377452531372
-0.1413048612152771
0.39219725484571605
0.007672929698960092
-0.11761600851677133
0.2511897489255574
0.27773181857727497
0.1926722879171573
0.2687824780903167
-0.16921224525694012
-0.17233982865257308
-0.12165188905581176
-0.14605096842607168
-0.013102386693997542
-0.05492964031741363
0.08499750561344746
0.3068424356415152
-0.041750569107027284
0.009216316767815563
0.18137651731774806
0.24996310839091143
0.08692666565617951
0.24102514137137818
-0.18439101459748455
0.16485074123947374
-0.3964257182397441
0.22157575520788814
0.25685662047102625
-0.06585799164668037
0.2864520337802226
-0.4277756086596709
-0.09492554742458602
-0.2752423171536143
0.22973564533396074
-0.07432889305175669
-0.14067224763678768
-0.15351990134087834
0.029223647039010748
0.07501923350202175
0.44445045053259835
0.41432708199157714
-0.13450325375306618
0.16481077865439342
0.09053409972719151
0.1520807438262548
0.050889496908395886
0.3900062105405393
7.155520716404103E-4
0.21733890292554758
0.1383748137614941
-0.013120080324255419
-0.0894856965518534
-0.07193245356995139
0.0918376335323041
0.13848643433810667
-0.1921300435695753
-0.007607164101602473
0.31995864538635915
-0.05929008639079706
0.36078416299207844
-0.02758739287771831
0.060811325506161334
0.05169990596212895
-0.22438788865155
-0.10261047015286605
0.4110041299912488
-0.1668671955078257
0.043503517138282724
-0.12234569322881335
0.03375081195017115
-0.2534985875466513
0.35431082754809357
0.011040035012109565
0.34670274457396477
0.12102685508239629
-0.41242556077950887
-0.08338739728163896
0.2870451780992433
0.2621510981597676
0.27579383974833904
-0.27815287208425915
-0.04363776751744144
0.042855095911442355
0.10724345744914261
0.1464506877289195
-0.1920014985096922
-0.056959261009453005
-0.1704638993029292
-0.27136822914807496
0.22737145674820633
0.1326704329282116
-0.06343735710335516
-0.25758982662230645
-0.0050370533533799135
-0.26191840677785116
0.1453238103697648
0.057307314643357636
0.15167090998594993
0.03069911537506967
0.19146783990454594
0.030663943801394113
0.1057032103473987
0.05077263813786877
0.030794992373350906
-0.5190443192204034
-0.18962903611421844
0.05212812941713768
-0.04758079269798121
-0.060571246541515106
-0.2079745991189549
-0.19702606963003014
-0.12437130852273821
-0.03253093859668959
0.13708768138603142
0.2196318600942774
-0.18891747184453578
-0.010543458170444038
0.2865124753353933
-0.1362856459962176
-0.08564808426830076
0.23204088397838168
-0.022160105466619423
-0.20269116369212054
0.09449646171443483
0.05019429318551055
-0.29281478306579856
-0.046437277648363084
-0.02798587674145119
0.085238792771057
0.021650400790718255
0.08593366280834179
-0.07456151893603999
-0.06908086587439799
-0.04001480561180576
0.017265590553112855
-0.2528720564022215
-0.1894763269207352
-0.019568157157907107
-0.3072611803947647
-0.0365799402059977
0.0033083309262003898
-0.13434572849003912
0.10944829840981002
-0.314062142120634
-0.43889306096558767
0.2584347508067122
0.07489465423881587
-0.08970019208738034
-0.23344831391841547
-0.3035038765148437
0.0065409584326599395
0.1701524020012337
-0.0014293546575609734
-0.325579953049109
0.09483930918237773
-0.1355387202842655
-2.750558677468274E-4
-0.1697785690127683
-0.2368721387942916
0.015995415726735577
-0.006082760028670923
-0.001419645698740174
0.25231523115798543
-0.34618790267495614
0.23553108185850782
-0.1660770633453949
0.08794023080329892
-0.07918634621721272
0.1851626203914739
0.00795131404469401
0.03375861098238663
-0.15618965052328537
0.31891986003345024
0.05908510326062001
-0.3426012983138446
0.1185935640693579
0.12721195046198805
-0.009189625781990665
-0.33454075015970053
-0.4144021240229052
0.006574360118171208
-0.0715479506094772
-0.3145424067768832
-0.02838257600400398
0.37954262274838313
-0.18119937264133137
-0.018316846321021815
0.15742957541487956
-0.6400104118984511
-0.20986860864932178
0.10087048857713071
-0.21623466287411441
0.19518307199890017
-0.049145015193983024
0.022293269367362593
0.16281915480047707
0.09113192942824246
-0.10519837523623382
-0.08096272906418338
0.27525746336347745
-0.17663609494216487
0.1999425183278125
0.06288122028269903
-0.14654139075150716
0.19279892038929228
-0.05123753784980109
0.0528953299399233
0.19244368794010014
-0.02974384593921056
0.04924194055237927
-0.10613632065918838
-0.32075729488194404
-0.17949506571060134
-0.033830055043175065
-0.10941809443765392
0.2549598461949714
-0.0287067561924395
-0.24941117112972244
0.1204430156201099
-0.22955516187789204
-0.0010385922033565032
-0.08439349877282536
0.11466816470565529
0.28621554131961496
0.11607005922485268
0.38229850267410237
-0.07049646066618724
0.025309064972645387
-0.27246167313986447
-0.20667858068264142
0.05009601973349816
-0.18631460619066395
-0.1430059854449501
-0.08177198838122202
-0.11471102998501136
0.054932772395390995
-0.145746033585835
-0.29961621828133783
-0.47076813754272645
-0.05181116611805858
0.06818045736423639
0.06985230718704048
-0.05671941825907149
0.19130544471456046
-0.06559654528832523
-0.025856221934284735
0.22394860716753684
-0.2529715859011801
0.31501488903110897
-0.20946781440680146
-0.007536285717496913
0.029348568362583906
-0.05500418269933765
-0.22142309125253534
0.003704428016043235
0.09486505188984154
0.06163816610145439
-0.08102351990249886
0.0823959950236827
-0.08548792034560798
0.05563229642472903
-0.29584043422500356
-0.034917790788856644
-0.18409635221859022
0.12410072785211562
0.35702199235303334
-0.37298037459063893
0.04616088639123403
0.04456110775430143
-0.005082832795316685
0.030377524325760703
-0.269024036490483
-0.26798416350917653
0.32917607770575696
0.05710215603694642
-0.15067370970121702
-0.018751559864929667
0.14490901900835604
-0.02569061589504476
-0.05634003883468593
-0.22054574242971228
0.4077885636704684
-0.14230667760446114
0.14467672350494634
0.0275862391201874
-0.09851301108699541
-0.004548857188043365
0.008769689841468498
0.018223436932544277
-0.5478283280782933
0.021825622399402545
-0.22656135097402147
-0.15424022500588805
-0.13458014484350847
-0.2412614238766612
-0.3189538472067387
-0.17457636071013996
-0.10850164003314063
-0.10978123445238988
-0.09236913027024313
-0.005043176769497122
-4.322926733740893E-4
0.1939929877917605
0.09739214100411642
0.25726119952920395
-0.32850610597172747
0.38328319336229427
-0.2348819295004193
0.2751312272349267
0.21292411148246848
0.026690133406645035
-0.15201198350338066
-0.1800923899914887
-0.11197725446262692
-0.1770487099144197
-0.1435642552675261
-0.07417493532900869
-0.04227125790704736
0.09197955215633882
0.08047671797781608
-0.03432017148138291
-0.2683833396575642
-0.11252192478862158
-0.006821155813939189
-0.04872643530923587
-0.10273237625174816
-0.2912750575365449
-0.10289593156527638
0.2156891531028228
0.182233281260106
-0.0074465862214462865
0.32390254783385686
-0.5098623954904907
0.09777152891354059
0.387598530833944
-0.04371058615167786
0.060453679155647755
-0.1592039315033229
-0.22932935046631756
0.09158603737692413
0.1308219926627989
-0.06114241430369427
-0.012014177792056466
0.09069463477270026
-0.27695544756302737
0.1017945799220666
0.0029566065698085273
-0.04613528323386177
-0.15371971041983912
0.24065015659502131
0.16160049930240228
-0.14814192594277673
-0.0969568580400494
-0.36348593250084804
-0.004491369305958395
-0.07264809985424293
0.051430683475416676
0.14223973615066327
0.014604876584302635
0.28844773967387255
0.12433071152585436
-0.09150887229807211
-0.2701195782406927
0.4192049511548363
0.13593778144385285
0.550709159323245
-0.00891464561240552
0.0653058194418867
-0.09091639801207752
0.28519808625575266
-0.06775309285562733
0.17566692953721963
-0.3841789726275117
0.0947445871667374
-0.13206601369546905
0.0074672548289843295
-0.11644940377982116
-0.07484621349055663
0.13368865174155237
-0.0755710985486307
-0.09569188768037723
-0.10333675697260165
0.13866745518523826
0.11592518488603176
0.19293583891516353
0.28766226740867484
-0.07955707753304209
-0.0941435884492952
-0.10003522183292585
-0.19442109623492657
0.003321585892639776
-0.07350297742841394
-0.39246156295923096
0.14673416753438528
-0.5361882182590186
-0.2147296894240104
-0.18058721466507874
-0.05959136587002606
-0.39117716336738656
-0.32334026798141585
-0.17918660873323816
0.034267605210963274
0.020989370666871756
-0.1561328387779679
0.20592890544484754
-0.11180770819183923
0.09017757474830158
-0.1922551238924496
8.730117376796788E-4
0.05883970343357299
-0.09926125239634001
0.1290982227747628
-0.3187042025043937
0.225507334226216
-0.14471280359066918
0.15247068075021603
0.15463252457108156
-0.5041694493247677
0.2650803024224477
-0.14190017026262608
-0.1800253676684862
-0.1145101892669239
0.19833490356572017
0.10241454135716817
-0.08079525775612847
0.11566794739869474
0.02405811383154599
0.011603836769104587
0.0709388010957717
-0.3226136624313625
-0.1501021778746688
0.16235309763752948
-0.3758116775883903
-0.40155963774875103
0.05297107762813063
-0.17477856557546623
0.42669627037247615
0.08905695736354337
0.10236434495534719
0.41013587358696024
-0.07027870929185984
0.4414551075818244
-0.09085362838787141
0.22838940726433862
-0.0877295959942053
-0.3509133219410825
-0.4249859885637093
-0.17696497781507814
0.21930139872724805
0.07049777091036942
0.0796472041890343
0.05823457046556677
-0.25987425692600497
-0.07352174905625623
-0.0863711746492406
0.13254120324847646
0.0629700129516503
-0.09406525646314613
0.347715737447155
-0.006046870714180842
0.040519282079379465
0.03999722801559563
-0.20789040365100023
0.2842375735906136
0.08997624082735145
0.0659437873247586
-0.4286508187902214
-0.47858411138750667
-0.38734144312463514
-0.4946877258770096
0.16404868320184873
0.24072199614186715
-0.27341965698899623
-0.1831399831378255
0.09886151605565006
0.32636002730951363
-0.2442575580073279
0.10596452535762263
-0.0853007151106081
-0.20015682323055822
0.009281535359572502
-0.08379992302930789
-0.23589420141553752
-0.011485628463786318
0.21917206167358716
0.24689841343429086
0.3876971811052605
0.04733262554714047
-0.08611024924762922
0.24421263700050108
-0.16181546338904632
0.13347248106675977
0.2535556018933906
0.18783177243682764
0.18286353999511343
-0.2601436168226848
0.2948619002352952
-0.22988258495471825
-0.4195544308048623
-0.13891045260820933
-0.09647619439824084
0.0215395864832092
0.1440572984809386
0.20211019220024778
0.06718166042420891
-0.17936563480905346
-0.16142556691243193
0.20910356615303394
0.0235204718280273
0.15308480321193496
-0.27217343901523233
-0.35245557613024725
-0.17212908502651642
-0.19641009625351305
-0.001630415006307062
0.14901071543323263
0.2563058245386047
-0.2727918464919232
0.09390576950083479
0.10630232167065877
-0.030151263294904987
-0.379525804840118
-0.26929180675997183
0.2951869027877674
0.1831310306427883
0.0808898295108779
-0.1359936397597393
-0.10365373121467687
-0.2075200086721985
0.11513415619107426
0.00918228060380868
0.05084121017559963
-0.2774696346258794
-0.1952433905320104
-0.01923495523897757
0.09429834571096496
0.14087962773274418
-0.101638248962984
-0.22252815188825142
0.09866102658865779
0.05828942697423644
-0.48566427745683244
-0.04554579995546673
-0.15880518089474624
-0.08694732731873511
-0.1645219313061577
0.004606010999855789
-0.06417790322649315
0.04532439443154111
-0.04728779487822704
-0.1358761002561372
-0.031578876375042454
0.31277628701616683
0.014513631924209036
0.17556345743372057
0.1243281540766023
-0.07931248170293664
-0.15284193486800268
0.026162672781051628
0.20158752762693904
0.0632546732754549
-0.3776196039321157
0.3601069801232959
-0.06305213348168186
-0.01192723069471148
-0.1977264639733145
0.12411645413275739
-0.08270664928542637
0.04162205304745432
0.14803802009512243
-0.167823826612438
-0.021691953468199233
0.08068376364332186
0.03758220172235283
0.26887531700138523
-0.19361575986650534
-0.22308303288173081
-0.1814981517643515
-0.17194137684435268
-0.09240295074814747
-0.11503161395063284
-0.11268294041197924
-0.16161256652231795
-0.30535566348709164
-0.12997816700841947
-0.012207778470257247
-0.2951439154514442
0.24096705504866123
-0.4312516980797984
-0.07321925203435771
-0.031252779319384784
-0.29923979435043474
0.25303299245093075
0.16494897172824438
0.1570988043561076
0.25778949868155066
0.1456075394597784
0.15289224715950037
-0.06204807418851507
-0.09181769648645587
-0.18149522215216593
0.008257762354569539
0.22374881777736327
-0.3816907876937433
-0.35391133206862124
-0.16816053983683146
0.05136754195715661
0.2501618048317885
0.1084465360325499
-0.055006862590579825
-0.127303642327635
-0.47907327121423626
0.15449958393328567
0.023175107055192157
0.2911902119597886
0.03552512304909844
-0.07335553045122994
-0.07833811414706354
-0.12867415228772405
-0.15233875465897787
-0.04689066471021213
0.03380700893719957
0.138197801262462
-0.29795933085324505
0.04852488867535318
-0.09339925928200121
0.1697237498782289
-0.4032637718438039
-0.2956053519367103
-0.05721188603947319
0.3821155912544942
0.10720745907819794
0.25747724891357165
0.09675195164622032
-0.06866024347511582
0.053544768825386696
0.26319229638292385
-0.16647453139291302
-0.07079339616612217
-0.39765663486017966
-0.15725515375091126
-0.034020462043227846
-0.10480353509586714
0.15040457365743484
-0.16631783785360638
0.05525407028299156
-0.0593542626636733
0.1970140603337297
0.13762977875863566
0.10101545395032846
0.0032219865591199826
-0.1409532642642731
0.02559781232234524
0.49246384505645013
0.1108709630399562
-0.0139921610678281
-0.29158028691467086
-0.004525366950684618
0.12996592274313679
-0.07363986882951266
0.2504012899793468
-0.18197967563797934
-0.13327904297663548
-0.23083605719308556
-0.11841411723676004
0.26631516997215504
0.05170323325925469
-0.15025454363156587
0.31496569482803244
-0.016573411577096197
-0.149724411025695
0.4340622858530872
-0.08438180013507124
-0.2802401125716584
0.007116095565204607
0.0053983009390169215
-0.04901640917798403
-0.2834568573735465
-0.3564529986751974
-0.034143348984686565
0.03691660363312227
0.12365669609402684
0.19879843417235096
0.10771176848850272
0.13496600985795082
-0.19418266092302605
-0.07317911988736521
-0.0721010599749836
0.2821294875782038
-0.18236637978345963
-0.08321164233828991
-0.24070026722072965
-0.005778787851944256
0.17516026839031143
-0.17427787558312333
-0.12617774440808396
-0.0387703872318956
0.452053193103881
-0.4381382972451701
0.21584637912862284
-0.13597107431975114
0.23063188033963852
0.1709937909108304
-0.29777509412984243
-0.024433155981840107
0.37584636366833046
0.23115471772065854
-0.01581746222124838
-0.13653084384884795
0.08248233761685543
-0.3187552910942545
-0.1628087227206169
0.06986312588419795
-0.12059138361419935
0.060075523948746934
-0.18960084338465136
-0.059607115982314975
0.18846583993065535
0.04649221067554268
-0.149687941786234
-0.23787255000840327
0.09371409182660655
-0.1573308278060467
-0.28406991465172016
0.16595410664256893
0.0414346188868193
0.05317891985560015
0.014609547407875529
0.11841437556535475
0.059093608473241015
0.2966171964109881
-0.08081174903948216
-0.1293013453868439
0.03564135481218158
-0.10429692172204369
0.15941976500929747
-0.09290621936882099
-0.1348665266253519
-0.30501493925796824
-0.03374296346264091
0.14540200258833805
-0.07864910682886604
0.2975872326978088
0.22576640546678328
0.010966812696121958
-0.041682312158705465
-0.04875313720618616
-0.11239817025892601
0.3427470233332921
-0.07352326159027182
-0.287205425952188
0.222870976514916
0.06368972585523917
-0.009220270509466838
0.3565615836699186
0.24425461627186076
-1.234828674428781E-4
-0.22278445227977497
0.12123699193718188
0.04143112121864109
-0.14568222581391208
-0.4280752475571826
0.07016144349205526
-0.11896473317127464
0.20068993185254108
-0.15139734951237016
-0.17235598702519994
0.11350687203789991
0.1894543565923745
-0.27522516831312416
0.07937759415337886
-0.007346823961820888
0.21005187557989227
-0.2266665648667012
0.19609712956720046
-0.02070061169012965
-0.3036905687518354
0.060094202829583825
-0.08064044028529084
0.21647149820744957
0.18915398623975266
-0.38429635101309756
0.11345647029768723
0.22003018841432911
0.07555138471553226
-0.15096994910277312
-0.38745026464661203
0.07660358983971435
-0.005141784378283203
-0.15560025062789662
0.07728492284617487
0.09142207521654129
0.12971446428904157
-0.007651664859688715
0.24659293018298364
-0.31792478948605307
0.1531010034618503
-0.0039311407732107355
-0.1763432650156976
0.5475766921832865
0.19071235304996373
0.05312830714120638
0.16813861420539855
0.29360867987321176
-0.22624658660317173
0.09958953584453444
0.030312928035981013
-0.07121191600513073
0.09042203384177806
-0.041957430517149695
0.3419353624281556
0.05126319310562388
-0.40548483176121297
0.08350046710830157
-0.18003806463108518
0.2755746579448389
-0.08201582245134231
0.1374330564257178
0.11733183267050934
-0.06813052841904152
-0.25113132450383796
-0.20917368911205797
-0.32042817490987563
-0.04559722554251991
0.18795487084550322
-0.07458858646564158
0.4817321408522437
0.16067205954269212
-0.0732540277113924
0.1899964217077511
0.08496547504900381
-0.09868100192151283
-0.19596510003412623
0.3165526561167194
0.038977819376268166
0.14426233295184973
-0.15369063301803437
-0.1529282691781045
-0.1964274422259209
0.04681752109827847
-0.12180222069628868
-0.2545612321562781
0.1056620987714094
-0.3187146264122942
0.021273562613458752
0.10064406819229231
-0.020353723743765758
0.34173315395759063
0.39934572346764846
-0.15985489799836505
-0.007759878385179015
-0.05436785825252654
-0.28517915556477696
0.11035941450903886
0.21806074319296767
0.28156034078169473
0.013630057996194265
0.07904517972233124
-0.004134534769568366
0.03691341535152973
0.15545045977721922
-0.038112180807261656
-0.2136553686610837
0.0868722179006947
-0.06997221633821216
0.2221204587785906
-0.05443845297784955
-0.06685240854098458
-0.05263030648854399
-0.09519230923180573
0.21498213247465686
-0.08801803109773083
-0.2699479755479044
-0.15771182727559263
-0.14268202076515543
0.09083340605047896
-0.18695360636517294
0.06977939935377483
-0.2773220060549834
-0.2444562288951403
0.28731980855385947
0.04094405470836092
0.225337284768964
0.21972378140248983
-0.12511236763760347
0.014001581093723882
-0.017248508493162187
0.128973634617529
-0.027927671249803554
-0.1328136559643486
0.3298240041940641
0.10522042932747873
0.21081367751941912
0.09956216456207023
-0.30958974249195476
0.18050705175009993
0.12690827234638613
-0.06061338148131728
-0.03354327199721995
-0.18176600402305707
0.2515275644232351
-0.016818732418634783
0.4196081698912806
-0.11252312047547874
-0.13431143970742107
-0.06700415684893855
0.2263519895215468
0.31796471287206474
-0.012499103836706679
-0.1687561358586893
0.04045789016534654
0.14630137568950655
0.5439532821650673
0.09645934574154251
0.019373406242333018
-0.25827509695078293
-0.1810474159527458
0.020327211414325894
0.27285710521549333
-0.31371143415795133
0.15776190270219806
-0.08015873797646156
0.23085221320619098
0.16015229888467686
0.13400172184681508
-0.06687517211347097
0.05074108449275675
0.22726352716357023
0.06281072708899609
-0.06742281445341103
0.10123094068154133
0.09916560257008214
-0.03598373231037534
0.11088576481300193
-0.12166841196158616
0.43942089752486296
0.13158600098310538
0.0018858643151803
-0.059793213356210344
-0.12630013032125145
0.3281900465125418
0.14665414082503211
0.12466377905575461
0.019277449408599205
-0.053954909913340336
0.12403071146241483
0.06259361638771965
-0.08546307629082947
0.2725929824382247
-0.13098141998532317
-0.35826990086345994
-0.018584559406285645
-0.21845308628703056
0.3143387878764954
-0.006269744890026331
-0.33086883124528643
0.07523221998720912
0.1793329426316359
0.0021477524107159814
0.14812261981707425
0.061929947077809355
0.2956434195906958
-0.31227252670334205
0.07979746658674071
0.06901532571228781
0.06959978505652091
0.16919062492249937
0.3527540716236337
-0.22052991430493174
0.019314399032918938
0.12755257620594126
-0.06649817853306308
0.13482928283962958
-0.04563816966123879
0.15636645924876222
0.10144782381884708
-0.07379948348406971
0.07990270496143613
0.018221050625780135
0.5053285796051198
-0.051940700466804934
0.2881748117145161
0.13150129248940629
0.031038752898126395
0.0031287669994361994
-0.23391269559876765
0.023509578136199007
-0.10765457352924224
-0.24967290470285947
0.1987787618042875
-0.03282051064212627
0.28290506367004276
-0.09465196514901894
-0.27057395699752584
0.4325782252134543
-0.16537657885568302
-0.12546142198765223
-0.06024330154468025
0.20698623427916518
0.05416961761767424
-0.20323518753864267
-0.0988757170875542
0.30991187402624143
0.19493841693405595
0.1067870958508051
-0.28046808869535406
0.07066048853012195
0.08114773598874182
0.06175240303851881
-0.10669683041027106
-0.027139262591229958
0.1248395320236835
0.011551376774953593
0.23205101880147416
-0.010724861616701116
-0.09244871019725398
-0.11777490993021972
0.36455633605908844
-0.1016824721612279
-0.29327887027792215
0.264339824927288
-0.057274795029459646
-0.23178377993931
-0.1299819832496316
-0.33921737633063853
0.0071438322921471625
-0.0502996829704406
0.06345920246109568
0.031780112338047575
0.020112263514541345
-0.18020476489176163
-0.19101354175469065
0.07746126500555865
0.1980053418190925
-0.1017274799157511
-0.1302518433190973
-0.12438495679342863
-0.07211948423605312
0.0024561658834684023
0.005659089503760327
0.10733185176877513
0.04654408294362167
0.12392187963946394
-0.2593401944920459
-0.13688622254511534
-0.1786388690194683
-0.21635720555672774
-0.18459288430698084
0.07165273795699477
0.0295789912176158
-0.1251692709343126
-0.023413783177558007
-0.038842223192505465
0.08129894046753566
-0.4465433516978819
-0.127458228350116
-0.29622246217050835
-0.3848331530838213
-0.014108601914356637
-0.39746797050322735
0.16303002351178886
0.22522560887031542
0.08832824240837453
0.40312936569332686
0.3348430794955488
0.01692798378485099
0.30806667159246365
-0.2467895473363787
-0.1541374799592756
-0.11018022273347482
-0.15487628343327398
0.2562050539069715
0.01541220336440228
0.3460351122877587
0.004821593522193066
-0.0052540354199524415
-0.09431413371881281
-0.02284285622741041
0.14033139891147703
0.0540977324826257
-0.16415229519544927
0.46022468327176
0.09374844131513331
0.006691537145851363
-0.16145192911795372
0.011116031829704122
0.012940546292942945
-0.15089215265479805
-0.14040572808880028
0.017359468176897593
0.0948269961741191
0.32211810166234545
-0.24171298424266063
-0.153337598013637
0.3081666224722381
0.07344484842922085
0.23502336547078093
0.024175986561796432
-0.13401180126679835
-0.0021904951565765284
0.071737410122296
-0.029084790804083063
-0.2573478283739953
-0.054199089938985236
0.26751041214042726
-0.19066129208518967
-0.3206779404573562
-0.47193874529295954
-0.36197523623395594
0.059115196907785564
-0.13014077431181137
0.1020039772697933
0.3771971850062972
-0.09673055238944174
0.03362758447512353
-0.19730798130244787
-0.28286221400630723
0.1456846704545448
0.04506573458175269
0.2888343999647146
0.008022433763742879
0.212209134911111
0.290302296447502
0.005794019737973859
-0.30746649137269094
-0.16098378211693698
-0.005674755386196931
-0.09883425753104846
0.16345612162808115
0.0980058876221594
-0.2693511450628083
-5.300963298351628E-4
0.10213257944764978
-0.33932781119116817
-0.09663387795999029
0.03828129662941778
0.046180939825288765
0.023259748796600258
-0.033944393951896364
-0.43423069061701125
-0.030186637375427802
-0.1483348078904113
0.1323361376653691
0.2959840548572938
-0.028588504677665258
-0.017191291546492498
-0.05936191533324719
-0.2740837406089543
-0.026859079568039637
-0.05279707041292352
0.15807662609047407
0.14595171346094193
-0.14562058507714679
-0.17129815748063928
0.2850084729897755
-0.006077760020170583
-0.05600424418185407
-0.17740155695393056
-0.48468954726959174
0.22612942918813414
0.1216795340473904
0.1338803615394691
0.05256332187293294
0.3319831627219789
-0.14175581208529278
0.30687329420455545
-0.11184537791229553
-0.5416899598224715
-0.008086450218757495
-0.12222217389901953
0.18723865257782904
-0.45823490042218745
-0.2411287634871751
0.23089160385707583
-0.12838176450780997
-0.045904295690274405
-0.4456704280390981
-0.08173273551310943
0.058501042147737284
-0.2125901058304956
-0.059764736145488086
-0.17671512467772832
-0.06894328187923486
0.004506265194396939
0.060358981032614514
-0.2054749007229443
-0.2527328163005853
0.1494874075042377
0.24614626983749638
0.21158701714642159
-0.2648576340775524
-0.1398206565717087
-0.10929467057473752
-0.09249169344514618
0.011819245811846762
-0.2755338445749977
0.03074420428234441
-0.4347085319937838
0.15631161282600503
0.05781382349071569
-0.005478432730624509
-0.27566461746532983
-0.1281344536584701
0.16629958756854674
0.03203812264862325
-0.41386659427292205
-0.03972261672221598
-0.016721379213093877
0.035462117152353166
-0.011475005426874687
-0.09197113728750228
0.3110073266593522
-0.10457667981661015
-0.27376160191705934
-0.17447222042669924
0.34775183387363096
0.06276189016487953
-0.17503862365919556
-0.22788701498152308
-0.18436465969258314
-0.1738056995332477
0.172868449134707
0.21703223071145664
-0.16912076951186747
-0.19981944884681424
0.08640070633836378
0.31547646154550285
0.28117492749473966
0.323359254340928
0.019185630142771273
-0.17049981371507508
0.15849142688159695
-0.15001270046316773
0.11718715205608482
-0.051049487383151085
-0.07528731746641233
-0.1418633259510281
5.790661123111795E-4
-0.00198940174020893
-0.11377764104558921
-0.5131329314094817
0.16288315369857242
0.31737099174005745
0.11388436862277125
0.08667685435759989
0.1803552813475492
-0.2292300022564526
-0.4200432578033868
0.06618283561078551
-0.002553502348731731
-0.5731637753401843
0.32575097441214024
-0.21501922805211332
-0.12757864821967466
-0.02075523482956729
0.12730950201592625
-0.3132807161420625
0.029570996314528003
0.022845963032105364
0.40407598368811115
0.08616540552493578
-0.01082612498959449
0.06828337942836053
-0.34236700481420307
0.274121078154749
-0.30002439301219314
-0.06492045354217661
-0.2594388173837982
0.10837877367711733
0.01975551621959256
-0.14373159049119952
0.5865951015772514
0.49466120947348524
-0.1615734527797349
0.15168762973042355
0.23396099274692622
0.17130541336875701
0.08149759167117736
0.033754993812456544
-0.12799325881613616
0.05340078828135371
0.12869798611445027
-0.27531994890079725
-0.06253383516278109
0.4638939330083524
0.41156599329090265
0.2936376636198616
0.01656543670607505
-0.19545907895825287
0.3110330200391789
0.025621990965124432
0.13436641584822634
0.08577960342326506
0.05148446181950316
-0.09123857839000815
-0.16182677456870664
0.0946178526295521
-0.15703214997250542
-0.15321088278126951
0.14930277798660183
-0.32140813200442797
0.024151393531876685
0.24533741598842426
0.15807140512746126
0.09210009934815128
0.1268668036529394
-0.40931420930584894
-0.011130926602518606
0.2011087654508597
0.046671114146989476
-0.2594020572016018
-0.28419228847615474
0.21047913788121353
0.09864390862660313
-0.49820490728703587
0.29124026303694167
-0.10338407369519978
-0.33409899063749
-0.11153217834156184
0.0426925853232398
-0.02815877474699649
-0.007951342431738269
-0.12570338179433402
0.05301379184813892
0.34704518824406283
0.08880988575791124
-0.0060124988000691965
-0.0875768845241225
-0.29455495911217183
-0.07916152577189169
0.12640409534142438
-0.20581359352425285
0.1920015959293826
0.10277827179378314
-0.3067873497307586
-0.21742265367393956
-0.15120655959096876
-0.10783776266866273
0.0316396970070184
0.09868201241403307
-0.023286130214519755
-0.3559796977894186
0.031533100562954906
0.115790726949629
-0.2691017263397541
0.02284082621808995
-0.15123854990882565
0.14019792247387455
0.23115700143282716
-0.05324723564918739
-0.028375041218023922
-0.03382457193349123
0.2553170121825215
-0.1728121841264355
0.044170005404976634
-0.40949988382715435
0.013171957899260532
0.03408687549872876
-0.44417101699468314
0.05181741105514564
0.011768596088269419
0.1574715119130338
-0.008733435063360507
0.22150372089522904
0.03843382170087762
0.3930109240448629
0.09399815043171698
0.18277637507732594
0.05724058065420783
-0.05286922912102349
-0.43269985705118075
0.10899532103082821
0.25178369683288765
0.1959637092110466
0.09495256928590208
-0.12502850086529665
0.08063095598192094
-0.07486730247224609
-0.0862111369188831
-0.1808164386553145
-0.16533888048588574
0.029764163693967505
-0.04227067868236192
0.20750371026145553
0.3045278400355853
-0.0877751315788422
-0.12054054088461814
-0.16858318777383985
0.06855376357813289
-0.021905008064579557
-0.012841076683310441
-0.2608029627863186
-0.3224957928315366
0.15843383453627125
0.08076925316996292
-0.37340867468547606
0.048051739871197284
0.15513734129370982
-0.06591472617884715
0.20108137279209426
0.28545094143266353
-0.133145163161804
0.2403589879080888
0.2653845647708886
-0.29793822464350245
0.13733449743779855
0.17466350106864517
-0.08526081980604269
0.15145117864058338
-0.07763363466189932
0.04682299563845638
0.06457882396391756
-0.08136996086230384
0.21437519234369345
0.06555822096645089
-0.42666221727573017
-0.32792659067189917
0.049883993663917874
-0.043937124416796404
-0.16918719823271025
0.050924283481504254
0.12817731244298625
0.03500062461157646
0.08388818155904668
-0.03417581891847978
0.1973673509229765
0.17630711627229534
0.1428134672413862
0.17256697866342396
0.12449528771321319
0.037068263349444
0.23214160395411634
0.2838036289964805
0.32234342185967696
0.045563171595476536
-0.0701405416488671
0.1201898539083929
0.20298465607319824
-0.2698284927616454
-0.07865609034632942
-0.16704092005397211
-0.11520615679685374
0.05315437080728461
-0.03282126841027558
-0.1754556586940716
-0.2660629728479014
-0.06556167653173382
0.184150646625455
0.1494092473009296
-0.2488655654414661
0.0023984268258031246
-0.21139050640648596
0.18717573821064626
0.06741560583464712
0.12619595413339588
-0.08846519261336622
-0.401955162634902
0.15371370933565365
0.4303419622211633
-0.005499823594753634
-0.2292911351087907
0.011581186189022881
-0.12366492914400684
0.24383648736968377
-0.0204035352866229
-0.22981510673997652
0.017762453075865877
-0.11761890467496827
0.11240184771594429
0.42768304236388777
0.1629821993584664
0.2725011687090208
0.20842274371807357
0.3199068521349624
-0.0030487808752492603
-0.47130360391505866
0.16003265072307576
-0.49517192988523384
-0.03233396916710935
0.07960562921805793
0.07977558212571548
0.11553901813518974
0.06411148318768875
0.3329111576924032
-0.029973917136271334
-0.29626788809205723
-0.15473452576988697
-0.3133346746176757
-0.1535968929930293
0.06813786782112989
-0.12238000891458936
-0.15574826717608037
-0.19986367552438145
0.0105177559256153
0.12831011448732743
-0.01717822043624861
0.1413815034777218
0.06146719672180584
-0.1525177300536248
-0.009332335879230491
0.20327664891132202
-0.2406085517532852
0.17470999709624807
0.0473140985761573
-0.08362882424475634
-0.057831690264286174
-0.25663380698836225
0.022223079095930205
0.24999195016257814
0.047565217348591204
0.042401671189524336
0.013312639462897525
-0.4848309795553437
0.012577438000270709
0.10331234421717617
0.31428434801551386
0.09778027001020306
-0.19613444751027134
0.04433750983421687
-0.32036210225601447
0.25807677935310563
-0.33382383479443006
0.3534611947381046
-0.05386786336182219
0.22211151420748207
0.03358775274227734
-0.17004168770405748
0.1339623048455135
0.5258278151926754
0.15560434921019378
0.2855215213149744
-0.10432416425831376
0.2573604227506389
-0.1329723111491908
-0.2394548064813498
0.11325068518153297
-0.1473554208360605
-0.08792502234525598
-0.041336997123259854
-0.05737929945217958
0.013867054864608753
0.33713284230412016
0.1706488798734993
-0.029605069267793202
0.047398325579377454
0.024276278073594577
-0.06611358971814679
0.09575507350624204
0.13653434907496975
0.2566161804990861
0.06019280845240001
-0.10955976112967158
0.041052473731146816
-0.01916488404590152
0.09596171792304935
-0.0015097184435714922
0.14795358551335688
-0.12718236419672851
0.0877672107890047
-0.008238363525112827
-0.0274317196308367
-0.16803840029323186
-0.07276040926118219
-0.04230071604095213
-0.14547501578162064
-0.06609439300291917
0.16428102657563165
0.13414015657859577
-0.29211515153495154
-0.04178858443707013
-0.14185886151371369
-0.10529791015958197
-0.20177578929897116
-0.08848699157231185
-0.12565738945509317
-0.07440510712714228
0.041420271751255455
0.06708730086218183
0.03755947316933274
0.43267094286883045
0.10066492128113141
-0.13199676282021136
0.37584382763387963
-0.3199009978602275
-0.058356219718688755
-0.0066532179258314995
-0.40334470230502695
-0.0031802404306381996
-0.01500090584652613
0.251775223188832
-0.11536252382480981
-0.1161440409825793
-0.07260876932510425
0.2132257080547938
0.10830223720969667
0.24787219581139894
-0.0950328941553241
0.24861743525705726
-0.3224314559797457
0.07086382597625877
-0.021963412823320073
0.21227803048016167
0.09440614180488835
0.07919505459454533
-0.10008683696271779
-0.20166687836102454
0.13447125565714055
0.03287799570342771
0.02059042940604846
-0.07355710786889147
-0.027013439756633506
-0.09553429457936184
-0.3838648137161429
-0.0654918418602296
0.21792642046796545
0.16044969638567436
0.050515171752461924
-0.33529265983277134
-0.3045691989486248
-0.2065612374725514
-0.23432054691109183
0.20882657030993668
-0.043248692065256666
-0.06071622109016034
0.03768032979289304
0.004349519432597971
0.06610537698734446
0.08418805830379683
-0.14186875836847843
0.06953584650613073
0.040672700883342565
-0.01796987111596691
-0.19519879031780588
0.24783871867519483
0.30066244710852286
-0.034945563388611184
0.08147502463594859
0.06289154141211784
-0.34708016166598044
0.03243748072913353
-0.09097836929876407
0.029388032747761545
0.05915139204402108
0.0962015694588807
0.15499880279206202
-0.01965497352498477
0.10177153429327579
0.0716036382518372
0.04754278518701725
0.2553875645053411
-0.21883592243248798
0.10161970233826943
0.1197543699034185
0.16328425374276392
-0.0134394609567941
-0.14683630953078378
0.05734639650021205
-0.047037623802962975
-0.11184932269684969
-0.23459808215663816
-0.03257073587072568
-7.5415831823789E-4
0.045311163159738106
-0.07172166060709134
-0.3750551303425519
0.07321048017747588
-0.12524083739255637
0.1902551062188484
-0.04699867912509229
0.0065453988415070585
0.26146683781145336
0.13096930242594315
0.012695787466075604
-0.005333441542504061
-0.09019963721630829
0.12559715509600167
0.22410221264615676
-0.03388284027251672
-0.06055596306826464
0.2836945270804824
-0.07463718711030495
0.023885632342911193
-0.1723980991254502
0.12290879181556524
-0.4070618062859002
-0.12130635284922203
-0.1822483969146158
-0.01885825584761751
-0.007618781204473663
-0.0037741840143135073
0.05903180192233942
-0.28790427530295265
0.21958023294439144
-0.3255463743022535
-0.3384646842851814
-0.004174981553101551
-0.05452511598392913
-0.487318926659102
0.10493464855414243
-0.065923278604364
0.02216118157643195
0.13008045047562053
0.01890308610769833
-0.2014073393609047
-0.09344777737063878
0.20151577118221128
0.010477045842677023
-0.20215663673550166
-0.12725164882021722
-0.14170198854425742
0.3394201731643114
0.08405051749489402
0.0481026573535484
-0.07943260901250099
0.010424490104341924
0.028397443105947464
-0.017140027197015077
0.1720092652892174
-0.08018785563499459
-0.032142267127080563
-0.02759725630859269
0.1940812248992777
-0.2965652528104687
-0.2824301846288929
-0.01734880838385261
0.3315434582630835
0.0387973490222539
-0.2340432093833761
0.09590028985908577
0.13482987754561887
0.2353647574002829
-0.35703358040961475
-0.030380305102362094
0.09480607307579308
-0.19490441454580307
0.14596491747217805
0.04532527126113736
-0.07610466701905733
-0.18336819743030963
-0.05063809183036139
0.0873641251941585
0.03901251609381882
-0.197130229747212
0.16415783182347082
-0.37032608730989036
-0.173337463470968
-0.3353882418329081
0.18985569591248094
-0.11845538109315108
-0.435454812231216
-0.3357924277362571
0.3624434953027755
-0.00868602789607737
0.39117426503602254
0.07987397623653
0.1831015514386753
0.15958673020753852
0.2994358867776841
-0.34669912234801575
0.2287246361119103
-0.030119882630937168
-0.1312632759545333
-0.30724667498039554
0.14213968529274443
0.49519939723549167
-0.04087467625530891
0.20822579101714714
-0.32322067181896463
0.3237063906462819
0.1103017143885383
0.06187461722533484
-0.20684902020754248
-0.23060854934395725
0.23207700605066686
0.13224416185513865
0.23524175070930764
0.48140332205296954
0.227693467872298
0.1277306492002274
0.3006171507039364
0.04883030448964565
0.23995482471281215
0.126708666015633
-0.05003643245204725
-0.21042140692277253
-0.018922354578505465
0.13008909236986294
0.35162348939226007
0.04917375846028948
0.22696622231803995
0.22250053321838734
-0.31288553213340853
0.4000680678018406
0.011949819466705482
0.2880329681497151
-0.06479229476686603
0.05713617505490879
0.11158396402561638
-0.10110825493995655
0.20758624892141656
0.17780115472741892
0.034272190762653934
-0.2715933539633716
-0.28132728152457903
-0.1157797803217532
0.11043437677968247
0.2736896035244573
0.008294121277198469
-0.02954282838488482
0.12346679456696188
-0.09552975707865265
0.033872722662649284
0.04654643484714068
-0.028160293530714767
0.02174933546448092
0.29883556542209727
0.12965798491625577
-0.22335674661513752
-0.009895130372025922
0.2068615463933069
-0.14117855394823975
0.27918564943483853
-0.3267866342164976
-0.1534569703501768
0.17366397100431696
0.2801603479449935
0.1262607147627118
0.036142264684066804
0.20072412511764376
0.12604538899651693
0.08132465581751518
-0.2752575631121306
0.16724762742537902
-0.3298216128807168
0.07881253384509673
0.04870186913409306
-0.5115938507617538
-0.257381548416219
-0.1711518252151023
0.16701887843388274
0.04127591395607585
0.3048965906860085
-0.07244640631254909
-0.25878261106670586
0.09912864803791806
-0.26875678318834356
0.24344514199101663
-0.3710203240131968
0.19318564399128216
-0.05134790866371303
-0.1463005429295952
-0.0693454108546804
-0.3136263662238008
-0.09767035420308601
0.09621927651157175
0.2231538178089336
0.11034754176785964
-0.23012172079797152
0.2975145316744044
-0.011516105812451617
-0.22636125688420644
0.17985776446955282
0.04870972343995716
0.2710170528453671
0.07516559378075416
0.05729564776426829
-0.11426807493050023
0.014092018925694666
0.037737685376672526
0.0069915176147340155
-0.08263964899387954
-0.29822405898479254
0.07309546848180558
-0.13036101087178711
0.05192004952553001
-0.016942302329128488
0.019770693592945646
0.2600027836391962
0.17008488245972841
0.07242329105258824
0.33164667165310274
0.2731584381079612
0.15150445463374618
-0.04415203608667485
-0.7196628622343157
0.10095178811545175
-0.11409939087620856
-0.1991996106075902
-0.09163008163042075
-0.03374706476352071
-0.19169333073656097
0.23224876828488816
0.3692828493232785
-0.08894976468199112
0.26523733902878777
-0.10889575665160159
-0.01878005052325227
0.18730422448170506
-0.17964800939011083
0.11367409181204241
-0.004692736772177407
-0.26425354043631216
0.16158776453085075
0.31544101005707575
0.41488300702472725
-0.17694683522395027
-0.06521845706994077
-0.023668183079731824
-0.06386212774495185
0.23156662166134834
0.11832658655071554
0.11617849902623956
-0.06719317791157982
0.09768942449267248
-0.19469349218180843
0.20466276622600046
0.1574683416927055
0.14133401013698588
0.1392129696371519
-0.14678201164691945
0.18232548692328407
0.2507624859425856
-0.03577433526279209
0.2600309334641739
0.14043214306617885
-0.07273258585871333
0.10461759533510057
0.13166309667502848
-0.16836765289766797
-0.057462533913248175
-0.4302269241890687
0.09359549783900055
0.15739819915634962
-0.30818551165132796
-0.3071350131848628
0.013366608528457816
-0.05946050423941726
-0.09180676529623036
0.1024681832128195
0.12547494729051012
0.21805203941908824
-0.16457125763414726
-0.4898432607836011
-0.10232177546772721
-0.2200213139103167
0.21147545966807269
0.0035359609132556537
-0.10867865202789809
-0.03207058804643289
0.09348101631753537
-0.15316964919403409
-0.21795197177474288
0.05037006163539949
0.29053152831455537
-0.4150168629910946
0.07841109614556402
0.2828584521245782
-0.04138616870897553
-0.11699755592307866
0.1564719274731005
-0.10262942833329547
0.1977162682936654
0.09042849161640937
-0.0390601910128193
-0.12880419802429352
-0.07104492324384708
-0.10136982593536009
-0.19661436475654334
0.500161630577362
0.06910118643182595
0.04438273627900903
-0.02828835036304908
0.17486797493484119
-0.3563954896404929
-0.5310056821564014
-0.0252324375763197
-0.017413239825186225
-0.020525332067356294
0.11927222349670373
0.035277378266584496
0.29565886419660997
0.11723012547276734
0.1365063129674801
-0.20503865070104746
-0.017641618848924158
-0.15479882764089098
0.16243621170588637
-0.18198986243330428
0.026014080464382108
0.23948587502621851
-0.19035085784402217
0.09154401171979265
-0.16810882263434007
0.03382314192588124
0.12927608547999955
0.029507051780248136
-0.20679222645083964
-0.1478299385966286
0.032944636327475275
-0.04105273057377134
0.08254977129550442
0.1416086499565726
0.08488724478482221
0.19252690377501586
0.3725233507896947
0.03027167515820743
0.32690032034492855
-0.16584185154807762
0.1626337262992201
0.2779002448452736
0.2391719113235405
0.17440406398294336
0.17828553059794466
-0.339150112895174
-0.06091562562884504
0.2624024350887929
-0.14990600216795918
-0.06512947789504152
-0.06446405103107096
0.09767659964659386
0.09097002472063094
0.3143318736085
0.02172066309437552
0.08034238833043889
-0.09081508735082917
0.19819783756232476
0.11767821614602302
-0.21407915149016876
0.08649990583131491
0.06376771005135562
0.02862932233722822
0.10443562825326119
-0.22405876767377744
-0.04828890467140558
0.015036644098124267
0.1437534270835478
-0.15203096680048728
-0.00879117912978941
-0.34596796542993075
-0.3569733383638911
0.0748172546684142
0.03431797032496409
0.18152411546330288
-0.023737984753030236
