13432
0.5423465274512034
-0.07763750200693237
-0.10797712530641113
0.4502455217444891
0.1850621428131179
0.40376500370867663
0.2000131401777349
0.01566153615996474
0.338925983889309
-0.08187340660895172
-0.314971076711505
-0.1512807551936728
-0.347188264760436
-0.29406092135945155
-0.4783855248423101
0.010897353475074947
0.08062369936590708
-0.04655920599826371
0.3545616699513463
-0.10825698323873285
0.06095787851442713
0.014835934207817196
-0.14526750920140744
0.025576817216597627
0.31895769153527936
-0.07509590801085934
0.05468287664159447
-0.10432532882619408
0.09213465904129621
0.2069010726998105
-0.11426146794330667
-0.27874318818170035
-0.1873341597154523
-0.18629111615345717
0.20205941288197193
0.30738592614561705
-0.2658419684962982
0.3056576066196867
-0.13394489486297564
0.24501375995875516
-0.0775880060048326
-0.07787157932317255
-0.03566311962942754
-0.08127603530011102
0.21532770925446454
-0.0828202716305213
-0.5334692734303608
0.15899692582152097
-0.03041719357583199
0.376345824311616
-0.15018548028191048
0.002942980464274648
0.03352930811657247
0.0022395593815258
0.04759896256212402
0.07176567632555049
0.17693333198031463
-0.26861929348786273
-0.026565460038220724
0.13678214416333087
0.020687393275074947
0.1568914549417009
0.15919781416867237
0.14209428697769508
-0.05139870109166265
0.11718915026682995
0.3195469761678768
-0.287080573003178
-0.2833543706640342
-0.11207186807292657
-0.03693994990965057
0.18943035125256458
-0.10600199970865863
-0.24613369697687437
-0.12085055453045557
0.1476883350278827
-0.11084341091179478
0.05257794998342716
0.03623793385101609
0.12302017683912764
-0.17237283523134833
-0.061528774519192586
-0.12088683013516557
-0.22003317320840368
-0.06288910062190438
0.10834773035944233
-0.07594738051106632
-0.07854798352452808
-0.10383613804542649
0.04050340709774877
-0.03503752229165684
-0.09227042946485324
0.24787602720201055
-0.01791244029084722
0.07618120033325353
-0.22717527948034744
-0.14752162870410562
0.09949411996762862
0.07733761959666935
0.008678490533283128
-0.09569895625100688
0.0834221667559914
0.27340406154084657
0.18860881644670532
0.19045233726669142
0.04122273587102385
0.11667806777348388
0.01032083419609665
-0.06764543375099005
-0.0736522545268903
0.45786993716789254
-0.10178623243941552
0.12272089980452779
-0.29991511114766684
0.29037145337981596
0.25771832381834575
0.07825181623039404
0.28421500032113933
0.20795906094260125
-0.02050179258224673
-0.0667680371848254
0.17877196887279764
-0.2792236998916405
-0.1483540016262589
0.1551065979878417
-0.04289599733512098
0.007213600210890865
-0.046292498951665054
-0.16702843984262994
-0.2447042666750866
0.13232350798424378
0.14162070962963455
-0.10150261067950828
0.13793220403498513
-0.0605673322997907
0.06712972779891825
-0.1911060600282738
-0.16895107071409127
-3.7766553364454566E-4
-0.1155901520973845
-0.0185880515105686
0.20830943406450536
-0.05885324669391271
-0.3161438862097252
0.2847556294391493
0.006207067511824654
0.14416486829685823
-0.24349718740793702
0.176628366384863
-0.02752109926312812
0.14254426238052337
-0.08864434202719906
-0.11698786491900551
0.5024132980424395
-0.24025566307557467
0.07436699211947609
0.2666386451487189
-0.068394949515859
0.1427180783580548
0.41333787792795723
0.059670833415638995
0.17314752193762764
0.04597306607028897
0.1255071659428859
0.2489289691923236
-0.08781357021304181
-0.2393388260103905
-0.1006114203677107
0.03687243332207093
-0.024663001075061346
-0.24496067106037925
0.07688970130656814
-0.4737258494449308
0.1966394864292652
-0.2846625103442776
-0.014504186004973944
-0.02580084248740306
-0.16608225743906446
-0.22031062709962998
0.3579732802894386
-0.14090597936196708
0.1821238927440988
-0.20007082016874908
0.018451940429394315
-0.3186435132606426
-0.1974973278226742
-0.1679640712773531
-0.0640028314871837
-0.39576597403335784
-0.1124367866927454
-0.12532651014754376
0.32326103680849955
-0.02701445321759166
0.0123361960828033
0.038366369947532356
0.3055223589847702
-0.13106472539970931
-0.2112106859331631
-0.15174316038767477
0.23138586994079555
0.15054103383373707
0.01278104690226721
0.19901126731548946
0.10690804671436559
-0.07581619812088566
-0.09288594554993107
-0.14439710225569025
0.2072651253523312
0.2559062560809408
-0.21064662984845006
0.05759983451582196
-0.0854437954745349
-0.375465144574789
0.12421607411912175
0.21593523748381843
-0.008633421776500953
0.10649258667961276
-0.04519696242323819
-0.333491095785548
0.4340598350871108
0.051295511811322136
0.01609205820400318
0.21872274227635424
-0.011977702773286837
-0.3342791925018761
-0.017417893815849465
-0.04359667404113323
-0.0019115111674505151
-0.1345286387603273
-0.29637698724944145
-0.08612645730033075
-0.16339490035393078
0.1355947209005264
-0.09244661286401641
0.010288413740152677
0.26818365716654013
0.043866549261552694
0.08092362518966263
0.13850194868804772
-0.09982643989945417
-0.0896073818784363
-0.15236194232083278
0.15861117933397142
-0.12311236505567491
-0.17725975482403214
-0.036986316353788254
-0.13911131667706406
0.0494254577454044
0.10949568416662717
-0.0030684172823950673
-0.23749913840921213
-0.23156923648646222
-0.3256540350900086
-0.079943545959235
0.2848098144716326
-0.16868446615507954
-0.03133944177397117
-0.22463445947559832
-0.251927502163372
0.21349977949564874
-0.24987061185386827
-0.11812293531344319
-0.3418754512872941
0.037192761688742075
0.19324471763281573
-0.246422001440691
-0.06999111330016179
-0.28146881191152995
0.049172235353222085
0.17419616214428615
-0.24558848836578434
-0.2117059359659038
-0.1583569057939616
-0.11051720193050085
0.03939677054825132
0.16420231097384286
0.19230219866959478
0.054244327814591695
7.35341662966035E-4
-0.2158105472487141
0.629082528091007
-0.35442115199704466
0.15674604499618627
-0.4130350499675449
-0.14464868476486215
0.3877489486395843
-0.10352816607144516
-0.042345847640252204
-0.33022243552774494
-0.15917445189137264
0.18295571534102006
-0.007810852484171959
-0.2559501600127936
-0.33545802693072035
0.08470082843851771
0.1789754412796939
-0.08717401604817732
-0.08550514558690381
-0.3843958568561888
0.34823326442036207
-0.4887164546841723
0.12498176163386059
0.24667072908071175
0.16189737895451572
-0.08545083367380857
-0.4339608166204983
-0.6663350768068044
-0.3700628507913634
-0.3630402665784226
-0.41534232649619757
-0.24820348537105413
-0.3695136165688035
-0.3549041410732859
-0.2374521066382996
-0.01691433611935664
0.34798270578869234
0.11981075806177133
-0.05737774505380827
-0.021613818594879257
-0.018786649385465096
0.16040396286791425
0.2110853578422319
1.1588546593726493E-4
0.03601086328695732
0.1199347928575303
-0.1273922013705706
0.15547722372349074
0.10602877169059796
0.26939904083124133
0.19018193703895117
-0.26037816883310394
0.2067708898647903
0.13969607408311255
0.12181572001148262
-0.18724053412429964
0.2318629939882073
0.20172351846205525
0.12397526181674337
0.008635920544288661
0.06168989457210191
-0.0808596707388314
0.26912573686349567
0.15172313826178999
-0.10646032456100914
0.15623633034611092
0.1673366735810613
-0.10220467841542023
-0.29418647092224215
0.13953868955529813
0.3160364559300794
0.02520413509830035
-0.022311796613680063
0.3608517926620742
0.2639332476490419
0.3908261259279813
-0.5972498804418782
-0.19098079703023568
-0.423210121583399
-0.15635146893089347
-0.511347277141559
0.09432959229964509
-0.05175863306067435
-0.29657423911610886
-0.14377270358089256
-0.2768758853678839
-0.0561984823909874
-0.30377779085188655
-0.011800024562042702
-0.4454094298798285
0.00875956336623352
0.4265707997206508
0.5434243237612543
0.3293548294882766
0.5627600787518131
0.4261041035870228
-0.21432642946398325
-0.04837564028138674
0.22610832958651164
-0.1239359976647092
0.05276454018619397
-0.21075325406819942
-0.2564447400585635
0.2309824250542857
0.1638124972593571
-0.052263533138094995
-0.45855714054980584
-0.33214875207205197
0.001728003827503166
0.3549664634065278
0.2509358880645988
-0.12777321382029022
-0.3989590364703669
-0.36142177273499393
0.03387124549885741
0.306121087913015
-0.04297053939435044
-0.513759408376242
-0.04147880578297572
0.3537665488969411
-0.012667506024438861
-0.17125723341643653
0.1231140435693113
-0.005437718934828169
0.21379570741938683
-0.16545254931796133
-0.30604771157677185
-0.24298569018748892
-0.25709231836027086
-0.5012267770082703
0.0026842933313800874
0.3085627671429826
0.05237292715704053
0.1853344099098227
-0.004486882079014808
0.08988874225209502
0.4026407607300444
0.5838965010622296
0.04249894958885611
-0.19710125018030272
-0.07813649588542468
-0.23938755975312043
-0.11705067922103952
0.4818176091950218
-0.0776053952074287
0.04907415119417299
-0.11184521252082325
-0.40344655435968846
-0.3357281606601548
-0.20263921302306492
-0.12033043343985375
-0.19186436563985804
-0.3322117236039889
-0.1797891166093753
0.0020854907088371415
-0.20423087329545356
0.6339540887015591
-0.16545864308756905
-0.3986322648647944
-0.2559153386898021
-0.18303547062515443
0.33049224760215884
0.4438134730612218
0.4012008407627193
0.19234118784272855
-0.02252171848468753
0.38826006619809506
0.23085039997620171
0.2731110341383615
0.20313133415281592
-0.039037176762584495
0.15832780744652042
0.003769998346892677
-0.4731211609798811
-0.5190067056455167
-0.23347937962351079
-0.3027288232857313
-0.5374012898851926
-0.3190831988377266
0.08558918210520634
0.03481786129754532
-0.7758015724255118
-0.4577305521320848
0.1225647127076763
0.15993848694268467
0.2713243746595837
-0.5307707601714007
0.5962986683132875
0.272344439517699
0.09025660714898748
0.31336635949857145
0.27089634276029545
0.09793588328339262
0.31098280181139953
0.1027811941412742
-0.08601037755759089
-0.2994805329904714
-0.26375195500639004
-0.1073163315654008
0.22723464433047091
-0.04051304509201119
-0.2467256975984498
-0.07103217260084232
-0.13172494952926195
0.2674957111978503
0.22574589659612201
-0.2756335023670585
-0.16716059600044852
0.3094655850874391
0.14442087862573752
0.23862134103526184
-0.06669339686159949
-0.09912185872249792
0.34806256134782226
0.210996825791205
0.304645667100936
0.24946435099773445
0.11014345085636
0.5425077728585215
0.049778722251780386
0.27670845398479754
0.403426008412209
0.1776960249789878
-0.3304755093089408
-0.2202677970828485
0.14963389125894042
-0.1166745359606575
0.12517746934694207
0.21819490416968615
0.2368821026501221
0.21960478253307888
0.4275011557919116
0.028335470268333718
0.4428722545879616
-0.1316437584992399
-0.002087751602309942
0.022517342600731967
0.08205944695946452
0.05640921996541407
0.12987317142777813
-0.00992947508619547
0.04933445294917242
0.16231629146447465
-0.11372672855538633
0.16495453711509164
0.10621788180262032
-0.05240938001030879
0.0571752206668407
-0.30746311645972263
-0.16567735876561063
-0.13426940126257222
-0.13665554759678675
0.14165765312768738
0.26623174224305596
0.2062296939745341
0.050925637211767794
-0.30528946732728657
-0.02833090611153746
-0.04597291945489156
-0.0744868351613356
-0.06837227276438246
0.22893767409744958
-0.03305648226611174
-0.08508174249181794
-0.23757304758894687
-0.2670175399079915
0.1519361709325335
-0.5702032625647658
0.1730672937745366
-0.060097569472626705
-0.0519739281695235
0.03929575147817512
-0.30136271814678117
-0.19827538708533501
-0.18698520778549066
0.036861363919678626
-0.06330333080693222
-0.16356676469898113
-0.165128868357865
-0.12533702546407097
0.1874641969893867
-0.4611546891039961
0.03055704996743902
0.14372268152327303
-0.07491568985791618
0.07758508788740982
-0.0805239087981951
-0.08800138829257748
0.09981350088188219
-0.3425529986774049
0.04537634092838421
0.2660423960008922
-0.09745979266318876
0.23066791732810288
0.07213182041145791
0.17057635915911298
0.25221692197719014
0.1517610056602814
-0.2811372567915271
0.15427490062658816
0.09170612124491331
-0.04566056985385461
0.2126645265764131
-0.02636622919669861
-0.13752915671221352
0.12050754474052183
0.2249111487334642
0.16408774938746218
0.1585083024159289
0.03206495894264793
-0.13566922224336833
-0.374104853785781
-0.2648409663607771
0.002793954758326376
-0.0884890152235968
-0.07500304995727228
0.15349292808469805
-0.31589599410666414
0.2301456068768117
0.09542700635547897
-0.041658522106379395
-0.0022157059157546224
0.1079326897780853
-0.07445578613112804
0.3986831758478596
0.18581623220394014
-0.17037191508542907
-0.042260707892737115
0.03781613809967113
0.2950369539800197
-0.034882479599001065
-0.09784810411505578
0.13870084870880098
-0.20257074668396707
-0.239314156222021
-0.4256035834620005
-0.19794468121415257
-0.14660977157611604
0.147159185490286
-0.0024559976892788355
-0.1308522354897336
-0.27005875094457277
0.05928544555611928
0.34296000629874945
0.07552212619908458
-0.16322100238557746
0.10393242390399278
0.22639138149467553
-0.03409220919116978
0.3254090607202241
0.11006458827543444
0.013225803849168993
0.16962418493734205
0.41711230313920267
-0.03914030604861374
-0.14608526338899308
0.42119760370278
0.08886651723934888
0.13451811501129318
0.19819191520064908
0.023468221208267234
-0.3777792981325221
-0.03149721735637111
0.04923288140598013
0.11395980270604907
-0.15513094019342777
-0.19588517235077185
-0.10876950646488115
-0.16184677536614397
-0.1406373093380364
0.5289511611949874
0.13220931148012072
-0.0458910010723244
0.39904466141560874
0.23296482811067284
0.06347620742855599
-0.35412955558734033
0.014650981521565035
0.2864197929370987
0.3805134536032438
-0.1639031657212301
-0.035736527583802566
0.030958973971771338
-0.1927506788147421
-0.29028590684066974
-0.10373705824896035
0.3144677591140174
-0.3502902064065246
-0.08707808168999943
-0.104207600708076
-0.0467380601173406
-0.493193700980319
-0.3337648952698082
0.1426703906038316
-0.07375068584747173
-0.4025489210846298
-0.30135829958846927
-0.19446619377978303
-0.06038606677246666
-0.06882268925372559
-0.0074886785943040855
-0.003886797490844502
0.05653488791700796
0.004712159391961406
0.020634126822118362
0.2726848979189007
-0.01294225624627566
0.15468692819920282
-0.11978342995192358
0.10914484228192406
-0.1289579223848084
0.10064826284416813
-0.27277653278384834
-0.2355716460744171
0.15077263067529822
-0.12985049054429681
0.002652343891817249
-0.36425998489847583
0.0306976201203634
-0.012662487912322771
-0.08899771624016567
0.17173180206857483
0.22669424626765058
0.3739390153958013
0.159840974395888
0.4682080667560432
-0.15705544047656583
0.32734687855391753
-0.10705713832627309
-0.1702019362283165
0.14703945987380398
0.3131833549853227
0.39047429230930203
0.11902373281702423
0.029603434069969927
0.08835255778898128
0.07579206424047487
-0.07117413186656751
-0.07233145319980763
-0.33619134785639887
-0.13312234282929436
-0.027073234083657405
0.06413756982346658
0.024903438733965295
0.07694300782619051
0.0450780316310444
0.22577854849612078
0.05538592708751892
-0.06977005130592144
0.07918689208088865
0.07930378816236544
0.21348518035298358
0.08591745291354369
0.08579141986272432
-0.1693926990608519
-0.2923907328226443
0.13716328427475505
0.28403118073184025
0.030207735508670355
0.34674300780520934
-0.051273263315199546
-0.056950909298406294
-0.05742884097858667
0.09865158416387303
-0.006115012793846936
0.23574594391707812
-0.03679464803613582
0.045805774466101325
0.4602305998355576
-0.2702856763501204
-0.013154627647930048
-0.04407486917255236
0.414389417682981
-0.16791108730166904
0.010307078129769786
0.1864701714899158
0.0024672316655490138
-0.10981082397373015
0.014247138044844804
0.16755556100274138
-0.18749305494123802
0.14214034516969987
-0.21229632888664637
-0.10506697369594516
0.1650760028530908
-0.10315449571951263
-0.14166940249944487
0.33425557273521744
0.0622324541472015
-0.023842997352524382
0.3240153478020169
0.09392539127950218
0.2581285119306404
0.13131650087382626
0.18767754304126813
0.2524909836647311
-0.07130587401560452
0.11910096996478359
0.0937678367827804
-0.1600223668241196
0.25632635485215877
-0.3560522115445142
0.09812295827851356
0.0011374308350763113
-0.05327614048242986
0.1578166007146792
-0.09618432366832332
0.24874867017444457
0.16593383322393532
-0.2872696514278183
-0.1553392262069817
0.01636273585322545
0.205995324325369
0.2254633172780216
-0.1834994473200066
0.01874550664017046
-0.15885480548986766
0.11460524673088684
0.16026451990357854
-0.031045153472894823
0.2766975339908045
-0.08505405459431566
0.1604025855488964
-0.14816917400639815
0.12137377555851402
0.1974219968470837
-0.21243083783876424
0.11751749439472892
0.07363015987563187
0.22073362255312778
-0.1294357275291693
-0.1476427130755199
-0.14890860089403124
-0.024706948642520158
0.04723763204201476
-0.08755848207957902
-0.144032862258998
0.3314481525779885
0.18075726706165104
-0.09650999035938561
-0.1631494111634542
-0.3603857864497688
-0.059935332233955675
0.23388869130926937
-0.20787986608207598
0.025656349164440193
0.4208127876257939
0.1894838445088794
-0.09220946427335698
-0.05927168788305312
0.36281969520019547
-0.04182477016129582
0.23396052524386868
-0.06866623381333979
-0.30021226224771247
-0.38154349696178924
-0.18904352028825872
0.06564869335333993
-0.14931933991540305
0.0039441407763743195
-0.4956438167217254
0.17776563008594237
-0.3376640920041005
0.28073343480818114
0.011426746752136195
0.15844708257610376
-0.22122218026183918
-0.0907693187300789
-0.16963395373579884
-0.2918620675170731
-0.1838516877642803
0.0010203947864617304
0.18647625984370775
0.36656737752307356
0.0911672343040919
-0.23569928428968182
-0.010610156448125255
-0.015354818783346161
-0.11667089763581129
0.01875559763368952
0.21753382347199668
0.3122399741101006
0.17051089581009038
-0.11470298151789252
0.3473831618736316
0.18194016951047778
-0.08703155523823077
-0.3423560260463639
-0.04325739112371415
-0.05335570130298376
0.2874930310424472
0.08076931747528081
-0.06625169963750548
-0.2642831294123725
0.017281434367397472
0.26252285657788604
0.006242008183899643
-0.1276867222874465
0.09410258499504165
-0.12644399378109217
0.026178133867287325
0.20301909289902
-0.009070181990573942
-0.10584411163776647
0.33953258263366276
0.22952729819453044
0.4874999316429549
-0.3268374131565765
0.5148906293498108
-0.1443663289581946
-0.3409436739597884
-0.2008178797842636
0.24022722044411957
-0.39051907165627214
-0.4137411781234738
0.004522727554347968
-0.06271692555839234
0.023524066340010107
-0.07573245366625321
-0.059695659931238945
0.008312280930289684
0.019133484615176208
0.07772951290935987
-0.20766412204206014
-0.314367854048558
0.03985884866526119
-0.1030922058569501
-0.06994179771201169
0.29249918938391894
-0.16995954799875967
-0.08902932831871048
0.2239788582130829
-0.12466425207466603
-0.33807555677950596
-0.18363210999705387
-0.4472375710621974
-0.34682977938306536
-0.08766296753508629
0.2762817548229795
0.3793944324480909
0.37386278012879604
0.15096419591392268
0.11063950597606648
0.21138917097446164
0.18623367013408232
0.19071074778967198
0.21915234991144034
-0.2934728542390467
0.3837165552053479
0.03147700101198408
0.0504991739240496
-0.03234849766602712
0.13480483148488448
-0.0579126783687624
-0.11953584323618804
0.15592254534409725
-0.18704434870648978
0.262922114563783
0.16699001868345284
0.04736913933945949
0.27282771436021663
-0.08855194071099409
0.10367766067839784
-0.060007529376208395
-0.05667523813377943
0.29685892426385857
0.007223327393778942
0.0593672798631075
-0.10193151669864585
0.0296360188315795
-0.030721639050583224
-0.08744745026002886
-0.18071825058353033
-0.0459069490031089
-0.0708148178276255
-0.2264517960589787
0.12588470038891483
-0.0971591937038559
0.17395234457213476
0.015860687612042984
0.03745406197412357
0.05015788279749216
-0.10543671715669432
-0.134088623347701
-0.561131556023719
-0.10762813226448067
-0.09349888162050166
0.15316344244105307
-0.2676989293142947
-0.019283789099550114
-0.37127652972107833
-0.2185890511325365
-0.3483667204284093
0.02249976037471725
0.3439485424798769
-0.2046983849342627
-0.11775046668153953
-0.12068483327858928
0.0600555761099761
0.1741663003714064
0.0530191322567645
-0.24265497170745398
0.07505277559521992
0.07237719337342728
-0.1771164115227173
0.16176584600376642
0.14533380752120004
0.2987849033508366
-0.09758687246286171
-0.22144463938021022
-0.33508287995822333
-0.17384583784823168
-0.11923495785147552
-0.022344835475117585
0.1556540585485673
0.12544044203535454
0.14105942501836083
0.12413927217164362
-0.10485749326873364
0.08447106106214075
-0.12157147789149272
-0.09078196241771831
-0.21912120874446314
-0.08122357667470337
0.1053941117681046
-0.04757791502383757
-0.18637778552412151
-0.05063563143394602
0.10613695797119481
-0.10196216313168925
-0.37481833939473175
-0.06290626183398948
0.40259374671836623
0.2949216923772027
-0.16653074085539793
-0.011373244921954656
-0.43109001110416706
-0.04546781935331772
0.10752499882041955
0.08561556916025151
0.18793791366668167
-0.35764135901460326
-0.11301577535339154
0.2802927915599773
-0.1693515357204212
0.18909603038464592
0.3151009236195718
-0.16022373146321345
-0.07426301330901201
-0.3030772484989159
-0.2786577387522731
0.21443893566280298
-0.14227902883722757
-0.09641356837877978
-0.12867641456386145
0.26485114485104927
0.12250246169022119
0.1717398072376034
-0.03777039392492848
0.1882263062565927
-0.3149258436165762
-0.3377612960945597
-0.013814747137993822
0.0966543496203704
-0.022393665400961573
0.3448943516129601
-0.23467379359789062
-0.16126385254380934
-0.14403158084711534
-0.0090474838752274
-0.38390452346185594
-0.0033450815823703518
-0.3883860601368183
0.1518796863859751
0.10282089743962111
0.1867768308968962
0.04142532731148209
-0.09363118234024509
-0.1689188749459233
-0.2648386973302105
0.226285004434993
0.06994186259113856
0.1225013993260685
-0.17493840907878966
0.2688251077863895
0.10732364877587107
-0.02307760519457587
0.06649917039557499
0.0467583355289814
0.14424963505191826
-0.013775706266525765
0.0011774773550982324
-0.132050062485613
-0.25659950687870037
0.046969563559629585
0.3007727135917029
-0.022132727106439074
-0.32771258068057924
-0.039351975746896195
0.040036747181592613
0.03857866681207009
-0.0040811436277255475
-0.06464095490661463
-0.2812588475674886
0.038641517177510076
-0.27449633143350927
0.25303069860005795
0.1830290058548315
0.12606029570168184
0.10080700125205844
0.2726733393365746
-0.28628183208833907
-0.21459653028681414
6.83964635274634E-4
-0.1426051868586791
-0.3188908181947405
-0.2401487168122518
0.07628000230679038
0.003995878872687045
-0.16162626279826808
-0.08054686939869836
0.18758359554243864
0.06952165124354642
-0.399237643800608
-0.061473866397431715
-0.2550166680043811
0.060091016945553716
0.14187596323948054
-0.32114177979381686
0.1677755320863012
-0.08000194149519133
0.16001885680711272
-0.465968777416179
0.26680343298665954
-0.32033822311400534
-0.04288830244781371
-0.027119988460937064
-0.15356216445896576
0.4358973573916849
9.19246631904232E-4
0.23175738640416865
-0.2611421352201226
-0.21194766230661188
-0.3146689761769634
0.21481586716806597
-0.11400910414842678
-0.07748271191767242
0.36382836631361215
-0.1205530864300562
0.2312943701559038
0.2453718939936277
0.09147741071053847
-0.29236981959558445
-0.20175559092329307
0.2329182847396159
-0.21844740291321085
-0.4266938934754513
0.07982164885482046
0.3260231698824558
0.14715540342858846
-0.1044538425453081
0.06892515274805991
0.05720219172856315
-0.180078272579207
0.2142811197776403
-0.10192745188284674
-0.10014346371630321
0.19780935098236307
0.16292881155441175
0.042522696584664225
-0.03949409033992598
-0.1570700857957669
0.07582220022918845
0.10895138633215695
0.08683699824488997
0.031182346895920046
-0.5538838877691001
-0.08837884982397692
0.0032626123170481254
-0.13140086060881975
-0.17333899049351803
0.0026751192435304164
-0.3261550816144181
0.2062992246157286
-0.09513398503186682
-0.1407131459986037
-0.3025216870421618
-0.07846353101976719
-0.3854819958197165
0.14977522505584648
-0.08775360328881941
-0.07604464235561198
0.08832736481474684
-0.3321336967138527
-0.14681349030123533
-0.1411906208681753
0.1467870334698018
-0.08709119006300309
-0.27510544271589255
-0.011481592562738292
-0.17719897993231215
0.12124397312038822
0.017581647308753723
-0.04615109641779499
-0.21132114309700936
-0.1565776152530628
-0.03431475162711519
0.007877897645008016
0.31079644157219255
-0.17206441162790723
-0.29957330692613754
-0.12065648562739258
-0.2581493676058464
-0.27057797095923
-0.04298631371460775
0.026314497195128725
-0.07679695813952683
0.3542186769997562
0.475807452642362
-0.33562963334758766
-0.2082983039259425
0.4696917220123828
-0.1400404487647527
-0.12891381917213815
0.19574459835569732
-0.15271100494284065
-0.08037484693014033
0.043592608600986904
-0.36823367954661407
-0.26965556855678374
0.136547282171649
-0.17773894080244418
0.33249236345259503
0.13823523675448024
-0.10992324329575286
-0.022243012233689487
-0.22859849507972263
0.07731955011916636
0.19381868897526153
0.03155793077478243
0.03167663990865829
-0.10286518456635195
-0.07725743486565229
-0.28254667393643584
0.1741792882179081
-0.2761332316355775
-0.3959622805416031
0.18044523103808505
-0.056588526410511944
0.11762630766769516
-0.3744089441165075
-0.012910478314353505
0.24579395396324788
0.2995479408136987
-0.08962369863790765
-0.09512924333894579
0.2159707220204013
-0.05429067361694317
-0.0747829584681118
-0.28995995773165106
0.026022552969069253
-0.37294068263745483
0.08419120719212286
-0.11010083683286076
-0.33639494319258867
0.2320559936686955
0.279798381474199
-0.043523233934942784
-0.047893135597022726
0.009381962713633112
0.4152501224027556
-0.02405021669991369
-0.035769775705820794
-0.5512630210592498
0.17356436816882836
0.1284242376929405
0.3064414275081798
-0.24696865231960052
-0.10810345793572294
0.03404277039571927
0.10806164495636546
-0.25064764977888476
0.2457234589718269
0.27390110455289485
-0.04165090663327703
0.2563440138060802
0.1125553681606011
0.17292460199992207
0.027424952031055435
0.12735490365459054
0.13546211458623775
-0.047433777120083204
-0.304779415202723
-0.08521320057564324
-0.17617608665881657
-0.10609768508346246
0.5738253478482164
-0.13952539240129727
0.03549587123917091
0.15496732033120583
-0.0995766288665728
-0.025730278594918506
0.16379804179685242
-0.36388055702298455
0.07569751018937912
0.12413333672730653
-0.13174817750609596
0.0766879941805439
0.06226902596671341
-0.14705913413233085
-0.40053566825323916
-0.11357104210673014
-0.22640848563601268
0.11569856450132432
0.17756710423474892
0.051787695303731646
-0.26561212042174237
0.055983812779316904
-0.04393218574154522
0.28681756276662135
-0.031774040093397994
0.20616422838937556
0.43622854149254064
-0.16742637001889832
-0.22794156075965494
0.06685639115938363
-0.015920719805012563
-0.09845435166030345
0.24454519543435232
0.004606693121668065
-0.04177597223217803
-0.003043541303389633
-0.20158456324554078
0.3112023774739954
0.025192469173702527
-0.03788918220453568
0.11303118793841294
-0.07789607104913225
-0.2228981743650531
0.02238801453139784
-0.326363541540833
0.17818781273393708
-0.13038235226453374
-0.2648048699981501
-0.34320828859291186
-0.060604427232539865
-0.3437157551234121
0.18316714008278856
-0.21295507718806503
0.0388964342693146
-0.04575548088720937
-0.048054268247446574
0.0466800847201222
0.47799968357059397
0.4006562024256217
-0.31046317162387327
0.25003216660613664
0.15446997013912303
-0.09829217603441043
0.07423010909317898
0.0038860833751054136
-0.09302818337197524
-0.03941405554078073
0.192487118994342
0.3005363245517362
0.14440951000293378
0.46766626882477214
-0.24149051423597193
-0.09888490600986562
0.44371724574585925
0.14212113774198779
-0.08761138512098915
-0.2693234131411445
0.4204288774685496
0.30013830071071307
0.11289645346960647
0.0825010855183807
-0.09408282586956818
0.3077018892070651
-0.09070118913877945
0.001361185631074392
-0.1004104691900864
0.11594768285387227
0.20169251556990964
0.10308906161361858
0.3639961002134902
0.0873543124294883
0.05254748453379865
0.053351918432179235
-0.28999805722933075
0.15343272072438238
-0.0549172097702916
0.23133633883397212
-0.22060543053974002
-0.16192780403433607
0.1555278350906923
-0.03850891397066661
0.27549577506525685
0.21301395987561708
-0.6962294072720796
-0.0648637082584748
0.2547908244778701
0.2541695161892811
-0.03496693543443529
0.24826769601668996
-0.2990259965403491
-0.24155823340305102
-0.279689754881301
0.09288457570038951
0.28217001558065236
-0.17992454005876554
-0.32951341730867734
0.15436143895942295
-0.06751974242997713
0.20699893702227132
-0.4007068426291751
0.22802343544047218
-0.030763462266132437
0.20227984647449612
0.19349395793853733
0.008730738584301281
-0.10526834795833927
0.02894780047332516
-0.07662821369520577
0.14757351017660766
-0.029582176480165347
-0.12378532397122476
-0.12923372828889473
0.08804829094405468
-0.43498540468268765
-0.07713312696042532
-0.09975972247837427
0.09337341423376722
-0.12233210420161521
0.2982668780810755
-0.15647400884792206
-0.27292749449893744
-0.044941833698019164
-0.22383394418364794
-0.24815551295580784
-0.001000095243939826
-0.02855069669669077
-0.28777392789040673
-0.18272861786838115
-0.22472597078269937
-0.038594981794317015
-0.1855431455376919
-0.15336768119145394
-0.09994547696746298
0.16842442991004108
0.36442784610521073
0.22175115744070584
0.18210419870226105
-0.1368203181561498
-0.093938541593022
0.18167803466235488
-0.03327169492849332
0.36519491817002925
-0.11752204875147135
-0.04440794255089419
0.16121533853311457
0.5343614493805192
-0.12707004296354915
-0.2399320853012537
0.24123466829469425
-0.08429776767449616
0.021084635175067964
-0.3368354509160161
-0.17498197018886727
0.07836400506820658
0.058114016703613575
-0.31467347608862073
0.28896982899792617
0.17482442184589986
0.27853272256822614
-0.0807671603257774
-0.22274350144283922
-0.09373190028197556
0.047596202601954025
0.07272595331005177
-0.1260140613890969
-0.13883460756397578
0.012650794897127466
0.22460705516590218
-0.1492948472485458
-0.21827653448890905
-0.0531673426042312
0.010742264411790641
-0.059627447192528465
-0.16875740267518835
-0.3255250556794625
0.012717163458250781
0.16021289567240707
-0.07834574311557119
0.125531331257229
-0.09784723002767422
-0.11541153743566279
-0.11518145128913004
0.09141483943118511
-0.14285979432947002
-0.4813580293735063
0.17518059715968617
0.09381924034534822
-0.13963089464472728
-0.19125542580129065
-0.07134900421378529
0.1310951683873883
0.22328182391743187
0.12571235603510134
-0.08702387259288998
-0.3585093596594577
0.2984275173212951
0.005585615435745701
-0.18418853599698223
-0.28983588971575064
-0.003413957649658456
0.3345126861308698
0.04040898711473441
-0.08416075335526212
0.06546908789301817
-0.18470638990487298
0.18226296335541636
-0.07450869678575911
-0.052850526109177814
0.061319680880526334
0.19454609095414574
0.05661809143776188
-0.19580774273086354
0.12553596659527239
0.14805525375673825
0.008059274518296631
0.18410917184539166
-0.08732681500074188
0.20573351380596053
-0.017698590587237956
-0.08109309917885846
-0.13190598471335344
-0.02540073648387406
0.04534408331951793
0.08452469723249946
-0.13789080998325134
0.11250554252811151
0.10097558535733449
-0.043325008732443826
-0.36049085722782315
0.10002156508240188
-0.04466833923733449
-0.13365923299981705
0.23094718136468587
0.3489331832111504
-0.027800690649054063
0.175739379957817
0.15363875871208046
-0.33582424207519024
0.18037391963241792
-0.2779489284743681
0.08171062434931294
0.4240110365180132
-0.3732521989795278
0.10829415794565012
-0.0864188771994461
-0.024465143743474915
0.30838085715537866
0.0384764164550177
-0.42994264975775054
-0.23033817274255025
0.1377960592387562
0.3640297846801086
-0.253566465377484
0.11914405886836846
0.13692916380979933
-0.32968713541370537
-0.13247699436108754
0.059477390692248194
0.16890511052242768
0.10734430416412971
0.09887712736958959
-0.11858293699376624
0.04379813019445061
0.11188155968952468
0.14450550469847961
0.23491480895374398
0.009049084238967843
-0.06304136772443313
-0.060858848732421936
0.10595507848162816
0.09788882083704842
0.1784625226734514
0.019915900041085222
-0.18134706315308843
0.19343659018238385
-0.14271462319921213
0.08395256970814549
-0.08612256826554579
0.21478915844510849
0.04241802230015205
-0.06175271654049418
0.06686987986997016
0.0838998583986521
-0.10365400857125828
-0.06447068805466603
-0.026445929918360808
0.017457976910627265
0.20598819297357562
0.14703411686681564
-0.0724197958023143
0.09868229499746911
0.16951761794081488
0.1577566209373549
-0.1677359223931767
0.2993042796549028
0.03267618167870203
-0.11590328875177969
-0.03383609016028278
0.013436061392964072
0.15344630285301591
0.03465476059824414
0.09733265405305778
0.11821637151080425
0.14691211509287946
0.2916320900322122
-0.01168296279875309
0.05841011907299276
0.25090042958613995
-0.04418023678025064
0.011032877583671346
-0.4192535072230674
0.14505812368358226
0.11191988865122067
-0.1676249612416816
0.17753046142004025
-0.3192550874496588
-0.0027016509048908084
0.0054477848737022605
0.13956115205668065
-0.11422891984586753
-0.003137865656363418
-0.19147975660466185
-0.1235402937216277
0.28944946743857775
-0.112611649841321
0.643248250352107
0.12848158203978105
0.36468397192811564
0.031097002052367963
0.184325058980089
-0.0911567633728838
0.20176137470189137
0.06535515695685071
0.10873071104875215
0.22647352043246252
-0.31798724702887776
-0.19361772303881938
0.14011095961664882
0.2521840025755896
-0.016942145537449858
0.07504694967010725
0.14710228348030258
0.06370159564586883
-0.021169611629304672
0.22923142161446683
0.23062804455316305
0.0841119136361787
-0.11248270406097366
0.4213938005349552
-0.22867757562541483
0.25107037069338717
0.14350094500453336
0.1636137671624192
-0.037281891525559774
-0.14645904198605822
-0.19101835993943223
0.047197744656557364
0.055350932459068226
-0.08971064589594806
0.1293713684767118
-0.15809532476026705
0.054933455097101846
0.07936428480028988
-0.2677819847123541
-0.05560673029226482
0.1491800205605143
-0.33513901768934806
0.09995064737083131
0.32569710326686363
0.6292513983755204
0.24895176506034972
-0.07461737545963652
0.30542215683701945
0.17869649252431885
-0.4499295422405176
-0.016410254702257248
-0.5312555850651454
-0.13271465462501172
-0.40434823028484934
-0.34380213504351276
-0.06876793574097088
-0.2306660869025668
-0.3737114438108821
-0.36422252457857707
0.14612005738861938
-0.07922920599968705
-0.30839502537461616
0.2911519309121401
-0.018194788320825214
-0.09321865245412674
0.29497714046224693
-0.15871930285611688
0.101935891659268
-0.414295453188827
0.052793644551378055
-0.11857336005572444
0.1291545999020003
0.186543419446759
0.18377880722823525
0.20980461743492637
-0.1723460561176008
0.22561399227668397
-0.09966902791647196
-0.009129793052345578
0.016100026336278477
-0.07511863777457684
0.03568131882218101
0.10481898069872105
0.17577577158358182
-0.03909063192108177
-0.2056161001133845
0.021543414054934273
0.14867639884811404
0.14905212174425675
0.0328863524454656
0.1588040856884788
-0.249998152449695
0.09028071465638231
-0.01940711645102377
-0.012745554636663027
-0.02555758786272735
-0.047393196328830045
0.5635922617681229
0.027315940888095004
0.3428674818538956
0.2169252632591746
0.1609232216254468
-0.14660052235879828
-0.09362400047797109
0.03369612401983478
-0.04397773226002414
-0.3323828748985124
0.45045011564334114
0.012608199411093264
0.020759673890797498
-0.34443135313429263
-0.03229924089950314
-0.10340637332703416
-0.026645358089078853
0.00578767413224247
-0.38784120672865274
0.0253853382527312
0.23508317111919222
-0.19663616349861657
-0.1739309050039422
0.029889566889893877
0.15621019600720898
-0.41262586687849406
0.18598870277734542
-0.06003685368672414
-0.1380726842226981
0.10667792579177333
0.15146697389851305
0.11002403504280163
0.005906031797064113
-0.11515736442282208
0.11182276195577652
-0.2624782383144237
0.3668999205756283
0.27663639686897146
0.1985221877413844
0.014001405249190727
0.09516564805197289
0.19041180637040206
-0.006903248103154052
-0.06794575039106211
-0.062339791169470485
-0.10051872595692689
-0.25370715248907716
0.06723739144079766
0.34396705722954507
0.30790064371532944
0.1722385881693631
0.4486084841947198
0.2897716616536877
0.20948422515841286
0.09534202645196224
-0.23654814494117993
-0.3165082613001073
0.21209767829882498
-0.18219317101377835
0.02774204161087526
0.21883928714701228
0.224474065833483
0.13457672185727224
0.26805324411025827
-0.23323511300294375
0.20264733888474531
-0.19679278391650806
-0.29963009257785045
-0.4556307977309727
-0.039499248707907844
0.1734442165044473
0.1442611985832897
0.023143505034137035
0.14629726978478894
-0.29743798681658745
-0.013153154909157812
0.22462740081032312
0.015829240376033598
0.18964580360782105
0.11739766850920519
-0.10276364263118164
-0.22710834171872302
0.3295303064682621
-0.33164061907021936
-0.32115464568486196
-0.1150543374169773
-0.012748636012134587
-0.27803201227191776
-0.09979331510047192
-0.23055876224317592
0.21618363689258224
-0.0898209902611223
-0.00335979435082053
0.14128783706464648
-0.3509584216409183
-0.023531321541768242
-0.11815613092871394
0.1486825780990483
-0.17004212273659763
0.06699394079593234
-0.12706735344127018
0.16843027825984078
0.11096271395675968
-0.020738861085655917
0.2426711255806902
0.2092343803025988
-0.12672235793605727
-0.3076018771953861
-0.2877240723453373
-0.04042588280831758
-0.22541817355592664
0.050627881782720534
-0.2684680735122812
0.19965292204812146
0.2777656270013485
0.07626642937867584
0.2879832465053339
-0.20547585085470566
-0.09535321502172606
0.30246798171291595
0.4370827628785682
-0.010298893939407435
-0.28756159351251537
-0.102090844895952
0.3505925471561063
-0.18247710109717477
0.023965816508420123
0.15847227372364242
-0.27054567860743645
-0.032573591150694185
0.23090281312432215
0.25306728969421666
0.1054013931591475
0.07444883471574347
0.27004114204866797
-0.03617064748760444
-0.0014495577750250704
0.15839856665863328
0.05904534689241114
0.2943992081991678
0.23909912395092628
-0.13347666607534056
0.0843706271051286
0.054208959496489934
0.12305318136036017
0.4209231884329773
0.2952672620462512
-0.10026042057002303
-9.727458008364203E-4
0.27698848521476876
0.21352840983456917
-0.006642982618784571
-0.16230140997972745
0.057870184296734344
0.10576115509189166
-0.4554450945043167
0.2470652987925285
0.39583409152996085
-0.1270635027636593
-0.5117196002976965
0.24929756657137636
-0.021328223319383458
0.045697502483827014
-0.1033939935179983
-0.23523787016891334
0.13118850294558101
-0.006095769003889524
0.10105494994065459
-0.2853682155706628
-0.018511612130165733
-0.2227097377224098
0.05770871353055103
-0.07291943237008733
0.19188639646583264
-0.2658929117394991
-0.26889500373327563
-0.49519790022704147
-0.43739660416793325
0.031369438231764954
-0.16755555774956798
0.24429140830429322
-0.20619573972734237
-0.12004361851556117
-0.17230266937811434
0.03695101911520151
-0.21147507099624066
0.07398158226575582
0.055491473351954146
0.13960768753475966
-0.011663628906753114
0.011679791961403667
0.07925697455743974
-0.258545815957114
-0.1939691678888109
0.11982197253404725
0.12673886072315682
0.004882994432366792
-0.5175653576915861
-0.32222953348030486
0.14229371667339727
-0.3628687537121358
-0.028477397808855776
-0.16704662341660415
0.02091020550650026
-0.26714872315255717
0.2316354728371367
0.05918719690337374
-0.27510064338851475
0.15552368409754036
-0.0805138214508489
0.2795639476865101
0.05443009139284699
0.18096644603696857
0.0677750252009676
0.0729445825176871
-0.006779752977181851
0.05352801108442086
0.3783823554432524
-0.2136638430845665
-0.09919188491730356
-0.18018647348201877
-0.2379202300878984
-0.2152999829187705
-0.0716697837484051
0.07751864390859618
0.10293378614441916
0.05699680696368558
-0.003417082135656543
-0.06780009273804113
-0.31308034248216976
0.09428962260648019
0.04940572070219646
0.08544008386493573
0.12987077524179536
0.12360982036819453
-0.2303617111060111
0.15280668170286288
0.23357609024708448
-0.24794734989036613
-0.2653894941768711
0.10576539925351883
-0.19015387467435851
0.008608730542267387
-0.02854729364187742
-0.05044927482125569
-0.4473135774506193
-0.03471159821136063
-0.014028356198217812
-0.44260660252560946
0.15515030168634736
0.2913442514252475
0.08437028661625447
-0.037634497225672595
0.05769445548371671
0.29033808221254137
-0.11327128994388647
-0.1579574752505034
-0.3191799794950983
0.15492870421343757
-0.030993815381099882
-0.18242386755356377
0.19339750116529875
-0.15356619892259807
0.405997525663242
0.16147416009011237
0.1934322330396549
-0.12312400955447181
-0.24811047732700553
0.031922172732783874
-0.032173695043953704
0.07961342790070836
-0.007771840345835626
-0.010077028528270322
0.3164009677641488
-0.08403234019972855
0.31407651943935444
0.5125795071523398
-0.132596565494564
0.13582991509122738
-0.15694782881518568
-0.03609078299566842
-0.5641760983202196
0.27972132020101104
-0.17114496562591913
-0.24672253571498143
0.053063547997555194
0.31737060424203856
0.003660516635682419
0.2370946279023144
-0.3173633401456004
0.093408066688331
0.17620461522136974
-0.005024397728348437
0.021492946950350936
0.30921310610854746
0.09330792026888529
0.2284380603361593
-0.4600724740782367
0.3694237387130533
-0.15184219958792108
-0.1992895005486283
-0.08395588189711793
0.239123834550347
0.19459514783928045
0.29007358377203274
0.20591130080675338
0.10030494270969709
0.24796600783906297
-0.11639247055794014
-0.05905133708179398
0.30109451426806777
0.2842722679503635
-0.06181476617615761
0.04257793976419719
0.10823682176417318
0.17506814674298143
-0.0426283659498117
-0.2854287876618577
0.08176476738015898
-0.04833817294399617
0.4289934703218723
-0.1699021220040085
0.12485364022487416
0.13815066068882498
-0.12288124020151259
-0.3667971536405489
0.04971623702345796
0.32699698572650204
-0.04176613693442125
0.17011821230681795
-0.13009006408166834
-0.18088373523913165
0.021292567475211244
-0.31765623173017565
-0.007347367725655961
-0.0025667548475111425
-0.10176287652279858
-0.0322241203066148
-0.2799809907746118
0.05817893701362634
-0.02381971055283533
0.3912036711926031
-0.24707912985699787
0.0946988776957427
-0.05646495545543073
0.2450707989307687
0.11215111319952153
-0.16178993953662624
-0.19916888378076725
0.04966827587056031
-0.25198595915531824
-0.09525771267597852
0.12374150832643199
-0.11668456885945373
-0.23920364543015663
-0.08077841643928314
-0.11854188551998393
0.3462986699518239
0.27870858361375445
-0.32252653598313846
0.10588337529563199
0.2548494584340961
0.22091156282449634
-0.025218185006801026
-0.14270915478933766
-0.08977403287703789
0.1685924982373466
-0.03771958054053964
-0.23837809243398478
-0.06461875234787377
0.11706690811187043
-0.10529480385970057
-0.02210898253495421
-0.26914346045892507
0.023585461690219477
0.09465243168112825
0.0443560849819967
0.06527110048641295
0.21781602717831447
-0.04665191908258589
-0.0073698712279137435
-0.09133968132932753
0.02055571030713132
-0.016315080140062253
-0.05814480333509347
0.06934209590027884
-0.23919334859323516
0.10417056815850223
-0.018238250132020996
0.21486889941119763
-0.30294928244943353
-0.32261554872749143
-0.012584565359250439
-0.04004360334035283
-0.11272007922626277
-0.4350406694025921
0.17830901748037356
-0.1255071233578206
0.382251997052352
-0.0070615631099499995
0.36802374476236516
0.4547481405385492
0.09272058602999514
0.42668839070120185
-0.0805234772208411
0.2575899720917988
0.2197224935441137
-0.27249940168378467
0.2915271160711192
-0.035726648095259494
0.0059332525231421945
-0.25863313363408197
0.21358961478688274
0.01848578251432374
-0.07608819973863278
0.37876189491777634
0.06651220086809295
-0.6578888990306595
-0.4180441372073295
0.10091558553304446
-0.12784553207029342
0.0822728193842034
0.12220289229220133
0.18016548061150678
-0.2020040006729926
0.12929112133816847
-0.10857158790073117
-0.12988571007147565
0.0243027981442391
0.04981575701367371
0.11245823412947265
-0.2689778330071437
-0.15172667847942478
-0.5168281921289961
0.2073809530086683
0.28924683457168027
-0.3219037502831354
-0.011086655562454568
-0.047342831212698874
-0.009679238292489114
-0.17689560509666624
-0.16147012602956676
0.15882604388693705
0.4304910884145467
0.13721862151728012
0.28907368996029936
0.07944269369692052
0.3327593170241564
-0.2334456676926712
0.18148110936593972
0.25946340506359444
-0.00374989230194124
-0.09288564741583118
-0.2808938472567471
-0.17697441022323557
-0.029695562657223774
-0.11017731768837752
-0.14264363940260058
0.05078847343709625
-0.01993797285526328
0.1339004241671269
0.011810281629734201
0.30926027426787395
-0.045127984585924506
-0.09716168389081636
0.16642424198881411
-0.024711404765722818
0.060094526612198745
-0.1804239354942232
-0.039742516711225605
-5.798572085427454E-4
-0.14199953349706557
0.33705019856567353
-0.3345560977758899
-0.41808359106964255
-0.348707676907092
-0.01168692537032395
-0.06299752456717296
0.4595376457175818
0.39137153110478246
-0.0137331143189944
-0.5338886068691711
-0.09836461535015409
0.04559581627163336
0.12428906299807779
0.20978396425173443
0.13371171929451867
0.09153410215577323
0.045655843420841634
0.0986847366935164
0.7731751631394863
-0.004929830433879321
-0.1379990995835373
0.10722860514922031
0.26466569625720954
-0.044192342451947024
-0.04462281491730153
0.12726364900557127
0.03866981037978859
-0.20298151739405892
-0.0710368020244936
-0.05832769448808586
-0.23000872855223206
-0.1545815695861309
0.14072215539858549
0.1428298610424887
-0.02945655660494912
-0.1936236659031429
-0.06157123861362253
-0.26278414982607007
-0.05460563039030927
-0.14466638706576404
-0.029438501045178672
0.01936305593488629
0.007265102224506598
-0.02450699852059429
-0.12361943659883426
-0.1458705791376996
0.1631330382297542
-0.09717917805646721
-0.04937094235157153
-0.11893099354336721
0.07206898099100588
-0.15364845094200427
0.22799983836263393
-0.005940574479644532
-0.026347734830117733
0.013993560298067904
0.21292301298587424
0.12119441973327622
-0.10497919112974581
0.11523545796721645
-0.06408432370887428
0.036729713235109936
-0.7150875571796073
0.03990645191467452
0.0063849015630633825
-0.00230838012911793
-0.14604504758323864
-0.11736377760959422
0.19555922238552603
-0.0052253721382666705
-0.29794353701712145
-0.25500342605288756
-0.10189875097013977
-0.11363494206055424
0.14087070676561267
-0.09367159388620547
0.17739085386116785
-0.08033426994366193
-0.13241019873411733
-0.2513657205734407
0.15311956088495512
-0.02206025657758118
0.2296397156616696
-0.28967677252065355
-0.023629495263403494
-0.15933171110878977
0.009930664742137527
0.22619594158045797
-0.051232926125635306
0.14958357931048333
0.09680797115913643
0.15801068534237894
0.35691720025436635
0.3114736549593555
-0.1492983322597535
0.152867521880812
-0.11944863374109722
0.11056390792370992
0.34317060410650835
0.2689381300419749
-0.1819432119814388
-0.48734738868169214
-0.03185576185573289
-0.13583032322792232
-0.11249710897578083
-0.20881227402715996
-0.1596184411530764
0.04292636517784212
0.07230798239821568
0.030529750031577953
0.20800122348099653
-0.002521173135895493
-0.23534201609627414
0.12527755667573803
0.41219036665209396
0.003980575506509353
0.08335839651517672
-0.2306484860517225
0.0984918635089746
0.0209815613510084
0.26927974316077985
-0.022872702161688664
-0.0739409972664397
-0.0024937049745163632
-0.07322606399812628
0.18604933173689714
0.04186411143487212
-0.02769383070273175
-0.07387543810635715
0.08460964784428343
0.2291144040980486
-0.1028345368599502
-0.11271821820009705
0.03314991024315185
0.10705626306495385
0.16070051372270955
0.5632984050073365
0.2516488950019493
0.23046503113610708
-0.025397157720537536
0.049735537331012006
-0.026332020074696018
0.14443015498714568
-0.08630416772114134
-0.09258960354149051
-0.0835934168865084
-0.14220993601323936
0.004929424848053963
-0.103775723659709
0.17697410743702285
0.011727238858860276
0.10983227345763576
-0.3146058780868488
-0.29356661418295865
-0.035500104976980695
-0.04846105080034155
0.041218577799144875
-0.35848026987365994
-0.14657968411522362
-0.2801264276906696
-0.05316812073472717
-0.1969516160539903
0.3775653731242414
-0.027475043070900915
0.0070475580966718665
-0.045734361945307035
0.18954918371985752
0.12505689710585446
0.28792122868456654
-2.3220055482783995E-4
0.3429584793634972
2.0595485072639943E-4
0.10143159812343504
0.10507250994713713
0.08931084100010113
0.22579869051886653
0.175282423152728
0.10996408134650056
0.03463126438693914
0.1049956121189994
0.3707190070739774
0.21912076553324114
0.18494822798844232
0.09187815800286647
0.14354422352934557
-0.12908568083839367
0.2476434810379491
-0.16298064046030467
0.010821449992663698
0.15357730171088918
-0.3377052303300684
-0.13620334390536962
0.14594894617473048
-0.29383208137293
-0.5602260578033568
0.12387985940013864
-0.17167408859809985
0.11191668161456439
-0.26687269787406137
0.36886057926281307
-0.3494367908411711
-0.09735408084301005
0.19938657438656515
0.06464408420131773
-0.004856804435530651
-0.19259686408451726
-0.02206346695384731
-0.0838714179117474
0.029476068406480913
-0.005845584500862472
0.01042213476050346
0.4150657932948498
-0.18201930012365877
0.12578639076360798
-0.005580273691331259
0.1405024267211029
-0.02175870050039495
0.12122356398454415
-0.20886160101625398
-0.0536789615217035
-0.11028500513327043
0.07105970619372881
0.4126230114375214
0.18582793812944517
0.07605924535495678
-0.11979275552581337
0.38151818777261504
-0.10756833983610835
0.04842695515296159
-0.10230076056390179
0.18138870383395556
-0.012835137399369338
-0.23956911003222287
-0.040096250731244606
0.040807853053627975
-0.2789550546161133
0.3217841167511415
-0.0029187365081111485
-0.31064132097422537
0.11266535139521378
-0.07677535900943411
0.502374437503789
0.0925409668125172
0.03923418454262491
-0.43183033074343213
-0.161860656971974
-0.09482783815323022
0.07674866995841742
-0.006661722634451213
-0.033608356129623485
-0.4700869040369874
-0.050862314057732054
0.2830192653983598
0.09128001963984655
0.45434964853481913
0.11927992482290461
-0.16638375256378846
-0.25952297585871237
0.0985383629508393
0.007309925525602973
-0.08695326178648949
0.22781486088127348
-0.20455003796666685
-0.37526119825277426
0.04499780714259037
-0.056211704782852895
0.1566213252822326
0.0949746438362994
0.05497494125974694
-0.14677237516152125
0.3183681755097736
0.22919243574070883
-0.21625235926196595
-0.022338818075596123
0.2613702420421226
0.3964273759792895
0.009292837158133204
-0.5390832366965945
0.1261368124981009
-0.27229507531382735
-0.07360108303309756
0.10027325847155633
-0.02726945822106583
0.5263883148560973
0.008709627847057701
-0.08346354455370336
-0.33785410124096305
0.0864166015630759
0.2480260193809338
0.04203513114421453
0.06663691183719035
-0.06174669657826827
0.187294074089271
-0.188034319055398
-0.21882814830818376
-0.04337316214623646
0.03379518339918482
-0.2477369147357493
-0.03895880196939089
-0.2949756984859559
0.13924638337978407
-0.012290199676628645
0.09036161455316101
0.02462647348715479
0.30164945209189636
-0.29581233066115126
0.17202743302577794
-0.17299872723568255
0.1154928826023324
-0.07823272154061056
-0.030880265753395697
0.32079079939618127
0.07673094895543976
0.09466178921919259
0.046987260135163085
-0.32783713075857623
0.014200132836096932
0.42399640351726176
-0.19831832219039458
-0.07664286767736868
0.1513395155639753
0.25112771989793553
0.14255381503797157
0.33837592215134005
0.07616607897631505
0.39565933931706776
0.3015934226256447
0.35019604915245583
0.24635928383274283
0.21904196625029698
0.28347629461701435
0.0014651098064937884
-0.1493381586501173
-0.061630164640591664
-0.2587842255032466
-0.4147071962545797
0.009970285265883864
0.18750958711318197
0.31112150835836294
-0.15417270734223829
-0.03031989886926434
0.06421831688037057
0.0490569234556953
0.21114360967172596
0.0636693762406035
-0.13983842482869102
0.038384154213772365
-0.43836181908911187
0.15937124480573217
0.1855726914393398
-0.3070528556998707
0.09230219662764798
-0.16971283560564263
0.40070029007688035
0.12103476730590079
0.23191092840168864
-0.004101032372205679
0.06256672037599119
-0.38998139629479167
0.22372377970737434
-0.2622576450535913
0.25709302850332433
-0.011058524624590305
-0.05701768374369206
-0.011924900951568309
0.03530780723719637
0.11639059166655316
-0.09373461957712785
-0.3026192682836652
0.3415156267557217
0.3576204478429129
0.29897853954642417
0.305808131720722
-0.10575672982583599
-0.15941476183375286
-0.17355267545611625
-0.25781611419397493
-0.11839776783137744
-0.20848412356828108
-0.06819418843702486
0.12494015226029372
0.004927248809404833
-0.2544890834917803
0.15908503127136375
0.07483778120195167
0.06824889460002835
0.1278339375821887
0.13278050597175903
0.05888485394915981
-0.14055928030244702
0.4396446082936283
0.14181699682171742
0.1100259555796265
0.1739538250662891
-0.18608361084316094
0.2951275527927167
-0.007810643235107505
0.013747391445743795
-0.10093806517490288
0.2802520898051722
0.0757637478655747
0.14820547113894206
-0.08763286133264513
0.06286291621485356
-0.005187135389268937
-0.07478582846310117
0.34576491225293343
-0.009104932771211738
-0.05595412302445093
-0.014968519027590547
-0.11717644016395555
0.028905061859072094
0.1509671672894229
-0.30449416981943384
0.09565088272781297
0.20676165433254304
-0.22214249891048918
0.10267261594981114
-0.49226932225982223
-0.40616228821099143
0.12850179942155193
0.14822557786346685
0.0913437690853063
-0.20972908042569202
-0.1777732905004412
-0.31762618330062614
-0.2627611785411
0.30596591383514715
-0.04857797284989357
0.014870391319423018
0.21003793376017946
0.05815915848596915
-0.03204800063963719
-0.28977792671707503
-0.24251216604933185
-0.04531553755836116
0.013146515274715491
-0.11388666698461561
0.06710100218049646
0.2009540595202968
0.1991322239736649
-0.002580454116162574
-0.22480882825432588
-0.3444167652326836
-0.017440388982061798
0.23804840896709387
0.08738447525978203
-0.07795394960269861
-0.07709569550206515
0.0674839958387656
0.12853778706885716
0.07755682354380532
-0.4512554496460057
-0.02429678668834495
-0.2151541357132674
0.2422759305234349
0.09406544347280242
-0.37243360776198703
0.1334745637845066
0.477084946538131
-0.16692267425888113
-0.15829165606202517
-0.027839697225690338
-0.20981562787211003
-0.28566092762017153
0.011034400234203288
0.08781778879900064
-0.02823340565460868
-0.10949445706102115
0.19261299921130895
-0.04714108401381504
-0.05512406433096632
-0.1865347974442857
0.032067347800197425
-0.3728791521003947
0.19897344991775182
0.13983046864543106
-0.17677318839897735
-0.09329453241900296
-0.15071896525530698
-0.005880218049783748
0.08001089950626371
0.037692470570915036
0.03644793145327654
-0.2267100741190073
-0.28211814292911364
0.22358027699538507
-0.020647556000618385
0.06608640409953609
0.25144575186991364
0.19740385998189267
-0.16414123726332605
-0.36099733544946855
-0.07093364088779867
-0.30162751050157
0.03241962761560408
-0.11434829514569951
-0.18217962958596434
-0.011716168041605265
-0.06461630473470423
0.14983221092638213
-0.26111492038171996
-0.29536720381796083
-0.2649042151211462
-0.09407862345813807
-0.07763655519574933
-0.16021286356056036
0.0974526206806121
-0.05688540010666573
0.06951089943932817
-0.23635822251196872
-0.03352644698364285
0.21011170586909025
0.11648563298014085
0.12468477586718678
-0.15100499495645525
-0.3079585331175608
-0.19833835000423328
0.07105060588292128
0.09169859226127255
-0.1431567448876488
0.008273978812807151
-0.3662254863630463
-0.11396012640205753
0.1163722040941885
-0.2462571428164325
-0.19714063945733667
-0.06720563128971134
0.027255052203394053
-0.061492394000122755
0.08915811101799596
-0.3907090194866844
-0.17439694179549894
-0.2284432109910335
-0.28138702813334515
-0.15368647261420418
0.2934474954198346
0.2952386067352777
0.048004630532880926
-0.14332944308127515
0.13217987892898828
0.3583271815966828
-0.13705644839177672
0.23224370313640233
-0.05314744767780309
-0.05575766739418386
-0.3252311891254041
0.1535985330214905
0.1332679143587062
0.04219372471413554
0.23975247178221298
-0.21837990957985037
-0.1852159076214633
-0.06399541679970783
-0.09550539045603228
0.4546758627102947
0.10962129619884996
0.2363353051285326
-0.37991692494941975
-0.2029633570399887
0.09809870387061032
-0.07085962315520322
-0.3569243157003513
-0.07546097224493108
-0.06289700794872594
-0.06807889082977885
-0.4807183442531963
0.21980587003193325
-0.0023704375543847113
0.09728757879101917
-0.3385954714259579
-0.1228626894531811
0.1855091839565119
0.09748957275013521
-0.09806359114809268
0.32945188627448513
0.01945507710962259
0.3112731283063951
-0.18848358561364534
-0.07786996265091885
0.25018644193002115
-0.07077258868484135
0.076673609370518
0.04245560754663589
0.004402006977693176
-0.051932496358381985
-0.07838611518145994
0.13928648810440042
0.1153537227329586
0.10366023511223957
0.22845062629213705
-0.08887582947893592
-0.020509618482504433
-0.09439135326922585
0.01951167888433201
-0.17876611433409798
0.13565011952685596
0.1404409181581522
-0.1408798944855284
0.2078642053481477
0.5623248922804358
0.13704176857964145
0.045224922161017485
0.08731932421959179
0.33969696055739107
0.0282379704735173
-0.22336666378462752
-0.06199744789404769
0.02318190520280679
0.1342932385801365
0.14937667500127977
0.07877283348067418
-0.20794374069218916
0.10127292994611858
-0.05588374829798741
-0.20464135172652181
0.14145443314499728
-0.34904640974727846
-0.18719306156185275
-0.17835387379782253
-0.08938563344991929
-0.13852062478470056
-0.5985332200355266
0.187882342655843
0.13100710018444656
0.20026010124653568
-0.020470261036068017
0.2336408964111134
0.027480596899320087
0.14844056192773433
-0.12526322164295953
-0.12062356925668843
-0.08399765091171316
0.19418073759443547
-0.2874316971629041
-0.3966371860243188
0.10152025052285436
-0.4545510669052645
0.13479536180928292
-0.3753898271817518
-0.10427537555471612
0.1167726882142187
-0.02670129213353808
-0.40183323753059685
0.10402832218828924
-0.00744313736994539
-0.543915290789091
-0.10373879332507976
-0.22449112289450163
-0.0729757596931281
-0.14227328174016718
0.25527847735153475
-0.014008242677460083
-0.10582133700682243
0.3012416293902955
0.04325396037162227
0.05495297204486891
0.22505292500335916
0.04394569403099332
-0.1178959252175889
0.4442634575863979
-0.5830068163027009
-0.2587197732270323
0.3642160038928038
-0.460752005163789
0.1707850376729223
0.017614930646541703
-0.0017557880790358524
-0.3763219548862381
0.1470981947820698
-0.21739150600024482
0.15993689293521965
0.09124113069060594
0.374699322979395
-0.05756041013597941
0.22541636074038954
0.013524841247227241
0.4157790683522642
-2.912946392413823E-4
0.10390159115758238
0.014526189221267811
-0.14555683950571452
-0.2081336272429408
0.03942170714577989
-0.2585299923004324
0.22417687556492807
-0.0632304609754976
0.20893788409109051
-0.028630043287975176
0.2997478224242603
-0.0803647526391074
-0.12073445640789798
0.0032867252112813235
-0.015456887109177569
-0.16274960108017378
0.28517015472168716
-0.13030162044279403
-0.040667842762124325
-0.018160310272637065
-0.25386798112203934
-0.12161506003820365
-0.19932233565432322
0.07631160615697584
0.19565502375721341
0.08606474152934074
-0.08500982133599003
-0.07906605587805428
-0.40735456042618845
-0.013571797964818175
-0.25625791699741995
-0.08424811705888985
-0.012506802293830605
-0.18222807853112205
-0.1795619009031754
0.05311338430673872
0.2532114326557916
-0.05653606169955864
-0.1024385031550649
-0.1929678740783506
0.18904662844199568
0.17479192383788078
-0.07762881925391571
0.034992658996737515
0.02825253195330973
0.07937335087704485
-0.4570544022676607
0.07545518943365404
0.3017974176791086
-0.2990146263593537
0.1987384328373672
-0.1504144745557147
0.04906655262136293
-0.1426299366549892
0.09143145822456715
-0.15903766367735664
-0.42538056661813084
0.2651475732945372
-0.06536464055215652
-0.10169687013345524
-0.20164486960914726
0.1728359466985033
0.08100517951546986
-0.31937460863705536
-0.06406273413037986
0.19865307291426454
-0.12112418364459868
0.008531596247070708
-0.18998477500629574
0.2376289265924361
0.008359819428426297
-0.028110272924943853
-0.1757104567702164
0.37109553691670955
0.02115124626009666
0.13128652679590452
-0.08221116456867866
-0.027869116279385573
0.012929848961246625
0.11028012911721664
-0.41782846066996393
-0.19785150191370607
0.013726212757620938
-0.19048764246553226
-0.1419871253807168
-0.19700876699424613
-0.03436946205038775
-0.04265614768626739
0.01698541246309609
0.0747709911585699
0.24281659707714853
0.26611395982404484
0.19549151395393158
0.04878615134995962
0.03490309144666057
0.14141902286497138
-0.17669357333536115
-0.17058695040112007
-0.28373766469998024
0.21097628676411473
-0.34891919637374835
0.05954007267593515
0.3076228786225393
0.2098232559280851
0.21528185881213383
0.17827797619456512
-0.16585879253589944
0.0038114291220484727
-0.10656667883461979
0.061409769909671924
-0.17857058167370507
-0.22890934079820954
0.21554174095909587
0.13521523366137667
-0.28865639550121
-0.030837742829872145
-0.3483011633619062
0.36909614018250636
0.11058429932849273
-0.052261033906574474
-0.38239503775273953
0.1984967456902816
0.3409850597263696
-0.10946943512666044
-0.16918789681861454
-0.03156091659560725
-0.011662886464190898
-0.21940197144901585
0.15142497946733427
0.37203546157548867
0.05635334266573142
-0.6344791500506669
-0.3497862948430425
-0.40039333657381293
-0.4304929460259542
0.319076319811498
-0.2581579765116355
-0.1286894791038061
-0.12288918464151552
-0.04901774540268321
-0.31462541888655376
-0.0818527803482963
-0.10007823477714797
0.14475713201458357
-0.1774435911981144
-0.12153148962488015
0.08373803787327412
-0.11934310806673844
0.26351763702462616
-0.02971911748377771
0.09066333713224158
0.2189416138848321
-0.2306584832107112
-0.06075781545645547
-0.08432513678434297
-0.24869972076952634
-0.018639229794855106
0.03645076209005862
-0.06291270237478434
-0.027953996012032842
-0.09208645572818262
-0.06415804522643913
-0.2926209890503725
-0.2780051440202721
0.2897390842885676
0.04847924801084743
-0.28300518603315244
-0.05033333324775988
0.026501545399157007
-0.13215249014535746
-0.008363319763803865
-0.5535193720288888
0.2055465955143904
0.013793803609316577
-0.4526580637225511
-0.6046844147199841
-0.07860523334967044
0.26509157843298653
0.2734609140770499
-0.17333686354501485
-0.03467789727310224
0.011322577836607249
0.018732074798759827
-0.2237633103728958
-0.1193392258413394
-0.1997010325818908
-0.15495539214220477
0.21400659529641505
0.08580811469449019
-0.16896477806047946
-0.1019440481040979
-0.27452205952403413
-0.03586756248339299
-0.31890907625327425
-0.2127508524789749
-0.4382956904027778
0.3570189285140814
-0.14961508963985484
-0.2364514751074554
-0.1752805404257633
-0.003681602701460357
0.3164934459363704
0.04291955362203405
0.006826672129847955
-0.3046691111090814
0.14854438421620292
0.15231768340431082
0.17737001154318024
0.05268438593591867
-0.36697701661961213
0.2984321414028221
-0.3005327666277246
0.08855871751544396
-0.08025620395073509
-0.02271390730408908
0.1928748446911294
0.03367716522037035
0.17777823735321052
-0.11478644562360771
-0.05750608762327349
-0.05971067563976327
0.16247615081846967
-0.3082394404206218
-0.08392871199048088
0.0813432854310068
0.13046763154718077
-0.16844491388421462
0.2203991186742461
0.1099990453355795
0.13608327893865557
0.4400537975756855
-0.08282027817422542
0.34348554493744665
0.3888521858372213
-0.07949149770788647
-0.06298716319782953
-0.171789607670239
0.08010648657289782
0.34459085905351194
0.29969681303476964
0.10199569737879564
-0.020682078268522003
-0.16574103132634999
0.2357078352663472
0.1843761738211786
-0.15575584332956624
-0.056476389236647696
0.014627970954418866
-0.3307189566563616
0.02984331620778827
0.3463662310224953
-0.03455798504639487
-0.1540331185606778
0.5196541467098202
-0.2579937381254092
0.2553120468675968
0.2622720148656123
0.06422977999550325
0.3070671242810619
0.38795115406111985
-0.16998437269348834
0.07435893066466655
0.04099493619994679
0.012104715974509423
0.35204572452837213
0.16473353842375152
-0.1135296032867292
-0.06790108508607648
0.19681880546578098
0.2216643601857501
0.28614136739197016
-0.2872015242223463
0.0915540607423302
-0.006687518965146086
0.16944141706714128
0.14247973276486814
-0.26661548769315674
-0.5037776383257883
-0.40234875708505546
0.021742290205139434
-0.11492555964218283
-0.37224961873381507
0.1609130699768648
-0.0808638959902584
-0.28191365027782067
0.06955935877364523
0.17811656950715482
-0.20064101012343782
-0.07093921485129666
-0.31482544404992724
-0.2810633294773591
-0.2562643315315742
0.08552365154619151
0.2588188551528251
-0.08527292503806021
0.07125846311423091
0.0068555044612315305
0.1368355613378262
0.08568451642906601
0.14925374834849503
-0.03243833862934893
-0.20921681742465087
-0.13449176792393988
0.02274598023510204
-0.0781962413545776
-0.3062967871654843
0.44633925803309754
-0.2548844352110765
0.19527167914501348
-0.16709305735308017
0.1536189132569395
0.026409092238321743
0.1708944911608254
-0.18033965768410254
0.35430989555075076
0.22753516286119865
0.32935808962324525
-0.014189270154598848
-0.014550928299835378
0.4065614263400883
0.07334800999364093
0.27598681687662235
-0.053497755823061814
-0.03276284952130542
0.09317332846720755
0.14926274465786896
0.029966933853191102
-0.17506237312371306
0.04020330575163509
-0.10788269164102374
0.14668912137024967
0.11454126510157796
-0.022684527171262688
-0.12225203758467387
0.09505893966804746
0.023718413487539218
0.15535772280022248
-0.04532506123413987
-0.1422578545253069
0.15437157360808892
0.33363791600179593
-0.11803582291772233
-0.0269978441612838
0.18629858666014237
-0.3336990202903987
0.2767712922377714
0.4140638657120439
0.05250498480491872
0.03384593259457724
0.11991402248227681
0.17442989527813188
0.14893421848235253
-0.1778298698761973
-0.012525318955175488
-0.15020486912291642
0.2867568632814128
0.38834471286755684
0.28115072394569096
0.19841700996598036
0.2482827188714962
-0.26452553688074293
-0.08034857474112252
0.03510834431994987
-0.02831254812778821
0.21573238352031504
0.038580858011301816
0.04225506506501695
0.13510822828381922
-0.29997612126047085
0.23457453859825741
-0.14751408170476385
-0.2684821615367896
-0.03262549186153512
-0.36562834214208506
-0.2700797399043118
-0.1867432269994487
0.10187825354990734
-0.34216493859696917
0.06615931498369629
0.09972075687434297
-0.12850058433285316
0.06391856932653232
0.2850143127622993
0.09427223879095917
-0.041991826343074426
-0.10550449444413978
-0.1331282383403593
0.09051103056559415
0.04236574289566084
-0.11729343633546951
-0.06147987826962082
-0.05944239874014518
0.03445661303857089
-0.12844059009236894
-0.3075443241938715
-0.24377870659487796
0.208330056580127
-0.10493535999938142
-0.1216447124880398
-0.008700518335515689
0.036487474765672684
-0.057258105214122605
0.08042746947984428
0.0857218007276293
0.10252708106860917
0.23018874393966116
-0.018241594282696744
-0.12232225189775672
-0.1721702899727204
0.40953964577410795
-0.009419627432446233
0.542876274167806
-0.11728189917287352
0.15061243104622207
0.08244881421724785
0.33463784694122645
-0.0123554833702097
-0.18804035780154596
0.4362980007208159
0.09573870309007944
0.03280010340087249
0.10998376841053321
-0.028095167111956792
-0.015285511740095471
0.07185217767855058
-0.2842998814691393
0.08051980047306545
-0.037892156133670224
-0.00920057312857633
0.25631133328732625
0.48284776011301
-0.23056252506515365
0.06335117782067051
-0.02200084815963147
-0.28123869893275943
0.4129117789863222
0.1961904966502138
-0.4308858675584422
0.27658927869694444
0.2281565909636658
0.2552718743286439
0.1324408842064437
0.008595569545545736
0.19152661145059124
0.13979448929275184
0.01966991054865886
-0.6034065683693647
0.08410112823964712
-0.04511273436728169
0.20439338712681085
-0.25117225043886593
0.09810247407156253
0.17737993984987946
0.3766884120461488
-0.0035471385881440244
-0.1761397678492057
-0.131217597907847
0.4103360230617754
-0.07576128147710341
-0.31919731041767374
-0.3507195062319059
0.11348897776215414
-0.057832639836323016
-0.1866603628183629
-0.5195701977362258
0.06973068838047627
-0.10029468709495432
-0.14375627655785483
-0.10703572254419863
-0.3421086842741217
-0.192383847025509
0.1564887094861232
0.05976509497872567
-0.23336345680012244
-0.05253804100084263
0.22489151483065598
0.12131315788067994
-0.030017870299370204
0.07070945825323316
-0.2158006192805768
-0.33772729140901636
-0.21229868731916368
0.19063676722093797
-0.32292600277822825
0.33693582337602007
0.03294673464742889
-0.2748510560946324
0.23106895510534706
0.07454476749246783
0.21594105052348353
0.13395611844838184
0.18883797410370132
0.265210893210188
0.3382764201928557
-0.040823406307343914
0.3082530871577055
-0.13831166705635423
0.09980303145232357
0.13919188019810813
-0.37228054360870666
-0.039930290884781436
0.0010279684495116271
-0.09025656042099776
-0.35362919505836815
-0.06077768347053961
-0.3023205539564212
0.007447768759980054
-0.09403484396781409
-0.43779215561292006
-0.3335509783618647
0.010413848567949049
0.11248535536663148
-0.02033611344670618
-0.46773989164919
-0.05508662019441882
0.02792567355976912
-0.07563714298750226
0.14630313668292672
-0.021303612891749455
-0.14379895648991203
-0.08893970108735656
0.5484512906853513
-0.028908447690995577
-0.2819780836072982
0.05445378640184719
-0.16212939585907424
0.06763389940564561
-0.09668957775917096
-0.01320991707860691
-0.17148006398965512
0.01774588936572289
-0.17639733226884965
-0.19190198811910045
0.1322822192078218
-0.0179191004313288
0.1693621655738793
0.008215829793186942
-0.2582137148917051
0.09740142933660265
0.3675342944138115
-0.03284270580197193
0.15064627588695925
0.08914810334220176
0.10886625038331514
-0.23127525820223546
-0.14385099965189352
0.11744644285175229
-0.06504197889796393
-0.14217604491765934
0.10622823457093832
-0.17278046950232237
-0.11693877640235072
-0.04796027168270717
0.09889460308361886
-0.047265434767462707
-0.03915301091780084
0.11761418399279785
-0.2525494932880352
0.04474823761656979
0.043980337560008326
-0.049506795211159346
0.03595400108102385
0.01403985211309146
-0.053682113761558445
-0.20020659764261503
0.08306879603580407
0.09702906717284215
0.1867779481361506
0.017683487530742087
-0.14676945364620578
0.26182131240061046
0.18803778289107728
-0.2050978586333817
-0.1116813592539887
-0.07872171822598734
-0.13410756784001523
0.031033034619573473
0.06525602488693073
-0.609592537123414
0.2849402169836665
0.0691394279523217
-0.03726588382598665
-0.09260531231115339
0.23541060034271905
0.051628583098967354
-0.3699879790096609
-0.24399837849460299
-0.01576846258295646
-0.2666111217492345
-0.15259031972291018
-0.44238141642408435
0.1795669678791359
-0.04406522792539619
-0.4853059654487369
-0.15798181224701185
0.11987816140742376
0.4122733920253149
-0.06510306021864455
0.15578422114848925
-0.0689747328008134
0.33004626077074
0.07630988384230947
0.09445291908275197
0.2115890119891007
0.14537336504623566
-0.2994094689027863
0.44633262715198896
0.22515937396745522
0.06982781312458118
-0.16799595439110027
-0.14201883629216283
0.11066832083534489
0.10075153509864812
-0.06607803691544949
-0.04436054470197272
-0.1697475370653496
0.04716880749674875
0.1698915277234513
-0.05018431085736027
-0.024881539006923012
0.15186884087547795
0.016827780022455302
-0.1445333875665297
-0.17763083642757024
-0.2398618592817263
-0.008291606949358305
0.022091427564867414
-0.12150088165402942
-0.033295750494553876
-0.20309041430354868
-0.053434022008015745
-0.40958604915211505
0.07508085950449762
0.5071742339266911
0.1362208202134538
0.21872484914832283
-0.40817777864608146
0.20261068355138223
0.5028323609737854
0.19157562124948185
0.35415893261936765
-0.22851501169886174
0.32773946157235373
0.4987464106398222
0.06555779010713388
-0.15703154409912748
-0.2234139647215075
0.2943961516369964
0.04298808280075713
-0.09396415760472815
-0.38792232554946404
-0.36172256416986104
-0.14385797791372704
-0.238908157896435
0.3574225221331249
0.2529775417559237
-0.0568581825307237
0.11353820628086775
-0.012274121448964804
0.007250042667195171
0.21592851540255234
-0.0641380750592305
0.2526165151496987
-0.1587000716295165
-0.015191347015123105
0.11504094970095928
0.21812107067006545
0.5917842065238972
0.12089863543501488
-0.19218104342568787
-0.3733170774204595
-0.0412197413749793
0.07987913998127508
0.18932165196941037
-0.28152368604553474
0.07932893985414356
-0.17589180126029297
-0.08384299464151135
0.24948123172252853
-0.09687760556931639
0.06841576588435598
-0.08641671109890323
0.3880358097198579
0.020374528552950886
0.42653816742498574
-0.09626837471145282
0.38903119022187
-0.17839133181164807
0.24203862559512754
0.34361226351052265
0.17076255713955907
0.042383239766858545
0.14784569483116783
0.09907997954446501
0.001780156105486056
0.08523777953851484
0.3017899526390245
-0.19499560422847192
-0.32806432630089155
-0.2560367901437305
-0.1427592777313089
0.30491199694874416
0.03193252506597899
0.27990134304705255
-0.04805255809833944
-0.2650571133560451
-0.13817072512226708
-0.11320602057634901
-0.060278816374625656
-0.2953771271039054
-0.4757089242152007
-0.41152641790492556
0.05700989754989515
-0.025639686992485373
-0.37062993568262
-0.34865328450149813
-0.28057934963897935
-0.36579857764691326
-0.47473580439377033
0.01651538903591478
-0.10545419567906651
-0.11784467664930418
-0.051726793449367064
-0.057630952049145534
-0.3908690202779562
-0.2996252000238229
-0.0050489026308643365
-0.5092644357579008
-0.0938877576083769
-0.08285405787729068
-0.6669483246816882
0.003909172012393898
-0.16642184577537958
-0.01327548126827172
-0.049707978817331015
0.27942725206425173
-0.39461943260351595
0.003750172244443668
0.34336789831272124
-0.19712818366803184
-0.05658583934217978
0.3082567255145472
0.37192010743323284
-0.16069312311834602
-0.1790705101102328
-0.04417667058196259
0.340459785249214
0.21889256767525433
0.1621602368765025
0.14154343891032367
-0.11896400766126641
-0.014731345936680051
-0.07159653453646399
-0.11576645764269339
0.13566777381787198
-0.05392222120447531
0.017019589219395045
0.2789603034449182
-0.3896878811902266
-0.01360599863468538
-0.05742417625502991
-0.15395569097785716
-0.4727612220251372
-0.2147721810803593
0.03447332001426921
-0.08854787776569048
0.027795060298493757
-0.3543206543712065
-0.030922321110129363
0.3206074862756753
0.06764322800063693
-0.08263883438300715
0.24157502040245996
0.1976481889922706
0.054274067874023585
0.2592520059019485
0.20808156541509595
-0.11161769351240773
0.4662713129350976
0.2960741282306075
0.39527071252208595
0.03259227075567511
-0.06295375278012191
0.15627646083908042
-0.038282600198519846
0.16462853380643744
0.26734477982203964
0.053766493900935804
-0.016703237463813872
-0.057128282062298835
0.08678706558343939
-0.07058515291161349
0.2838261879276005
0.2944142127523158
0.2028742547599956
-0.08753958518900955
-0.15175627159808175
0.19025982647605408
0.1425480588647331
-0.08636385046015053
-0.36157713501923555
-0.20114061705168002
0.25964748891949285
-0.5854338138665546
0.11292869178719911
-0.31996687251440664
0.08364700361795542
0.07784562992127317
0.07266613335148245
-0.03998741342181033
-0.1973426835493919
0.14335601741622553
0.08744709047733162
-0.19127100986458467
0.22231247174461835
-0.2966480329056671
0.27134314137693993
0.30501478625779127
-0.02592025525605891
0.07892063831864234
0.0021770477170318606
0.32031692905186926
0.787880055950702
-0.037702365650457995
0.09843010296934343
0.24173453617102988
0.12420312572309238
0.2168457294545934
-0.11565011947893584
0.13671313677030136
0.2677833965391875
0.0019528992823715208
0.11503974657885802
-0.1893685673282672
-0.11961007330141521
-0.02054135164456149
-0.1691501838265639
-0.10708149237536216
-0.275848066949064
-0.21388107181362004
-0.1696327880964469
0.20918305791274422
-0.23746692837721958
-0.2341961538796871
-0.08428983377047669
0.27346270402340617
-0.17120558597214838
-0.2638706551478987
0.22187532989980036
0.5623138076756217
0.08478685759114506
0.037079885381203284
-0.10340995372649986
-0.1944359317444505
0.0013586242896936101
0.20919744005024926
0.1726292858147357
-0.15450694616292843
-0.23500443993550063
0.06852448046413748
0.16900924654891847
0.15292133888577372
-0.08385516205178492
-0.17389124190361357
-0.32153762803660874
0.09074426119289856
0.0956996991307537
-0.1338847066314646
-0.30919717365902505
-0.3827899694400289
-0.06434262799971628
-0.03325794600982959
-0.5114904559167225
-0.3996314006544685
-0.11427150628360301
-0.2422786423197999
0.24073873965416284
0.31065195928377914
-0.010383975948115071
0.22599527870156697
-0.13990626615878488
-0.12155601234115408
0.0017211153149176502
0.03013632104256861
-0.12927686884329193
0.24744673058801714
-0.23371515703800255
-0.10375400199332989
0.38075233142359477
-0.05627146280944023
0.11375889290985133
0.2231858226821708
0.3794442584244789
-0.022275458331102203
0.3279768449076528
1.3874129672319978E-4
0.1489031710674953
0.4216820560900112
-0.2553784713400184
-0.15976785824306763
-0.33082699762165074
0.24524073274678512
-0.22513703357121762
-0.2762424633341432
-0.43640922955570866
-0.2356991673009067
-0.04492234302590385
0.3409491547909466
-0.3633109026651954
-0.13802735018834236
-0.20730112077007962
-0.37038672994449146
0.18664036958116353
0.07907370273713382
-0.4018343990506897
-0.25908850374987824
-0.03414553617741732
0.06592580721332268
-0.12571443116873043
0.07885642638977167
-0.033884961229402134
0.19889359727300077
0.08335827093596608
0.006131312140096113
0.0974122394120824
0.0014378398877605036
0.15522118832322657
0.04220595689435745
0.10409760139103003
-0.07653386525530531
-0.10025094670580431
0.20498907491034457
-0.410472144907446
-0.23785952207869093
-0.13595015211831268
-0.4195600924489187
0.07175624279508913
0.23990049668362906
-0.18000622433764976
-0.17522952355732194
0.23355723002750425
0.3186048408068738
0.07189821953163364
0.15470698384583423
0.2599449144050442
-0.05257081241243362
-0.19460755896932572
0.19627409198807422
0.03685909378727795
0.06714357476345416
0.10793290473579824
-0.1324706126147242
-0.11217185614240367
-0.13146416668760202
0.09771839562778611
-0.07220862854554476
-0.12053120516912512
0.002302987519116398
-0.08404442198721514
-0.01852368796391033
0.032908156001047066
0.13632797845323544
-0.46987195855053904
-0.0449612550651749
-0.01697052256206209
0.05063070805064789
-0.27541444194618925
-0.10563839336419925
-0.18880946370970328
-0.08736686401906044
-0.3738515237612117
0.34623874033553964
0.34172801782686935
-0.09461152401825121
0.16650936935982502
0.2559078545964639
-0.13313720756175249
0.07653045112026009
-0.13060258155945392
-0.14555436959519527
-0.06286190519487364
-0.07561220127119143
0.22139589217006586
0.21636195359168398
0.200099157480132
0.4192142768360092
0.027930507735563177
0.37233531450097584
0.032264902069185794
0.09018066626457844
-0.08332665383477131
0.019891943089776872
-0.16925864151379477
0.17603474475968017
-0.3019942483962909
-0.24791169911368352
-0.7903556521700843
-0.0252445847430803
-0.1808922475022602
-0.45456307396701456
0.029443326501465368
0.13768298911938115
0.08286341350455552
0.2542159429481392
-0.041524215862846464
0.12025785544835355
-0.07081618032515015
0.07121247062551257
0.10368539906337507
0.19659666286663102
-0.05063694262755225
0.21767462178098534
-0.01128745417307297
-0.07035581197541109
0.2165749105191595
0.06897540263787275
0.24008035614562054
0.04854803117471325
0.15210191183762484
0.27414126645961295
-0.03238512273620563
-0.16146162886461093
0.06175790938717611
0.13264297975401917
-0.09717977443395981
0.10795566182249904
-0.20236438520361666
-0.29688783027435744
0.17179883996667925
-0.08096847113070883
0.12486095900031449
0.24080645697948833
0.19060250450700325
-0.2162784586880787
0.5420963558622355
0.031131274851905373
-0.3010430936628958
0.32474047771783204
-0.04762053574249938
-0.10606448315648319
-0.1596034564210218
-0.2333567034565796
0.19744577350554088
-0.11618824695758531
-0.03861639857233021
-0.08719400112018995
0.05792978726146911
0.0640481049699167
0.45269203582440176
-0.1869209540826288
-0.0979673485174391
-0.12576174153402972
0.17225126324138032
0.0018387795737839292
0.2280468814732291
0.1868358114632699
0.17818749272146833
0.10241000188021937
-0.04272131930029604
-0.10309455545571898
0.3418546902251377
0.620491242692374
0.100641206732078
0.0017257028385653868
0.35293671805545723
-0.1254806437372051
0.14388953600741922
-0.053522290516871344
-0.035537036177288026
0.46314095279306183
0.11679680761658834
-0.15158478932987493
-0.04372234293317276
0.18100494510055257
0.0833005227483702
-0.48125568093569304
0.21108276714109078
0.04917458432155113
-0.00895505783454712
-0.14734504434714335
-0.11045875655646431
-0.038050217659388215
-0.10865959453557979
0.01867808414372786
-0.17715466177393152
0.07779053763050618
-0.2765452616683547
-0.13328213299916075
0.1406492265826089
0.11878841451362822
0.09074692252032984
-0.04042176130909913
0.1468576120765225
0.15564226884847043
0.022144586475311763
0.19737685236796934
0.4469386861876095
-0.02639812307879224
0.18084807587466012
0.13413383692453607
0.06964886968504425
0.0605829598190617
-0.04647456733564421
0.05329577030878489
0.007253406333485665
-0.015584307569815724
0.13138120087974003
-0.07399893628079744
-0.15333624640418062
-0.08436825391017376
0.43656299349378747
0.2759506768825786
-0.18700116821621487
-0.1294061908258052
0.103752330818436
0.27993967574675416
-0.1082260414779467
-0.10608446069444727
-0.42770850921923875
-0.08044481860624239
-0.10306162126471632
0.10674693735428388
-0.004843453673736213
-0.14534628973427294
-0.05322530777754271
0.022427826630532433
0.03269538477197607
0.029126684649152308
0.029656796192596306
0.05785065926633002
0.5399782024153039
0.5537173619879325
-0.22579445511623988
0.2950118601398528
0.052077001086088516
0.3998468990423101
0.15374245092863859
-0.09563715734603423
-0.1712811624045154
0.06762995331164492
-0.10702417371660734
-0.4649913740793471
-0.20564037803611354
-0.24750732471990958
-0.11717666495812401
-0.8027447720446851
-0.1659037883806147
-0.2541136897552048
-0.20291052558475317
-0.08380838585744957
0.045690217107310936
-0.5199500930160145
0.13742756267000408
0.13206639916647578
-0.02616474926171926
-0.17387290340683748
0.12157666736917007
0.07008546984288926
0.015141839817395673
-0.14126669544150763
0.38104319965750355
0.5220435731806674
-0.12788670378590858
-0.1414027661647769
-0.38964902018809766
0.04992331921803075
-0.08610618300953375
-0.09009228162827826
-0.16029948047238987
-6.431531626772876E-4
-0.10102117119416759
0.03166799965654199
-0.5500786516000165
0.18840529053868932
0.048767681265293544
-0.05990959271514317
0.3445358041828791
-0.5439770727527258
0.1693784233074763
0.3361866618086783
0.023219043647035042
-0.049445376525020866
-0.39525988605147233
-0.24875811909850518
-0.37318186096661504
3.838992096967984E-4
0.01536352487666826
-0.14430743038586863
0.07244289721846767
-0.4284320822110907
0.009091624389960086
-0.03146796714498195
0.14639505591366483
0.017290484722506185
-0.0353772488528813
0.04932358977648391
0.1267315496001187
0.03349238018913248
-0.19521583472159945
0.05597044138303514
-0.1277789711494941
-0.012603988084860818
-0.38090593672726863
0.1203790374650412
0.4091121692374001
0.32836173657698225
-0.26550612646302424
0.3011081392494414
0.46684679210832525
0.027625358761523746
0.0659921253352494
0.13332073873032965
-0.006177977810583178
0.4274073171189642
0.061669024745528336
0.19671795811301301
-0.202384818809225
0.3446110348643848
0.23110653210640106
0.3853742611109995
0.14148011591302653
-0.03798101282506887
-0.16920137611426425
0.0016477970307808782
0.02341250377991254
-0.17775063223184043
-0.027549465185831925
-0.22273223601018627
-0.14300038604356566
0.13967895256313229
-0.018355320504534617
-0.05012241157362939
-0.1927423978323552
-0.3765537604092795
0.42028058775173516
-0.03777977043459641
0.11796979513683897
-0.14670547076288984
0.059554527002515886
-0.2866374607494859
-0.36155563112323397
0.06005192099338927
0.08449286857154674
-0.013289621394699221
-0.01593086641096905
-0.20027853986551317
0.18507723435252074
0.19489026151534153
0.04622428703139001
-0.29103401743111457
-0.1116317441999051
0.06862440217836119
0.2265962783426148
0.018193923711115622
0.06066927920273451
0.08711337314614606
-0.15485052121484363
0.49161815500522854
0.23417144437675474
0.23780253762324616
0.12685728688051398
0.1573832739993887
0.22985420518308167
0.13477513483539771
0.1695190749113612
0.02141449064847022
0.36061634292097905
0.3281557316773103
0.03238177073429502
-0.02656099807044547
0.09101976552553002
0.6186696481998375
-0.0022684958048796726
-0.06265090731223306
-0.08134350030438865
0.258367342458777
-0.00827130919447374
-0.2930794883294188
0.07549454721938482
0.2502710898409496
0.02135786142814842
-0.2895214165301633
-0.23776588654863642
-0.19327379347992496
0.1031093788433576
0.19947504263767665
-0.07906789563133991
-0.016662733989035197
0.0911081511985776
-0.46857078668967184
-0.033824837360205855
-0.34242398524214895
-0.3291272475171256
0.1879012067446856
-0.1039700342979965
-0.5877171936149349
-0.011915340702239341
-0.44460268170240547
0.08676170106692539
0.09456153727666608
0.023116202379655643
-0.45599920634138547
0.3579345351467012
-0.2723106649494745
0.1119919213807273
-0.031157634721723133
-0.10045198661332926
-0.009912378089539795
0.10504560644533456
-0.20337193014101332
0.11624181226012925
0.014624357181523743
-0.0741982400767788
0.3376998217945002
-0.004604018697169681
0.223298383336642
0.41337945746344407
0.2528369124058967
0.18695315991217437
-0.07513586198758221
-0.009530356439843108
-0.14443268457400774
0.22325297219525875
0.14080024274256941
-0.23230817383444496
-0.06079409669022837
-0.05153250921762632
0.05690158369894555
0.23722531714305437
0.3053960303652938
0.07462328697391353
-0.11620568032795674
0.22428386113388601
0.1172243195174472
0.19511638253207195
0.1623325190983996
0.12294594610833585
-0.0023810926446583003
-0.009264726639048943
0.10039940920040732
0.2927259733691155
0.19950223117468596
-0.12214226458052103
-0.12090160472332578
0.17461608430759812
0.11270102887641555
0.4256893518413683
-0.6166208778102185
-0.07348821003456978
-0.03801254932059318
-0.22147645573115846
-0.33012091818534384
0.114858261803239
-0.04331056310776983
-0.1616078279633503
-0.188441134243853
0.03615428241663203
-0.024144648759152947
0.06324657822624857
-0.14256007127456247
0.36548142714058496
0.1317817975488103
0.602222369288725
0.027241854980571738
0.053495415666171844
-0.17124320991001718
-0.22897904998897092
0.12161767714329803
0.14310193380563405
0.33115176206939273
-0.18083789942040573
-0.2653626052908561
-0.021736665780979776
0.2162390999379389
0.0032399516482717948
-0.30296943252451636
-0.23760022809390657
-0.22617371103378509
-0.002522472113710079
-0.2820211152999489
0.15752147579926293
-0.25784956677580534
-0.3349026322543397
-0.2674107083973525
-0.36203133546923655
-0.04478009017774736
-0.24973470292250052
0.06287719888493086
0.3299170188941816
0.027848294041021265
-0.10467540913963841
0.4585479887957598
0.36818792579270077
0.07730377163984932
-0.09585327836553365
0.2141753096102425
0.13252834604755037
-0.1527626903506863
-0.11216100357062642
-0.3155808116871667
0.029557375473448763
-0.4554657896436206
-0.2682031191138562
0.47197720158474105
-0.08309331609364931
-0.30952631900686634
-0.10069133423580834
0.23220462513567577
-0.03878366287822264
-0.2711394199211369
-0.06717773252796197
0.2142812616629332
0.07675498553805322
-0.13563887096155908
-0.025411023331127627
-0.27402453755775996
-0.20072251581843603
-0.051194620123490985
-0.12236298006108276
0.09210189853719364
-0.021712481698814172
-0.03679654492221708
0.03434195457680512
0.023946215020139473
0.006535243348547857
-0.104860767801227
0.06869172040934733
-0.14722489582716852
0.0793398196194236
-0.025112594237549902
0.08354808992229408
0.10037820738292978
-0.20945197638864305
-0.09850482324345369
0.03709447426265981
-0.2600775325356676
0.18635318754105154
-0.08755768911996978
-0.06774833016740117
-0.09685700656595082
-0.1420761961330955
-0.22760947877309054
-0.08195446586494357
-0.06768300918690023
0.1925254281194875
-0.07525465827745945
0.10473522033403912
0.23759767723736644
-0.09163385815687075
-0.03489510723003789
0.1686086797925078
0.010524127077150877
0.476767343749989
0.03577636900657137
0.1790987373937109
0.20812635193301693
-0.022701143530962625
-0.1264927081422873
-0.1346013985032054
0.14777436262617422
0.24848440885886752
-0.03291757747581022
-0.21196725661435672
-0.2777186136307549
0.21377584721611637
-0.40104484159745724
0.269782256585891
-0.03498088333081693
0.10700232516935558
-0.24732486082399227
-0.2757513285841952
0.16134855055105407
0.10049779193555547
0.1829475303000202
-0.015032249007588119
0.0013564035796750748
-0.3456291313223588
-0.08803175175220739
0.12302553941468025
0.0018046996332966023
-0.30932918965877826
-0.3267476415126989
0.2802316717647272
0.24925951568136653
0.023009717357035494
-0.32904446005100846
-0.01483336354098593
-0.43617994803952553
0.20464934861023468
0.10345110982260729
-0.05775454077219499
-0.02817509410054709
-0.1198348286265287
-0.3149067098180998
0.29968217926737073
0.431404790450414
-0.11591160763825475
0.1217042342555829
-0.0026676493660380608
-0.10998895295181593
-0.20866160052575147
0.22700656480124642
-0.4535194128586186
0.1547786300057748
0.06799396071108754
0.06791605296690761
-0.07702888846277361
-0.2888533318211453
-0.09985605664071144
-0.06510576246208116
0.2550287892421204
0.1056134378576733
0.09056257649206087
0.05228247898572837
-0.05596668196391917
0.15286920687372563
-0.04707330039981306
0.3272674397140796
0.0293798094335242
0.2416540640001417
0.06817652392833791
-0.04445034128656541
0.25615413918364566
0.3778283955726703
-0.02745056906279365
-0.09196135648249676
0.3540732924032829
0.16678488253480886
-0.17145874883779716
0.2976350973913032
-0.43791509819360497
-0.026605953509494996
-0.017741201237109913
-0.10149181851494492
0.3002464220509356
-0.12805009248747484
-0.4356885166238149
-0.01307586006881162
0.2169205998548146
0.33570655827970286
0.012868430745055138
-0.3327955331976482
-0.10103117986052754
-0.260705634806149
0.03984008736476361
0.007426178506583631
0.628497409772965
0.45613035374126515
-0.3837344740304531
-0.09239286257520539
-0.05863330390713017
-0.008329554622265476
-0.0019285511622114703
0.0551135856602103
-0.1920794880580524
0.23070108569234593
-0.4819239628978008
-0.039382625496601514
-0.030257717143865485
0.33696655373426243
0.08630917475358942
0.16781214975554537
-0.1274040252718537
-0.24506205795881886
-0.015273836239197487
0.15255550833964707
0.14339097631371578
-0.04043643267938992
-0.19830025809094112
-0.10139925693291447
-0.15342901526918667
0.01715585495972813
-0.09874117152194384
-0.10785882544434656
-0.18054937468389054
-0.013815813033874863
0.1948732074177859
0.47921399698987205
0.32972633508638954
0.019107148577864465
0.029286032767997832
-0.0031717942106820633
-0.11091301942974198
0.3388003486362819
0.23094607877193177
0.31179197330536
0.09459809370321544
-0.25911320310031516
0.17853682684495986
-0.08237131672292054
0.18922348996670346
0.16610450759765893
-0.024551909337025835
0.25592984155108234
0.0759734869440843
0.010404573078084864
0.09814532777045792
0.060111878456547446
-0.5167872640510968
-0.1500551976890588
-0.10768647572581919
-0.1504802922014894
-0.061761404193934395
-0.1556505798301114
0.08887248057423423
-0.16428994421937873
-0.007343921445714025
-0.07268322070353705
-0.1839417093347546
-0.2556062867151709
-0.194069303076603
-0.038897648076134404
-0.061661789315909855
0.13143593193552794
-0.6174368341870865
-0.6158260471866146
-0.31788909746701277
-0.02174695113908291
0.06146118596225001
-0.19914156810865746
-0.04413505355163547
0.017155756093680512
-0.09864043584733224
0.3098355166776014
0.30934888345951217
0.14546794932568022
0.29920055339742185
-0.37706720012499106
0.30932901902542065
0.12042690005670052
0.338820793919497
3.93918846443865E-5
-0.03223908180607626
-0.1849433501875389
-0.2524248420595281
0.03301500977414255
0.07838040336151707
0.09426754401355637
-0.20693840063952942
0.09556917385572981
-0.17109725317616548
-0.09012985489197474
0.02457514567156462
-0.16174976139623237
0.06714486788208239
0.009985883391214213
-0.20417928821114606
0.004735375644123301
0.032788406472117046
0.3927789238570871
0.2936121874076092
-0.14123205976021863
0.017462414911391954
-0.06269753865394494
0.16030365850048964
0.007855369222616182
-0.269589447337964
-0.23545537144779782
0.013963916675183905
-0.10379936738660366
-0.0252610921049733
-0.17929272696396711
0.324578090828439
0.0728294592905848
0.21143949282818636
-0.04344571028828003
-0.34080692433381177
0.3315420197384006
-0.03190967527991375
-0.019330789911773803
-0.022780510647466518
-0.03601636726143915
0.06671739386103281
-0.04797915267049751
0.18847175634697583
-0.12374172527699188
0.013043052986236738
-0.057111200588411605
0.2219791635091807
0.22303881384076907
-0.40261262991113844
0.13747030263361512
-0.2530839241510689
-0.01856861241426524
0.03455257977354382
-0.31978271884523535
0.10923983742566344
0.2956726422371327
0.08414206572460489
-0.14819622754092737
-0.13102616669007583
-0.14661852153059837
0.10613453620875518
-0.24781509175568256
-0.03120382927888639
0.3315435480929289
0.10395264213269331
-0.11901393187075356
-0.1753860837684744
-0.07291335031479472
-0.22284319899461155
-0.029669287001079448
-0.4434177662501232
-0.11188031883109661
0.06317374538137782
0.04036473870811882
-0.4404069262156878
-0.2186425068654625
0.02517391839173799
0.15015048039128942
-0.2238863435111334
0.02960917469469264
0.2783690744234381
0.041523944275360214
0.06410894848833183
-0.02007130324567165
-0.0452863803998801
-0.5727667689005979
0.0402440336122824
0.12926459341033056
0.13348885137216848
0.05920351689803818
0.2969184664047752
-0.09799223348123832
-0.3583728069321668
0.5927363727328527
-0.10764352080333105
0.21558686158526008
0.11955789018251922
-0.2884611480824105
0.21048615653578115
0.15853360587758647
0.036429004223727725
0.06192142602204034
0.1433039863336209
0.01579411851471643
0.030682834251432395
0.1887365347198325
-0.17764684806076347
0.1232769657986796
-0.19901758400568756
0.029662034247675485
0.03503087124372424
0.15478039843610525
-0.005662628464099519
-0.04516707997948943
0.18602147245606382
0.08271389957675845
0.051547558427229793
-0.25135030342616077
-0.004907714299869255
0.187998862000117
0.16751996849915662
-0.17559745031856294
-0.07887532803447526
-0.20357471723971737
0.04895455312782714
0.014978546042407254
-0.29066755156080365
0.30269324983367557
0.02823751248288156
-0.019192354359644736
0.10947313561141439
0.04670766262897182
-0.27198137424227753
0.07921886240800541
0.21543467119084442
0.18291324646629142
-0.29892491730332366
-0.1559563547119428
0.09561612970110295
-0.03229726231973893
0.1794812998768328
0.013335959084268302
0.0017132326824549193
0.571899896325937
-0.08661853333033873
-0.1342611883974619
-0.07276231160680562
0.30086170030667403
0.07231624487185674
0.08369242535930682
0.1456254279577027
-0.1329803692161228
0.08555141500366162
-0.06460097001150601
0.1736954586795671
-0.03975470497563427
0.026598258122170267
-0.0852132863487377
0.18183318218312636
-0.3770308258260111
0.17968506358378042
-0.07304543722316693
-0.28480201975046676
-0.07521189934382227
0.21476308144514747
0.00562380304207291
-0.1845224197861028
-0.3699890648474799
-0.2995074202218514
0.16691111583474236
0.16653952569500394
-0.16104172866627162
-0.14252803580939227
0.04560666709006006
-0.05855396721807743
-0.08800809000385135
0.0576176135043104
0.05570960122141008
-0.12182669159850697
0.20084115162148553
0.0658354500047598
-0.276146588693064
-0.0754683722807066
-0.468919629249325
-0.12555938036650224
-0.42653268216340595
0.37854626855886575
0.19574262998330597
0.09987837911923862
-0.3474369708977501
0.17886424535087053
-0.19532505026774166
0.05506403177781184
-0.3304772757142207
0.06586343417041592
-0.11423007527860621
0.018152599779798908
-0.0665143294938869
0.18005644339367452
0.21077474276375804
-0.10447119407356598
-0.2986329445975877
0.09443760075270274
0.2384235547693265
0.2090643710546095
0.16401406516155148
-0.0560883910408794
-0.01004728072233653
0.3151220918634683
-0.06896385707009543
-0.3489357975686012
-0.1530041936302589
0.06783868101932222
0.09558461605307414
0.1584218079549715
-0.13568768521245178
-0.18575469796639255
-0.17706950754439144
0.2125585590285391
0.14300294402938857
0.03945431653116485
-0.35556956378681187
-0.4193357974902179
0.16315320967826108
-0.18814032243794346
-0.013312517658004456
0.06709892597727521
-0.20492954075737824
0.17270698030845777
-0.21990872931944408
0.0026325017092048665
0.28410715122185365
0.013859743704146747
-0.2036439434283952
0.23947982334981166
-0.1513115966955824
-0.034585668815782
-0.007124299540618648
0.2976643937069583
-0.10019518663187572
-0.10667326151281609
-0.03724331209370499
0.20660861655471
0.019818863458829775
-0.2011967975196082
0.11993278747686278
0.015079462340260148
-0.3497052200913997
0.21221139887549714
-0.17401050089930636
0.35299733418564655
0.1344815073031336
0.43415888415294124
0.33326855069191136
-0.013841811630452911
0.14159047578314757
0.4333927747177819
0.31200259110077777
0.1943886130917417
0.1566272075232331
0.06614801138050462
-0.2698202283859295
0.2279632233788465
0.23010644272938655
0.3023552212665566
0.0017746810706384263
0.2803158011154267
0.07561001858870131
0.2249512553415552
0.4055049688461265
0.02644834004149098
-0.11491726840117163
-0.3790424354776832
-0.20783269459229825
-0.23144153057202643
-0.1842320972174132
-0.14480877533197045
-0.012287122827101354
-0.15181291523899473
0.09463578383616703
-0.21049756043166876
0.2201060472280695
0.15599772692692537
0.07429745630237075
-0.16646548702399627
-0.07992192119151655
-0.16855894501848215
0.12923874272500913
-0.0925930885779604
0.07778766344514983
0.049420872972207784
-0.0737523064237864
0.07950206998382914
0.0549466945806459
0.11554449284391073
0.06013507647170039
0.01886868780798646
-0.18245397405135563
-0.24069336900452104
0.04560379530919861
0.12675189627815808
0.11761586465329646
0.00814797461181674
0.22689164398654224
-0.19027877644565477
0.17549472207691602
0.29198145005484116
0.1763445896012056
-0.34210406866220205
-0.5629709245607296
-0.06862956325341762
0.16338083570574158
-0.04127790296254928
-0.11514442241127053
0.16316760215734066
0.033442064695645236
-0.04416321364922282
-0.15387049771166839
-0.16445978558062932
0.17243775727025024
-0.34755767661675735
-0.25432436271423026
-0.1444490780077918
0.02042345325329286
-0.13292529780839998
0.39239639661100295
-0.050977075627615914
-0.0012236908446123255
-0.08003154215867259
0.19264705145334493
0.2444147349078749
0.11159098947291873
-0.25149448475177966
0.10044034437651084
0.011321552570485166
-0.005646063864051433
0.4259926976660672
-0.29968819268591235
0.19884674678113276
0.0060801247172216615
-0.14142854882802833
-1.8478528768777115E-4
-0.04457563306510928
-0.042847482054039876
-0.07048165157067206
-0.33833895755821475
0.2795602827512164
0.04385286266015781
0.5212289403121259
-0.0489289063589113
-0.05656252817033987
-0.23848247715844928
0.1479983028481246
0.020373619077811024
0.037401060987159084
-0.012208379504882946
0.17622183432473656
0.2116107038936219
0.02012262275393454
0.05891482989436123
-0.10413462695961878
-0.022715838724168082
5.926281836475167E-6
-0.4348002911624483
-0.5047692110543922
0.1049049619287428
-0.028100583924173996
0.10533571666383586
0.35293676388993156
0.08246148886181023
0.239066057714595
-0.21026448409579063
-0.036975778427725065
-0.06034120648536665
0.3490371853330183
-0.10654354652681819
0.054917913649205355
0.17181282200609943
-0.01303794826564676
0.24451132689120125
0.11824826727359534
0.4022043122117512
0.010253481463738105
0.30155121559248427
-0.1292204731317475
0.13670542825242504
0.1647160095158937
0.12877990966697095
-0.1331818262408989
-0.08259150204546359
-0.011664595627350895
0.1699984926577245
-0.02764607930488653
0.0053326357100851604
0.04697226861875993
0.19128976276569234
0.20713553187965894
-0.0016317459095466042
0.07438191098788867
-0.28694501069693557
-0.23315279921452575
0.024958191554120115
-0.0545520894656434
-0.06513303257020805
-0.04804760646032683
-0.09706184869522287
0.1639468466481059
-0.12642023173604525
0.2557800489470086
-0.029233023683364702
-0.022594274594291877
0.2829656389240917
0.13825846418907684
-0.4991485981676742
