5764
0.12068209254747164
0.40882847225399965
-0.3566669894163419
-0.13223943731890986
0.2321313932088437
0.008986061353225076
0.1458452137995917
-0.17951104117534536
-0.016390945702499927
0.20946804619165935
0.02211085709030635
-0.02736374771402378
0.030022235033554515
0.010305256295991681
0.2891827543010214
-0.349592910261691
0.3507679283043075
0.05993678744400455
0.03335975901890761
0.09882693436443957
0.311270913631676
-0.2706567741932994
-0.08320135002145418
-0.016874569839058495
0.02408047270272977
-0.18658268771560604
0.2456986209777801
-0.03647445930119574
0.007612629791328374
-0.048366269057674965
0.013543211263723666
0.22110704515669447
-0.20671088647371916
0.17725378816179913
-0.08916879618600065
-0.02412583444450594
0.02740860324840649
-0.034673750617269176
-0.13831036059182342
0.11795564096071108
0.27442465982648234
0.04633191734398407
-0.10179645554119006
-0.4006071680997463
0.19553424857916468
0.0996525073408453
0.31160837406587144
-0.004178866423126276
-0.0688048401216952
-0.5778018202136704
0.17390150240441068
0.45487397254715783
0.042793298974080324
-0.13083761122925244
-0.01847519655529698
0.3401207523896736
0.19010431085512747
0.090285442092687
0.2196700642842564
-0.01031153551819459
0.011841177868700835
-0.11630435304151183
0.032950515574114624
0.33258179228089074
-0.5091988192175548
0.04373109584006235
-0.554473379745953
0.2701704018940952
-0.1246488272220224
0.2200658361048498
0.21872832530744227
-0.18205175532061263
-0.11447653294511871
0.08438246026119911
-0.3181640590234529
-0.0035733595028814287
0.07531145828859236
-0.3754552223962544
-0.3995826886446782
-0.06620217408342105
-0.44473285485658254
-0.34482104887953485
0.28091868510412915
0.01482859647457361
0.05708278068335411
0.14066606204638085
-0.2066196221073041
-0.056721135428605365
0.025558393112535938
0.11245234399706339
0.477402988756644
-0.17903141777513173
-0.13638441097241719
-0.008429613482652743
-0.18956567908083297
-0.04043587076405836
-0.044075257358416574
-0.220570132180765
-0.14434027354726928
0.22832573856983465
0.058876344711878886
0.362933682887427
0.1460629846392379
-0.26048773869344555
-0.01938352260935949
0.08982234640859416
-0.06740885092491274
-0.1562813447888089
-0.011746504027388877
0.36903234351267106
-0.09056993229348065
0.4617020068851365
-1.91551461319777E-4
0.0831180838727999
0.10526877588239994
0.06499478912090292
0.12811967533134275
-0.11252230752031518
-0.012650561907046646
0.28553775897101324
0.08502322063306479
-0.1678618737525556
-0.038011274221754876
-0.07791358109846414
-0.14183773054614354
-0.03894260396459983
0.2613630003122685
0.04550568703511069
0.017323668147184362
0.35937080209206573
-0.13687567662736488
-0.3197528013593678
0.1443685201829878
-0.08960858565642321
0.1992740054295078
0.21168388849767106
0.017659292690841807
-0.17162128044236036
0.011555316470523873
-0.026884105120240587
0.055314383850538065
-0.17314879736506567
-0.3147352555694201
0.36534096220592205
0.09234792565821855
0.011130484339132274
0.03523637490682146
0.3750068121145879
-0.16178976244026116
0.056135316849217125
-0.2472422195502643
-0.3117082100980556
0.04691089180922779
0.21593655729363254
0.371601442600592
-0.24727706147038095
-0.0631114927547867
0.025857074727967635
0.10240494630501329
-0.25051121632045453
0.06244656179993738
-0.17084768366790345
0.06683846375614154
0.06860686045935908
0.1369997804986695
-0.07549464714006504
-0.1067892387718905
0.20805473122985033
-0.1412942024554544
0.06077092448267694
-0.0994083475829492
-0.09285157573467898
-0.33379658815529
0.05973008704699817
0.06067275642420575
-0.24666721147223575
-0.17799171703802422
-0.09010569741468852
0.12425272693757333
0.13168522779692102
-0.4792617763522651
-0.323086828648251
-0.21563878507377843
-0.02331464377920248
0.22269795937698753
-0.3110351564735406
-0.5064153413931718
-0.5777688760405127
-0.35000434011182935
0.15600002840184404
0.3134385369658492
-0.38497109189503165
-0.39688573068248123
-0.4444805324418585
-0.47916938621658245
0.26494087143803413
0.16936738471644563
-0.31322837005198945
-0.37404357882491474
-0.5682689762457289
0.08698030707325968
-0.15657321597918544
0.3843913201177475
-0.31263365369124213
-0.17805273373648797
-0.6323514449095293
0.7202244905299381
0.32704073092775904
-0.27745400070165865
-0.23720731386410313
-0.3932639672610603
0.22296434342877705
-0.11537600898602436
-0.00438234679795866
0.22809835784762736
-0.35416322497314584
-0.16659381878557017
-0.03796982433443759
0.163527795933953
-0.016229320481541465
0.1280934608958839
0.09582855154135875
0.071524904377946
0.03419263872646785
-0.14454198385496414
-0.5572531541570399
-0.4842171775172456
-0.32421894715895194
-0.4147062565674005
-0.40326691412810634
-0.408521216905601
-0.06705785067189923
-0.19201380579556243
0.1328693926186648
-0.1626498642626127
0.5617487734590516
0.08734462777917969
0.0164395651503951
-0.15122630230388567
0.1250946474643059
-0.031195281156852193
0.2659198144837874
0.06020670696358731
-0.07846947082229921
0.4715795752968896
0.2806448733215778
0.19195886152559208
0.24486105905038114
0.05844965344483915
-0.4370394330349662
0.4663118933517563
0.07712895623869766
-0.2120086792704883
0.18404045634847555
0.1743699740142112
-0.0441326275221337
-0.5741416181301462
-0.13153658068510857
0.4020059777187277
0.11468781924950712
0.1300421682018173
-0.17677422270631088
0.1387714560909027
0.007298328030068518
-0.41873156418602664
-0.3270955078956188
-0.09883137030596248
-0.07895842936587065
-0.35251939654659054
-0.28107358943866695
-0.36139050050937976
-0.032970283023968094
0.032626574845696095
0.1022245813898945
0.37516763260787
0.2526863450000312
0.3869478523759171
0.2376796726530377
0.2708158272446991
0.2528847051951495
-0.1456496959791171
0.36777726398883975
0.3575235374421959
0.17792263748118423
-0.04591128819786736
-0.7945201153004945
-0.6472511114829707
-0.6251056249976835
-0.6069387676474243
-0.12878927395811296
-0.5808149317179523
-0.9042441702100898
-0.6518265654235983
-0.21453466822747275
-0.14249272076757682
0.3935266710535299
0.5521629827724852
0.3266914481608933
0.21813724621672984
-0.2640682842312651
-0.2240970411416823
0.024951410976372414
0.022313322505577618
0.1416396635772832
0.18252229489389474
0.39791246241869715
0.1464174032150412
-0.08517693325356084
0.24779701151761685
0.4118349974305743
-0.0983446588134979
0.05689740497679298
0.325984757382851
0.2439229016926873
-0.09637268998928625
0.15045904633273213
0.22005055259941667
0.04820901051910906
-0.03313578213087472
-0.28901659318750694
-0.09109485855526508
-0.46182982771370934
-0.4515605482609889
-0.3913658039040752
-0.07113600111965633
0.25401361539103623
0.3051746099922133
-0.13742235682044013
-0.2523889120589655
-0.41164208102174277
0.08966868323184253
0.01904247515945727
-0.5481026336284717
-0.6323155542984374
-0.20841834563855044
0.10625598061466651
-0.25777627639045775
-0.7120637256168505
-0.23053750963248384
0.24576188566264245
-0.07096841186548855
-0.7992999102347048
-0.349513633743816
-0.17324542007930768
0.09878774817745288
-0.5237119024030014
-0.25425726492282247
0.08859791065392451
0.0325674454986693
0.42027524404157096
-0.061956847355310755
0.025972206319423277
0.37365295577663066
0.08557547966224938
0.1615072424958579
0.14495536920725122
0.13679096333827642
0.06994698960234347
-0.21493821090377083
-0.05469845710371917
-0.19498619738644413
-0.4211621528099346
-0.6182200481429807
-0.10117975556170913
-0.16295632185891315
0.26481424130677655
-0.016639475646279225
-0.11201396287502592
-0.13886719268054745
0.2569942418322507
0.05074728144543435
0.12143540194973707
0.0740093290288703
0.21414746668854914
0.1881386636034269
0.15218464081346494
0.11675908266037915
-0.1411737694971947
0.3866326471429069
0.3087064135030051
0.05550974847009215
0.2135481838479009
0.023521687695166053
-0.31639655052865484
0.312303339962883
-0.2960938263562444
-0.058050792789984484
0.15452554442900993
0.008867032425930668
0.24833251942139084
-0.24015549874057768
0.37715392177930235
-0.07004792955088751
0.019907992450181128
0.15854295929754958
0.009021531619377453
-0.08328759665933125
0.14673032120412396
-0.0025800962037162613
0.02119942693360731
0.06955076351929758
-0.09760222109980739
0.15036302572838342
-0.0681542854962267
0.31451254758558483
-0.33596903197827327
-0.15730521908389025
-0.024583143462710275
0.3042323284141444
-0.34019999222630953
-0.1128900897874977
0.6243380372687652
0.06569840523761437
0.25945331226247853
0.009963310611817666
-0.0785959582357825
-0.07917068590894845
-0.037424270946455056
0.009989234618683658
0.04320224901862722
0.19016642447916754
-0.09333101242506904
0.20584582716584432
-0.2546209602592005
-0.20222152631596046
-0.011561927324647137
-0.08558283490531807
-0.0903314921596728
0.23280646297433114
0.2293619441417136
-0.1322934661814802
-0.1370154306564073
-0.08202509075724014
-0.0419893042706546
-0.14886277473901466
-0.10388381691829113
0.1047397898072458
0.027490493203217448
-0.12425631387669774
0.2942535855146025
0.12780039406895335
-0.0136991396434665
-0.22071857358909275
0.08070281100995307
-0.10054550555988524
0.21519706744500283
-0.016588063969250062
0.23352262168908655
-0.21627792980359872
0.012915606349148817
-0.09171009074581096
-0.0818471372293133
0.06448833959468013
0.07123113363505185
-0.28050350371035493
0.20406879065628517
0.1844409109936448
0.2558085028711156
0.2004548438419334
0.10615396362186738
0.16927468154748118
0.27896892577649024
-0.1300409749164054
-0.12777036501315997
0.058101466434203955
-0.03194494409012493
-0.029657831535313307
0.17159393790370286
0.06873723251021772
-0.17066742932396806
0.4731688251241615
0.04400827545513577
0.28203586969117533
-0.016762022813153976
-0.2638022935557108
-0.39473255919493494
0.39563456938208125
0.3214504822088365
-0.08859975935096176
-0.1017950894850716
0.11851671020273723
-0.25197511889443946
-0.06690887813819808
-0.003892034943464714
-0.14493613649799675
0.16882331819679652
-0.10245951396671367
-0.0838595912486654
0.1313875470829676
-0.06422598961898936
-0.33459744448686907
-0.242571846141443
-0.18179257069686086
-0.4345973663109824
0.02805882835493112
0.0526428586128164
-0.09166786978445089
0.1030373642542132
0.045569439913326085
0.11348107240254508
0.26194608628217814
0.23541633019499686
0.4322485172286641
0.02325349302152964
0.055028078427191165
-0.1617641995873
-0.08358790155316845
0.24726351248734013
-0.15754086995669214
-0.29706846447928204
-0.00305243128540114
0.014322237358798236
0.18471026269297297
0.3435350769205352
0.11992531522585861
0.45294272191272866
-0.16781640732913095
0.023669214932507357
-0.2629819251897735
-0.11122057533839427
0.3026366063722868
0.09531036374021468
-0.18140569568576434
0.1398113028900596
0.06396540604712715
0.45773304071015875
-0.5080208703821171
0.1492810877294097
-0.21113855879315732
-0.33871994187410825
0.17875577068859794
-0.31597669741268014
0.2733760839786425
-0.1071325770094779
0.12496167046658757
0.07554893654191663
0.1654290260371168
-0.19161922832745232
0.04108115719728554
0.1811541897797675
0.2021966432026847
0.04258981116686066
0.06150168257459995
0.07795240103882947
0.0365272989563509
0.18510121055512044
-0.25550317098480857
-0.14018611602872436
0.20854000922298416
-0.10480252066387136
-0.3171029615735361
0.3245194779948002
0.22237257022662296
0.02599870764860712
0.09368721219988867
0.325162561700576
0.2546250108335752
0.08439550727269686
0.16880414986619782
-0.14170849523938917
0.12606994207535865
-0.026027610304861483
-0.18393246169877772
-0.14947691540811756
-0.35217209735874266
0.04164197193050634
0.11631901493294627
-0.24232083976328145
0.08300559089108848
-0.23106259873102675
-0.5079857148848377
0.13632209050238628
0.23939317249154035
0.04447236091799553
0.27607150752049375
0.005665986355835984
0.0650241088206901
0.07874388496114025
-0.32124638045516973
-0.10992440739995518
-0.20579223201433955
-0.04663732326751858
0.19656506440203564
-0.06329638850103295
-0.07426056408180459
0.02466512043353195
0.16809674432227503
-0.010613794121197624
0.26052662735795645
-0.15416720102055514
-0.0077624303142477605
0.16239621444905628
-0.08768284476733049
0.20000040092827956
-0.31434604565268137
0.03780311766227954
0.20436553549687095
-0.13674232908365036
-0.09252663142366607
0.13473921463116284
-0.2685197384776644
-0.6491065743358146
-0.12482103655636714
0.14491729909805318
0.33106965391931253
0.03982454885524395
-0.1590039819601717
-0.03214505220808649
0.0720329128903832
-0.222493712291291
-0.23810834611427262
-0.3675752590553006
0.05086164408196625
-0.1252801813885651
0.147906090802687
-0.3710603323780281
0.0408591634086748
0.009047069787143943
0.19834657864164273
0.2746237205585997
-0.14261762905297312
0.2379762146517629
-0.13554911865485877
0.009571139899075175
0.2252736738886641
0.09936083407559831
-0.5338973555173994
-0.03430426254436084
-0.7672800249809156
0.35467421311218283
-0.06562080015953761
0.013861463444435677
0.1640969878474967
-0.09061006708431216
-0.3002031537478917
-0.3873507959479394
0.1719792997371301
-0.09823668451342947
-0.02794686683922298
-0.17619824243460577
-0.007201750311818737
-0.37092137166350536
-0.173264789427339
0.01380547346153201
-0.15972821081348731
0.3746647108209588
-0.1475201542259926
0.14278254025160603
-0.029345107943736154
-0.2418046958088838
0.12002027126437376
0.0530210688751576
0.20962870084710997
-0.24948018173232878
0.04838061308257861
-0.023064278791515107
0.06807524003708951
-0.08965037602637776
0.08961676898193893
-0.03012198788346833
-0.309929047346496
-0.12106009029931182
0.08722121375557644
0.16230954099122574
0.22860663918313406
0.4122483130315449
0.0517947005746074
0.23065276181915612
0.021035055958282995
0.04679591827200863
-0.340903521527841
0.06168209316193921
-0.08295203059605315
0.03896040649726465
-0.08567010206681276
0.12972586269124706
0.3455789967452298
0.11817327607633676
0.25251590771146576
-0.02250379225419967
0.13347020594270761
-0.01791299756373537
-0.2182972408863194
-0.019743403526752818
0.25284209659157325
0.22143854683651512
-0.03588305786782366
0.12857839436045546
0.05607754192952838
-0.15036481837832183
0.18114857695502526
-0.06963833627342508
0.029991334248698483
-0.38526747232529973
-0.19305130886218358
0.006171351309277906
0.19552199500120904
0.08061137079715777
-0.04508063414699863
-0.3287989955529518
-0.1618237307217389
-0.17928830225861067
-0.009274562024426091
0.09081004806661537
0.04472014195678863
-0.5950522582708085
6.601992353260711E-4
0.33894775887454504
-0.2694469760223836
-0.23537183320126773
-0.0014637595147443073
0.09756350705340588
-0.38953021022832185
0.10267418100352609
0.13885286840181174
-0.10935226476260529
-0.050164210896790296
0.18796407923872843
0.0130933363553224
0.1218278923287116
-0.17173894723892286
0.05964907643316138
-0.13210120350413107
-0.10975034500310786
0.18799771841156662
0.2658553890018501
-0.030210258154025695
-0.03596745911330844
-0.19972266118282575
-0.010271094930777581
-0.060668137125528945
0.02556409424686928
-0.337582951007207
0.2756924191453051
-0.047357112348631304
0.33411302237250823
-0.02214045977197279
0.13241068265749797
-0.31571584500959005
0.012826079562664273
-0.09961606252230022
-0.04002019220371964
0.2733527483014296
-0.10806068152733923
-0.5318355036576645
0.15555719748271546
-0.06450125805137706
0.39636566922913413
0.3121699415647161
0.0348195219851671
0.3274254105565657
-0.3999209291700493
0.28384800560979107
0.04529478805809839
-0.04886687506274651
0.02735899854297902
-0.18600587883707342
0.03669029272941769
-0.1927062292627349
0.1765576938433865
-0.15761485448217752
-0.034790894766081944
-0.2816352577844951
0.20832630775313965
-0.15608244136043947
-0.031207040891683177
-0.32848052807016215
-0.05671178706999367
-0.5107481135075121
-0.06847165542440929
-0.07930347908260449
0.32761245545428325
0.164131945755709
-0.09323732999640828
-0.009297474298741495
0.2542543696295047
0.08672606600692206
-0.07943906605738767
-0.4257930021240774
-0.19416231695260042
0.14857896865082518
-0.06849691007770209
-0.4519909171540659
-0.07025482809680655
0.0400077387206285
-0.301949014858912
-0.04324895661395544
-0.07315273483772619
-0.35408417977796164
-0.42317084183900655
0.12316503624642992
0.043207197841718746
-0.005665062038063239
-0.3397873902590829
-0.054563705017497494
-0.009612610893615594
-0.1215221557324932
-0.14932105894434033
0.007664782270662915
-0.17456332648573322
-0.12763116036720829
-0.06321486452412618
0.17365938781783774
0.09982460052702666
0.2769578657036759
0.08227440113496465
0.0032446549664681586
0.33797083515463955
-0.25171490442884226
0.29904207268231436
-0.40900331408844787
-0.29413189631452025
0.38064924600894906
0.0823959655557508
0.06423499913468363
0.2737197156616644
0.08575277158742406
0.1151211130069553
-0.06774142402529075
-0.13041796877063302
-0.33906761443166
-0.1961617123690197
-0.028752419723898217
-0.4171943649433842
-0.12193802484014549
0.11704064938708457
3.576205898557054E-4
-0.09767410737592602
-0.14623630932834084
0.4037722654773722
-0.10438672881106004
0.02946560147994446
-0.18925790527596187
-0.17454756514902003
-0.14750871913486444
-0.04194641184549058
-0.19676971506888485
-0.15003227607232777
0.21518381453344082
-0.013341736875515518
0.18893716922671033
0.2575488260397514
-0.09589657128492968
0.04375915553409909
-0.36490485590555255
-0.06872250565396831
0.3201829807516156
-0.11538085248310762
0.03177057923674783
0.04948984675390189
0.3309888281831136
0.30920449210634593
-0.03587374508697924
-0.22215720816799878
-0.30020240121357966
0.34530686649170605
-0.23089927317925799
-0.4441324107015754
0.01759969862975136
-0.04454046387299991
0.23314243114294403
0.2087353995914712
-0.1105760269612271
-0.028631438501457038
0.22791919055870025
0.34760774819423834
0.381827211190655
0.18864516136904505
0.08637321085574334
0.01942413955963338
0.20674755232883413
0.0185340636683057
0.30624859555240724
0.2684036640830011
-0.028206068996027584
-0.0025789884766831746
0.0678074020180541
0.046804122531432596
0.0807971291389867
0.10174705242995648
-0.006704869217210982
-0.16861495169351504
-0.17968294172837826
0.44133945866533697
-0.10091677016537687
-0.2906981164216656
0.11277441880936384
-0.2884107863687148
0.17306407526212975
0.19311647362918782
-0.5744628677170444
-0.16765029781661722
0.22098178102745597
-0.052411244894238124
0.3402069651454902
-0.09906339502589574
0.31392524622712137
0.5623784951700126
-0.24186472382077528
0.16957707053220536
0.029671472491439463
-0.01972421481065455
-0.010710414968617268
0.019553502641723428
0.33586921160575856
0.04122926288810134
0.12841320106990076
-0.17649792792564759
-0.08565172784981717
-0.1999935049440208
-0.12431775680734343
-0.04599600724189977
0.27983716732713243
-0.08575447093958664
-0.0038820091009850173
-0.0879864710820425
0.26712984017124425
0.4712549772703636
-0.32944535376550366
-0.043385832389820064
0.08832316236811516
-0.07535236415884453
0.2641060169438824
-0.035581258973691215
0.4623215675104628
-0.10090324079172389
-0.3549782326016921
-0.21969039774385132
-0.08622013276747971
0.07922217180427985
0.31285903723581326
-0.09421655691009721
0.21767649536437303
-0.24945803581973555
0.01627641560663589
0.20877619828406915
0.007383388921365064
-0.0049091151948553735
-0.37373901029140644
0.2506440602009499
-0.014066420257716539
-0.17941977979484497
0.11918021494362832
0.06389328452733783
-0.07281567528364552
-0.0018952672290385815
-0.04410642501412182
0.21738864586786244
-0.2881512335774962
-0.20229446456811853
0.4440060858565432
-0.1713894736070735
0.33854536852435113
-0.11657442975821758
-0.07325229880459448
-0.2535007674483282
0.19998086144491048
-0.027978904355040347
-0.21495812943987602
0.1568134009395697
0.05056621024836262
-0.12181858690704327
-0.004905536501842618
-0.10197379382982495
0.0012553893529483747
0.12669351418424984
0.39735318546706716
-0.17155516346705868
0.14611830794815303
-0.1511330162450453
-0.18668194239818708
0.4272462821129131
-0.05477522980676505
-0.054436132927769366
-0.3063495692202258
-0.05323021806211314
-0.037678654671955476
0.21174618545314813
-0.12455063510159248
-0.1601561562926882
0.20623664182362522
0.22795018012890772
-0.22893936944276894
-0.1589614395070471
-0.06048938145128553
0.1040279766893359
-0.13707305615286813
0.48968324477048314
0.31605305312463083
0.13283014418279962
0.24904986264657875
0.08768784379915866
0.0058395710504144495
0.05507328192543464
0.007947540579557207
-0.13171099758503899
0.025029947265196174
0.29273155341752094
0.06937897231633937
0.014613438839075907
0.02797602111239223
-0.07717095692737094
-0.07374041068030264
-0.004305018777923678
-0.2738248624139182
0.05102717780091684
0.05673324786852059
-0.1619878790557895
-0.12576593132702538
0.030824074572012184
-0.19023081014158114
-0.3794272322675914
0.40391065385877456
-0.03402194715218882
-0.13005573497814796
0.023406675089281237
-0.043137004057872644
-0.03552125066411604
-0.0911893859017488
0.27085379946773824
0.18386760809286784
-0.10305587589027405
-0.1032314684119024
-0.11063085225659917
0.08512445373212532
-1.7161039684130742E-4
-0.020011811053754745
0.13231785194113985
0.09373122148249005
-0.3236175596842448
-3.3717004600792986E-4
-0.10108680572584737
-0.020645204212066778
-0.06492770984521888
0.007010004721972201
0.13216481067540747
-0.028094019372092646
-0.0957240086384445
-0.1334394481485078
-0.2785093921343051
-0.10224341773413731
0.0873773992710569
-0.0741588964310089
0.0728482267645979
-0.07468511972249055
-0.0803517128950294
-0.2286169646101056
0.09654960545199781
0.04136564124427365
0.022964458431018187
0.24948567905696659
-0.3176729811916557
-0.28884355711933896
-0.053180932641209704
-0.36939566359173714
0.1999399899819865
0.0463014168268265
-0.09514913144728034
-0.18797485298680938
0.015315116081748712
-0.3098996766592317
-0.03152986690554211
-0.44176521001237296
0.1316695555231999
-0.16312913949487468
0.01799494854356574
0.36134674054118326
-0.04656146630267311
0.38535946648444686
-0.1454861385891569
0.021244445951396206
0.1085460402839613
-0.11900053063919258
0.21290851194400784
0.2523929843713963
0.030760755770465623
-0.1812840673690912
0.35381572063744293
0.057156898267806136
-0.21132232580196902
-0.27004123795822815
0.22744872742165345
-0.2008452553333461
-0.26137860884737124
0.4731781320725225
0.2603179791084853
-0.09294717785246837
0.06236807030302602
-0.0011141373708526854
-0.23823244618107517
0.3801003525980832
0.17405729336285067
0.03836390551390941
0.04896692044474202
0.18417088351508248
0.09832193291167945
-0.13339045263989455
0.13783477670172953
0.13200126024224346
0.18027791731214426
-0.19902341281515284
-0.18910624033631102
-0.15753385812111434
-0.23385676754677742
-0.505342987720027
-0.12258398147005906
-0.3542053453215871
0.1842090819679516
0.1412844952337686
0.14476039569203256
-0.280736597046091
-0.09652990525436055
0.1320187739036238
-0.09509471699384407
-0.15448214720640588
-0.13591937865063494
0.12541405493146218
0.24210250521994894
-0.1500229149479044
-0.2035877701608887
-0.007635757775395906
-0.3327012339710442
-0.2982846769348676
0.1984424671495025
-0.12554110125805976
-0.4002597155981284
0.2044990113762785
-9.048897817918235E-5
-0.17004269090686497
0.32070915834338887
-0.13767495038356822
0.01731575432485063
0.20856593007866003
-0.10435275061351657
-0.03297264665727081
0.12895007918278037
0.05633380081908512
-0.1348818831236767
-0.18031592498291027
0.08297402105088061
-0.3229205537847266
-0.16701292161091688
-0.08644685131881212
0.08140854261894945
0.3471040009223623
0.05496013499757594
0.4004824585903033
-0.030116361815251624
0.10297494342552951
0.07540961655824607
-0.5679698347006212
-0.2329915411597602
0.16502420470151302
-0.042719406614986445
-0.29481603643785
-0.11649575569992639
-0.02117726900758914
0.07849972528870476
-0.08583576386825592
0.4148314485525104
-0.23094980756391836
0.08703299944403083
-0.3932846534186142
-0.043067522217092674
-0.19037015740253632
0.27980371289974687
0.2457910138987628
-0.39943345507200423
0.1992358713861578
-0.16755225690889153
-0.23129241694132047
-0.1718366272529967
-0.07341349083067455
0.06149618447517033
-0.11454908788317447
0.06832012690388617
-0.03384953245704194
0.1825973931388443
-0.15320119974541205
-0.07911942985570318
0.12335315978955555
0.14586643297699955
-0.128336337707284
0.21648145203701047
-0.10705932697056081
-0.13354243649809325
-0.10585575211002834
-0.13405834136733918
-0.011807386081083136
-0.3203641593143718
0.09970948326555422
0.12161747229999567
-0.25309634255820573
-0.17125074391585057
0.0194171586623806
0.192199402780041
-0.28985252050665794
0.1344394243003647
-0.06370227913718238
-0.3028509163814803
-0.21204243691503427
-0.07900629578365932
-0.01717001610769099
0.009007447332844204
-0.19549348807968758
0.29954176201667265
-0.03876391903298147
-0.11356607028395967
-0.16130318939793697
-0.41441068236372597
0.20708056535194297
-0.057773428730530055
-0.34347671783918826
0.16218558588645476
0.2506840527785161
0.2871417569230459
0.1914777857215741
-0.10695368612543837
-0.10274092276479135
-0.19316494760954028
0.5395390601642907
-0.24194151276977177
0.18605433559831164
0.1117766476369012
0.1520157526578744
0.13043935383594082
-0.03836894767120184
-0.29949935223704255
-0.0924249598754836
0.10946727794446354
-0.08686239998320244
-0.05389649023633008
-0.08164676449558939
-0.34184095106751444
0.350588410045119
0.32291335119124476
0.13716670220595514
-0.03317118708835148
0.17618326628815378
-0.012961918049713918
-0.054521674245275396
-0.16373842666187519
-0.08989101187712108
0.05424590934279702
-0.0035375034012007844
-0.044021649551102236
-0.11311430728999608
0.12754382084209484
-0.015535535995390636
0.09024079601008418
0.5170606662078696
0.6230183688685259
0.08618855158765613
0.1103957165802176
0.47227830000138576
0.16101207340236978
0.48198229521858793
0.1176985597834974
-0.03140663584787777
0.04384032371717882
0.25705687073066225
0.39001324712864416
0.061275071127577886
0.15658659280352735
0.03240162748566371
-0.09005803535245915
0.06695473316312218
0.17496641498761317
-0.08258407342037707
-0.23473313333553364
-0.300870263819551
-0.3251905872082325
0.1640249306426116
-0.15596805012020118
-0.15299179263608784
-0.13166869064305334
-0.14063228044656428
-0.18437815883677236
-0.31841840402260996
0.009798123691251912
0.03722110889970529
0.07767916273066584
-0.4614353678866345
-0.04846345197694089
-0.0410643785187186
0.051937694265920986
-0.19644414133185722
-0.117641484399281
0.20658827283012945
-0.12397578598984743
-0.1464145482258297
0.09017035829961137
-0.023539166084452296
-0.14870365582139286
-0.059087025843107197
0.004473112762280298
-0.043517171528506905
-0.12886203196004026
0.05267728288452818
-0.22678408228581645
-0.17471398482160092
0.1432211935512654
0.12526659132549955
0.04346640832292614
0.1555550697579103
-0.12488591903224297
-0.2900855861349545
0.12320710801267747
-0.23426218890021008
0.5787287835496893
0.29493236334898293
0.21925931513400143
0.6947636747160999
0.5506440294082185
-0.18154532224164643
0.1974653393259019
0.026081383287635807
0.28954146444368767
0.14816840583535776
-0.15593208080807314
0.04019458072671093
0.11254309579629908
-0.05556516412614315
0.034947094284328274
0.03914867377549437
-0.3013683344567293
-0.10950271872323016
0.2371217508018839
-0.16049844153486031
0.048675975720159026
-0.20227127014780805
0.12304595231163244
-0.19250065106550926
-0.13840259189318538
0.019181081004861336
-0.11702339392032626
-0.07463105981539593
-0.39474308503833777
-0.2263628303444983
-0.30385169168095433
0.25088517338611893
-0.02593306666512308
-0.09201016997153634
-0.1378428306174931
-0.052367123248849824
0.3966051593313553
-0.2100830777556843
0.08423882475107614
0.1962734258458139
0.2080331181593101
0.3665170159337484
-0.022939847718305987
-0.07214295048186926
0.2712506035501827
0.0011650680771780933
0.20295583362267583
0.29695208751748514
0.614206370430683
0.19151095377244393
0.2809907169210551
0.011842947010609698
0.010981977769348868
0.14507752354106151
-0.11506965562262178
-0.03303865376693497
-0.3178610946519297
-0.043749060501496344
0.06878549813760791
-0.1612987421101944
0.1660499765590765
-0.04799014706942452
0.03504753858189366
0.25885490698215624
0.15254029366002186
0.019680856294708938
0.030460880092759126
0.19636495840014073
0.4231795434046149
0.2177782301599847
-0.23689087676966555
-0.22261330570630652
0.22791376666885643
-0.12569781577643557
0.01959784104266623
-0.09199159907191722
-0.33728023373411564
-0.00467686671310511
-0.24373635875729008
-0.1803633270516289
0.08174613265860255
9.758896793612505E-4
-0.10542104802686765
0.35094714349463724
0.04030001530194648
-0.21308715341276407
0.14241390526348421
0.09579038412543436
0.06442238961065357
0.04464311340952141
-0.141410303514841
0.1509340421177984
-0.001454597784737802
0.5181770640339515
0.23460125156075098
0.0420485314054526
-0.1874375072468495
-0.056203128785456476
-0.1320784424050453
-0.08889632548927885
0.06345549688340395
0.29332357944782206
-0.11259811075249894
-0.09150818849962582
0.26735092085476536
-0.06300469152220865
0.042218077038911984
-0.09864498938889986
-0.0929360134003784
-0.013345865274849749
-0.136605392013465
-0.1809979726182007
-0.1922335894014402
-0.046434311515267064
-0.00744972978035729
-0.009161327719206656
-0.11374443118815024
0.0031169855139440905
0.1595301364944455
-0.18968347703064595
0.21587752594753745
0.20334796724915277
0.3099381716772793
0.3229133568611545
-0.14047400291328524
0.1921167375848556
0.28433384285883234
0.039919661381095525
-0.020213511834282473
-0.029163890288188055
-0.06324979417318845
-0.002410882616561184
0.22792337843069704
0.001023242155722431
0.13569097272451772
-0.006742350032708695
0.11876472044014114
0.2918711599376142
-0.1229115695976615
-0.1722712293897396
-0.2988008778148196
0.09644949343654932
0.014072350676426294
0.043003923606370495
0.1549179317112307
-0.07478976431316767
-0.0600571504137676
-0.33766805981464143
-0.08658644117088096
-0.06531546574870244
0.22010245693813302
0.13849810198549228
-0.051607408086135086
0.057369874544648425
-0.0015635130615923108
0.19752702614333603
0.3172873029258708
-0.06261661207287783
0.18968542799278207
0.21921022461684225
-0.06439225361509639
0.08402817640761243
-0.0956598787208129
0.16887880170253233
-0.1722984452948501
0.02968745772130881
0.02927074732379271
0.22257476930897568
0.21681542689036773
-0.05682114844316024
-0.23537105755945947
0.11049106491185684
0.39089791492482345
0.2439427126425237
0.39374288587306633
-0.4157197085142227
-0.13562417715155026
-0.06195973078960739
-0.23379204961111189
0.038757038871608036
0.11727015787467658
0.1263281194928015
-0.07238140621127075
0.22431913515785157
-0.006854518033867411
0.16254288541163234
0.056860783572915824
0.21969474545105203
0.10164748391916904
0.1560803216119988
-0.020306102560788467
-0.22692327714477634
0.014052083947585
0.2002739284949131
-0.06504254988423462
-0.03713233117085475
0.13972284435449367
0.16541057534201467
0.0349730495456703
-0.18631082383397451
0.22776435427713337
0.18432033167593342
0.39254547301213155
-0.25068286880452145
-0.14175905681813564
0.043748557164511516
0.02870401049195547
-0.05012136171030184
0.01614989783399621
0.3491482891684105
0.3410609474662793
-0.0749203243602162
0.2249831758648415
0.5890646309539556
0.1870746889983029
0.12315029572093092
-0.05392033204144425
0.08880683644526992
0.2411909225447592
0.1545690971081652
0.2859803576734421
-0.038543752611283184
0.2718267842738355
0.32645151948911166
-0.15029316477141394
-0.0640542642976002
0.20762320679080432
0.20388909933942068
0.12379553343045095
0.23798844491928306
-0.1725105202533328
-0.30924748327168
-0.012804295515794808
-0.10195538783355863
-0.14179896949706686
-0.262457011655805
-0.12908619205377697
-0.31210682054151934
0.05783664254279936
0.0867665926911381
-0.14621103610928413
0.17009909944608193
0.0752554443219421
0.41131215177816
0.0012592937760752894
-0.0615544520280868
0.2626087974320849
0.14749838750224684
-0.11832803580362102
0.14811014292261743
-0.11038536554938036
-0.2578252224347249
0.004029897683264847
0.2631914339055982
0.029986623617620133
-0.03670471218803206
-6.558248744992087E-4
-0.2267482115817544
0.07559876006556684
0.02513111855472554
-0.20193392487049067
0.12528073070785198
0.04010951787499967
-0.2713805015720424
-0.07000176753561131
-0.24801746313001818
-0.280048316576482
-0.38896329446423783
-0.3436956786351219
-0.3365378561469354
0.05481784040633189
-0.1969743586093886
-0.39215614442876073
-0.0020023942268824263
-0.3391242476534033
0.10525145400322468
0.029218245454132895
-0.06355845669867427
-0.07006409397776737
-0.11950467491108209
-0.44878721452809417
-0.25335690737593514
0.026001777214776593
0.4131398456582384
0.47901143495257226
0.19530867886293193
-0.06805479534356926
-0.17328654150930184
-0.04845709044222423
-0.20788103086696166
0.10781486000588493
0.2969628078508852
0.035609589589565095
-0.04297203343612012
0.0819708695930253
0.25644300256585595
-0.15916774646557222
-0.05962730005361986
-0.032036444374979905
0.052442322722937106
-0.2896988847357753
-0.15339464177455797
0.031370281566971484
-0.005865809348413988
-0.028322648119267494
-0.2607112401187029
-0.35914367641371786
-0.3052812675342586
-0.03218285913072255
0.2272111732562458
-0.33171135308619054
0.1969522121606592
-0.2857624660434381
-0.09341215289278143
0.10169028912693016
0.595842701222604
-0.13023229542101256
-0.02239812121780116
-0.08154698359185705
-0.0924374505615626
0.1808113315866258
0.3823274167252432
-0.02313786546804155
0.03633299775243359
0.21789232966350403
0.2522820357812613
0.25207344176371016
0.024128125572310286
0.03208128589539229
-0.32622848136811416
0.26204443499759533
0.2705413739397326
0.19693342096515326
0.13367096835601763
0.2294733002916741
0.011357605291834376
-0.3619538283144608
-0.47718716101994474
-0.04704436605773634
-0.033485823226794484
0.0622576320047968
0.05614503775819718
0.20873906187617172
-0.4428438206826515
0.18998042936555065
0.024940875324641402
0.22839388425485055
-0.1577767956072923
0.007417152989182587
-0.14670495448542392
0.009696843033818375
-0.029445088840194165
0.043137254820954665
-0.2784904975359773
-0.2944570380988223
-0.056481985338066844
0.13265716150972529
-0.149527480713317
0.022057331274475758
0.08737055805759977
-0.026221558469729983
0.27303574311890283
0.13277582661901738
-0.03569524470174596
-0.20132025312674723
0.09443853786403449
-0.05239110474043407
-0.2564547967660999
0.21242866541758298
0.09459484708695204
-0.07794758764301996
0.04967935447419296
0.10552045895673459
-0.0010909896848135567
-0.17935641253444704
-0.014128987812574203
0.11338320607267316
0.09054063626272807
-0.017184357023384545
-0.20049323969651764
0.31186861701344815
0.6559327725195363
0.6452946360609045
0.4274091731745889
-0.2867165346177109
-0.360180735420603
0.24635841444111392
-0.14150590373072724
0.06584637263389623
-0.21429716138993146
-0.29695592682404676
-0.14787300173454812
0.002761088285310602
-0.13896808084867043
-0.17516242329473786
0.37692075058693975
-0.10118307994343789
0.08226486882700135
-0.1799333289674438
-0.21172312604327392
0.007421411990736411
0.15597527513134243
-0.2804640015944063
-0.028696636210811165
-0.25640853903272426
0.5502376495883045
0.4538965822972547
0.1462818652420132
0.05528555823311223
0.10245188863059852
-0.07887558756633943
0.04005934522766596
0.05314174873418603
0.09475493975701713
-0.08712081429598069
0.07422039386213283
0.023534941789369327
-0.0942486865559169
-0.13131747996961807
-0.18764594968156528
-0.1602291669913586
0.09494662077906454
0.46886141771902146
0.0265388275046354
-0.00818515498142638
0.07445212411941327
0.1780804132127873
-0.16664435066823974
0.18251736461889392
-0.19394102857647563
-0.11370764312980522
-0.154264950505022
-0.7120205919068361
-0.35200119886197434
0.11564580326446168
-0.011339942859239706
-0.009956086040519181
-0.03455697682493126
-0.024637219829348526
-0.29230692708460615
-0.06561433169525127
0.32748957431550313
0.12463530214020738
0.2647270199651553
0.13251328663055814
-0.03741414896237346
0.12330816590773858
0.2928848569339388
0.2039156346323835
0.13950822223400122
0.21565525109281042
0.2870732215317138
0.01308648146035085
0.39495429311714647
0.14012434277662425
0.04613966574070564
-0.44100158269808737
-0.33640818614463047
-0.3749681230712883
-0.4902489552671466
-0.3209148781052609
-0.5247081553713283
-0.05918772938339131
-0.11733821961349718
-0.19465821727287594
0.1038792202138859
0.16910491629715735
-0.1011763682806296
-0.18663203874701248
0.20989357788212448
0.12428665061589564
-0.061746419486189724
0.2654526365319685
0.44642859078716723
0.2581819277331715
0.22330766469676014
-0.17633001918782967
0.07136467467411448
0.24697970551861467
-0.16485339451587483
0.029181432026523305
0.2045083435571728
0.13291221833814923
0.24303549992323834
0.24038403578453998
0.07083357870657449
0.06486421343422942
-0.12871677515170674
0.14006066143809429
0.19326870103103808
0.27878366169665697
-0.19849781024008925
-0.20852262198691035
-0.20307805139233798
0.08081457970030788
0.13131280533701048
0.27645208463511206
0.10939883920636088
0.221456277222328
0.15508032998590254
-0.014171599547891385
-0.015050619155370249
-0.31645376168091727
0.266445561839363
0.21694506540134612
-0.11786421245568082
0.34539992118581225
0.08360992993935547
-0.07416009120255614
-0.23485697423802043
-0.034430199525095996
0.24866289323383114
-0.10433687430657627
-0.12467241595301574
-0.1337701523005218
0.04386530347059065
-0.28379172105262507
-0.06568363957953337
-0.1985725274609614
0.08624198272745792
-0.15201117901864888
0.34545903501582215
-0.22555205419716282
0.04178040126968113
-0.09857490688928316
0.0919493355957613
-0.044877041091993884
0.08353265444774521
-0.17540882292843465
0.32773962199622964
0.3236961530863119
0.5355867026529759
0.16530634319601228
0.43677144152842773
-0.2201639944462466
-0.04906512516361372
0.3649408188468597
0.12169586502851806
0.4044652546901977
-0.03927246164552388
0.056325294457325245
-0.2615254313639648
-0.40894186283900674
0.2689028205010472
0.22283025552072364
0.12366764453900875
0.1431621091023644
-0.18637567638808442
-0.4257310318374582
-0.017624203090635834
0.262364723933199
0.086085208035215
-0.6162407643950855
-0.21884353288277533
-0.10120891133741335
-0.09222263132003385
-0.32543293947820484
-0.09290011497042178
-0.16150101304892814
0.15387408313989914
-0.11542319653720794
-0.13741003932479579
0.053930609520442395
-0.09520084242514157
-0.2705816032837169
0.07860331472832506
-0.43482210807213495
0.2118993204987624
-0.017565178824500805
-0.037389404605123695
-0.1299708330152248
-0.08552562958085623
0.013305173962780782
0.11665958401316087
-0.09883904274210455
0.49876279113835
-0.25421351868461034
0.14347957590270483
0.166828508882486
0.23281861300910123
0.19331612363723102
0.12115640655029311
0.02189968772692582
0.3169806895831906
-0.08104412080756068
-0.05905562838797463
0.48537432815418385
0.28120829627458593
0.2885179662458935
-0.17007947088171466
-0.10932787433678015
0.041238461266879196
-0.15003310176981616
-0.10872794202031837
0.05135741458512396
-0.13297102558614696
0.38938059884444154
0.08870812315068093
-0.18197245906084583
-0.2158094456482172
0.1401325189079702
-0.13663901083588736
0.11153087385143594
-0.04868846980471334
0.12901879955067325
-0.0409964579074994
0.29741466263812555
0.4625368217524992
0.24709882474505954
0.0034330406767137866
0.15192668009182983
0.20230663668053833
0.257438885968133
-0.13229475271034546
0.30178786966624027
0.02137234286318691
-0.19359409432516317
0.0481521339823009
-0.22418845952101107
-0.08276144245361763
0.07478395230521388
-0.37742580176024537
-0.17296789657472966
-0.3449398332634649
-0.11690205603450363
0.06865356592937995
-0.18872502405331557
-0.06157386361778253
0.22577242177271964
-0.16315389255599333
-0.4346280975439157
0.025937701827638243
-0.12849475335352858
0.0482154632444154
0.13779769987039842
-0.03666955424270794
-0.04854263646990529
0.06542922342793411
0.02983303038015034
0.2229462359608979
0.0781015042572404
-0.37683230676332097
-0.18780625940513487
0.13637930302466406
-0.03206900182284857
-0.3275067381599438
0.030212837676974278
0.015784126866002453
0.027747268743916805
0.09147700158561423
0.176994531354966
0.04897649360194236
-0.25369521265577016
0.023399575001093624
0.1272731924749586
-0.010753178594926282
0.024131053900101087
0.022300738319658633
-0.06911841968621245
0.21782023066237624
-0.2532786914916744
0.12396983465222931
-0.04228877710329243
-0.020870368991333366
-0.16157388648234813
-0.030397668615755713
-0.2051301525910823
-0.03347684346677056
-0.14348363306180653
-0.10727650965667061
-0.3026806624393117
-0.12488773482046255
0.032608384192284075
-0.0660719264187653
-0.04181613332993066
-0.13277638434616462
0.17349030437894203
-0.020673085280146726
0.23978739510192149
0.011239870530651175
-0.34726112679767623
-0.058215245658076495
-0.03796155112372574
-0.2688406586113351
-0.19278918051058033
0.2977572898980835
0.11326707747036359
0.2024786585303072
-0.3070999972495528
0.18520361285074044
0.16709918810558178
0.3020638049947486
-0.03169303078222003
0.2274053832275636
0.25924079581234066
-0.07006288931014071
0.06902657305096827
-0.18746165181510369
-0.2875878924525066
0.002670880997881589
-0.23220587215132873
-0.1698246497372816
-0.09246704126895255
0.24743557105102618
-0.15804382899267816
-0.015230426920386302
0.12215703752110695
0.07340008559715135
-0.08350606743428364
0.06961516281169901
-0.2297238045152937
-0.12209651709188372
-0.024164504613689505
0.07977958833869922
7.379008585080969E-4
-0.20963497708681025
-0.15235999795407368
0.14311606195041002
0.11672245347882794
0.04619416106895525
0.050618609510100124
-0.27090291384303583
-0.19296372556690475
0.17132819293190651
-0.04384538273795086
0.40846198689552343
0.21667544083936305
-0.031646027639689385
0.11750993097172492
0.1028899295806105
-0.08057576244277183
0.010881142473373686
0.03292185424160579
0.20396746951308134
-0.03883321640253808
-0.010333715668957676
0.0031826750708224922
0.15280465221155373
0.019735836707348398
-0.23935139278882508
-0.1827820891054211
0.1908623199391741
0.28799831327966474
0.08704290580517052
0.2581667645406317
-0.0890715326558725
-0.010000199253297431
0.4395618114518139
0.08442508119949274
0.0917190498340667
-0.3431404109067395
-0.6858893897942194
-0.0781216621577657
-0.18803319293780307
0.06297379577338186
-0.019363663088669863
0.307226114972553
-0.06806738140322889
-0.21630976457092715
-0.20912506862576616
0.05612342607574251
0.29866187411073986
0.41848739069194657
0.19050438969738293
0.04865062481392426
-0.12783400860141925
0.4713401277613372
0.14233497194294256
0.1518871555899419
0.12432427687984222
-0.22123813936203
0.06892943938617405
0.006970892467071428
0.032392125373048655
-0.06661014332746172
-0.08557293332312235
-0.515489430077064
-0.036783802966594115
-0.33358240318698423
-0.1316239702798628
-0.12982343341609762
-0.1567312104093907
-0.10880015069762626
0.1980520641542183
0.5450737741974169
0.21104820872001503
0.42035081750863823
0.5808306433113966
0.3721543939491448
0.7693736563370586
0.06543619742311128
0.3202962436269549
0.712191803967029
0.4386724909637181
0.20623089505828457
0.1013141908803806
0.07225805770088159
0.0024156185733194236
0.11167554979833723
-0.2272731301555604
-0.024900714143882608
-0.19762522085769169
-0.32399805360904843
-0.3363909203321176
-0.0841475953628724
0.15500867563542675
0.1805216273868432
0.11901017215510448
0.17203890298194957
0.11055823574345061
-0.09955661711717753
0.12187584760530848
-0.7417687525048824
0.11948986473031634
0.015111162631807892
-0.22080492554700354
-0.05170841306964044
0.11675287943078796
-0.22759319476108622
-0.027428900044916167
0.1327420428286912
0.02289303760119761
0.21786746727489525
-0.4241262427783983
-0.017353154919861963
0.13510352299492012
0.02509283579259258
-0.11163907184127164
-0.20931401608602954
0.04753174584761073
-0.21368905062754348
0.1352212578372547
0.015710960678511722
0.11173461307944439
0.4411019405403816
0.3754529837130539
-0.036283220650039104
-0.22779435362010916
0.14809685599673958
-0.07572326236417869
-0.13555919164820768
0.13906773941121886
0.07582099033988648
0.226213090972021
0.0646976235203355
-0.022828924677135216
-0.3500191731458255
0.3431693081931298
0.21001867939851013
0.11352006126394837
0.2736893465089695
-0.042391793478660234
-0.017961778058911318
0.47322066066153595
-0.07921398392285023
-0.018574306852627284
-0.34026677684973244
-0.22971452654388622
0.23377061350194916
-0.11050393998987738
-0.15956808269620393
-0.3492053582360515
-0.20668875137355172
0.3010531881692405
0.3942397733342819
0.2176164554543536
-0.19572608746473283
0.18132749565649564
0.13691585396792955
-0.18633360660434806
0.2020321290806619
-0.020691576751827357
-0.08422700573517823
-0.07014774701433865
-0.24763162989592558
-0.041539413257970045
0.19442099708494687
0.2876462157462109
0.2094929818837532
0.3233977903564924
0.005142211987852742
-0.1562261095858285
-0.04682779195007375
-0.09980039971561455
0.2076007199186233
0.1315535648982478
0.1364733016404357
0.2586167314490524
-0.20382078116321456
-0.10227412912315213
0.2602396118494291
-0.02072800139668893
0.1785147062410481
0.0053017847396551075
0.09491938153797475
0.1114680894615854
0.334382552124038
0.28366894397327486
0.07219335009051853
-0.14053264041392413
-0.17178057516636724
0.17954466417418566
0.14985198894772173
-0.12146702117999597
-0.2628347549775924
-0.22095270579009535
-0.04033296909297161
0.35922075433443185
-0.1668977919761054
-0.035430346217342416
0.3012252285475143
0.0023347109884364393
-0.019498751588883395
0.24173359885865106
-0.13219671186867113
-0.26300648024144074
0.19160184838990854
0.11369562224922528
0.03893820578631352
0.016657343608341924
0.09727809267981272
0.26235237227593217
0.04227800080409244
-0.035526181872912364
-0.014905821351285731
0.20935631389474665
-0.13636713695342947
-0.05374857123275006
0.4799646599132831
-0.043190128903650815
-0.1947452482120778
0.026328514507886827
-0.1354094307104847
0.08865199398851709
0.01262157122976334
-0.011840483972013047
0.14621749200113562
-0.2256093040742874
-0.236261054237204
0.2810620534232032
0.09958974551912445
-0.16012098786656215
-0.008557085332131287
0.03578270889624311
-0.3702365512639029
0.07731827014289414
0.10459759302661845
-0.046641755223912215
0.062077316026210375
-0.3310265735672835
0.0628014021242714
-0.13274606543515688
0.0889274208517279
-0.04850703200087094
0.33241165206744394
0.021527415718772983
-0.21721466065061998
-0.147241118030479
0.32427403396652377
-0.1769220614268007
-0.16138754944159672
-0.10061156936283595
0.0787904545506391
-0.02903262430882608
0.10365895011346814
-0.14722110318839107
-0.014032487481023502
0.15728482280895292
-0.17245278748627052
0.15499420277365594
0.1976747583059083
0.08730151309661521
-0.05031962180965556
-0.2957221480439846
-0.11453894068502463
-0.13140537470197053
0.10619276738709725
-0.16826712509845632
0.020160342101570503
0.001757199142663989
-0.20426249805157518
0.3152310891998122
-0.03441188458749678
0.1308649103203907
0.46066624990354843
-0.15766184444151218
0.060757765865833306
0.3605245835734591
-0.07124637591866505
-0.12794504625424044
-0.07487305320781892
-0.0359600704880866
0.5214894846334487
0.09962334910669321
-0.21742009899601678
0.0028951764888730733
-0.08456646267500922
0.06618090037540568
0.039142533205949126
-0.19758811392186384
0.2572622665606114
0.03662069404217763
-0.3334099799816239
-0.19174935818699046
0.2818952272870818
0.05070936390003581
0.023917673929852414
0.1307825142271235
0.11012174420729362
0.12659969821898656
-0.06106453876839349
0.2349548091315927
-0.012646223576805738
-0.08504927204135068
0.1178180070520517
0.16838211075172005
-0.16845734033330384
0.43065292920239423
0.11699279040829998
0.02488102268318969
-0.3223750827447005
-0.03943763089953804
0.23642413649743133
-0.1945337501179033
-1.7111762872831521E-4
0.017144534115016978
-0.1579321490948468
-0.23006712692736722
-0.2361704947891449
0.17934048708829953
-0.16139856344887674
-0.15703343965614933
0.019658287527903117
0.14182886853332943
-0.351932436423398
-0.09640164112773714
0.2619372448152054
0.1249050157767606
0.3584234783593867
0.0010199635638801323
-0.053446297967285034
-0.33893567294971183
0.13613287618418332
-0.05632714453300023
0.08661359903940469
0.1521114937623588
0.019595265775954135
-0.26756649334150645
-0.1583899850876126
0.12898495438530727
0.2854550198645109
0.335806884434912
-0.10492129939880701
0.092167363988933
-0.1924788262842894
-0.16532433522082524
-0.5334929978445073
-0.1788213176420225
0.30376293068436566
-0.09461591259927164
0.24688668500871633
-0.42083899801655184
-0.24324969606863772
-0.13908443511995766
0.07823155629158614
9.205807208570639E-4
-0.04186765997860647
0.06983783421342142
0.2348613288682133
0.2747227238380808
-0.28145847623618964
-0.19522726593107834
-0.24415109683101466
0.04784827736591385
0.23296128068284847
0.18568836789071586
0.0517265920243698
0.2149876722695946
0.1264440532339228
0.45527036959304373
0.09630107174459115
-0.02482049216617618
0.31351832958767667
-0.004278939455684226
0.011751174478993334
0.09877066223255275
-0.2655697955513109
-0.07252950907547044
0.07396065768773122
-0.2258414204022326
-0.14311375270797141
-0.11345127327458011
0.0695066404300315
0.1892866956307431
-0.39733901352210305
0.30012245744975485
-0.27456648192322114
0.09475422819718002
0.3391659913859421
-0.11531836290697506
0.056825669087695235
-0.09077995318294732
0.11839016733060473
0.017965396745403976
0.24799927594899845
-0.04328005775523872
-0.3202875483052201
0.3508855476584555
-0.14748104188251018
0.06957149681073274
0.10935261660952876
0.3557429596520262
0.11174743822122435
0.05562202077137324
-0.15447113753306474
-0.26221253252999144
0.2029927767473041
-0.2662847591899493
0.053017074356397444
0.33626249370680544
-0.04475175365515699
0.022083491399523578
0.041515794328176786
-0.201348491682284
-0.06566610979054634
-0.3188926964151267
0.11877135558802179
-9.714389917859383E-4
-0.10325336131831096
0.25985914982518166
-0.2098650869477736
0.0891349861222718
-0.36446860087373945
0.35252149040559166
-0.33782695902751075
-0.041053111951434455
-0.1742442941204278
0.22024212309261493
-0.1683475446063824
-0.046265298978246466
-0.19587166795979336
-0.06506462401314839
-0.5535506239112258
-2.688706304008473E-4
-0.18069374580823155
-0.24523882475893088
0.00936343153831681
-0.3136453317521076
-0.25801026765069357
-0.22267527496557876
0.09289324326578267
-0.03878951523677085
-0.39729855845701256
0.03735232135699784
-0.19469628197096778
-0.16416508096796473
-0.3137360634406928
-0.11324529311053133
-0.2589941562829817
0.2949943948226712
-0.21493764513789296
0.02378688670744048
0.1401470725276443
0.12143745356837053
-0.04969040230483696
-0.3179317807879635
-0.26043905046624244
0.29760104123133924
-0.16298493233731395
-0.1691419079908139
-0.2965155332049373
-0.13566493760682272
0.0806039033029847
0.240681781781252
-0.06616552626000972
-0.039963833911500296
0.08426688680127754
-0.06621325313859454
0.006964869848520985
-0.02746911418963722
-0.006902393323963369
-0.2654506908212845
-0.10736004427043261
-0.13321129354504396
0.039994740711622595
-0.10793989663163568
0.1572131282727541
-0.26310907897245195
-0.10318166528064587
-0.03664623986223827
0.04652260397833807
-0.026065637958079202
-0.034023541872656465
0.05761570183276415
-0.1213197038118276
0.2703859010137301
-0.5433101693020823
0.21702846173732582
0.16250571982070913
-0.08117119850088489
-0.15492955916879297
0.02899287492075774
-0.06052779305691935
-0.23910248490148575
-0.44034896317885597
-0.06200473194257995
0.1455871800578049
-0.02907134855415172
0.00554172255858247
-0.15289320783327343
0.4150265425596348
0.033681606651317746
0.10290415816366455
-0.2446367215887366
-0.19332189207420178
-0.20196034064886034
-0.26352154437479663
0.0937154600800242
0.09674594578906776
-0.11671897672795606
-0.20069279556003627
-0.2111034224907578
0.13277324698075568
-0.06964035088405315
0.07190214831322526
0.12715708864713512
-0.3002592144957801
-0.06649082140469846
-0.2505028331529379
-0.2864168325536362
0.2772811093733595
0.09414872874795677
-0.0017240148613115174
0.2201034597717052
-0.16520354332953274
0.10309618906007895
-0.2324081001567828
-0.30695825857979175
-0.05311030158330702
-0.24205282743540402
-0.2684519536407147
0.009258506744859498
0.2426707386081912
0.02760383798362151
-0.1886989556432984
0.26679798825371304
-0.2836531704539464
-0.5712220184292214
0.17790276057686605
0.3854521489262803
-0.036569347717566834
0.27125788849191595
-0.007726835477996331
0.02467396801021597
0.0629428694080663
-0.20947549909390117
-0.0852976112226656
-0.20814235919163943
-0.17243140974043478
-0.013668850971824912
-0.04070730494406258
0.16623499218905832
-0.0035035392761651935
0.13157420962468544
-0.06960840436108898
0.2712528205635868
0.0022932751774678768
-0.05457987285487964
-0.19902094781483076
0.026683263622177922
-0.10781056166442998
-0.02186686394848649
0.11136925892378312
-0.061198657888494684
0.2765295241551845
-0.3843093035083054
0.24423221855983945
0.03413738578297098
-0.02388413924464561
0.19979968844644025
0.09599106299819393
-0.1793226305835295
-2.5582693648612626E-5
-0.6302974898392517
-0.17783713738237208
-0.3927344211473944
0.21791173311587847
0.19054812486665884
0.22547214128941842
0.1182054985390329
0.12907482493817654
-0.2692515291034298
0.053120004317296826
0.1496937566139518
0.278677449930192
-0.09281380116025144
0.04982238294630381
-0.2005443841357226
0.04546965770767548
-0.12828990438034857
0.37301054208516776
-0.007457041045534053
-0.09252419946448544
0.09775526628783465
0.21305504784767748
-0.14463101155402291
-0.12391152047059209
0.10172654108902711
-0.038541646016818545
0.26197168223156747
0.22494719858293757
-0.10241323190205705
0.18066680258159112
0.31810976917848655
-0.19248369858497077
0.11397980737720506
-0.21729947788326817
0.01837443377890097
0.03854256015470756
0.046609639161214717
-0.061031009082868265
0.27638568585418055
-0.03073857366929397
-0.001488148932669925
-0.09838772609411749
0.1481510371401019
-0.12376861460153515
-0.18565289470322896
0.023472019591282672
-0.24486507133060958
0.021092442904986367
-0.20998592421948273
0.12872909321807116
0.18384451621867703
-5.088035759904435E-4
0.11631620771747975
-0.049867277807363435
-0.019662417092859902
-0.050688991362411034
-0.21656558111139332
0.07746789685880659
-0.3042504332491935
-0.11823629692506571
-0.14831213051360748
-0.07287550957732024
0.41154493309828166
0.09732156736051871
-0.11298570726654587
-0.13754658156870792
-0.5723214271460079
-0.07404133695802198
0.051876391949136284
-0.12554463874693678
0.17651960007881717
0.19322604175457536
0.003653732542556998
0.06105870948288686
-0.05567258416406541
0.03809064846327905
0.01125977413193167
0.245889926381039
0.15441240404359824
-0.16086896748651325
0.13701335183867527
-0.0713749038066531
-0.23016054207839184
0.24951428600850056
0.19783759070914234
-0.6382774204575202
0.13286543172710671
-0.10699782125124897
-0.19695858170349614
-0.2261459852806219
-0.22058106404241556
0.3409992849769772
-0.025686780228721468
-0.2928632400955695
-0.030008642777816875
0.011377111364977948
-0.26966810862470847
0.0964844722044201
-0.049827630100548664
-0.3510387366673144
0.14957430662331647
-0.46855945312196373
0.10687334089280039
0.004266628774308188
0.03471080330346894
0.021833218818086045
-0.3337076268187271
-0.47416359355306403
0.27472201661200524
0.06458843777232275
0.08860780444844836
0.13791198828738557
0.41600239599477135
-0.5761402616355384
0.28444161493518394
-0.17197979655493964
-0.3474140880170091
-0.2860694291668689
-0.025504010349308305
-0.23801726769226159
0.09080886471612075
0.3241527114760324
0.1682050591990749
-0.09363160917364079
0.527596101102123
0.19182765928568668
-0.14598965285260365
0.5427784568999017
0.2896041991572468
-0.1292140012575367
0.04266492066115665
0.35399097301886906
-0.08721068213925579
-0.1723507833728604
0.06431043577864096
0.06137068474973239
-0.24611188788243876
-0.2636160292846797
0.08096626886471239
0.11933330286331073
-0.055118016600308954
0.21873539853057547
-0.20769982227614606
0.31735530936834144
-0.19029809016944146
-0.19382245677742274
-0.1548944329486383
0.435019109377591
-0.34315679848112035
0.09469831950568461
-0.14076172703262224
-0.003042671689479565
0.16851083943210335
0.19900631381400277
0.22550776530905203
-0.029264490019885677
-0.31197882824617074
0.07806514823656813
0.012185060009928495
0.3142382398689806
0.13130692880331585
0.0189167955435849
0.02747258672814667
-0.34449070432764506
-0.06490434193503374
-0.17752950703783055
0.045039498460736876
-0.10591390365995737
-0.03715070773406765
0.22178977155971114
0.11236099296476665
0.10548258745907971
-0.024378637028123505
-0.3373427329752933
0.24819339588816805
-0.09682365535327893
0.12133345792295941
-0.04421477049467271
-0.0031115306936906778
0.26173520461014765
-0.029363042475512864
-0.07653607600120793
-0.24157521615620237
-0.35886020221109377
0.3788650535614946
-0.3353083206992981
0.4398934261620088
-0.5159252750655333
0.046831219261114714
-0.040861410372266906
0.40534628625702623
0.032493376013077745
0.025135959385557308
-0.18599582809405166
0.13085590199468805
0.07853377574685926
0.07517599173899753
-0.04266374018713361
-0.14081165102074697
-0.06831298987106378
0.10148826446069799
-0.039822029058765064
0.2604413554063143
-0.12430345170392454
-0.09378057300704878
-0.1405666890297997
-0.0031057618805999244
0.05896204060691455
-0.25151248084685424
-0.1203416404436418
0.13605091512085052
-0.2886359032994917
-0.07492610899110731
0.08530401272139737
0.3629168878459836
0.05331442252897472
0.0415775360520675
-0.2705329319015588
0.031032732070983463
0.016888155572039976
0.20932412107671727
-0.041241771761138364
-0.1008379194334323
0.22720972305912632
0.08772471677626985
0.06548257615258536
-0.1132434149427398
-0.3705255732652691
-0.199574685047275
-0.13169456595128645
-0.07379430421711061
-0.07578404155249659
-0.2693680497026368
0.22372001826556157
0.15980614637930624
0.20129545574160002
0.009740691506053
0.05061725132687448
-0.08063922420827936
-0.22068023482640903
0.10499964785188659
0.1452226574572613
0.11495387309590402
-0.14258576164087824
0.11364479859957993
-0.07718658493442657
-0.04456279052750681
-0.09400626693609948
-0.2028005633628417
0.0867923901274002
-0.33525152506958156
-0.2802549218240627
-0.17020350598783962
-0.07913254304220382
0.009459970882431199
-0.1602046885595773
-0.22690435467461204
-0.05300825781898495
-0.09111578076521609
-0.10175477340006732
-0.3415659171784117
-0.2413971984397837
0.03448425842473776
0.15468826374898062
0.08209635525634137
0.20307323298569774
0.041947913979501504
-0.13382371481936126
0.17263110506285959
0.051056795948169954
0.27593343874063353
0.048901409153945564
-0.08885230598407055
0.0377237419972869
0.036669204186284575
0.06082428328285982
0.15238443181624356
-0.12036543556473794
-0.31836503526576626
-0.031981783991706786
0.15766174762467844
0.12147253062582788
0.1634297779642877
0.308703081716869
0.44636549743252146
-0.07218590324141266
-0.08041746320684545
-0.048140685129287764
0.0776292802226119
-0.16302171002671614
0.06819843805269378
0.20694998776353582
-0.10119013696772097
-0.2610114917155058
0.1836975810274435
-0.4096585439622925
0.3859656881825557
0.24410031581457947
-0.10935693007700671
-0.07573021754207085
-0.3302182716228574
0.16880411102866763
-0.04519125722554189
0.025509981013994733
0.08401557632205192
0.07184933886712787
-0.226476813013708
-0.28483570071509884
0.0471864031719091
0.09026971105091855
-0.03526202919051915
0.0679072052094599
-0.17089287637048362
0.24590109600373108
-0.29323848561467836
-0.15334596676865378
0.21537228226911256
0.39045452629997807
-0.0644808431788205
0.30860337726666665
-0.09118578740647262
0.2609590860072805
-0.08411038722384859
0.16409988476316203
-0.16929127265164912
-0.3152663699455149
-0.013755068676538237
0.32310069899618143
-0.16876159704860333
0.07449894733971507
0.13685798446682082
0.004516717409288581
0.3108977372139523
0.14825686579300223
0.15422917542797385
-0.14545086775174104
0.4845678536833424
0.2555328456953015
-0.2243658974881868
0.3229505103607684
-0.16326016790771936
0.06344416052578604
-0.12561327787496587
0.18953763907067048
-0.31301425908144204
-0.10800977694571097
0.03212357706120823
0.13780484033298357
-0.09427207858409899
-0.18548514710801028
-0.1734587149931555
-0.025513625767732136
0.20860585069135357
-0.28194363065077566
-0.019134410635124506
0.05084898672250232
-0.2069640716768354
0.11923390759695439
-0.09884764827031145
-0.1386398009889487
0.11012190539728631
0.2625158465065962
0.12182856284789836
0.14800857690228092
-0.26928201806347873
-0.2880544959411482
0.07841497115678142
0.15779108193754715
0.24449022184647942
-0.31811040925870737
0.11930384265099195
0.04956288491470228
-0.20191962401837046
0.016235319419253005
-0.06304571374582106
0.06109492628141482
-0.09772837617918599
0.13615075361281556
0.002074628952368934
0.25050754952851495
0.3764839032840925
-0.069153189313588
0.025788702235636004
0.11818554465074552
0.15351426013801975
0.006742780604940633
0.11549510145262006
-0.2208948625756944
0.04397111617682772
0.3362155722202804
-0.32553547497054935
0.2704730756349053
0.053874145018153075
-0.33221721071673604
0.2692769155881392
0.08676580413724223
-0.1742036802221757
0.13382078948009035
0.24656837911651686
-0.1136699889062912
0.050091402717171746
-0.1745366489290966
0.27631606697445654
-0.07611751443362468
0.2408901147929369
0.0976809282550034
-0.20146290772108988
-0.231481894265
0.3257236868938398
0.17369264466702347
0.20785070771320144
-0.0746732303023505
-0.09866000827971677
0.007690242553975772
-0.20823330737392323
0.45423729459985096
-0.008147703516687978
0.08880226041680078
0.3250450076899008
0.1480671846122755
0.037764848801380584
-0.183360167376706
-0.3468947919348993
0.22198985395505272
-0.14672307035718699
0.05153538307431437
-0.02737914857138254
0.0973332526871385
-0.3950573074177227
0.23964240310076046
0.48107498724317105
-0.0403260757271398
0.4081570375027437
-0.28743599997071084
0.012408784539843157
0.039957209798689886
-0.009156537375472293
0.11488580115119329
-0.09270571851990161
-0.15054751736676858
-0.45379799572608104
-0.24933891104394812
-0.04035662319660326
0.03926504132587681
0.23352992003978612
0.01820353060424944
0.06325615665464067
0.2689776011123331
0.31734477032915415
0.1065760976299822
-0.21355761449522853
-0.1367048648358295
0.015009174857893196
0.04539811204500844
-0.10303417980080393
0.1216056722390831
0.05132666199865563
-0.06481995755019236
0.22305329767865115
-0.16167207588652577
-0.17742553077364878
-0.009056416063966835
-0.10590723972927707
-0.21143682427621893
0.09251278618531263
0.00714172794147024
0.032918382982800566
-0.2600623352512161
0.21914482544168737
-0.0568313515698221
-0.24223357504570597
-0.11757417819933856
0.09032745538680875
-0.11285240363082094
-0.09272967624380227
-0.22618975950090237
-0.4611016753463097
-0.008858587442836158
-0.08471641412299746
0.3293827622047248
0.12641600901484917
0.37680645380285144
-0.03966440258442249
0.05681307768352091
-0.245781422871703
-0.018816477124374384
0.1555287448324041
-0.04185849886855253
-0.14164435826178542
-0.12475120332729209
-0.19587090312506622
-0.5396894067413551
-0.07483932332968256
0.2074936679233761
-0.016045947641014868
-0.026918939429926778
-0.17449109585632191
0.0944043180621989
-0.1264181118819948
0.05187133261100535
0.2670324430142896
0.17278967780801913
-0.32432404526344616
-0.099104437490569
0.2339324518758037
-0.20112933188362736
-0.06483427350337488
0.2813874018629421
-0.4228945461428508
-0.19406108443503764
-0.05738441190583565
0.38846659822924323
-0.3989182964454448
-0.10179528912445712
0.08608625108280646
0.14372628617902
0.3231757148345449
-0.012413173639518936
0.42205405525869344
-0.17687359807699263
-0.37382469295232346
0.3303312482342924
0.17179578847656887
-0.07682709158136986
-0.06962539756309476
0.15102793934142825
-0.17009364703052654
0.09149612203670048
0.28852264691807256
0.06186532535514022
0.31457763986222537
0.0956262379089467
0.24832710399162872
0.23767137199008126
0.006423533876152379
0.30975611187282404
-0.08344900720965934
-0.12017445940080035
0.4023878820371211
0.21147892269992555
0.04872132524843972
-0.18401832013334396
0.06427317169623013
-0.26632632156873154
0.1292302655787813
-0.19262944263016402
-0.1218548992982395
-0.026722758930380272
-0.16246534500084162
0.14419068353498382
0.3079503920109554
0.011782698834497797
-0.05877976945986583
0.2440929441012194
-0.07456100601388815
0.12281199697583978
0.10409508569259499
0.31833833470448714
-0.13409374601463347
-0.12660339530811313
-0.1869297464431651
0.34578793128075797
0.04102832042657066
0.010784070114122375
0.5105703093599808
-0.07276900382130301
-0.057110889198307424
0.03222847908196097
0.016554785820503917
0.0708452387132997
0.03941386513227643
0.2063523896328157
-0.07036478345460946
0.04107178372509924
-0.38906420752004295
0.00677016045562049
-0.050804027310483106
-0.07455488601855921
0.05883633981207477
-0.10204140888873292
0.2203346057176796
-0.05914051167719634
0.2325251040020474
0.014757964777577024
-0.27993203415111984
0.1439957321309913
0.25301273064140867
-0.007178398677419211
-0.049482212652064234
-0.04159182776179919
-0.08936519587499828
-0.04879255975584529
0.14939737830306196
-0.33698981742498635
-0.4600487474685788
-0.11171981031463543
0.0135926574135396
-0.14427599325922832
-0.15360800976076258
-0.1713106455634961
0.10601332352761315
-0.37133431935716804
-0.1653883724419406
0.4656815192339654
-0.18422639391512216
0.2847293722238118
0.41200272860575105
0.020523710445332112
-0.09650066585564684
0.06628251185657828
0.07516660343629095
0.5338700529941425
-0.1196544952433095
0.14909217029629193
-0.018082629817064107
-0.03064323056265067
-0.23548216369141528
-0.2543335757947531
0.41265475770671034
0.05538404458646895
0.1256500515608187
-0.09839884575750625
-0.05603379317036832
-0.24359593236189478
0.0635013253366223
0.08191602076527078
0.06903054562663653
0.07424427846585177
-0.2734202910793914
0.19810567757704817
-0.12145304744743785
-0.11898937489259938
0.1008315350521632
0.4555336864644172
-0.3299452172397783
-0.3472084964359348
-0.09211981827301136
0.3354069076042334
0.07184508381476805
0.16766574796871841
0.28425594656889447
0.09898820237366776
0.04229171832437068
-0.3163857111624193
-0.4351361165587906
-0.006101972319944939
-0.1736869763811073
0.28506301524330857
-0.32075018306417813
0.2600523865388951
0.32868962862014883
-0.19062573305631336
-0.3016738168296249
0.09040427877228793
-0.19011240164242316
0.13951543957692708
-0.056528844478825314
-0.10073301712442513
0.10521918580896433
0.21568520587112908
-0.11985597788326358
-0.20969044475546889
-7.581061114961511E-4
0.1305051574385939
0.0746479621979007
-0.17564311357990053
0.2491912462273509
-0.05257469230381137
-0.051246100225198515
-0.15256047722476293
-0.255409698630443
-0.2664854610493574
0.41748476281752006
0.2618358484568765
0.14477321434019752
0.051198479526516086
0.0067070468548729905
0.06632967736824227
0.009057151837323517
-0.313808504539985
0.13590513558756454
0.4916288443006849
0.16037591827812958
0.5057546964770342
-0.10868352469494608
0.14577085897107364
-0.1276020309629486
-0.1288163364829745
-0.061920806228994735
0.29110885304358963
-0.26304270178373573
0.1680760310588807
-0.28325839102512246
-0.12207957565682839
0.15851900649910305
0.011890000570674727
-0.09968202395256157
-0.1781521305766043
0.037478788736841816
-0.02107112522941737
-0.012485929334889194
0.08123441374100066
0.06894283176434919
-0.04419512530717645
-0.13330004827084377
0.15322088865082903
-0.31629565484938743
-0.2280888560318451
0.02551306404161298
-0.021351994927116456
-0.3583002071106385
-0.17669006223239936
-0.08745660050248441
0.04787288157951114
0.12089633076280115
0.10353681444061769
-0.23548429367191576
-0.18357479963395673
-0.11987131963536246
-0.05667454218586779
-0.26604990199067413
0.377107298834415
-0.25062691045509355
0.44908233644925666
0.006164616108811323
-0.4543723973157141
-0.02595744124251756
0.07966883882746432
0.15828141807072138
0.08792104395801326
0.031967705733488345
-0.41709086364016645
0.16301104705410907
0.02458852950742625
0.3728246645779074
-0.05955263903624861
-0.14630452157870152
0.19549466244835068
0.1978065860839331
-0.3788483677288928
0.038421855498569815
-0.10903595809167402
0.269062972496762
0.1658697088854252
0.006191446501314887
-0.0959698727651142
0.27465114146086117
0.032341946843863704
0.025645766781809756
0.08073175179511072
-0.2008904929711274
-0.058356690787485246
-0.11570192963729542
0.11588851975108777
0.13897922017440503
0.21124310711167749
-0.2751888063898144
-0.005442832021038944
0.22092826763771797
0.04318274645778505
-0.04956143319298659
0.40275600145272067
-0.6464912915708829
-0.13916381006329298
-0.273566282644693
0.11470241544408065
0.3856419032905939
0.1437473701263475
-0.27674310537353003
0.22838074678827544
-0.48292274821513365
0.14469625384322093
0.05538470478883929
0.15893706681799472
-0.17559192943314236
0.11294733151981605
0.1339128364319611
0.014757138370721123
0.24888750848899402
-0.051423111083710685
-0.4692560828853003
0.10903518310575962
0.1748327175627638
0.11242469619356109
-0.12537489690320572
0.21209697501175093
-0.05417660341108991
0.20981842315235222
0.0539262180854688
-0.3570333054358862
0.035830941235161
-0.04452641183094904
-0.05505748863520681
-0.29561155141571194
-0.16629845985936262
0.4506789350121807
0.19984588574838422
-0.16146206772991273
0.12081699423105006
-0.1510878820408906
-0.07840059754254379
0.11810298877348827
0.1591274323658055
-0.16618190775301753
0.23667985601607328
-0.18251458574392307
0.36235341800706433
0.02069700919241499
0.0015318203440470163
0.620484353091269
0.10009044450913118
-0.2916389406087292
-0.027731929432707664
0.014036472898718204
-0.16407512804166643
-0.011379736097997816
-0.2777308874623592
0.05951207370090999
0.007436264759248279
0.20273461535897197
0.4000840588298682
-0.22103029476735064
-0.030058573180604037
0.4866204089467492
0.40420943830294764
0.023373532565161545
-0.0833415121918694
0.10859674181947834
-0.04043690286151595
0.04775478612315651
-0.04747187273042636
0.31951979277511744
0.12396261168732559
0.2974499679086696
-0.03375880802590318
-0.44892694243084996
0.3244199161276641
0.013226016947213674
-0.15268529207031167
-0.02988541948603345
-0.18296564942715662
-0.23557929049721263
0.14638286431235095
0.4179328849461489
-0.0922544861790296
0.07768057542040475
0.07378773981973116
0.2103239353177413
-0.04618868825494292
-0.2510369223991403
-0.06410537614616967
0.1164151027295145
0.07420513342497069
0.09685892755273992
-0.10810591376340262
0.0038392494506243866
0.12085371191607402
-0.1660109914627915
-0.18907665734133794
0.38633108845707337
-0.18321465189433617
-0.06388622031813569
0.027984735266679817
-0.09729503405273215
-0.04752204227027018
0.12559257370341756
0.06910970381167782
0.07284959988643522
-0.03372032377784461
-0.058644576608995205
0.28813906185236504
0.06539615499032218
-0.11662872455868944
0.18898728312911434
0.21872826413430646
0.012039722256991375
-0.1728240357003188
-0.015753310359189244
0.15687237716669242
-0.062466729722082816
-0.04613481399334134
-0.2503687658383102
0.043802410510838885
-0.32080553851459226
0.09774875960303842
-0.10994436822710095
0.04323938958478634
-0.1798711534978812
0.11915426662597058
0.03609128466073341
0.10565470150463921
-0.03096442585722028
0.07921818385894822
-0.09327469353265916
-0.057314197719843876
0.1108781649902914
-0.1500792748520131
-0.1150389438105659
-0.0038969208103311666
-0.32204721008217907
0.18005821544282602
0.13578002804868505
0.1291834403775898
0.1292193259452554
-0.026700904243809876
-0.4834553955607991
0.0688541960694952
0.03775947731193616
-0.2445251420252205
0.2056743786683066
-0.09684474838849655
-0.3150170927920925
-0.17968134680038456
0.11153492014984279
0.1313188012677252
-0.22331789473834507
0.2460912786040498
0.2533422506876254
-0.5181292943725853
-0.28717233422459304
0.06002237584029255
0.1853291603706335
0.10909680753661528
0.0023209387273024464
-0.06462523112061501
-0.10543667215443947
0.17247792781236396
0.023383243616855773
-0.06801107338200078
0.31073521449404823
-0.1997379915045716
0.38847428145373125
-0.043042064053532475
-0.07796027990816123
-0.18898164342569898
-0.14022806014869227
-0.012642902471953038
-0.3543055326875016
-0.12593222056498368
-0.03037980701027723
-0.20262027592999649
-0.0518488796218719
-0.10378307065723967
-0.30996297612598617
-0.13363334672960572
-0.13044630303939714
0.045076537947861796
-0.3667674030036229
-0.18188880248041683
-0.2590176848180803
-0.2728967379045757
0.13597874216542005
-0.23445625751045152
0.25946845350830694
0.15304486789760716
0.09800241857961199
0.18455218021999542
0.09023191684054727
-0.07362617531932364
0.04848492446698815
-0.14003873290335475
0.22228858542879737
0.10609773228779727
0.10312134712378301
0.0724921852993189
0.06268608352253977
0.04978770752529332
-0.22438517491513796
0.05915923481160425
0.1731707199123561
0.21152923477905508
-0.11932997763549687
0.11206501138796915
0.19303062799279772
-0.1794561011617044
0.14574553820715036
0.15560224017661672
0.04353796421462122
-0.22353170210482598
-0.11325090367617051
8.318741616020284E-4
0.17411430040815037
-0.12370863119729952
0.35310660596985133
0.06823096946324542
0.06433457055536933
-0.038475387530017946
0.01274176427440093
-0.009729312850117727
0.21229795886127334
-0.1749367042791523
-0.07010182372740018
-0.07039951215322841
0.216574007419998
-0.1970220889579725
0.12596937406378725
-0.34376727362688553
-0.20504053402559325
0.25993560519116116
0.21650550039220265
-0.15976889507997338
0.16208498804249372
-0.12477154155508552
-0.1408851940918966
-0.1837650929325467
0.059379944496585124
0.1096405835181811
-0.12362810240690783
-0.04830023885075505
0.005150452156830679
0.052760345188066354
0.28651457821088955
-0.07864826992132648
-0.1561201112443139
-0.05214600978807889
0.32107605572813674
0.04224363420707776
0.16009560552174854
-0.23881434731034698
0.005441291873969237
-0.28524204118812807
-0.05773663257260162
0.18820145140520916
0.22020716917707853
-0.28504606117381986
0.006249841580564692
0.0637101508223091
0.5009633291051456
-0.17215410452237612
-0.15387732569166515
-0.32792474549586287
-0.2845610879565684
0.1889793777068135
-0.1703698056569315
0.20420436197592584
0.16776938540224987
-0.24527229654237434
0.009953350813287224
-0.028719439213955113
-0.3196213142987902
0.16438897285579282
0.11491106992775846
0.1314964172061983
0.1954161647215223
-0.20902792676223975
0.2166711062045228
0.24829244038117598
0.1204217925985818
0.2568403273582475
-0.06953714848589075
0.04516106316589269
-0.11284100010240372
0.403070342369898
-0.26748061647103166
0.03218509782854719
0.33761954241696074
0.2567606501798045
0.18520227991614405
-0.321379508501419
0.11998428289752519
-0.25450559899161795
-0.10857529742794679
-0.09252360706538176
-0.09477342477036467
-0.2210844578131606
0.27690963141360453
0.08373376198077052
0.06331853093346308
0.24820863979866217
0.0027219402020698374
0.5014178564432118
0.24429449142015236
-0.02730681812311867
0.11966393083755177
0.09300993898704452
0.20281328612301364
0.22394853667448378
0.09622167033372743
-0.010877403245271353
0.019914626354549835
0.17013386898520744
-0.4221891864067483
0.22932706337432723
0.19661224822693535
0.5804166821019983
-0.02701093945926346
-0.18002677764463335
-0.05856533464593742
-0.3204510422310972
0.0073354644950138145
0.3846256581624409
0.07587277897923744
0.32599533536847236
0.23509621954574766
0.19859232855790415
0.053821032263015704
-0.12286461212423841
0.07832148239941816
-0.18641282658464017
-0.05667374319915419
0.02268994841064311
-0.021992483328931604
-0.22132658257727061
-0.005106141959806546
-0.03573454754983215
-0.37476485477694776
0.06793809677876857
-0.022239874633164985
0.18086567733172706
-0.028746952780422733
0.2065099960293099
0.18944173585046375
-0.0745761515602096
-0.1559123085362547
0.22035121858643644
0.011397728066103325
-0.4219821655595311
-0.18374455667969214
0.1554899432843917
0.0087281375220796
-0.2959713537403751
-0.23978596435858968
0.03228361270546109
-0.011749745903246109
0.042730247915551495
-0.0997227481157962
-0.12150715668262213
0.17249046818388197
-0.21306913339900224
-0.22704859291942092
-0.0764138803384863
-0.23324535366599683
0.33132536309703037
0.1932431734928513
-0.023767063383180815
-0.5867942541584186
0.2367094081850649
0.3497745776015486
0.22186759575403078
-0.013702365575738111
0.3049962502394689
0.3934727228400546
-0.20712688571521712
-0.07203384950035066
0.006432946450182212
0.2786749920410816
0.20767028032557266
0.03797799002903463
0.025189367401385793
-0.017448580733883622
0.3432724731223886
-0.011017104667522083
-0.23453456057269054
-0.27231966053336004
-0.11530562773206188
-0.22782560031326174
0.32438257078867194
-0.08565796421997138
-0.09439364264286877
0.03914405196994502
0.08477805673633666
-0.06700102853291506
0.3264381369481835
0.5353961300145368
0.3496310792525988
0.15302917433808047
-0.09047158671800568
-0.012292937660900238
0.24075699993119867
0.1256794656073352
0.34494281433009694
-0.08260232580422958
-0.3799119134485636
0.0455851233328153
-0.07543114176041261
-0.32933009046012146
0.034064870667071985
-0.08971977096656082
-0.19408624486382145
-0.050450528859985584
-0.20327402489551524
-0.21894187708468055
0.10124371264345884
-0.011722430869790301
0.1739659711711396
0.058894971499131095
0.522058706972938
0.1972809678147323
0.2097151963117507
0.5245455448014836
-0.2829314588038648
-0.3334337429052008
0.033406361688863365
0.04629327085349453
0.05623301376028552
0.17702825448490023
-0.20730772454473093
-0.04885856701167393
-0.21504139845816345
-0.10011207954812873
-0.00368125127771477
0.03284205763513496
-0.3447820371491375
-0.0339551743064941
0.047730512508133205
0.10934260818725411
-0.34815862032237854
0.01191122555261994
-0.04912265740675357
0.1137361896392061
-0.06146381536121287
-5.21202003172669E-4
-0.1669312217410983
0.024769371344297558
-0.08651192546192296
0.2661704483021652
0.12048017236722788
-0.055942839900174006
0.02576952878640093
0.2043209448899385
0.0848575640966704
-0.03456597210060013
-0.09483405274428026
0.25239620638785126
0.21263211162822385
0.18947794157217135
0.4491821350585592
-0.4361268533360318
-0.20172542540646668
0.2167082283709495
0.19169055679550376
0.16998916254704466
-0.11409160968366444
0.09309125382835491
0.3030247263007315
0.4004217005989931
0.1985562599569114
0.2219021713682955
0.10819971680056298
-0.6598337773221544
0.3380389726693174
0.23282916111399443
-0.1265530786295789
-0.44729038930911585
0.20246109527712058
0.4575931933372316
0.18136463075266956
0.14516143235740248
-0.1171872483951606
0.34739236523893097
0.5614085603319088
0.37013837404008115
0.12272487229754045
-0.17263274089086472
0.2843335254812024
0.19202921802195816
-0.19239247961262476
-0.17118081441059052
0.8252661921374267
0.19357572759834946
0.21704903850802973
0.049308804165669906
0.5934542023660059
-0.3913241678795548
0.007138112150357776
0.2633375178008982
0.08801862513529621
-9.97785699258017E-4
-0.023486474280452654
-0.3444235938059112
0.2153080752456777
-0.13148697306668772
-0.23247193840893204
0.18780591331565075
0.03616357765151496
-0.4663798221413391
0.14741209671752334
0.057706789388248775
0.07585279055214401
-0.04907147279047929
0.4239301751330145
0.012924501652985886
0.10026733777283106
0.534303873614774
-0.2212297492903383
-0.39655302500979406
-0.04520793333100975
-0.01952148442508169
-0.31792708619867616
-0.0435244525293125
0.0675991409807907
-0.31068428492711736
0.2993908471199137
0.36308946568487566
-0.3481189973581384
-0.8253004833760192
0.3403968534703933
0.09314410407249761
-0.2345849831712636
-0.3150607746987642
-0.07563634574145789
-0.2901586650299653
1.799281348848511E-5
0.38041284954623233
0.09337705154557481
0.1463986830189162
-0.3383700619749241
0.15041799518666046
0.39089212313062005
0.2536521338720203
-0.07788561907125682
-0.5179258946720535
0.15256817575830256
0.26871496220812907
-0.3214602792284968
0.20171638782062046
-0.26842562203526776
0.053599118379601934
0.33885495723531134
0.26115699475017273
0.27438541523207527
-0.008059048473533986
0.04985140181063738
0.25333607335098296
0.2991563605706364
0.006500294542779749
0.0708906170355794
0.12956226682966643
1.554655927178907E-4
0.17316390924310693
-0.19029406572521948
-0.3439621357455869
0.2523313757351328
-0.022832171058702153
-0.3163380360918874
-0.1322892191667463
0.11942521503838542
0.24934277261770518
0.2809872354867207
0.7265653557235177
-0.31438902915965283
0.06618542688919131
-0.0067484581011599
-0.028050427472221966
0.16702048286444005
0.008253704460665869
0.14572758478517644
0.16096477971277637
-0.1805830207070504
-0.3846944186973404
-0.21479420614621986
-0.20820755351621575
0.08026727720925794
0.025013140495467396
0.14524844277309645
0.010782956118723487
-0.299831383828382
-0.21688021211926564
-0.09190885085056466
-0.11875587228433272
0.2701286778327202
-0.05711171162548367
0.07980436883131997
0.3287105367426176
0.22442996848243887
-0.297211302061372
0.012758141088927148
0.17447098610204861
-0.06327014691924567
-0.07891566653347847
0.2209971916225592
0.09878178499316577
0.15470039827268076
0.059917183355680366
-0.026249833852590002
-0.3085354715356889
0.3327425057104557
-0.08760006453545098
-0.12148284033193713
0.23004448271162242
0.08974335706893305
0.6053755475972726
0.9400058656815167
-0.01514672425710575
-0.10127730229739604
0.29486706436805893
0.4866007726024443
-0.2557008967680854
0.038997080005823775
0.1366746690826527
0.20394919871718287
-0.13527245183818354
-0.050189561518057986
0.04955996915958544
0.2219143692896636
0.15125224787220418
-0.24334251108579907
0.03182135277414436
-0.43233972784661123
-0.372198109012772
0.8039391080748266
0.07813476567759671
-0.060082070673336846
0.24188886821301614
-0.21491634214751815
0.01313544397048452
0.08147796388862709
-0.3693428174801772
-0.14224578896863338
-0.06441869710095595
0.007583191930962391
-0.05321985524144017
-0.1873453205480977
0.034569281358770805
-0.16536920248440945
0.25580115450455615
-0.7930521575167282
0.24398502578396652
0.228883950641728
-0.13091491819858994
-0.11929828267934893
0.11990745158544916
0.3958134585232386
-0.13711894786970072
-0.02608947957508169
-0.1644551275993911
0.008616282298678342
0.08407588501977221
0.37857313384509383
-0.13221618761294765
0.10868743798260463
-0.33961024222279207
-0.13338952613792
-0.102847626377808
-0.2389023575263031
-0.37220512657018284
-0.04886201013427102
-0.25878584348574385
-0.3627710728106638
-0.20811024844124795
0.2255425716067933
-0.03132627788736667
0.2678110812776143
0.05788904591568958
-0.09872824627615141
-0.03487810235206291
-0.2265448334268442
-0.270110965511823
-0.2518475967641155
0.32681357254815385
-0.12775361062835083
0.16313544128056268
-0.2891999932489213
-0.440351820578419
0.12339346686060587
-0.10398314430331276
0.07060932563242012
0.00864708633677687
-0.17046833917111315
-0.1347971457823653
0.3491660111291614
0.36635648486734756
0.5930850336633512
0.5227175880407261
-0.05636427379139451
0.0245563072682338
-0.19848930976214524
-0.6641057105231822
0.0555605315399018
0.32205560465807287
-0.01569524717202969
-0.3707546078007724
0.03458261737870623
0.0873985613119452
-0.04765039286686275
-0.09441090025887315
-0.47346586275296676
0.025748265988971734
-0.009365584325039665
-0.43107226899712725
0.4248338984519709
-0.02000957537514223
0.5049394819969548
0.00967981426655965
0.09975315329015771
0.051246984403298695
-0.1613772386904611
-0.11920884637296562
-0.07300380062139715
0.3859161919738767
0.42998704216325495
0.2435318077867894
-0.22891439421820015
-0.1309178581178242
0.12140234656199013
-0.0027498199732907493
-0.03477454288722582
0.030416418244178442
-0.1987677532222604
-0.3283718475668659
0.12814523953869603
0.4347028495630534
0.30079194371148915
-0.0706099509129551
-0.07403961181186319
-0.2073005067925035
-0.03429008481913441
-0.4135913815016284
0.04316277882089307
-0.026050710246923018
0.18294799662734795
-0.11038481531266488
-0.1084682923000436
0.25177465783666936
-0.25751570491297626
-0.32150351457938897
0.16806706140060598
-0.22479674117231432
0.07320752536796037
-0.11250580021936858
0.22592875854206027
0.120777053273598
-0.008259226891872442
0.525838387066455
-0.1385788871103862
-0.4084888189809165
0.22845118344963045
-0.3528298865876367
-0.059117043412958974
-0.05218164175246963
0.21848179515414554
-0.16462317468222587
0.3106462340977427
0.2633738645536426
0.001998944484053277
-0.3845320711264373
-0.004484003090527758
-0.5297642450678043
0.08085812686553946
-0.25705509940462384
-0.11541726298363207
-0.14652559425080544
-0.17268955301266817
0.5581038703270159
-0.06051945644745099
0.1780293789871075
0.13184168850319883
-0.35685731614182914
0.14848559008767895
0.046327502231003105
-0.5420973368991803
-0.09255006749592498
0.0262993438550715
0.06301405543067548
0.14088103941625751
-0.04232885285967847
-0.21024986028525613
0.23952338786277352
0.05249201277713567
0.4443233329342488
-0.013715891164706978
0.16687469416257944
-0.061539131381622356
0.02734820253786772
0.0025932664031406
0.039142306761054846
-0.11738137646240059
-0.04867365047405997
0.10247618125805219
-0.19341052404058773
-0.43658122635474755
-0.30752934037896845
0.10929463814889645
-0.0020379217407982975
-0.15468781640767437
0.27496253509269963
0.09422487195065712
-0.3151360783043169
0.25292973468711405
0.6635469496340929
0.09039774459013873
0.09719817879979713
0.20039225967343968
0.22030851148277777
-0.34884664093565493
-0.4386479436842788
0.3886690659690078
0.006418128909499097
0.37512050892076193
-0.17868439608945524
0.19429906490763293
0.2705809261946652
-0.1307197493978947
0.051485527119234195
0.0531016641720321
-0.10255341638136893
-0.33938934301526247
-0.057820353256126715
0.04649083143544456
-0.10007157847486539
-0.06209415114196114
-0.17926450858254603
0.30527814733325925
0.357203685032998
0.21825412280053103
-0.2932366624050187
0.010008987090269846
0.08898427572520042
0.07426322970277009
-0.28778225636813554
-0.25126459639725635
-0.01700676909168427
-0.044583815205784104
-0.037783344133030826
0.044998084191331375
0.10700872463448628
0.4884193789917386
-0.2103577344342598
-0.21836107899101806
-0.31514077496730597
-0.10723272516139057
-0.4682107215315597
-0.21388179302564864
0.4166555963869537
0.1044926342626445
0.03267046147705064
0.08224609499685155
0.0793345423316024
-0.10145336994117143
0.1465317237427545
0.2335952137198129
0.2471709884055498
0.39667586864753607
0.2834476214426954
0.12530501924692328
-0.15594657737981868
-0.30987956200805633
-0.1821858454343847
0.29005358217695937
0.2973892180575196
-0.08567474723215711
0.46341143894782316
0.05380606485417416
0.3253777134311796
-0.14185821266929918
0.32277994995395604
0.22731888623560104
0.0746038317969829
-0.22604824278581906
0.20119636749095535
0.044000726275615513
-0.08487952035970465
0.3288645022669493
0.2551039184144378
-0.16003305532722428
0.004244407541784951
0.38726170891104206
0.11761774895856304
0.2197419127236919
0.11937195759238554
0.039185013752338065
0.115669968446048
0.001820613481030802
-0.28373176907600867
-0.06265694574561079
0.011368827677227219
-0.0648842748561286
8.630240661080837E-4
-0.3822890505798058
0.012690135496602114
-0.29277274966670325
0.13297496755471283
0.6499075549605389
0.2720343165700262
-0.06144637369719419
0.15422673238878287
-0.1384890591857
-0.08895992739690173
0.0506744674220446
-0.11132619360623672
-0.23702115771570623
-0.2727704603450369
-0.03495966840731139
-0.042159788329447126
-0.13741166410953476
0.41200576095521496
0.3163647006028746
0.525507962194626
-0.12259151158900063
0.09825640904316219
0.17780971826714476
-0.32378742864771753
-0.045011697607158035
-0.0774859546439235
-0.19420485148504663
-0.33083968821035686
0.4274631417374561
0.11512558870708267
0.06389503962849358
-0.07942082279717946
0.6853805872760595
0.40121038136366693
0.054857452476236745
0.194374200776746
0.010499154072021604
-0.3999924418962642
-0.3187768276941756
-0.21405818782574604
0.4288483602298542
-0.06447570813109083
-0.11927125739830988
0.08775367270344954
0.5029706012656351
0.09093819951834367
0.2044313278056043
0.22819246110951963
0.08941804437937154
0.2232351191866938
0.07101169657789363
0.04906788034629291
-0.10005509833004202
-0.4069817554174985
-0.19766572820529993
-0.6215251712059446
0.02459760593615294
-0.40500705310082163
2.519150887331127E-4
-0.10090688900327772
-0.3531243488945619
-0.01348499331369682
-0.10249715975600024
-0.34167056108552024
-0.23571423443910094
-0.1415234549396287
-0.11963999847378502
-0.034913276323072784
-0.05778273006884091
0.08631196633313132
-0.13446989878559554
0.13280044214731426
0.026349239898697193
-0.1106100261118322
0.1250478152628428
-0.21079274457451483
0.03079151536206751
-0.2164687274023407
0.25099413238825113
0.3197356590018132
-0.35717748559743007
0.635096173738124
0.09487258380798556
0.2712592624791274
-0.41577583927651546
-0.06087615869676656
-0.2776084428261347
-0.18441502459647865
-0.07956258776521681
0.20048696122950224
0.19727076979039126
0.22355659640381717
-0.3472107946861429
-0.312724558020393
-0.0103812940036175
0.46995238973052916
-0.1406400763285216
-0.40317543512500176
0.013540053161525897
0.16739403597685618
0.1756445348334013
0.34966535985176644
-0.08676118819381412
0.10333377497752506
-0.315430833230368
-0.24251217498607408
0.3434704735771765
0.10251167656424161
-0.37531837809953594
-0.2262093982015507
0.0220126198681439
-0.1296356126140802
-0.4068029949824646
-0.33782624070193473
-0.025187535691107387
-0.22421680069842898
-0.10956439188737574
-0.1622669635824292
-0.007379605614361399
-0.22319180978596562
-0.07428021059751629
-0.6542076648361583
0.11370214467409641
0.4058461093727432
0.04034311036848511
-0.23802800362343263
0.00498675825763541
0.42015909832182474
0.050002514384313884
-0.3923640687202947
-0.21780480111401532
0.266094703577931
0.28318847286494203
0.5344387046079558
0.05093581103899414
-0.2310907901984838
0.01659970845097495
-0.09509769972779514
0.053563517282246155
0.18685160816111882
-0.2713503884943637
-0.24272992978804314
-0.3069308414207692
0.33523457163684434
-0.101814353935177
-0.12712403300932956
0.15221299479524592
0.3746516727151644
-0.1141193623748522
-0.2402116756601437
0.14850599381370028
0.17320204092522845
0.20844701237124424
-0.025122120089726262
-0.02132679488611219
0.12043750665090908
0.13142901046886407
0.14293883439409294
-0.1919488315013762
0.36769598197847325
0.07593363516473552
-0.28756759224066625
-0.24020576407856944
0.07633773525584495
0.07432980966930999
-0.034236904115618756
-0.40336761116408976
-0.46579062396661103
0.439193911812703
0.36307088483131766
0.22459459048773256
0.1371136995418348
-0.35394599920961606
-0.11032666297558032
0.12980841362431655
-0.1566843243134102
-0.3356713191217523
0.07129090582505798
0.13251834570170154
-0.15722937355389197
-0.09712187854960577
-0.1985620358210619
-0.1271962545807102
-0.21261909153719744
0.08294883137623797
-0.3430143494665949
-0.5323248700869101
-0.6648070857414303
-0.6586180582359537
-0.2086353041274226
0.13428858376464994
-0.12400700771697097
-0.053820287131381636
0.10115590190897886
0.21571799252825766
-0.19399210832529035
0.07448710780816299
-0.15433216819883253
-0.10712028195691287
-0.13368994107967122
0.14268804543460498
0.15725588027259196
-0.06128485178573654
-0.07807152313165487
0.04366413217886721
-0.0020323232277054595
0.1126705805711481
0.04978584119825945
0.3857682079818846
0.1115044204629585
0.2555128953028878
-0.08081326036087384
-0.18177998198751685
-0.11113311042677189
-0.12098055430016771
-0.7502665565432021
0.417580349912372
0.3500885777479849
0.06994260463415859
0.2652635437563469
0.02864892481135611
0.14332013786153103
-0.0867745785286519
0.14067235665343217
-0.03240452914568594
0.03101193443886494
0.16859973788671853
0.19891908710313946
0.39304367774959986
-0.3641286135907747
0.07195669621118372
0.3076358400978719
-0.06639863164598389
-0.05814843282078519
0.05144400417485967
-0.14205403308561548
0.15968730927509892
0.007805906232997414
-0.12341200163907971
0.08965334491030771
0.002862883880293803
-0.1390246480251361
0.19621643141351777
0.36185775944786647
0.09191559972921287
-0.22688723218464205
0.1218540012396304
-0.11804881982923757
0.08211995198650385
0.01955261517163776
0.16419679261507494
-0.1414232521313295
-0.15998482845155587
-0.15859690717631147
-0.13742192834441838
-0.12117548343903677
-0.5039267536706381
-0.05360665548533705
-0.32181350374888235
-0.26295996514895187
-0.17273203426814118
-0.15040102325405702
-0.02320478927064953
0.19383872561503135
-0.3034797030648901
-0.2535213697417171
-0.2619202863039991
-0.2410788556986144
-0.19220405970704363
0.23876821554753788
0.18537448914236562
-0.5063805304900674
0.1150544372431455
0.27419718930134046
0.076641047133326
0.2838251477876573
0.16453108487358345
0.17601028348562422
0.14846215694918258
0.3115317799369052
0.10370759872991678
0.17093175812514586
-0.2739859066971913
-0.6625594880467515
-0.3873822696846817
0.0755567643609462
-0.0629527631584628
-0.37008064397701207
0.01431821502304209
0.11660693173061856
0.16007610787075957
-0.13151936310008902
-0.14025818130393455
-0.21509238622838564
-0.2751688999010732
0.2518345106973255
0.4043729463056451
0.3158370719206368
0.08571304299623275
-0.13325453204440366
-0.2489564831200436
-0.22815734795474396
0.004754944357744163
-0.23483852421418616
-0.24565016642974516
-0.01452113940953094
0.13049851102674334
-0.5719226479276011
0.1311874722255581
0.262265775392205
0.14191927995189227
-0.33151054195221014
-0.1903961680904422
-0.11553143444566119
0.4208224452870546
-0.1169095081807386
-0.08421319270353379
0.12555785989451548
0.23409838246482073
-0.20529192227582543
-0.014084283991440336
-0.4512190633690697
0.1490514483978566
-0.058312022695935835
-0.43663244279103686
0.0885497522357919
0.06482861884042757
0.29455623074910153
0.25737287223091254
-0.04586010323110707
-0.15537341924003556
0.016504559495023097
0.15827319045073818
0.23428308911019333
-0.3365496655967762
0.05377251594100304
-0.458044117440186
-0.17949818270511445
-0.13860306218460844
0.08179472835562869
-0.14198294234433345
0.47901098669764003
0.22297320370437332
-0.3075695642594231
0.4531853206857115
0.3681975568824378
-0.11101778972851119
-0.38907515501605705
0.3260342614549665
-0.2919485869102345
-0.09682030350217391
0.23608498021226623
0.19019609591520312
-0.3585641935169861
-0.2543799933134191
0.0689522907899936
-0.24833886159294016
-0.06886688924206592
-0.04395855123516143
-0.177244498030016
0.17967183435291192
0.51966948821592
0.4137376511636264
0.06123434199874463
0.1148948829042148
0.39976165784742534
-0.5699357319294751
-0.3420607503360494
-0.4053756119024908
-0.43005366977277276
-0.172034590596815
0.2083902438584734
0.031087492024026404
0.1146201928153362
0.1262397481359114
-0.14907875356245529
-0.32596224264626866
-0.2200236069229162
0.10325053859510823
0.15339808272532685
0.5269096443466155
0.19217308155696525
-0.2751971214658468
0.0236546044775968
-0.019712983640237634
-0.12140584501196795
-0.04174872855933038
0.1934589079139728
-0.14840123462327884
-0.35152744921306806
-0.26303204528839097
0.16970392286254157
0.050279720352994044
-0.16073536176874686
0.12079253098500892
-0.14303736960316446
-0.053399090820689006
-0.16257435009111576
0.03957874526349258
-0.1055640154307492
-0.2534955498461366
0.014421893252278066
-0.03212968927412688
0.09354280465922335
0.4205512470456782
-0.22181661235223976
0.17984837005824617
0.02403689700533128
-0.13710793444582062
-0.3444363925201413
-0.12254758631908456
-0.16235475179370373
0.13706022691269334
-0.30503283457849084
0.2783736254393283
0.1324480393437869
0.4193529813193646
-0.29444844789919344
0.1159454244909463
-0.11581424237056084
0.35628987887412733
-0.1839033844132579
-0.04070748439167914
-0.20530972441415318
0.1448284047490196
-0.15593896787576958
0.11451391505305335
-0.18475318273859895
-0.31184655331117356
-0.07129343989629615
0.2637296735741945
-0.3899089883431569
-0.7515266159903273
-0.19084488663634272
0.3234325418212975
0.25373596148276206
-0.40933123541970745
-0.17414722711405847
0.32750865827955983
0.20243135774785184
0.09116327651820014
0.12188541236962298
0.21552162190313776
0.2120692488081138
0.07876124085508159
-0.1976850493372161
-0.17020523447330335
-0.09519038432712412
-0.1051414165618564
-0.43683516727988336
-0.1588392715290504
0.23493723244801024
-0.2175310849743051
0.08079619236733522
0.10974800939107167
0.10094598827771918
-0.048018178550227934
0.11421247839928043
0.2875719608550525
0.15600881794117297
-0.2181982660959055
-0.010064861027680155
0.4681222240341892
-0.0045487703301249
-0.1620185387495859
-0.142180282974369
-0.17690192460962995
-0.18799823514079853
-0.05355537893354909
0.30556968242499305
0.03243268739346376
-0.13513803533802574
-0.2064480184532109
-0.13703291594786587
0.18642890225498163
-0.19095575468991355
-0.33106297494385173
-0.08111090749591475
0.010687748025258988
-0.04409501799401179
0.03728034975513686
-0.05342478460981371
0.01694880113813103
0.04275784318240739
0.012860607619358066
-0.14687265425977858
-0.08603484489985673
0.12911819354805537
-0.15624811565256655
0.09736523771015738
-0.23060341264917175
-0.04172491161874078
-0.039435554030237796
-0.04581773913244385
-0.24429876639020878
-0.4643288476044327
-0.12168285359398896
-0.23070956835575152
0.15153758293916111
-0.025954027608533593
-0.0018103778378971169
0.42799753568014504
0.20521447186731445
0.3029946424552629
-0.2937072136856144
0.2735152770506074
-0.1665091304554264
0.2244858244385206
0.0045557224334662645
0.07749450118677863
-0.04640090995776747
-0.29270389298643973
0.04499556441900896
-0.5844723837050118
-0.05979945404412278
0.05038349011973895
-0.12957108703862955
0.338778423273033
-0.22995341542798106
0.2772319266483164
0.367570822739036
-0.2697214829034004
-0.3439515448946873
-0.01980448705831196
0.34232094388426565
0.12999919519295908
0.25674686293221743
0.0894333860172384
-0.10862506290672992
0.01451743702271966
0.3185069836651328
0.2587185846241439
-0.08538131894340417
0.11689965682636405
0.23510885896130002
0.37856438522241487
-0.11529763347813168
0.458011984510039
0.13897628700533124
0.2052243114989981
0.3454857358455065
0.1386468730612383
-0.3673809567305179
0.009464553836071091
0.40375576104255184
-0.3908665198406424
-0.11569838930215781
0.16274535792600664
-0.17204172002259155
0.2515001054064306
0.4658269810436224
0.03751180605952609
0.3110570723536808
0.31716411931627947
0.008658373211439231
0.004449087458556986
0.13610465905034258
0.23778744671857507
-0.22349922360316044
-0.009077460684603269
0.14526521832543532
0.02086784590378486
0.04129488290348615
-0.09588899640529085
0.2497987308075318
0.12913110479818887
0.4925486052340502
-0.0387415959706414
-0.03878364148124491
0.19390783841016102
-0.4364082017298436
-0.014447249405293483
0.10205452796970288
0.20516015132438223
-0.04962965647354295
0.2083476319683186
0.060903061853050895
0.11918262779933315
0.2510959205903878
-0.04058925271120832
-0.20726711204943835
-0.1519630986629193
-0.16290487948987856
0.09742418805753393
0.34861011715268425
-0.0388274535600451
0.02934076317240779
0.06054443941459951
0.3021481613049226
-0.2916421749519677
0.05671091778019188
0.3724012041080941
-0.529975046676918
0.009075740622447225
0.2601673522080107
0.1303182537486278
-0.21942629335289815
-0.08901169709032265
0.2488548118456893
0.11091101159346989
-0.24115188729679207
-0.07203490938042269
-0.19145844997353412
0.11239331163591611
0.11960339333060532
0.24330904982623985
-0.014468681078377232
0.1540000966180834
-0.2833588851574705
-0.3090901552436374
-0.3183246676103573
-0.024227927714533422
0.7100286034184975
0.6542144055782719
0.3444058452883724
0.3900649711464042
-0.22932205062556166
-0.1801932897625578
-0.05395708549037286
-0.09480365054545829
-0.21780966743782754
-0.40640990772666036
-0.5346250865901874
-0.16795335478403653
0.02196016855550954
-0.20021254769898883
0.12207749016939075
-0.2434789990447669
0.10749210682324233
0.08508743500170497
0.07682083581268238
-0.46598131143096116
0.022788833438753008
0.3446404133539654
0.5015400160223427
0.1887128947137815
0.03876948736792886
0.04850830951631453
0.010692482367540532
-0.0956199429393054
0.02886009610601845
0.19778834573911921
-0.03778238739187592
0.03277952041866247
-0.037773419762288235
0.028819783039123678
0.15775857242868796
0.02614236062190278
-0.24418304555566245
-0.08608875583115451
-0.06685193522198594
-0.011721943578869612
0.1590438080657826
0.08118042905359499
0.16796264429721133
-0.35960435376187494
-0.13541577888842737
-0.04383873018375793
0.0443973215456216
-0.001673855450072277
0.11055881924556063
