5764
0.1419873541113438
-0.3612171266657809
-0.0074540380230231785
-0.15239305332986364
0.13584992780972643
-0.3249542479287132
-0.36336147475955416
0.5181514799155026
-0.07830209035011172
0.06569743891240344
0.10320171991430777
-0.268995927908927
-0.11123979081061014
0.09469126567517488
0.19300747680809305
0.004712275955236736
0.22498509261587132
-0.03183017228097246
0.05783551446434046
-0.04037367182316596
-0.09097436275224247
0.009571193088166093
-0.190793523026979
0.19774652315903965
0.04632809390571654
-0.30245412057490584
0.3580408429495894
0.05774028906497476
-0.013261483962743958
0.2038900579274416
-0.009485087406409186
-0.06115950293148323
-0.02099666134871065
-0.16887172937320005
0.1406269367682385
0.08515515341093295
0.29290925449652255
0.07251204143616671
-0.5422394516747436
-0.1218510595863625
0.3625506299486506
0.030530724782393368
0.027042442465172352
0.2100729851628228
0.017080449995454845
0.15595737826054776
-0.42355372823767623
-0.2018763738329426
-0.13933958604977623
0.12061838044311689
0.13899181945671654
-0.06269245219118358
-0.0917175537916949
-0.13450136272113677
0.10597555452904968
0.18534111805434678
0.16670867536755463
-0.017417686612070247
0.17814883224774614
-0.08622779306419598
0.03659255358164315
0.2795929759245672
-0.5365610516512499
0.3914144061047291
0.14795228873026997
0.07836188074939304
-0.05067105765322952
0.2670436271204894
-0.005500345542993899
0.12039230495397224
0.08326014098487297
0.12708405372418968
-0.02335371900272416
-0.30676788806130645
0.20285032877541417
0.17693085421611893
-0.17862272855328695
-0.010951673738954563
-0.1381439522995486
-0.24898994673774216
0.18786538084734497
-0.06437788635100514
-0.0774191815382812
-0.16933869557538997
-0.19387045670835645
0.04598360474866344
0.09557997269761051
0.07142870531587829
0.016390271671186635
-0.26931546393718825
-0.12979658284792317
0.3045655255103378
-0.10425208967653288
0.051878435583231346
0.2607556215553849
-0.30971511298345344
-0.04774991995334655
-0.3884809210292426
0.0018138413640983548
-0.0757492265576499
0.08841030192526039
0.20825809687389754
0.3228673479691757
-0.27079536181083597
-0.11735698526966779
0.1739866529186889
0.10375852673156907
0.18920296967958733
0.27264955056857537
0.01302279789741228
0.02201525890949095
0.014409141559133455
-0.058552198888847495
-0.07621357203091476
-0.05925040222460595
0.022888633318185917
-0.13206344836548503
-0.13047399882837493
0.23226723175701305
-0.016648945812023308
0.12504079728510437
0.11525354650527637
-0.014635360910765888
0.04194107277081409
0.39428870298512214
0.13443323647677052
-0.2950794816759568
0.024233577647254992
0.10150602968304744
-0.2712680416640024
0.2558847036812217
-0.42203233143132685
-0.02697315060348513
0.00527335468250574
0.020307329406333403
0.006104061184195205
0.09294077083239768
-0.25583396470505193
-0.21073537178239143
0.043041111240686526
0.07932452137346586
0.009055528313660598
-0.023172050480742085
0.19424100196007804
-0.08203053657222463
0.0365467828590761
0.06243568351500783
-0.2077441103574061
-0.05002644116517634
-0.3543768293429468
0.13120469535636622
-0.026591261167210906
0.11256486211089654
-0.18729650632768804
0.02681753356282636
-0.019155094118762084
-0.28953722742310417
-0.18755367616931198
0.03201927599485169
-0.09865833556593036
-0.0130167192150142
-0.08560268291932549
-0.2272199977802336
0.031183235284660882
0.11731207157554427
0.06514458298020458
-0.043412433780063035
-0.11901179132278597
0.25583455398251825
0.292224814066538
0.298229837550979
0.06809142563368048
-0.06551854113779317
-0.05221136441634844
-0.1864386188831296
0.40812148591932457
0.5637509647019774
0.16464673218742223
-0.22315612687717604
-0.24152056424834592
0.32719091134418576
-0.6123470595818162
-0.22308993904245195
0.2502256648677238
-0.03899381280008981
-0.19025022938212166
-0.11316835296921761
0.05167394627854984
0.14091174938980958
0.0561307261133122
-0.05800531953804538
0.4116585539750863
0.1642861771084202
0.3257012386222467
0.042018823951762256
0.24211942748390106
-0.009676152252424488
0.1298643887592232
-0.1394540199542182
0.2907963480746525
0.47615631187520857
-0.14815349991216603
-0.8211956923236238
-0.051730851223430935
0.5037126735091842
0.09347542186708788
-0.7367565733484427
-0.746015085022167
0.043281696635091675
0.06950916037218322
-0.29881867291766556
-0.4081681750719696
0.6497181203931508
0.8544400927366664
-0.2689594721942899
-0.17416033410883514
0.1544836483366478
0.6367190472877147
0.16748663945694528
-0.7829780365224005
-0.11679515275980427
0.15205428296440637
-0.16250690832717715
-0.3568673886719848
-0.1334191509318987
0.3223924219542408
0.062159244907028066
0.18471024215105936
-0.5889866018830607
-1.1242196113042164
0.02110949687732927
-0.02441310651117593
-0.6038982617172634
-1.1474080631113788
-0.20776314557933084
-0.09144328103518433
-0.19168571006513557
-1.1566810267930114
-0.4392828898574787
0.4160155336964371
0.23869474225091358
-0.6721972365330353
-0.5497441640915004
0.17132011801000954
0.35752789309555866
-0.37257508950757234
-0.575713087248093
-0.2985670495555932
-0.012177117098907099
0.2460411562855327
0.2281196754159644
0.0960888801564536
0.38096016485894585
0.4975376948266032
0.27439728610605235
0.09009218392400656
0.44139946195125895
0.2752460851076588
-0.09133834111707369
-0.2400438828104122
0.7273081554181053
0.1763883464704131
-0.1580566700977451
-0.28088434601202694
-0.21533082175016904
-0.2354916793047691
-0.3729691010718211
-0.38727550472678446
-0.3654781531364665
-0.06876714316094831
-0.23370623803453894
-0.2607323974114641
-0.17155785325329279
-0.125046729850133
0.11223647641424737
-4.979027318758938E-4
0.16893157172765916
0.2934885544084538
0.10923570569293958
0.39033979056061535
-0.028395316870704835
0.3425103406366663
0.6977426857735713
0.2752008881105939
0.363464425902208
-1.1656452648629112
-0.8251547776328445
-0.4613047454849098
0.06562097818198892
-0.3616468145480348
-0.8030420415472468
-1.027465533663796
-1.2910684507714696
-1.2186086102169296
-0.7809697180929309
0.9543540059626423
0.16967804939364614
0.11364740473934574
0.19408393437023652
-0.15036577939038204
-0.18711394649825358
-0.036559582684930966
-0.1329658213549827
0.6610784703676469
0.20945899978154095
0.06148878034649708
-0.36778266486645556
0.07051345075894498
-0.027916635503701204
-0.10357508474340327
0.39824999905724023
0.08555409486387514
-0.4610888814197183
-1.2597747854767616
-0.7208326393824024
-0.19098455790872065
-0.47081764474768084
0.15726418043419146
0.027704473276948235
0.524681328159961
-0.6043669228269807
-0.16351169603998916
0.6320078776049063
0.29930751284819274
0.3556299919495836
0.04411434070252539
-0.08244898299854102
-0.12288911863522445
0.06790349930664578
-0.06937633389473404
0.43130322053841225
-0.5183869860717787
-0.267719683802435
-0.021192624315150465
-0.2174925520653257
0.3143915609942963
0.45877045213082385
0.10223372480218121
0.4692184818876908
0.34380379557031177
0.5026480442861712
0.6546849605625588
0.0998080906897611
0.562146229399403
0.4645517585808004
0.300335384468462
-0.27903370518541004
-0.4078685234134935
0.36249109052487083
0.09466419769611722
-0.2985942639877013
-0.23618857471916788
0.17705448948655764
0.17256927624508747
-0.17500304755091833
-0.1322310717870303
0.10760974394568074
-0.7491802475200556
-0.6046395228391346
0.08052825012954719
-0.49672919130098053
-0.536151320280264
-0.4907830723936096
-0.44883517934274714
0.09686628859280134
0.14152468800352566
0.2725114026619855
0.04207502043076211
-0.1531445216034116
0.3663020550984766
-0.22781228147109212
0.12485440246831397
-0.196204752745947
0.09110560735765048
0.16540735564677306
-0.3661994884964186
0.02158789338949893
-0.028622164603590433
-0.3355477577379752
-0.2530416111079272
-0.002850386916906834
-0.6192536816954579
-0.09515543454026015
-0.058430942457356666
0.28689321667686485
-0.20012373535261216
-0.13353579416802194
0.07223676820363509
0.2430222698403676
0.06694082681006701
0.03814840726173577
-0.21871489130788016
-0.22955318008794479
-0.10552546767779203
-0.29634245277040966
-0.18862361918499537
-0.1010434382038869
0.0793828973545485
0.010021714357502036
0.3174756677526371
0.2396585489287249
0.23604629612327896
-0.13013966517653677
-0.0391663187273382
-0.16170809587496154
-0.005432314267312161
0.17577583698136834
-0.1228274912618686
-0.32556302975105633
0.033888494645780774
-0.026298182952793004
-0.39061683658839874
0.27361984075505263
-0.011174347507009996
0.04202579278210468
-0.05127421892972337
-0.11258019515044898
0.3410178036636599
-0.004272668717350294
0.22691660494848975
-0.2531723982910642
-0.0964462629206503
-0.21169430492826258
-0.3397006284332435
0.08416884115863003
0.27389880612316236
-0.009257945514298128
-0.16780593444455427
-0.0037633925459019365
-0.1615317128439192
-0.09396970224794736
0.17572914955729835
0.3296753297256423
-0.14659528122125642
0.16895917624160206
-0.35990292803897694
0.23812722848323414
0.08334830659987102
0.12634550081753695
-0.28219648964833893
-0.16623217147100988
0.1785877649610885
0.027079136951205413
-0.17624930775303804
0.17532776933282496
0.03287732861027135
0.229096411573119
0.15593799062608535
0.13545150174721537
-0.16581054296669856
-0.22504434987244304
-0.16725365003464523
-0.05095573893303791
-0.30217756440079135
-0.0826227636912175
-0.15317176700466387
-0.20487450226785323
0.3901697174505945
-0.08373698914848711
0.13813432890265578
-0.3068270997015561
0.08817492439143954
-0.10979595028920369
-0.05724436173264799
0.013744694288561073
0.31243597041740734
-0.14549449215616367
-0.16466129016263187
0.038552731805886455
-0.010561576570241182
0.35440536322505034
0.18828756519870157
-0.3034909202524818
0.035228508819326376
0.17104541074845098
0.06829005677101571
-0.014828222594767097
0.08067251266671976
-0.22064443782670656
-0.07414712922258128
-0.1822704271318607
0.12196646698884582
-0.13041114817464003
-0.06152592812393041
0.10956045716148251
-0.20443061067946033
-0.12174268949423275
0.04251648133400714
0.06046022589948546
0.40936221764817654
-0.2095213843429872
0.1947346431948348
0.0034482371867229377
-0.4125621430475895
-0.07626768658568753
-0.012360696635520233
0.3318959671316277
-0.1713181938960838
0.011873291431186522
0.3237688165123813
0.02704750170027443
0.12680959304212377
0.08723224947892982
-0.21444281787957464
-0.2155586022696722
0.1766056633098214
-0.16198306394172332
-0.13330250923790501
0.2394802263202899
-0.1721201708843494
0.03655777571315052
-0.15667379654155075
0.17147763806692873
-0.07658631389064732
-0.2847490701459868
-0.06199566927082653
-0.05589846893089924
0.16496913751573802
-0.025058789652623384
0.19886114070829414
0.09554526566591647
-4.5540355654863216E-4
0.06422943949957598
-0.4576847621831607
0.3447973597064965
0.2112178408910501
0.13102168777818263
-0.3033702453504159
-0.2152395118659366
0.20391315400039633
-0.3625312429311093
0.36499451778756375
-0.0013807559239335365
0.11725928720943923
0.0013927755113763423
-0.1931043074016203
0.11927471127058771
0.17509920286725206
0.15733053752243834
0.08248490152578103
0.007681322645638845
-0.09033985507635381
-0.05754463184308876
-0.31661839783281365
-0.03868981594165802
0.19619918281869578
0.3721609921122402
0.05241909161250933
-0.014724435959107883
-0.13177093073525153
0.21415982385267085
0.25135245126651634
0.21472445313511745
-0.05139823282824901
-0.09984482437463205
-0.23559637892045293
0.007768914497967335
0.05671521386366424
0.017305660911377856
-0.002382240062987229
0.3010370930973732
-0.1656991379335545
-0.16937812731841173
-0.1673733354933961
0.008964288370500801
-0.06813239388379261
0.10932892101338748
-0.41924213495584084
0.08529571639831063
-0.13756249545671498
0.1367620653406104
-0.06947849282798704
0.16586521029539905
0.3765791262706324
0.1969935440211752
-0.06272211384896013
0.027378358384335874
-0.07349692890700402
-0.16212998817614335
-0.06754469821910682
0.0957075744800805
0.0161560687432747
0.05539080072068741
-0.024998875808745047
-0.10692198478621394
-0.0038581428746037242
-0.3103851388912523
-0.12699126580788614
0.14215382214078295
-0.15428564633342118
0.04543424748664804
0.09611320595189854
-0.06354860854063026
0.12212587416165072
0.1013740239038177
0.40966071506019247
0.14730659429527257
0.16548932409092654
0.3298977567749319
-0.02325228857039671
0.0880747105832212
0.33379512704320297
0.01623240531722124
0.054774985838970405
-0.07173972897502381
-0.36263304549718645
0.14049234980611855
-0.062198323599374286
0.17476824823500198
-0.2740557703831437
0.14273171924241432
-0.16741296398068523
-0.10950268578158176
0.035395859949566705
0.39103343918516753
-0.41871744997264326
-0.3150990607095877
0.1888847265242212
-0.29469072988690725
0.03800368379825847
0.1428736618849081
8.343884968784396E-4
-0.06666374179492843
-0.1715380328777581
0.02470384949068955
0.19945778537761372
0.3339259595985413
-0.2662101054707324
0.21662618633426103
0.2073705722867831
-0.10470071570511903
0.14573673519544234
0.14621412532294398
0.0028444182675104444
-0.18553425002168308
0.26759918877847094
0.04568451397313766
0.20807024903024743
-0.3275905996883761
-0.04752886920663156
0.16353462581927813
-0.24387232490300492
-0.28791948153893465
0.17890619082666775
0.43769958824035754
0.1340415536132074
-0.09830039583244737
0.1360271538118262
0.20087993818621275
-0.3909597936867566
0.014412779516674273
0.13557733760169463
-0.1299908210236834
0.2927647920283759
0.3070063708436205
-0.00876121049634983
0.1479024093834783
-0.09502836420725672
-0.36268228020084414
-0.03590853332601414
0.27307561577245476
0.05927412032674071
0.22227756215763694
-0.36554716479774696
0.18540205372611915
0.1523676158427386
0.13332403996917924
-0.4752705723967866
0.30536928929683227
0.010207098537546744
0.1667968910092914
-0.033424604191058166
0.027582324536990856
-0.39476956463104357
-0.23367004243560363
0.3967338757425795
-0.08252324487427692
0.09134083228238585
0.04214283528410497
0.1910229215819894
0.3453060949757513
-0.26680716160686296
0.006267493316214135
-0.022757670981101083
-0.06045058352934975
0.025540946561448674
0.16283316650206642
0.02900209599674501
0.15473840771946298
-0.4658061106347413
-0.4082912655265945
0.13325652502606442
0.07117216044634932
0.14953045850836094
0.06401576797496315
0.1179396066396785
0.15161051071772516
0.00968186409508854
-0.12033103797137915
0.0684892305783318
-0.27481499834593004
0.05358121736707147
-0.07739514167328249
0.0036424229625064263
-0.21340799163621435
-0.5048042060978022
-0.47925103860132207
0.23064690360248155
-0.5826426807185414
0.16600174762515518
-0.2841221120567076
0.022790696697378304
0.26310412454917137
0.05517008677108392
-0.009768305349955606
0.025454672170316245
0.16284041152180273
-0.21662789233165647
-8.875568582831565E-4
0.17569915709189388
-0.09961187211900245
-0.2503946287022711
-0.11543126460810937
-0.32519661328845606
-0.08942973863125787
-0.048931468645024206
0.10058629713588518
0.1174371417645951
0.18655129267465537
-0.2490896301601646
-0.23724768147513184
-0.007215294996691365
-0.02637588119164081
0.17193164522455012
0.0834439569277228
0.35783961637149275
0.0028289951263068833
0.11360299689642527
-0.01395162468857465
0.10878202932921373
-0.4001857251407384
0.0017637429645467819
0.3592920552736578
-0.20228970417082093
-0.19068288392135357
-0.09636648907258655
0.3977539364505334
0.1473523891585692
0.0046429112584614254
0.17966549764866824
-0.1395595503851641
-0.10630786637421763
0.15203402702485047
-0.215652701130152
-0.12118893345668039
-0.46903097544268735
-0.08422028898383566
-0.03302778911346985
-0.43843764025654636
9.09629729880696E-4
0.05346364179082841
-0.04280604866832877
-0.2911953773764897
-0.010962474873002254
-0.08037557392831106
-0.3196074305790795
0.011841253196786618
0.10262757633178543
-0.01026707389470723
0.09937925075266868
0.03947892472502181
-0.2638617938486845
-0.019045526725760514
0.20387405500390626
0.05684949868852947
-0.2686016142646374
-7.332734848782378E-4
-0.03604645620376681
-0.22374643564080665
0.21463864671948896
-0.0753775198772647
-0.07829278536817447
0.2720282350605044
0.24140169274286902
-0.03522765280863915
-0.06977883503284159
-0.25625189040775664
-0.04985128140484796
0.1327837867270782
-0.009353719280400304
-0.012761456298638816
0.14839566907538207
-0.2122281171947636
0.24593422736426432
0.33791937990057813
-0.014725391320457006
-0.04620175680818103
0.2540018046002023
0.17873880629599403
0.1675141010772104
-0.23881202967012538
-0.027921342726191026
0.162091131788357
-0.19976951654697417
-0.2099132994443875
-0.10375307534495726
0.38483683629570625
0.09351104017148965
0.17138969340804716
-0.02122434645271832
-0.09450100382376594
0.03996470412596054
0.2458087995420634
0.16635183215629976
0.05995023898340181
-0.17120023533499407
0.11281851017468425
0.361268405710774
-0.16434257034756125
-0.13585291692505894
0.0040113090502970124
-0.2811313507064471
-0.02089859998091957
0.259992711859309
-0.05892660391081635
-0.10879460242774797
0.041366397161666485
0.31130837467212624
0.2516743890516508
-0.24555592780760818
0.05055900118059484
0.3247683669723943
0.14033145768881217
-0.0364020392108466
0.0038601880005309074
-0.16592190707894655
0.08649841960537956
0.027213975948527275
0.14625365006521215
-0.16276936424107405
0.20217384776212655
0.12584481964610292
0.20048450064574613
-0.26767848773708947
0.13333777536783686
-0.012972885202695997
-0.07574687520418943
0.07449648538920693
-0.15776827133716262
0.04844582561335064
-0.11983183068539088
0.07560644759683753
-0.15564847315690458
0.2109983343693279
-0.45612426518187227
-0.314243540871213
-0.03076656080519455
-0.1997353707417766
0.01802448824221177
-0.007320901523236019
-0.11740688097222299
-0.0227170435937468
0.012413673830976975
0.18259790713136914
-0.07128115412700912
0.30792253910685774
0.3622230271129496
-0.3404726339737084
0.39084720623784724
0.4563304047723386
0.07631318277844351
0.09414066742865372
-0.12612771744035456
0.37748564849077926
0.1412486755530503
0.16904145286561786
-0.008160611321672303
0.02357298007143842
-0.013675366963793525
0.33888590213760383
-0.044444944834595025
0.39948148873428324
0.1518684304348592
0.13891670810746262
0.06426686913263502
-0.17851059765576127
-0.0776332813497433
0.3294764875018199
0.24054505656970993
0.033291716240557205
-0.04120769826452236
0.33829921596317053
-0.12238214877996181
0.08052961780426787
-0.18906740387161827
0.31166575631550586
-0.01690714091072726
-0.04184266758810951
-0.4229068915890268
-0.011569482400237686
-0.15467288320090813
-0.1128201411311137
0.19929786245445713
0.031288093381563555
0.2278498061427897
0.22196827785372633
0.1526879113049521
0.05813455415593774
0.02341276742462641
-0.11004109569342374
-0.1525196837122076
0.03394937209649879
-0.15594716699675282
0.06542678265390194
0.06981039797162061
0.0326432619923059
0.23991864860740486
-0.002385069800198609
0.492496657578742
0.29467747328989147
-0.2591395436255056
0.1624470936470852
-0.07869231011666732
-0.11142142084206481
-0.26752474502681006
0.020845738444571365
-0.06499992430933303
-0.1313284592953779
0.12070708762932535
-0.04317564170287538
0.04758313857691443
-0.28013595208061265
-0.04802297136493347
0.01178357210910811
-0.1432882166036915
0.3918646428510758
0.017471544692885744
-0.025033181097816222
0.3310278503617289
0.06853061562597569
-0.3725524952474688
0.274707514235167
0.043441806425884466
0.31264819492117196
0.29626104405578857
0.1384933087948853
-0.24799332073326316
0.007306667214735669
0.24801319201755426
0.29819991620079767
-0.04959729439425965
0.0572829102839326
0.01961265360405532
0.06549338178518012
6.031414470363779E-4
0.0270443777528955
0.1574799735680113
0.004077189075653669
0.1497867453059437
-0.26343114813045737
0.22751723098846577
-0.13055816334050055
-0.0970862129408876
0.5993133074055272
-0.08888327631402601
0.2120575968169397
0.07718916711329898
0.27782060609700826
0.1469975661380711
0.17226169234194474
-0.061053800304387895
0.1596006772614772
0.45715632293122327
-0.24591350855645097
-0.1481773256006765
-0.28393868672474587
-0.39657350096756167
-0.13020868953038647
0.0979368063211729
0.2952736163793611
-0.11631579536540489
0.03726363233933622
0.07123381706033709
0.20476437307907364
-0.2892306749176447
-0.3646321564903405
-0.12481973455408624
-0.3128115990345198
-0.24787534267433947
0.08831840657995621
0.11110673440740103
-0.01684483831867864
-0.21095150645686528
0.16295871140151766
0.2253482704930887
-0.1971947650183135
-0.152206057546747
-0.11132141916883559
-0.08913743079840893
-0.07506606040628772
-9.999690541065496E-4
0.049952826102886067
-0.0630275465211118
-0.014532314043699585
0.07458612161060947
0.0812343724618661
-0.09211651395372267
-0.16501867385851093
-0.01804475391096037
-0.0633123111676581
0.43230064038061794
0.32941168082309447
0.11445636319052728
-0.1638275506501439
-0.0934649718823579
0.07149453729668073
0.44809356778930304
0.10539246877117002
-0.12492273246175006
0.10872578086899154
-0.29109330710251097
-0.2515222708264812
0.16960387873296293
0.06173964472627246
0.15408146058428207
0.10537828951586758
0.07119976990493242
0.3489231431439572
0.22180665033587987
-0.25382343718085537
-6.771432124524415E-4
0.17544674235588656
0.5875979790783789
0.1937226635822464
0.0708918390742481
0.3286052640833686
0.2276529248770036
-0.09876187079190961
-0.06625345190372535
-0.2532523514587192
-0.16349479371854525
-0.06969159905310715
-0.3068680231186889
-0.05266392171032053
0.2156015979759927
-0.02507062917692567
-0.21928616817616683
-0.2684046307946909
0.4151096878941564
-0.10286835455111415
0.09015743127027541
0.08780580449655981
0.3623157061620262
0.015706326042493262
-0.029546103794851106
-0.15608320542844717
-0.0407686631597828
0.056393711591184295
-0.3140168568843298
0.09384525229774345
0.050625851628264155
0.12508290340187153
-0.43275395236411063
-0.25406452946734376
-0.12339620859999485
0.33499726328216317
-0.2553408348637865
0.12755870709628156
-0.6109183134810842
0.20163501918545995
0.12319456068594042
-0.062175464515172155
-0.01799659238842674
-0.09857889260740507
-0.17218900895654127
0.26110858454144187
-0.20990343850617035
-0.4647321457650271
-0.19085738497275156
-0.06442867872923762
-0.0549648910295264
0.12221843686939336
0.20527435589255713
0.283938425842232
0.1508302176279143
0.3003834390850867
0.1469827114623917
-0.17179477282556838
0.33056584680148937
0.4617603238765141
0.0031775716879534305
0.06531557457455393
-0.317372264100135
-0.010454414478122905
-0.0038716452810513046
0.26704180124040383
0.1493107090967506
-0.36957191540104556
-0.15432861407705395
0.013072385864959275
-0.17349193023977885
0.4285056030059197
0.21610798243284912
-0.03366805793154685
0.09677558128962377
-0.17376330211890406
0.18223424283422773
0.3230944634475017
0.07380900600582717
0.026910691338377292
-0.5348519817415514
-0.058314638404495106
-0.2934656602342473
0.18251626693764933
0.2313938801482967
0.21988593980552296
0.49926025068496493
0.049844064719694214
0.10713782483360315
0.13902779226970874
0.0028603851493501017
-0.05796163164231344
0.14277402873943568
0.09413819842939998
-0.1612489093915827
0.03537427255179763
-0.0845959011893217
0.04722900400632273
0.21252497000480197
-0.01359556361583443
0.23053040336815378
0.12428562519719162
-0.15851384888513587
0.309034749861465
-0.22942023258897964
-0.15208518843901928
-0.09040647101121639
-0.18533469611478237
0.2964235204159651
0.11923115392776402
0.2522014182723793
-0.14174753979049942
-0.6011784817826092
-0.34046016820413766
-0.10122333030947746
-0.1012930336540717
0.010558790198766965
0.4058239071815097
-0.3468717831150967
-0.12567869499778825
-0.25535575461956994
0.24411935949237917
0.11654153100247087
-0.19965304137482065
0.2364189246498584
-0.20782508963363738
0.10314701396065562
0.3963249133945779
0.4185753650009293
0.1072014820975134
0.006907312914275674
0.0921387380845704
-0.17647168472208527
0.1274764010839018
0.3096141370977379
0.2536290331891598
-0.06598585637350332
0.12854745804421314
0.004084409771518355
-0.039478982158237017
-0.12248047131513261
0.06282151201757989
0.06733274395454895
-0.23353150517442806
-0.2484282153870137
-0.1217502296276114
0.14533108615883092
-0.001814782333503956
-0.15418610776591454
0.0786678115540579
0.08347162124809321
-0.3358346302784467
-0.23548636111847993
-0.20941472065798813
-0.01944093510030162
-0.022611765108835787
0.2997084337861453
-0.19069625807162263
0.01415451990779907
-0.06275749010206853
-0.18198473325465156
-0.3910076661191225
0.43186929509638683
0.41372796930188466
-0.06114408824781309
-0.2342358993598572
0.06739159905892465
-0.012440714221035907
-0.2665099412179436
0.15761448276065324
0.16945743291044713
0.13024750176693473
-0.013221309528504411
-0.28565524373520984
-0.23031215579572373
0.014983623215009553
0.07010381684083222
-0.19980691677328857
-0.2399426608812132
-0.0302823756671551
0.42512736078826646
-0.057788102548879075
0.0038263735455849966
0.2894392007604199
0.09796163439538609
-0.08404333187072621
-0.04325269262064611
-0.16109200037383514
0.015621369225386931
-0.20150045936751904
0.17203676399057993
0.1725950567182516
-0.10377125513669393
-0.07055512331767375
0.048887098952927546
-0.011582296559275021
-0.5462178284963694
-0.18280798830586037
-0.5385739309273702
-0.029772923853672563
-0.4136078601312312
0.08846543799642585
0.015810533108378398
0.04124404806978387
0.3744007488892244
-0.0973421089138492
0.24664007060976223
-0.2962720626652442
-0.272965359984955
0.16238189505057596
0.09888626281726089
0.15725351287451764
0.24035783439479821
0.45593607763981847
-0.5755742641063232
-0.35661986104902427
-0.020520852445703983
-0.051638719889692125
-0.01783673126443554
-0.053779875221615626
0.3667370550552312
0.15801691909796373
-0.002957948529889044
-0.12592324139826053
-0.4140524564489939
-0.33347155285297536
0.10921386092377704
-0.19079310489196186
-0.0040336593259786
-0.11798025927940702
-0.2358640661769182
-0.028902908525656027
0.3060353137125914
0.29847741292346225
0.2525122357866384
-0.27072628436477625
0.3355935921042165
0.19317971722339727
0.5597619431263181
-0.08823879092680961
0.5074627789276855
0.022696852045013587
-0.060852690311236184
-0.2828312450752878
0.0712913538114085
-0.029646681780779286
0.05433210683068254
-0.30862937347525765
0.07996736945200869
3.372172728679277E-4
-0.1532395706448482
0.10778590744433278
-0.18659749031211562
-0.5201313941222533
-0.3292837681919278
-0.05660913118274389
-0.06131681228940771
-0.17261272931257643
-0.0246415357319633
-0.16431625389274157
0.0830000491194101
0.5758136660046564
0.2936141208507259
0.17327927758381528
-0.07024210557931891
-0.5927164419554547
-0.122369808310407
-0.07788470633149573
-0.06631961582455476
-0.027895572564977527
0.3294068948688811
-0.010485874132735959
0.1468279657251173
0.18466001107330077
-0.11886487686068771
-0.10486711937236791
0.0732551654136602
-0.28844281073008726
-0.27781012784992054
-0.1608304130115191
-0.13651064393567144
0.15547119188249808
0.18463269987130132
0.18051560949229084
0.05506497817192821
0.18146899909600758
-0.19963418093034327
-0.07243891626167223
0.018457122751003804
-0.06071547759552537
-0.04679473259638374
0.24981821882827088
0.5976679622735003
0.5502509719155503
0.2343965097575642
0.5189625094418813
0.4183511155294252
0.28685352516720786
0.5231104047243191
-0.013165880895227527
0.01359397092935367
0.10016861689336452
0.10175381984046249
-0.0766947198835513
-0.20792861420442765
-0.17871007751077483
-0.20396950292025792
0.044475689488176796
0.047586870598644394
0.18273752383292174
-0.0968530314867679
0.1548341713069621
0.16703198377685044
0.08524373572894665
-0.11566073998481935
-0.2771199351279704
-0.011991024539081964
0.48624141497527035
0.3521388930165352
-0.2588182843703214
0.4546047634605355
0.1649199327936299
0.3348683351856076
0.327730821241684
0.20971341088925724
0.03598657191712996
0.2798617024345201
0.17346416639829232
-0.05300627781047449
0.13715495227551242
-0.260075106902618
0.32103478489477966
0.1593763204778592
-0.04177697610693246
-0.06940014154441165
0.11205278677570644
0.04717775777099783
-0.378658605313473
-8.515001786531957E-4
0.08318639809074177
-0.36439744048179146
-0.33892753872803055
0.06907395230383669
0.055262525371954925
-0.2542443503453114
0.14111055570925707
0.17257764286659305
0.1374587210777764
-0.062151578036549075
-0.1736431824864109
-0.1901417521095371
0.2434827143768172
0.02552594121855024
-0.25305390177753145
-0.005160851316201973
0.2868108970089009
-0.25412006226934375
-0.2678797972857924
0.2049661985379502
0.004432219988944799
-0.12185151652561962
0.043949485145066886
-0.04644258298483408
-0.15315475030750722
-0.2893375006233797
0.05477848065953729
-0.3617962243913187
-0.25715903149337904
-0.035592649135493
0.34947678498139895
-0.2125591151866699
-0.2137897809146885
0.44981741423309746
-0.1762634753727978
0.29339418660333666
0.11339171490394097
0.20849938751122263
0.061954877513302295
0.2550640652911806
-0.08931427403748704
-0.04378773884853178
0.3462360565827082
0.06353207485632482
-0.3822303551379915
-0.49592028526583604
-0.18929440776957984
0.01637308920090539
-0.05628566001523996
-0.05250221613829352
-0.33769439599766427
0.2704575733652685
-0.05999327412324139
0.23397196555847852
0.1095077383818844
0.11198714870236906
-0.021247735339047384
0.20291255731759392
0.03127830091275778
0.28106832652391145
0.0041848786439922375
-0.042702925182402054
-0.1488878987471108
-0.3253704797018658
-0.20661267677891743
0.6376691313626722
0.05022624549094071
0.3174959432095736
-0.10913399876232545
-0.2587275359430866
0.007476278363851879
0.23430342951792751
0.06058695888872967
0.18194631080375115
-0.08818671024937581
-0.04882479346795021
0.22922674063907422
0.059369397863271695
0.2866520576812385
-0.21027328829910308
-0.38448320957311916
-0.3263540845407877
-0.42874059283002036
0.1706118347052469
-0.2828708937688226
-0.17701582862271928
0.09775096707444675
-0.04631739098933538
0.05150912241873383
0.14588882003176337
-0.3170516997796804
-0.5159526214146785
0.08494058878274294
0.04891223996930225
-0.1433143512802338
-0.014823584088391512
0.014003116395274674
-0.12072282127658732
0.1457456600409221
0.21368092003269834
-0.1657994149883911
0.029283522577216736
-0.04521277434046308
0.02222094688671463
0.04221492555648104
-0.4850224792181751
0.1744454636250855
0.0018857051834654309
0.06761623157560315
-0.4175914574080026
-0.05231410184794025
-0.13809023636206155
0.07405353011159212
-0.007364378223500152
-0.1908485506041207
0.3890531942801475
0.4052149457092583
0.24935643085719333
0.336975477979223
0.11136069857252807
-0.14738352104037714
0.009753200686253932
-0.3231249219512025
0.07416873342991444
0.29427637373637144
-0.2344237311370975
-0.19425247365655712
-0.048576830580237707
-0.06622375857746045
0.04675035436823969
-0.21929529075440046
-0.0033168865058107104
-0.23938746715133732
0.2224255069303586
-0.06607580893441378
-0.43540230768443927
-0.27488967170125167
0.20786330016100601
0.10341011145379005
-0.04092131919846309
0.13681612501505447
0.02779489097067723
-0.0568562869928571
-0.46265647642143237
-0.12425797994175669
0.08020759881268799
0.1919701365899366
0.052226590405883205
-0.15392907236517597
0.02373286892874813
0.4120794349650318
0.025778305045656435
-0.14331182761391895
0.02421143296926625
0.2822209939642351
0.37712812749407243
0.03371298435582143
0.12933357563843884
0.3782710155728524
0.014144252718637229
1.2133737670812872
0.5625191654021787
0.5453961561548728
0.523818242727035
-0.5088422917844179
-0.008974900068523164
0.053098985245143206
0.280631196350069
0.06578611243555492
0.11029870967718074
-0.12589925226860343
-0.07696246514737644
0.07713705271162807
0.28108394042274276
0.2671214697769329
-0.3546823676215683
0.05802809118829793
-0.1779453710426993
0.11713850010752624
-0.0541316144609579
-0.15168228695544625
-0.2591610367124781
0.2780756255659053
-0.4414254579939957
-0.1897598574587734
0.44208774947439894
0.3983248988749846
0.5179902905151877
0.23910395546670116
0.21610318390222175
0.1495633556731175
-0.4436540488896161
0.1101733331474681
-0.23752222180308855
-0.10341184347703072
0.10342449254702087
0.12631419375073435
-0.026730258970452905
0.08667116508596588
0.16691915338893837
-0.33490700847483096
-0.20697697144719257
0.19508785999039577
0.12405058212003425
0.23326150076824825
0.09915027606181201
-0.4120489391358797
-0.26946758336684934
-0.5309009309498686
-0.5527463415936723
-0.23035066347450334
0.15848851752185747
-0.2793444885712017
-0.21272281197280032
-0.0959904683950123
0.22840415457650098
0.31107765068181936
0.10349871452951859
0.38478027688166166
-0.021339175116790985
0.16949700016761754
0.13962139845468077
0.08237429308392258
0.23772767783261395
-0.24784766641271497
0.27599660028340206
0.2845052117825877
0.22440342392135987
-0.08555955114319438
-0.135117331890129
0.07738170869890179
0.050226116222473145
0.21512477179273665
0.11687735350630493
0.057847192041215655
-0.057061532902107866
-0.02084601891687024
0.19395504395393015
0.12361198155423958
0.07175993120674017
-0.1866873718640193
-0.03153891871008262
0.037798538076503754
-0.02956880326310549
-0.3786742241752529
-0.10995436872747541
-0.16491905679325644
0.30362790299178055
0.5306984909436996
-0.060041156953087566
0.12345623539945579
-0.06262172514767333
0.09129157320844423
-0.1936792715638029
-0.18907428046086552
0.0671854364185101
0.14457589849800667
-0.07940235381514034
0.09325157413356644
-0.0832556504972197
0.0764155690363105
0.2450520620854264
-0.017589074130045023
0.1294503459374414
-0.02681478466176355
-0.2790461339257233
-0.04914127997004611
0.23388134139127584
0.1500855723042148
0.2592645578304581
-0.1982483118804888
-0.22384002567323744
-0.28207278107346967
0.35899665462884434
0.10887968955668524
0.3227260319767466
-0.5937253687208701
-0.5376635187720731
-0.7683222029039777
-0.49251259078901444
0.3651859043421929
0.07517171052271959
-0.4657944783183112
-0.5901494132446525
-0.32279135296506084
0.18087209949849745
0.12166827386393365
-0.16667913567044912
-0.20548921850225066
-0.3558224873635913
-0.0884241414815768
-0.10484424096160218
-0.06808023187887849
0.2831747523427735
0.009864180778670437
-0.20122399027259236
-0.6341283111685787
-0.00445530589865063
-0.2195220563518704
0.179148738637935
0.20287031632984423
0.32784257922988985
-0.5368987752010653
0.1011039641913737
-0.4943164086402009
-0.02601529829813931
0.44781044796406766
-0.14471074427080308
0.14968699033102947
-0.060351761077592665
-0.007122244391080824
-0.05694472014371886
0.38302863270270276
-0.007758649452938545
0.1349795292144814
-0.37184073903996095
-0.054379347523894915
-0.2671815976157086
0.2899552395811639
0.2296453003760785
0.19209918771326323
0.07302986065024619
0.07065210888182956
0.23433310829434276
0.12289409910128188
-0.09176411482991512
-0.03672500825929269
-5.853113607495913E-4
0.2742222786615512
0.10435500416843042
-0.38426798083672903
-0.06863757413602795
0.10189872768061137
-0.023349858996394367
0.08218968320929611
-0.3592547289400672
0.03939436468270876
0.014120518946782458
-0.06275403279158132
-0.11324009196399411
0.11783889644828176
0.025447064575179316
0.03850719350673622
0.10172170752857053
0.04708349503704774
0.18128304426932698
-0.082318075293898
-0.2439549673816809
0.40290024393785834
0.21996100555861625
0.23035908234487265
-0.40351312825626834
-0.04207764977738416
0.34849850842449265
0.11401235696052717
-0.22742959766605492
0.2425780438588707
-0.023657535637684624
0.10284078477145445
0.0639304905045912
-0.1879171849699256
0.13666975270253154
0.2895218231677013
-0.008523877307523716
0.2610939028055053
-0.11689745212871767
0.15306687067211938
0.17783969688355056
0.2992295870538763
-0.2783503470208079
-0.14984192971656957
-0.08286553466161566
-0.024978428005353617
-0.5240500768796597
-0.14933872147745553
-0.5961991973814671
-0.28444000625324345
-0.03361883172076634
-0.042445234886102336
0.06921031333958694
0.0864709729518662
-0.07033183124493868
0.022477552995047233
-0.16092526662519707
-0.1748989176780308
0.15543427590361902
0.1289681422165766
-0.03583281772221732
0.07062836570847529
0.11464305792883354
0.004645978752122963
-0.22075158552834598
-0.20651763109488616
-0.24923316861626404
0.10879700496531312
-0.15427343923668602
0.19169458312846155
0.27519404936541203
0.2505594344956542
0.14285942434623808
-0.08675335161789033
-0.4487547993893201
0.012659606655495243
0.2562884830918439
0.0345457436231235
-0.014188952870969464
-0.10091593129210533
0.08704213584315326
-0.16908724226612046
-0.21846962951005897
0.5893986802340638
-0.2579185569800079
0.10852966846982835
-0.21364840748044492
-0.5463913140763478
-0.3803177121691983
0.22665750228147363
0.2658069434702081
0.3498393528747512
0.0547799542905807
0.10485140513933223
-0.13852915552664702
-0.1880150207969028
-0.2130835755645816
-8.003517951842062E-4
-0.3522233349787841
0.16250372935526292
-0.0010232187400700857
-0.09232785869315338
-0.11560200555232475
-0.05008571187026688
0.09256841958069972
-0.14098055819899932
-0.38802673198591947
-0.1437198896217718
0.12521755635039208
-0.203275096824722
-0.08760117890869812
-0.2992639099398806
-0.09430205907439933
0.317320973581856
0.16793744246490955
-0.006318449022060696
0.10879852834874633
-0.25773257212912515
-0.023493436074621916
-0.13529564486331194
-0.15097836233533865
-0.4568730539030717
-0.5949262915821918
-0.10775963313015618
0.002012011462405014
-0.38391785324386496
0.28568949283622375
-0.16367402071128218
-0.536683858050852
0.348296784930628
0.060773006362023346
0.5163404153720976
0.2470013760198035
0.4280045426621569
0.5080743084324397
0.518978291213595
0.2211219703076025
-0.02653442444394566
0.4130806053207575
0.2919020913673997
0.2131204576856442
-0.08484451407707892
0.2985962582593015
0.3471901245570965
-0.1277728447781918
-0.04773857242956867
-0.14026313025194026
-0.16886174273440321
-0.12167564052631138
0.10709078658902152
0.012638601579266174
-0.12482074308560867
-0.05904064641165482
0.05224441649152545
0.3087085093298735
-0.06147368020350946
-0.21998983171868347
0.17422861255365238
0.047695851295743705
0.11159906586005282
-0.11428329415988943
0.18206699217085312
-0.19055141438702203
0.14548979212626412
0.183394373465581
0.11128702706978828
0.3641440096459645
0.021836871760078917
0.37900229021184023
-0.24974967314565164
0.1316594456767475
-0.2055736193275813
-0.06319066414820611
0.21450042949265774
0.32213981416433674
0.2908986380776746
-0.18855802285969778
-0.3186408174061548
0.4711889862601869
0.46064125680870455
-0.017055173706098745
-0.37436462209235594
0.04936080530365306
-0.025095706947229828
-0.06781055154531218
-0.4755400850985119
0.06946264442745997
-0.03806253440103114
-0.21160648595800893
-0.36728378767338415
0.30943027132619605
0.16843427170914388
-0.10182397845285868
-0.3425139064206381
-0.13961111850303673
-0.03080960528962346
-0.20742482488803543
-0.21964103133087104
0.21849416778500294
-0.368300816233098
-0.08160654353298394
-0.2630143522834277
-0.3394817340754601
-0.12387000698008324
0.3108357810496949
0.4323103179841258
0.197503801074852
-0.12890938178031683
0.02391861353133146
0.39415003536076804
0.06106577143297502
0.24186126126132537
-0.2624000738921809
0.3690051676977255
-0.1629336343663782
-0.13661170136679535
0.16617183852213546
-0.422165579289847
0.1460108924935447
-0.42251979040269544
0.2858275845352191
-0.002828557333550404
-0.25105319884457516
0.07391888694860342
-0.4369163297796247
-0.32448342781564893
-0.19414874067999943
-0.04871315113576807
-0.338066246103634
-0.36057507860776483
0.10088913224670795
-0.001877259473916267
0.05175095158469399
0.08887084291883209
0.2528442636092319
0.14086554747790686
-0.06608341300520824
-0.02690065159585834
-0.08400630468351322
0.12535369896505053
-0.13381191850850477
-0.06511635348578819
-0.14840180496087793
-0.28838083916733626
-0.02601356758217315
-0.11037374969436195
0.1354620133651812
-0.0962215159846862
-0.5612288209143605
-0.12114962754707116
-0.25910178528295635
0.07456688116364997
0.40015837741054766
-0.21747061196955006
-0.11075643260918046
-0.16719938577445786
0.046323314549018654
-0.20660735793417215
-0.15211718571330732
-0.18285077559716817
0.25309918208679233
0.018783139511999898
0.18623839256806562
-0.2884357893749245
-0.03717331147400973
-0.04165298495759359
0.2555986504103364
0.027050781744504242
-0.10074710681399789
0.05784574838833582
-0.03899554190680113
-0.18551989915839012
0.08401477014260854
0.116947953118762
0.41543444235116994
0.10070957203659188
0.04134542645097497
0.1267598964097672
-0.08728208127092912
0.4075670559025001
0.3606793781359861
0.40213212180255226
0.08918826849481902
0.09534038099717972
0.25692860533035294
0.08263896669572733
0.3721999305814415
0.10004744863070782
0.310503306761264
0.40298590876419504
0.4231754938926219
0.18463314900785904
0.12929553666759086
-0.29207171534210713
-0.2056453591389684
0.043905688782797235
-0.21170375281858328
-0.22125830893837428
0.03285660897418509
-0.2615388025338533
0.09011678634794276
0.10357991100685841
-0.34957525732649003
0.03866015174962058
-0.3290809701736308
-0.1148351794132273
0.2079080700446052
0.24235856055076338
0.10764834800480597
-0.2507113775303424
-0.09133509331658764
-0.15464112977724156
0.05485534758101464
-0.3160855445238679
0.05928706401261475
0.10831858489090722
-0.05268196193948491
0.18975456445923006
-0.17781856137334326
-0.1673868774844696
-0.3532426250055751
0.035886942170106996
-0.08069899478123431
-0.052321821733608775
0.11682993729140273
-0.29758382344250817
-0.2530847630657775
-0.06417548571098636
0.15510528872992346
-0.1591878367553295
-0.17605897697789724
-0.31626879833887156
0.1992856771407777
-0.3908964753491089
-0.14747598323308775
-0.01051477051549232
0.18994163039771006
-0.050133429290895266
0.2673413846475152
-0.13679561729122036
0.20758985647717387
0.14728253171371422
0.6457397980047056
-0.03829169881144759
0.41290598144376056
-0.3636433786456321
-0.008845840032346328
0.10734862944195495
-0.13008594887063502
-0.08948491226501047
0.23220380257550707
-0.04872712944439645
-0.27592369506397063
-0.06133935681236776
0.3131421164056561
-0.12556778659302137
-0.09087595146544086
-0.3704183550556101
0.235681619293847
-0.21174031372951294
-0.2583535433756977
-0.30980111265632326
-0.252816325455333
0.23087857013054316
-0.3716568663383579
0.023381670443830813
0.002609554913825308
-0.3036926155961455
-0.26865625781618446
0.2542944365905004
-0.24420990505288137
0.04236403190668671
-0.2009100382952837
0.14445262323642197
-0.29939955373710003
0.36960596377059113
0.006479735962708763
-0.11222336938435515
-0.1585081452718862
0.031227528442207633
0.16482832004024695
0.0503685028052713
0.15522316536002828
0.21975736534586005
0.007833878720863075
-0.0912218011775498
0.019579681617100685
-0.19724677085351808
-0.10240134175973958
0.24004082432919424
0.0320934811911619
0.24884037161368444
0.10871243079963915
0.1800473539050009
-0.028116927746599654
-0.19081149586982002
0.03132825084331838
-0.05243990429729017
-0.23865822205519263
0.3186719022886552
0.18894396163188068
0.046830061424911036
0.15172273789097357
0.394365564341888
0.28985365266328705
-0.005017280917891853
-0.09562849070375327
-0.09078141156152333
-0.04949325357992028
0.18469202974279023
0.03714358785492152
0.2669714709859209
-0.19536411518793306
-0.20440989881002555
0.11236290147600776
0.3353266544678389
0.03640476726828163
-0.2033046486756412
-0.2516395250935386
0.24957959336216257
-0.08617229547797157
-0.3028480976074553
0.017757771206284738
-0.04869894143116641
-0.06121275855632866
-0.20616440454083249
-0.0950435450342657
-0.1792933871471371
-0.013399389167939672
-0.33887911251320474
-0.07122976812584635
0.0833114697361926
-0.1923412016951103
0.09160822717660999
-0.23213630067244
-0.13213628377876296
-0.3278751168546232
-0.17070199840811184
0.2044267166779965
-0.0620171478843618
-0.07416180675296973
-0.1741918671227352
-0.48706000188176435
0.16302702690315313
-0.14439577143412854
-0.2280145794033652
0.09900484627629894
-0.2200397740226385
-0.24363973261742264
0.17244614532340077
-0.1285292779083615
-0.1702372724967964
0.44063615227414216
-0.002775786829838603
0.05725464480252114
-0.3631771062547598
-0.07906956792661007
-0.03771399818477553
-0.10875660724694727
0.4144356991108502
0.06072280355051499
-0.12026916391259015
0.21626443534540543
0.17425589871386452
0.056286079770566155
0.059083470340282995
0.12687994177238243
-0.1945073242066355
0.3373338462568609
0.07614094157340329
0.06480220530819725
0.46911821508005275
-0.2243027614815515
-0.24741009242133716
0.03460519866504363
0.48129897915500996
0.3236648861790068
-0.017458859626294003
0.1546379002418599
-0.07329706557820029
-0.243551502995822
-0.0048326614390096605
-0.051666470506296004
-0.10962845055069932
-0.19009145500620322
-0.005515236129669067
-0.03303191826675361
0.04039097644265289
0.053018297372077416
-0.16667433269001566
0.05660322445270083
-0.15918858348252798
0.1338343990905156
0.06448033969829696
-0.20098581559872666
0.11452230982873345
-0.05049740240728613
0.45297006646827626
-0.07236691363006954
0.11319526236245864
-0.32027914215672926
0.3168128993928359
0.18101579721918562
0.02393358630759989
-0.011482715614480082
0.2421045462691943
0.04844328886459614
-0.21706743934991551
-0.08786407736328045
-0.15667564983584562
-0.03220062249567663
0.17580236354558643
0.0873599806270204
-0.13733408547692028
0.1403043534249236
0.05675462991286432
0.019533925792057774
-0.0653933229973898
0.1745160385252149
-0.003887284404419441
0.15954803212969673
0.04709306208364415
-0.11701602294077365
0.07812926425877248
0.12593741487281682
-0.11895454722878838
-0.09506376473150867
0.1761684112724515
-0.04380494056685122
0.18980891021272195
0.04703127685550973
-0.07591663890428618
-0.10457444641458487
0.4573330924147941
0.09381445618098305
-0.04013548899968194
-0.014805648201302936
-0.4071085678381966
-0.10331551952011442
0.15546481979873492
0.12303779503345605
0.14175164271040328
-0.0702489504099395
-0.11203085663568402
0.027526522983637183
-0.06809180727362346
0.10839495627602228
0.26933168527659296
-0.14424801028821485
-0.018587707538920317
0.009455257408506489
-0.34778334723297305
0.2581629121583418
-0.17696741865404528
-0.07393886876741441
0.028964688525498883
-0.4693881364062815
0.1022159883534259
-0.04041598687523059
-0.16164298442388933
-0.23197810963830556
0.08725355427704942
-0.06281082802626443
-0.03740835462840383
-0.3450165704167769
-0.21865171807884207
0.5379589351368139
-0.1087259668238849
0.14433218185901694
-0.0770284644038477
0.2041774876201261
0.5070902502086793
-0.12420797220889908
0.23653388031310826
-0.0285069062237957
-0.3508535126273102
0.1474173080189171
-0.08048426883724259
0.29611563094332627
0.06869437175561573
0.004682350358289861
-0.07311908592715974
0.07039233714871522
-0.28939148787854313
0.18948329926984342
-0.24862289501151322
0.20061999417652748
-0.2274465959381237
0.08962762387755195
-0.19323504662416358
0.47455904942522703
0.415988901221617
-0.08696628640197983
-0.35890933563883465
0.03606728445862986
-0.14714109785651677
0.08398122862199629
-0.0904019791974045
0.0714162722337578
-0.014072553129259084
-0.24491586052100744
0.374981352655565
-0.1615401776857536
-0.13412844594772302
-0.12488864643807934
-0.2369110714491067
0.047795504213051995
0.06534281840208905
-0.03605939471603496
-0.02747694614233774
0.3454789679159649
0.13185891843798733
0.4597433803010292
0.23909584154141994
0.021688044949784588
0.030729611639969158
-0.09956756130774769
0.2981432255943421
0.22088855703767785
-0.2464596723032654
0.20909129220150816
0.0038523052957316916
0.13472056273114005
0.12048375482505887
0.19454471184184385
0.017996879952128793
0.12171920929918162
-0.17306919325012937
0.22705329122386853
0.13381999433405506
-0.15317133720934129
-0.2654079921242975
-0.04590396698034173
0.11098828685395606
0.0037130467557644087
-0.11023419123390477
-0.3661766962356208
0.04492403207863044
-0.01979448521885125
0.019942977929249484
0.13098158967635626
0.3957903364848938
0.20591821676700445
-0.30260692185274257
-0.21656609039708755
-0.3175178437340541
-0.06463064047434072
-0.03944151763820431
-0.034971160234961926
-0.21749309978230033
-0.15716441875068246
0.005879787688374201
0.03232581537787558
-0.07016310654007493
0.04143026397171841
-0.3089886912260249
-0.029434761488472377
-0.08617199866350965
-0.07469902864811033
0.10445778810341673
-0.02157144406333658
0.010241590930872447
0.14965483253381395
0.18155024211655646
0.1134463315208788
0.01073702762674237
-0.07911197835549097
0.09888446543943052
-0.001868718243068086
-0.18777849291277243
-0.03334705121653387
0.041664743266971685
0.1584518189482288
-0.33132075717873133
0.3170144383446929
-0.5579149940870982
-0.3282885893615135
-0.08912963615620739
0.12861387858887027
0.08534060345191763
0.1238343328124813
-0.08678433037449795
-0.4844581117870778
0.1862154842509697
0.04095427337496319
-0.0527162397152287
0.12977957688674713
-0.1745749625686727
-0.06927789619016061
-0.14216860447388555
0.2303836983428195
0.13474339220170709
0.060396515417225884
-0.15736368575544302
-0.05293085928926255
0.18022681086351633
-0.0018901911158283958
-0.2226813529229406
0.4117051383581914
-0.15114926493170144
0.36253094114737694
-0.36429243084909346
-0.08080151882110435
-0.057908473415475184
-0.2708263254399866
0.07279554776630459
0.07911377460438855
0.30985579330125057
-0.07022465210956447
-0.3205405143592612
0.5566977653251262
0.22246801906409172
0.09336408199464859
-0.23685599284653525
0.11846636704857688
0.05419895628764082
-0.25796934755413975
-0.12898397505270548
0.11678187929625405
-0.3287295832273169
-0.05592470922046551
-0.34412986335584894
-0.06733447762298116
0.1431640455921394
-0.06825297827110728
0.03842280808139344
0.047894188720098485
-0.0077970896999163125
0.09345303175175573
0.3729050535326425
0.05297344156333894
-0.1647270869319003
0.2369589924186923
0.01694160721912148
-0.12248665950209486
-0.10314274476276374
0.24864830098791624
0.06424181548105017
-0.022268266164842662
0.17611802253494227
-0.05155149563579417
0.10860471539427446
-0.06736873734377873
0.4372161074903234
0.4604386396427389
0.16569902488949587
0.34773449882321184
0.036662059111729255
0.09896694853931093
-0.16061500698111433
-0.07623126533088807
-0.3310367760240351
0.057654384593431085
0.2717874214292325
0.07436279675754391
0.05246902749742536
0.12967977375955256
-0.26584379766216076
0.19974465813329798
0.19842286064926695
0.09770651026831313
-0.24952085843196636
0.3141939607815247
0.3532710970768358
0.26413612853898305
0.1076845815768178
0.07302650534132536
-0.0864574539593494
-0.4140947298790958
-0.027007476141486454
-0.027570837566290703
-0.14885539936526423
-0.10841670253907937
-0.014931382253207465
-0.2943242528484507
-0.03330821519572166
-0.3292181593202106
-0.2006844103821865
0.28622870728418887
0.27734729975995126
0.22380360279941428
0.16188875572901495
-0.44290709748499757
0.10410976035528546
-0.05978687330512266
-0.07488181022120888
0.0562307500598923
-0.07212396123668317
0.07735304129843379
-0.07808445130594528
-0.10752406163981672
-0.04151937995568694
0.2016477566522884
-0.07439077622446959
-0.16411720176329336
0.06656038778503857
0.016431672198764676
-0.38601400185885204
0.33878134902212675
-0.003342008471598443
-0.08655208465586504
0.20841725936351474
-4.711630552394507E-4
-0.04504416631134274
-0.13106659590543643
0.09338664596632044
0.03751080983000287
0.00695890569430354
0.019933946278534703
0.08579420614051841
-0.024265777562646144
-0.2974722670253615
0.27516455395559253
0.20541576219710841
0.12900536081024438
-0.2736385085396866
0.13136640833890248
0.02437199640047255
0.0890220419814949
0.037634676837834696
0.2917217058567929
0.2320122892090633
0.23782646480762654
0.09046299225515607
-0.24587888973372574
0.2423236753107758
0.09522091657011036
-0.34941286547614436
-0.1824631998818851
0.06907921806143584
0.3505371907820123
-0.019058524181208236
-0.17350057466756147
-0.07922609841408006
0.04067543067207393
0.1628713240298825
0.4890177699787775
-0.19893428040328842
-0.06660185808121381
-0.1206481646445077
-0.1150483487855981
-0.23108265751271376
-0.00614260466019938
0.370448299659929
-0.06097073198719249
0.3468730640564641
0.091330601654765
-0.22207460843624496
-0.3345965091041702
-0.120218391812485
-0.3862087763069529
0.46862327709748863
-0.026503611388717537
0.0318979365575908
-0.10581994401798543
0.07670096874065449
-0.10785381087351956
0.18538854078191516
0.14215658168874026
0.17097653533143264
-0.1311986754692005
-0.00261566960241814
-0.1334730360574286
0.152451459270272
-0.1982655313541694
0.18942057293404085
0.04397097786898305
0.10275619704364353
0.24482326424773634
-0.12351677872843447
0.009217140079521654
0.03837077512997298
-0.07035236220481862
-0.11243765195055458
-0.18927982663842202
0.0757967193433976
-0.059939870839668036
0.09375906933614285
-0.10674905386602254
0.008118810905397037
-0.02588367508451769
-0.03554126382594999
-0.1759476149016285
-0.1528826224480737
0.08251492204080228
0.10853382168861377
0.40730357913941867
0.23009036459420337
-0.17724714618557658
-0.1160706666708624
-0.026057746493119233
0.0354777668467328
-0.08562678806991811
-0.12724574980896758
-0.2247677736897125
0.015878949793723215
-0.11585394598467878
-0.22143767111796128
0.07768661157518089
0.11741013454383326
-0.08558280549974717
-0.006827082869183445
-0.353044419233975
0.17779113753637316
0.08946419426628115
-0.23356065148664082
-0.13989197482464388
0.2509631398925556
0.2894063965873208
-0.20030561800335886
0.01733404895512052
-0.0765745444060332
0.14999084202609667
-0.17266005218099686
-0.5225407998273417
-0.006598193002034707
-0.021537472327683826
-0.24358804126919398
-0.38590338770973687
0.16950113442284387
0.18127254514891522
0.16186129940316543
-0.010601640423025697
0.1476620863448233
-0.21024584544483194
-0.3433549163634182
0.1134678694802866
0.330689462963323
0.11315309214237322
0.07675401927085979
0.15593884742342923
0.12583297162085252
-0.1240674075866955
-0.2556493725104537
-0.23528351479956588
-0.008926785350471412
0.10250884965866583
0.07706881188083883
-0.07762609014660454
-0.39808753965399724
0.13543095749222012
0.21653350183320372
0.08606892916091827
0.12572836610044946
-0.31659962077222076
0.3606831170261393
-0.15719593404313512
-0.14199500062808249
0.04003261671342576
-0.1272257204008653
0.16570623991231603
0.3906317102774357
0.3463873225799641
-0.07643162872062165
-0.13222236614516125
0.17029990673502365
0.3008448081776156
-0.03465355963988436
-0.04680989674616643
-0.16387639092454173
-0.3275800764865265
-0.068829400942832
0.2876557496188721
0.08058286538107245
-0.2029570590930564
-0.06447260847140676
0.12509435807186628
-0.17368137692811067
0.062005120891349214
0.0644799226097298
-0.16744018309387226
0.2827678447056216
0.051604984481899485
0.10136486885702761
0.07154297412151957
0.21047637508621528
-0.19736684624319767
0.209169343986222
-0.2818863527053543
0.022084051844916446
-0.3003669482181031
-0.06453241362500814
0.21764659791664553
-0.21391672992840916
-0.0021442021177683385
-0.12081236232356377
0.016553519377994416
-0.017829275278465343
-0.17529940146372383
-0.10422398666612194
0.09361997748786383
-0.3042156337217448
-0.21809292450556228
-0.37144493487236246
0.07255097787471813
0.17085781452140616
0.1659993660625854
-0.10139696682899901
-0.08252020046078097
0.268149868806825
-0.1372088532567429
0.28916740602523033
-0.11437350395612303
-0.17490424115251252
-0.2840035025625679
0.06826697795780613
-0.05075596993954934
-0.08402581779062858
-0.06973287726801874
0.12359155456398717
-0.095948133205109
0.2592097229571656
0.2678898089657381
0.05389898775818024
0.13079933958632184
-0.06508337003179558
0.19381691502454945
-0.2759044748609857
-0.024847139584562195
-0.07086443263431727
-0.12650808120569207
-0.14215834142810682
0.18799243604713223
0.2618387190991804
0.0857029210857438
-0.1730348375871832
-0.08746744421586217
0.026131409865079266
0.014244198292464566
0.18445130814097963
0.1620127715207443
0.15133988194747916
-0.14549088581824376
0.02812042594338352
0.2758170077447419
-0.14661145111064564
0.09471236302051811
-0.20725678498711955
-0.2593914299819042
-0.1847212611003085
0.2888377381906358
0.21319475217549866
0.3344249391738041
0.0037900464607861736
-0.17546472976912675
-0.08208132837203024
-0.18553444605884342
0.18175869330419017
0.025630649461598345
0.1468779796456017
0.028092669986202853
0.19497534148400064
-0.14897329132437634
0.02010837745871013
0.07428727799457124
-0.12315092435875384
-0.17705481313037727
-0.07410718586429658
-0.3308074208522891
-0.284720428628777
-0.29220098785004406
-0.24012021498397132
-0.18228326412571508
-0.08792094268325329
-0.038006593049632977
-0.3257901747212505
0.36592273175567547
0.17024570895855337
-0.08471975437380505
0.1774104939723281
-0.0981336479947562
0.004191230493859634
-0.1764565465307265
0.20844498715528897
0.11378433643471685
-0.10286538391931471
-0.2298450881508919
0.0029817230966096616
-0.420735975421208
-0.17428074408161184
-0.07630569343297258
0.0670960448682809
-0.33491003819548887
0.020841065837550132
0.22281787870829808
0.049124829120651324
0.10358439635510451
0.05091625084088285
-0.04007684704560226
-0.25912915886438465
-0.3116627756655084
-0.041300285457455614
-0.1357408232972017
-0.19431250084154797
0.15689748871420162
0.09642416679340013
0.07164473331527785
0.4440325253539874
-0.16937950968891097
-0.11648059694023485
0.2051123850549022
0.18132643659448833
0.31622617470761877
0.15096794062053343
-0.05843836731534773
0.11277986640733427
-0.025636131041559027
-0.08479081453788896
0.07404925197256705
-0.1824233952815078
-0.06936385935349557
-0.05398078523498123
-0.14148605554139468
0.019904254258345563
-0.04175619762746202
-0.3108524515746618
0.0517448018658587
-0.259392105784379
0.15928561796133547
0.16418335955519603
-0.2929992097284812
0.03450799327349386
0.0988851605666602
-0.12940947165943203
-0.02538512521010844
-0.24666090760743864
-0.7189401608475364
0.13349209026203837
0.12775404213527164
-0.13611372045374187
0.07926987133710363
0.0039016338130895946
0.20127551602524718
0.23023210817666007
0.2992738074841593
-0.38624977138476574
-0.16917635567649295
-0.08710063809649606
-0.40875713039714984
0.09010430987357247
0.04393859126895214
-0.11757463940947713
0.18044875855360398
-0.09750039048912754
-0.5256127532257538
0.11161458176322288
0.0522681730068538
-0.27656559309258577
0.2427003091726578
0.21441877341290125
0.27518660111581317
-0.11244083481239471
0.19067361580222342
0.08010734686047097
-0.18744611719044527
-0.0020243905553631383
0.09553685233559069
-0.43429748116363937
0.12710858298510755
-0.0687544147169928
0.17969260463838943
-0.23688306321500444
-0.17837216426880964
0.2025738790258172
0.36551426627977307
0.14985586674376458
0.19878603138449935
0.12017394270534615
0.02627028209406724
-0.21950504544472138
-0.09620086179333304
-0.029875758400314464
-0.3629118626869961
-0.1140685885572548
-0.1258008803010495
0.16482635837669923
0.12501743265026838
-0.1414811597729787
0.025522331664236172
0.2619249448837935
0.008598453290530217
0.09523426185947799
-0.08513726872174955
0.027848856326241095
0.17333446590330978
-0.16356540480011614
-0.33247460397655254
-0.08489256383070486
-0.18167107359433093
0.005541603770609618
0.15088909281226814
0.018402644183536848
0.022665656285933464
0.13612015831840432
-0.052625635366620516
-0.12464597074025015
0.023633644208811498
-0.14409942806438805
-0.17252355400300373
0.20890500978641713
-0.22621712275317862
0.1494526514418146
-0.08614179140424348
0.20833457424779733
-0.23190369400712157
-0.2403918466317676
-0.02961390964539178
-0.26880019438738767
-0.1972707816176431
0.12962116433793258
0.039526772270194285
-0.027054371121535404
-0.19532532045019455
-0.09662581355242146
0.03837600932371985
-0.2580529545039404
0.2967458912373351
-0.11036407317276645
0.3612042567965925
-0.056251128106784315
-0.3805485518250087
-0.2352926980599849
0.23969427866401288
-0.17767787713791922
-0.22336501082993584
0.3642265271339118
0.1888414849954018
-0.35484967792583433
-0.10152877961021822
0.1908264729859315
-0.007950340674809667
-0.06703444626357252
-0.3871246494281467
0.10435054079102604
-0.5088895193047777
-0.19197031358381547
0.05654374267648962
0.4833766214898888
-0.33008176755794394
-5.763827512332299E-4
0.2175076275500073
-0.04326974441859749
0.36299291430028774
0.41523268831965743
0.260893956415312
0.19384422914394148
-0.06541280856195157
-0.1376535493972396
0.1464105220868833
0.1618081785606819
0.18108434937992324
0.4223225830161518
-0.2893352074450045
-0.003987316311455418
-0.02806071201438462
-0.18736594865423356
-0.08219565639603438
0.3011562650413
-0.007615997259483741
-0.3947216869411768
-0.2163591448348573
-0.0036164968669705013
-0.07062842171903125
0.3389440696388524
0.08977865267590865
-0.08720773951937558
0.0736873506720104
-0.3495187483252899
0.04616329611506245
0.1453985044890421
-0.04792897835851299
-0.20333997691297345
-0.09351041573108337
0.09151836769994648
0.3554191200772456
0.3506593962859479
-0.21345083814217436
0.0923457222821107
0.1334536497995072
-0.09620688297324748
0.4178931523356255
0.14469687840284073
-0.22637263691702697
0.1274845832794287
0.08287894204437432
0.2232947264866304
0.04729676440565295
-0.0847897558839121
0.24729254732703138
-0.3459626903954722
0.3737792200736517
0.30868814096205033
-0.1829346245818358
-0.27315043816331447
-0.12435545714443537
-0.09100243706844889
0.09275710041245627
-0.10089186643426828
-0.18755880812448766
0.0297050816973881
-0.15065160717320322
0.4974456257675316
-0.207344576326497
0.09131335103515903
-0.18244602852063316
-0.0356638749461801
-0.2398755493354041
0.44726892120869705
0.227237427837642
-0.09237233593967958
0.23610546069777882
-0.021557083091689674
0.21263335906013903
0.46439042149872345
0.18475106012581988
0.13805203638160388
0.1005922642747829
-0.27479303798138704
-0.3130256521376454
-0.23009024926142763
0.03642583743561091
0.28014963581966257
-0.1543657688011966
0.21195836680924401
-0.029042060574072145
0.08467435691991948
0.5299436107409562
-0.20456574658856483
0.11495305525272051
-0.37527598886497004
0.15007485502198709
-0.2518090029918636
-0.04710658520620825
0.14081831980770673
-0.24335575567644657
-0.23671792756259633
-0.1962972870899434
-0.14298914243942668
0.2692783275689069
-0.08733585078525409
0.20463327144794075
-0.42860026579631105
0.09095308840229581
-0.018841232236736505
-0.07374820413932862
-0.08591445047086867
0.04615727977261959
0.17737793090517567
0.2087485371076869
0.22991473847918817
0.20106161706490344
-0.16194588224462358
-0.18115675892748573
-0.44644331317716895
0.3773222664800269
-0.24690716363744067
0.093245927399524
0.21931750002091432
-0.07354703012949469
0.360322106613627
0.18040748559845832
0.29192072724317375
0.05564726258118609
0.3185322348175133
0.03501781923261725
0.2970546796433591
-0.5877316185950278
0.0416979673624043
-0.12125764173220865
-0.16140620990245955
0.09440187468036407
-0.13134102599977798
0.20549455977273473
0.3401616025623274
0.2353207299214858
0.634157352000285
-0.0042603612914652745
-0.241498146785466
0.05315238549768425
-0.10829367789902522
0.028723859996583796
0.17185932606221854
0.23694642251003992
0.1862075944103679
-0.35574226081408644
0.021317122719559767
-0.11819039029180232
0.11345073811018545
0.06271604819972575
0.1649442022172068
0.37562281626984395
-0.04763145561900707
0.1566705621161582
0.15150172755581404
0.010815710600095663
0.07151715107614891
0.03412984073443226
0.29158987426062705
0.2829360991042405
-0.21179064727749447
0.05049623732809874
-0.024660249772186657
-0.057561479837135825
-0.22991380381169338
-0.06810813474683929
0.21728188669271364
-0.004491730122892538
0.4622433300323936
0.02286292890044174
-0.07263501860257908
-0.2676240935298707
-0.2709889289388958
-0.3755966163346312
-0.38987687455971265
0.0871746465008113
0.13787802706114968
-0.2901355752379352
0.1729120211715562
-0.06257423655170039
0.18979568302780192
0.05206818231308524
-0.11970539194087247
0.12568397866918443
-0.12131227452296821
-0.0038323441811234926
-0.08802458727379561
-0.054469619935642845
-0.009545999167308729
-0.03320656776131968
0.2520626692397449
-0.16986543658368136
-0.03268172825146006
0.2511656508649939
-0.06722051065985984
-0.1356767494472425
0.037035759383854526
0.03971726260810485
-0.14470675844030417
-0.41402084664411953
0.17349420822851078
-0.2541555914339873
0.04209435276555748
0.19712212066302523
0.019514126584325234
0.1431598121631118
-0.18936029659543271
0.032420783623329764
-0.2854512918637259
-0.11678052470466893
-0.0024964203458713815
-0.1543843689215902
0.26594452876680896
-0.10343770721493017
-0.09352801626914498
0.11835368255570987
0.22283451659199438
0.041112382551639993
0.2992082603497232
-0.13397914779883263
-0.030258558998603764
0.01128394860089735
-0.35966498750536874
-0.20857786377132614
-0.042711917118023864
-0.08406257631492436
-0.06231960526653107
-0.14455120184963904
-0.11456606883034813
-0.004399877588274487
-0.2847607699559968
-0.21395298999720389
-0.165151271617469
-0.048419931448777764
0.09959353130697668
0.24085296434146042
0.09796530626574393
-0.027587816561930257
0.05851534364152418
-0.3624394636122473
-0.29304963864957295
0.0774969693020615
-0.08524809422410123
-0.13034607933011028
-0.059352535344304305
0.31823570496540904
-0.16418780620678353
0.08723516081374055
-0.1233791993648161
0.3174743658701842
0.12756873286545575
0.19194427713721993
-0.0450922095680536
0.0757444178970422
0.015413615161910688
0.11104774054999066
0.16631455175469437
-0.11601877881192275
-0.3827194332813398
-0.19499127631903448
0.3229375460797125
0.158085027975862
-0.04352557171933788
0.3890959143137942
-0.049210580789970954
0.11120828264464587
-0.2273779005967528
-0.41547980934326634
0.12304294094740019
0.3110843384977395
-0.09994448079278355
0.3292110955421461
-0.03675284806719438
-0.3512259861943866
-0.18852290559121865
-0.1302498183742412
-0.2641727760533692
0.3307530400157994
-0.011252339394927008
-0.44623321791084036
-0.029359278684228458
-0.1689915636670454
-0.5668958975535894
0.14890976096087585
-0.1442823081863555
0.05764192756622577
-0.3209602391566274
0.04112540313228726
0.25567815215977074
-0.2828143006542409
0.3099471206122493
-0.08025851028133105
0.1295381750713789
-0.09394226552268195
-0.25932112680442876
0.4318391176254923
-0.057073087895937284
0.16807679756129287
-0.35361128444650763
-0.10617213720386381
0.21683533330991428
0.12554909619015853
0.3406911848480627
-0.17127530089348242
0.13421042068807593
0.16931279064162874
0.09463760747235403
-0.019195652038092148
-0.11504459934804126
0.058136682992845815
0.020568560191996803
0.3695425099076798
-0.1811230540933905
-0.10194440073977673
0.07276643590289855
0.2258624442248706
-0.28842508937482564
-0.08392257013496716
0.3070509989139361
-0.1468563829353979
-0.10832543580410553
0.16367027504254775
0.08612219648603689
0.24038028614383156
-0.2214470110539086
-0.3632554383780198
-0.04305129773101041
-0.17594276694762698
-0.04566585733574041
0.12442918741503613
0.102725577007619
-0.08128712953718054
0.07881779687795465
-0.06369747792264988
0.15705795078749807
0.16405545370598196
-0.19772375382047358
0.08151039564947127
0.5044717509754826
0.11496712892552037
-0.12842368657387135
-0.0708795381472576
0.16154240312787327
0.09463198490991004
-0.15332926643407416
0.1748432875502752
-0.10734884977293405
0.15435226176602773
0.12480911583892121
-0.38584586261191445
-0.18440761206281095
0.14101169602635621
0.2748622483144227
-0.4983198087226886
-0.015375619143873405
0.0876213059184981
-0.20570256117010044
0.19681284020657686
0.13772535316956744
0.19464955705419246
0.07022824923258969
-0.1473659107861328
0.011242951991610598
-0.06654184126802477
0.0584107857593669
0.27681687778329617
0.3104845418534924
0.03990752194529047
0.008759012313982477
-0.033179701111593456
0.17736583673474268
-0.055624130276346606
0.10942403297957354
0.18316205576008637
-0.25993742213457777
-0.25602350965832066
-0.003792713238710223
0.24801319602017668
-0.3245351056272565
0.08815151476757234
0.13613315785240718
-0.2024993811707931
0.1290818474387132
0.3053207339593817
-0.3414182918677374
0.2523845925861597
0.26936716409510936
-0.3522512144619271
0.2819267801985634
0.39320397717502864
0.11321679237429141
0.17018578460415668
-0.13462220201633854
0.010927234720075242
0.25147829408357264
-0.029807310764222827
-0.03648205376586344
0.0987733205368035
-0.05559749978841225
0.04579280328673874
-0.314110616630529
0.0860459160412815
-0.2277549943668547
0.44449846678906485
-0.46527531463012073
0.41933492459926447
0.27970237884961335
-0.40019212751991184
0.19220833674126359
-0.30082008341893673
0.16818629183721157
0.05017516091206086
-0.027726203313501008
0.011645243730905627
-0.10752607513877427
-0.1265830304312132
-0.15025864212444717
0.22792118197002856
-0.04276614171078649
-0.1224679357699931
0.14552766116856483
0.11368277075376115
-0.19586264648194937
0.2391081520301267
0.13334333568304982
-0.07570516983562106
-0.13091086977531038
-0.06981892165433257
-0.06708259676721566
0.04296575958084547
0.1559013004949924
0.17601205780720924
-0.14554796295638361
0.15480054240799118
0.01803714362665734
0.18544917819002932
0.014396642168099459
-0.006626366721312405
0.07760308157315468
-0.0703389116951025
-0.06643915048970506
-0.09244004205352052
-0.0637571432134563
-0.11917274279223795
-0.19892490395687396
-0.1829812697009301
0.22975000294838127
0.2111007893600354
0.02740713891622474
-0.31826868393766916
-0.22557520775158948
0.210670819445361
0.08043027580756279
-0.17405170483160312
-0.08883979887455719
-0.1089615388946405
-0.19380977072284208
0.16130633780236328
-0.0888107555282885
0.21040759809260853
-0.14741124909879666
-0.16784056356171978
-0.030628706336623564
0.24814128029877108
-0.1014679944008351
-0.11989402723284343
-0.15179167869416715
-0.18624173771389507
-0.01419331440441962
-0.06643119980187895
0.03815536243727247
0.11953460954313906
0.2297137955050621
-0.2683225597436463
-0.07090096090606268
0.08039985073703708
0.11325075589863512
-0.3605874209399175
0.05202224240061503
-0.14046627357888228
-0.31150987777324796
0.006667355609288357
0.3321015654197032
0.3443931875530548
-0.1531908730162523
0.11159871999948415
-0.3908881452507244
-0.38726756036289695
-0.2809470819114119
-0.22327793546732902
0.3932711802859642
0.10007750573320065
0.47629571560734596
-0.09827340353414715
0.031577831558626965
0.2860621261043654
0.137320186373789
-0.02266613854228676
-0.05084650808053162
0.22701482894399563
0.083941693221945
-0.019728386195639876
0.2684751344414114
-0.2559549567459996
-0.1406810799016763
0.4125491847201601
-0.1217733287647585
-0.08412668823645814
0.39570828800250046
0.1617441949737776
0.13935297119153947
-0.1514890036711451
-0.19070276455011254
-0.08161449561153734
-0.3692739304108378
-0.16631557651591922
0.04132832142836006
-0.00931361184636501
-0.3746227686991417
0.36121920962149745
-0.2293051714333279
-0.028847730554782115
0.24173602975353858
0.012833069963793662
0.04135198659024114
0.3769390127113744
0.1366569452571425
0.20459897473988553
-0.1592493775401176
0.230477417669613
0.30307896421386354
-0.06273359540777551
0.11085518823013128
0.16955858383013617
-0.2462143278913963
-0.48256395031333305
0.21718530280333176
0.2071845798289227
-0.08701151811011676
0.046733384827224354
-0.12990504945380144
-0.5161598059780156
0.03761323570673146
-0.11772607435750951
0.00827908550791196
-0.060584061407124516
-0.2456388033212741
0.2053330392683338
-0.42125491751020844
0.15746839523150935
0.25507724690971706
0.27613895294740237
0.15201407973532022
-0.09218162378866053
0.3561896207131763
0.05013278582398167
-0.29532178647678586
0.1204253109265932
0.42622754136336083
0.3339945384066693
0.16238059456500328
-0.132411078791418
0.0438197514368349
0.045517243695575305
0.0849083899346485
0.16868508967981025
0.13614540693969043
-0.14895899167116497
0.1493052356310525
0.02432138119737272
-0.12112636581855274
0.11603169208823988
-0.06281518638810696
-0.2905926030789545
0.07835704946598639
-0.1494771817975228
-0.3056415186908976
-0.13984196694066467
0.33118542470148565
0.219725100570103
-0.047594056066503874
-0.09870735740068609
0.2110671923083928
-0.21005740940760523
0.2334583093459761
-0.3343620348659273
0.21783946503808252
-0.20705537010253994
-0.1468113104890725
-0.0650888254978754
-0.023551775717817185
0.1179303738040666
-0.11831666597084196
0.0958211632259395
0.06260194104447168
-0.029250401536178302
0.0075111610124252385
0.015676834238992698
0.5490923999254373
-0.2889947180110443
-0.21273249500650687
-0.18523749973149628
-0.22072757726727735
0.11681635157670955
-0.005649984142864543
0.11555858794622867
0.0246766631636876
-0.2053430374524013
0.22711730613418524
0.11283138145242928
0.19658900971263538
-0.16773658923364748
-0.3922530465697626
-0.3353102859181119
-0.3573324623220462
0.1741639548354504
0.24025009419366877
-0.13337946309843493
0.026561071364751155
-0.34119944415872194
-0.06929065836833913
-0.05254409868642243
-0.022832227141178364
0.27935415531862734
0.24260709748705325
-0.2901673936861605
0.1764024733573344
-0.27546207674417755
0.09626125571731836
0.07161354195880473
0.31732457221993243
-0.13818954547952722
-0.004281398838677366
-0.0431846367016456
0.08832334141836082
-0.06124198716100987
-0.09331183720687442
0.10970323965151013
0.1023678899417903
-0.07218746783031728
0.03970026368977663
0.14683462527808286
0.11664756796214953
-0.2324921453600732
-0.18158905921064306
0.13096570993683987
-0.34963699550534283
0.1396448879029729
0.13566384269092002
0.1873490006021754
-0.0663796949847577
-0.11255359182745209
0.04555123771215629
-0.007845598338540443
0.05975536855814631
0.27038665706140164
0.26106953700382446
-0.07122306128595605
0.10783582936535036
-0.2211431553782931
0.35766988178651726
-0.025523867485420695
-0.3594535114221207
0.04120036892568271
0.09003146549776019
-0.055155690308042786
-0.281144958455991
0.12552072710334491
-0.010347011831702198
0.015511171979600431
0.17003533746407032
-0.10241175797598312
0.0194547169166417
0.3701468657473226
0.043954801814952975
0.12363917986305668
-0.29756254657703707
-0.16130183073018806
-0.20149706330676148
0.19852777710034059
-0.37150577897804804
-0.3479366759214074
-0.15582850957445327
0.21851061774613934
-0.19196540645365756
-0.143373243055619
-0.018694578397436375
-0.0868750765151542
-0.03471740830167326
-0.1736447104096275
-0.0809644118340368
-0.22031106451311847
-0.05990714545811759
0.38422666342131717
-0.0563466693570757
-0.30579006624314653
0.1863017553640517
0.6353400351048925
0.28922981847004464
0.1873655080741067
-0.020550289363566104
-0.1837625054454669
0.11194624446879511
-0.029520021221952037
0.16160440576172985
0.13457689174252296
0.11220719395892063
0.12350358858388329
-0.08066753006621151
-0.16169732163861342
-0.35263145243725136
0.3376346796871051
0.11148621454589397
0.18588969690219584
0.07464325298146618
0.0803600781315566
-0.037058738458403455
-0.2742214430448559
0.3514939211286907
-0.05133590903538293
-0.08822752726427864
-0.04455666479954648
0.15530277288212926
-0.03648800137967167
-0.2062679788933635
-0.41257812628920015
0.05222622181577166
0.10780404507356266
-0.22501961690475927
-0.24875131302509126
-0.09052961498977787
-0.2216325725567365
0.11705538998864314
-0.29594622599648734
-0.11778299224656281
-0.1847844225189765
-0.16981877353074673
-0.07936382295743927
0.16771448842998793
0.25126456832665806
-0.13173449152128017
-0.1075586341423037
0.36450319194556513
-0.07946825434927322
-0.016453451232917967
-0.3210321007327471
-0.13025786587554003
-0.02772919568340237
0.2587544639223953
-0.06768418144728504
0.049275957078699265
0.17989863446719762
-0.28362030541890826
-0.13663940127868626
-0.1312407587201998
-7.900364328185814E-4
0.3143261327139613
0.2572699842901712
0.20178672039090728
0.11825726822472193
0.25980810370241725
0.05834059069875528
-0.405733254764065
-0.02596834817183649
0.06795590018980652
0.36557203608752203
-0.060583637316893736
-0.08856944736656469
0.21344818357716355
-0.10551985217480578
-0.13343989208732407
0.09286173987146967
0.279293162814017
0.10037480484875741
-0.22618027360420148
-0.1057788399979761
-0.04280924826825315
0.07761626353748295
-0.11445314842378568
0.014371889664918326
-0.2838418779060929
-0.06809310794729405
-0.03413714829876356
-0.08086375456232764
-0.23943814474958552
-0.1904828953920615
0.07322442285569002
-0.19211066882774672
0.0667004950014916
-0.009225395529328974
-0.026923931624540074
-0.15461175526768073
-0.23333343067673462
0.014396834687003424
-0.029766449387111607
-0.3034115123581335
-0.36896472544557146
0.4104334004143817
0.10317330198019008
-0.03695280870680487
0.12096440858197474
0.05165676795518336
-0.0694188855091343
0.49756447520477487
0.6592873224960002
-0.013553766563961648
-0.04034862554629726
-0.13635134160975432
-0.3208726509625423
0.2968751451289133
0.26143085487632584
0.045534802681018414
-0.3086331050293302
0.05221816006865456
0.2202473745552609
-0.004283045424315826
0.19321396810968397
0.09161443276721645
0.06582892186533118
-0.616961487273042
-0.06819179858467386
0.18239824202689262
0.2442342788476686
-0.42350194221214876
-0.09682352570077413
-0.005038777827164661
-0.08293624391415728
-0.5606250173464212
-0.3663386811204382
-0.004239257973106043
-0.23873205517686588
-0.5399883731505484
-0.0054266404209969655
-0.21825881252245832
-0.5540188677963096
0.19986781361125305
0.6425708768228933
0.13281744432546438
0.053279779507339926
0.029259824230644996
-0.17106242853321343
0.2820336737374404
0.19544400798075787
0.021260131859670198
0.10848818129023895
0.013711786857578871
0.1533688441617936
0.3345777971554119
0.0996287324882743
0.13059949810692054
0.3268626599982354
0.2041696054619831
-0.4786323857359684
0.11116801616097617
-0.20999236709425176
0.0795040949455612
0.24146966049514323
-0.05225227970257867
-0.07970916652749309
0.1790616115726923
0.11278663452035008
0.04497109693198038
-0.3957843655610501
-0.07640212560924838
-0.07702136373347614
-0.042612470704018524
0.031333359992641176
-0.27706240800539017
0.06642095652791818
0.09464106697975086
-0.1807821550149911
-0.4459085489332207
-0.1609426413190406
0.08517234682773021
-0.15469709336385948
0.2875317975148303
0.3982368813824408
0.2612318027639574
0.31243235204032244
0.4150801419241267
-0.009221255029863214
-0.08899583707488078
0.11433352918185116
0.1216500193506258
-0.18954089183423967
0.20156469581413244
0.049192823768085044
-0.2674639653875688
-0.4274735966196458
-0.16390005094560386
-0.30164493324180075
-0.13270416773376534
0.17059919255933093
0.3482061781840172
0.11719287752605477
0.007455242623449123
-0.3617394402104286
0.03394898564240595
-0.07794636574218383
0.2862557214894381
-0.13454150800181866
-0.07440548009968222
-0.18938837442043263
-0.28670318615837626
0.20739585215832468
-0.6570462526362452
-0.1433561413249018
-0.07299348260874625
0.15854910035435038
-0.2159148014736133
0.1272898052672707
0.4916066593432171
0.5502562963202758
0.2780568679267841
0.021667475158882493
-0.11628178737500743
0.04487497490032875
-0.045934576560741576
0.042891341555985764
0.1397455281757031
0.14360264655974686
0.007297596680936277
-0.029600351787914383
-0.332103123702036
-0.3715216326282574
-0.2547264219038746
-0.3149326551222085
-0.16184622646613153
0.056795450956757434
0.30493552932153106
0.12625965816216114
-0.2187894195924741
0.18072993060311826
-0.023019832444784245
-0.2971607484151399
-0.03031575410984301
-0.4744509136615685
-0.5399394651563043
-0.08880611620299977
0.05472267136348696
0.2536248289395821
-0.06433174039681139
0.015544024364707568
-0.3386949644139088
0.17103305351689121
0.48753498106172083
0.30508521401855415
0.2610995694146902
0.01020962732154074
-0.07026360868007456
0.25706628418968547
0.4290584812249447
0.20858596174513414
0.11579414392344371
-0.04090474756055799
-0.017975073289018415
-0.13149226356871901
0.4932220255718198
0.3832972081313324
0.4169886475535354
-0.4544379360660784
0.0831555137685427
0.20696919546631712
0.06245778794011307
-0.1833231842964235
0.08853426256658188
-0.3309567583930321
0.18763151668563122
0.10499504968007388
-0.10386158946857255
0.26240599574465207
-0.15628672014164643
0.2053334511827491
-0.5875786229729808
0.7293511752127976
0.3833158173783395
-0.2797271418228581
0.39012275727602835
0.37239390654239035
0.6880966099385739
-0.030266958395442387
0.21446902687094901
0.3106824798290142
0.6412824969028933
0.0833155090699098
-0.15637148407445894
0.26958496254757763
0.27145253238243694
0.21724952756302388
-0.14963412882313099
0.05983361199458073
0.08601318619271779
-0.15373073255229294
0.22426116831672582
0.0010957691475254809
-0.26935683919115744
-0.2889092565390141
0.3337047475107597
0.05240776055974063
-0.07224510962194895
-0.11785536961811777
-0.26341609441275265
-0.2938068567127418
-0.23529258421624222
0.13677224177486685
-0.31340664401681273
-0.05366009938901296
-0.06735929255098443
0.004379664088302579
-0.2868452560611496
0.4301103352450562
0.0074416673451023485
-0.08637258953594117
-0.19832072454483865
0.25078036512734314
-0.008505075223403654
-0.5203922517741658
0.0741407012874717
0.6399762280693838
-0.25519944240723746
-0.539394155636864
0.050857851629286646
0.15146679606705013
-0.029752223796813873
-0.20855493742738104
0.4207409747410209
-0.16157335212962834
0.05110919581035132
0.18235233469854129
-0.08656928234965129
0.373189889875694
0.04066423351100387
0.1150832106215934
0.3185743670059756
0.13995395161413546
-0.03782357717293668
0.17174378638278928
0.2230786910248534
0.04640402337068279
0.22312112354037048
0.23662480059254923
0.13125189361211878
0.09449682719091516
0.038071048355999344
-0.06508876805445506
0.12728269400730488
0.0911926927983581
0.33223827445813797
-0.11459037342816879
0.8497422765596532
-0.33593669687302324
-0.1058542582224926
0.18398682396043434
0.33099216372487616
-0.00474509330560639
-0.2646135171148409
0.4615457580464532
-0.33376526900744424
0.009765626813934053
0.05805097333951986
0.07645967906355583
-0.28780973100475266
0.4375872647422814
0.11396362057453828
-0.13695614459589348
-0.15741660520956863
0.05314663389482092
0.1579580720112472
-0.10435058405149186
0.14873640050632858
-0.006700914929938325
0.45397068837950016
0.2697704451375319
0.18677186255130204
0.2893438771236799
0.4414645836311281
0.4042508009491841
0.06421437762658033
-0.11337424281742592
0.0803386072929386
0.024540148668353034
0.43341699182149906
0.13719468983353145
0.2836961968835478
0.2382041849622046
0.29233259728197986
0.14246827678731797
-0.3102146403962177
0.03833278283064646
-0.1369728511533627
-0.07790684150660346
-0.09087301342007682
0.13992249262902445
-0.4884319503472851
0.05774983085014697
0.12623720428456225
-0.15857746363148936
-0.01045354476731356
0.22653641678100223
0.24374897927647773
-0.5771785804694094
0.2438205209775908
0.5117008646213954
-0.10699574254936677
-0.49623593681695527
0.41809021565696125
0.2243551889744609
-0.2681890050086771
0.13563739052454496
-0.390450012863879
-0.10740242004749877
-0.20044339660919858
0.07951075954870172
-0.1882020867970828
0.1045305508411326
-0.15804769083521258
0.1451179454038587
-0.0655656371784513
0.048194952313484495
0.14062063200155114
-0.20827251512650846
0.2530013278474474
-0.14124684757846923
0.11290950029085611
-0.10180545108245347
0.029976295187295336
-0.5480902638024273
-0.43969665935804225
0.0430229015043344
-0.4543241865199787
0.1327985501556951
-0.3802938587067064
0.22666789673600893
0.07562944973405836
0.2659000805599415
-0.021053053971376027
-0.020918708600367108
-0.17658247137658895
0.364791711580492
0.08006835143095044
-0.1272012611516813
-0.42856045553548827
-0.4754934623850327
-0.2174593521101362
-0.20743788649167097
-0.49098895622284117
-0.07031255834084996
-0.1890473199248038
-0.11500994496522632
0.16504744630060783
0.14233254778699486
0.015732089837445486
0.08399484252117702
0.6766381662633754
-0.35854088306292864
-0.053724687162226906
0.3053911795157083
-0.13891607993452001
0.10828170707192276
0.08997627150976134
-0.28950971661510244
-0.37067956380804545
-0.08205617470065436
-0.0761605013828977
0.08514277146602314
-0.14430493777258432
-0.11390359269593733
0.2142433824011269
-0.13337233999208964
0.7796964329325438
0.19249967079975291
-0.03880411687740026
-0.18135398214310164
0.06944272987669194
-0.23174476127357044
-0.061449211106061295
-0.15642958673447088
-0.6476077725409705
0.07945797892851136
0.1424699029017018
-0.5760912172513167
-0.2951933616484871
0.145073168408743
0.10034915745242015
-0.29542444887544106
-0.05799460857399652
-0.047714265179489006
-0.2168848316387924
-0.09566746818604807
-0.16498918147769856
0.3107733567841204
0.19725839857528035
0.32147441805522176
0.04474828567340776
-0.023105066216658518
0.371129334093997
-0.30989706185834226
0.18498683934806073
-0.21889290774372447
-0.011823084172164574
-0.22322462472522
0.027881140347885816
-0.05559491643802094
0.19706503990437874
0.2159472173367959
-0.34442379422597524
0.06148357065602867
0.05288999384678947
0.05628110577245002
-0.4154692878535786
-0.5198980086027654
-0.2575667775361468
0.00892584876628868
-0.3162917605312164
-0.11131958668563344
0.14652009043673797
0.0990137219613295
0.03509546975660963
0.1580795281179897
0.19791005185367289
-0.22540844336807064
-0.19686596606250809
-0.12808053417290285
-0.09723918189936334
-0.08060198136225352
0.3072264421249802
-0.2995414510218822
-0.20471952507251798
0.3339092415221576
0.16774755194990287
0.8846724964172709
0.1745160489079538
-0.24135174636585352
0.19484357675011674
-0.011324709670273358
0.0636717228764965
-0.01883419294993163
0.07841766479469507
0.49267109644369256
-0.12659811962548242
0.15941500653197574
-0.4404179198563189
-0.49953608459796645
-0.16423712083336603
0.02650490677486527
-0.27580754882446
-0.3033455748820061
-0.05682327948254185
-0.1782961346038759
-0.035216999870536024
-0.019650640765572994
-0.20285746496493673
-0.03653968338253796
0.32982767531921414
-0.5874973151008747
0.036515364947273345
0.09049251773849228
0.5084147477349084
-0.08072620638334554
-0.03803289327047461
0.43637388187681264
0.15294369645846667
0.0332767735256098
0.06090981230862835
-0.25237977212605717
-0.2505573484326774
-0.328109797000132
-0.29464784163400054
-0.24484722459242073
0.1804923465793311
0.2076502449482442
0.08741249189018724
0.12918794293358968
0.17606682675204438
-0.2566271184920962
0.08726865743235744
0.10894519275279897
-0.06596884118029044
0.38738495397364725
0.600421307112073
-0.06657839655615996
-0.2713980868908924
0.26622919236889153
-0.36415504545227045
-0.6968671981150684
-0.31193506641145774
-0.29990683437686816
-0.18660902735707194
0.38064127183633745
-0.08359254419961114
0.1549903090441822
-0.4411280854954074
0.04927939071337573
0.06327841004699988
0.10040397320261692
0.19658825601937274
-0.06275185127624412
-0.17658271276009835
0.26840378887547406
0.22293232315012512
-0.41555998688514495
0.0970381859467314
0.15492213826233978
0.6229840400690171
0.37407653068791874
-0.22926189759156723
0.439726429158543
-0.36173959506491354
-0.2536735026932023
0.3821844894808042
0.29488191372531625
0.2789387052446311
-0.2133684661880329
0.30096694851179795
0.15353167045098043
0.0718512303854786
0.17924105825123207
-0.3223256923112331
-0.2665044671322177
-0.12094987776917901
-0.07022187430940525
-0.7673870754840172
-0.44481231031089324
-0.21501093378730032
0.38688326751393504
0.10286016025502706
-0.28957246046773144
0.16730485616190843
0.1454949287324236
-0.3762912444435926
-0.2454989369730861
0.14404185369968212
0.046476069067904476
0.19474307787676545
0.19711893624747537
0.09998659875395308
0.14574859391373768
-0.5755498394702243
0.414618997880689
-0.12518484311621414
-0.2228139018516831
-0.2877863165297823
-0.02224719254697116
-0.04651134067101924
-0.21313763535786742
0.4803450874349639
0.18111133864103893
0.27841420457618304
0.3875613337158701
-0.1291561152505202
-0.19483334977079714
-0.056356690072219745
0.38921226825302097
-0.2013284695106765
-0.16653925916755452
0.22255066437636367
0.18619451288393982
-0.4899303450766835
0.3287911988583528
-0.17027195433994535
0.024251989870522773
0.30451618216831056
-0.1346206700858679
-0.3445424648705096
-0.23310913429507227
-0.1202376903092406
-0.44648985998887875
-0.24858143340605154
0.20139520632424165
0.16968282416003294
-0.18180090852831782
-0.08553991669486517
0.2935503235108689
-0.17499620961248566
-0.38517129920244164
0.23029276990360248
0.5803495423031296
-0.16422119041190608
-0.07218329468553134
0.5207053825437863
0.30012282700796905
-0.2813643575551752
-0.1948185419602231
-0.11096731701520542
-0.049178508710736916
0.17297644043893412
0.09727151822739034
0.12379242714925873
0.44786411130311166
-0.06486699552094445
-0.21985203354224153
0.1869384951138353
0.22271163605207042
0.32888556364039084
-0.04302506048014726
-0.31691672682106226
-0.14879927047162
-0.22805729136705497
-0.2575196204026406
0.17828830415282115
0.22157625744432125
0.2535089900729506
-0.05402991316815885
-0.11365311700928517
0.03930959717957466
0.11217998294288901
-0.1366012227324334
0.2500463846380749
0.5038692861520859
-0.10271050763912397
-0.14544239581493462
0.09289766040762808
0.2492168354705066
0.17620303530322234
0.31945608843983825
-0.2850055375443495
-0.4471145397347056
0.5558897512309878
-0.1435974567628057
-0.5571791352260266
-0.3058980035174258
0.23425685753159867
-0.42651493561184334
-0.03169192330219453
0.48893819879086686
0.26940662773352486
0.04045535853496362
-0.036875311281332146
-0.23155828632769712
-0.09208891321563849
-0.02641853757357074
0.11073443743721714
0.007059344950332143
0.11389255376899157
0.17342148764350682
0.03671794919661359
-0.20845516136557674
-0.2548973729463744
-0.030762152575349064
-0.25088669061907587
-0.7086073730735722
0.008775950748229485
-0.002591002089257232
-0.13634941549889315
-0.1361857813602826
0.02085578998530978
0.24996763337549577
-0.009426803539135555
0.18521922287613435
0.005458937612372678
0.12097331824609824
0.17718802030297834
-0.03154197369952298
0.5400961871564447
0.5827043817136613
0.2708207276409416
-0.4297610563791081
0.20653291912055066
0.5171990428563661
-0.011459116472800882
0.023001243901200105
0.2952381176613159
0.21562146118294626
0.5635936445879521
0.1808978113451824
-0.2632609495998662
-0.11349387525815594
0.4539772805318228
-0.06260841171332424
-0.4837559937647699
-0.44631726969667024
-0.41651619594028144
-0.1374291181149733
0.44690097638949344
0.0032946287528566112
-0.24332281457520144
-0.5574441041627882
-0.003786588067155658
0.11287492281697582
-0.25580739425426674
-0.17915346650238945
0.11111702075735244
0.19887476331186418
-0.1401999287371165
-0.11260199051441415
0.02136951004198897
0.20991103798216212
0.5383239730243919
0.0749789205842192
0.3419561034911652
0.48391189650482874
0.17108158476876423
0.10268110339838557
0.02063724915822524
0.14110976432112068
-0.04263154675347623
-0.15029621941784713
-0.2578756340909628
-0.13213795766179537
-0.6686208349206607
-0.0916130279170711
-0.1260307510716835
-0.27276901615997035
0.12798220619349432
-0.02153679243840568
0.204184333651016
0.06716195386937193
-0.2136640895285807
0.37256790188371364
-0.01996295445019465
-0.30013524742416814
-0.20081810109158943
0.09007324307724919
-0.2799115410199104
0.2956291454594859
0.307589693130459
0.18369503298423887
0.0024441249916461105
-0.09037977936348106
0.015080442967718804
0.18476401504679957
-0.13432084373169395
0.04180149155110407
-9.427974518156346E-4
0.242732758510295
0.08988197878864532
-0.08834279632503665
-0.13503813943113713
-0.37416344074289576
-0.6028359525611388
0.01686589721824412
-0.07277730938570542
-0.12380786174646863
-0.08319447899661679
-0.24046924025728547
-0.11203084245700956
0.16016137976645206
0.3246316678737977
-0.159938139253938
-0.06633951012522357
0.0037763631920163317
-0.2870126209169378
-0.628108849674827
-0.615524263658571
-0.41912473567254044
-0.10868239127478814
-0.04282006613779645
0.007108524410766926
-0.20392117518032019
-0.28394127533169083
0.052726257919451514
-0.20267440886194654
-0.020508892482526388
0.1410021783179426
0.04742591153653641
0.2760260568128897
-0.15654472385779547
-0.19797866050928983
-0.14425364363886425
-0.1317369201053658
0.09914890752410524
-0.13160977062808815
-0.06470355416412074
-0.1115018056482657
-0.2495364756309707
0.08900958506363536
0.037376073270403584
0.03463900630628626
0.02364119463974102
-0.1952552159378993
0.1763539613021964
-0.23537094358365096
0.0661176041663317
0.5773469905915886
0.059826432205104946
-0.013948585058294494
0.3218945166069661
-0.15352319032024228
-0.3755171304028066
-0.5677457473413582
0.38225816923651446
-0.14635649994097175
-0.4762681482988459
0.04487539973735147
0.1979302712941925
-0.49480559382417777
-0.07156824947908685
0.5319812307053283
-0.11639738800332428
0.21804441132863045
-0.16220026282598463
-0.02104843425826652
-0.3864901784887262
-0.03306435461989095
-0.1906401987941312
0.02668165394472206
0.4367317666401869
0.2768717531870735
0.0079310913795086
0.2936405857314257
0.36470893538477345
0.11733712367979857
-0.27659977926895923
-0.6391669117920604
-0.24198481095018662
0.3240700336475243
0.05709482505060096
0.22874975516643406
-0.2560320336025654
0.11369559855325065
0.15329029988299314
-0.14838652346953055
0.2886413484796374
0.6858254216281299
0.37556615376748065
0.06453277919085176
-0.0925431888414595
0.23508369669344692
0.0397393066236155
-0.004107203401193364
-0.09494131014756935
0.5286700848410517
-0.10714838737821801
-0.2677372978809223
-0.2351211985824969
0.17004998565213938
0.10360440189611964
-0.0012096731722515508
-0.15647091278354747
0.37947920548657077
-0.11218155692992163
-0.35898368212733694
-0.17772678666096808
-0.08453817151522061
-0.29086714063499036
-0.0614229367997201
-0.14765503579800304
-0.030781946173074615
-0.18106401858414678
0.19479080339532404
-0.2716756316832696
-0.26067375099943085
-0.3150277984332134
-0.18139042145461579
-0.3487091186954355
0.35848275033927735
0.15093002002037864
-0.4717874492877657
-0.05526056949102777
0.04566265766283795
0.34873323940871037
0.579669811286178
0.39259014264735026
0.06380293062391947
0.19420689847193373
0.20559441899414474
-0.058584475203599586
-0.2890127223066614
0.15042843142470444
-0.04420056289106139
-0.3819908812798307
-0.29892868538217504
0.052992512232360935
0.23898055356963988
0.02332328288501647
0.30628620363351544
0.5930766914633554
0.39775115885575313
-0.1647182760575017
0.3677147117921435
0.10082225301159893
0.31021365089228065
-0.05976710660939274
0.09004026872954493
-0.07096770998887597
-0.062412937253781255
-0.002111800950929608
0.12877322502791907
0.24210736786040163
0.10687178396181277
0.15715970064597318
0.018080224489309675
0.38212148785396177
0.18947846982632954
0.09059712734185284
0.10798933140648599
0.07379590044083857
0.05661424128639021
-0.33526583221260664
0.8338549286159471
0.26462491165556223
-0.1226478447936894
0.01291646695202338
0.19838124374534474
0.7182881939753146
-0.23493195971114086
-0.25029512587008446
0.19023443446513946
0.8061340949481314
-0.15640436953528078
-0.4463072867739129
-0.19740765068422475
-0.34053496678445455
-0.3154314141660289
-0.44288854071594086
-0.19436992036713727
0.10494708569705245
0.15347260407888916
-0.09386348023835038
-0.028273636283704665
0.3027845933719405
0.16297965438581352
0.13755223394597138
0.35456717383014263
0.13781584595818447
0.46380204903298794
0.45539135294285066
0.19511301798063738
-0.05985334865372376
0.1441032042889461
0.33922287897575004
0.08632787739703907
0.17622129672187634
-0.10642578980682858
-0.07433029067531324
0.14788609554666698
0.4182489143798361
-0.12576361223931512
-0.18494957912721138
-0.1795967656150002
-0.3288980698631827
0.05158862527387963
-0.26884363412921003
0.41455121205804013
0.12041284948672812
0.38125287431974164
-0.26611870493822926
0.1312378761864767
-0.060677923936659085
0.3689236420051734
-0.12687934885074612
-0.21715914402867587
0.47810108243859495
0.2555736910437134
-0.12160185877598913
-0.11971554082679747
-0.0934542113544655
0.775871557574911
0.645005621464827
0.08075381204254459
0.12562132759230102
0.2760068277844097
0.5608959722659148
0.03653847051585588
-0.231136257706031
0.07242569959041037
0.44606298293702373
-0.24769161715881965
-0.004942301397453502
0.1585576000879309
-0.10217374947594958
0.10365165327242111
0.02564681315602236
-0.1205562512632074
-0.3893478894699567
-0.5216526094707226
-0.6535710387164394
-0.10733801902327546
0.4765376031516519
-0.33670776012004494
0.018889335328926685
0.030754824572495024
0.033649799889594996
0.04913666655597855
-0.2925242815551558
0.13887447131856082
-0.2595426607591726
0.2970364311406919
0.18335531138457675
-0.23891112975126808
0.14381290191279097
0.07334885551395184
-0.40610456466368816
-0.26444460774866446
0.09281938359583165
0.09858926635452014
0.027366255817998387
0.12846312038768293
0.4210267278812736
0.5995559753268863
0.11630184008494912
0.2114618207750571
-0.15876588638932917
0.05779705616678432
-0.2446605549338443
-0.3935223238447607
0.04019479868471367
-0.02360065020160337
-0.46717970243931095
-0.10055543886219641
0.3375396171331817
-0.4603817138709904
-0.2947547705109482
-0.13901527218165613
0.2587178455899219
0.14280644384988245
0.31587026666331924
-0.09793054297477276
0.03645328429022974
0.3535440616622478
0.06684324876184619
-0.0502007572069151
0.3964645656399635
0.06899196427395776
0.4267466481654453
-0.05697292989518344
-0.019134558749104486
-0.34665714512290574
0.03806200390091235
-9.582208694009144E-4
-0.49942213475526853
0.13997056394341445
0.08395122000945812
-0.16613364973689096
-0.1921597763200458
-0.012339544620301228
0.23341341464893262
0.17508153113945601
0.11973607449274176
0.1834049308327209
-0.28577408031143076
0.07511137843045497
-0.4609870914542272
0.22418144596800488
0.19270546781426373
-0.23598832353136176
-0.39915395553970984
-0.04040898780927043
0.1207797271766483
0.1647036663603761
0.18850624572487606
-0.2554542110924606
0.07357422766533118
-0.08024403228315359
0.1779299939980271
-0.05195077364951071
0.3880087416059963
0.07029684602078266
0.3099804066731993
0.15222746455604166
0.009751185715943625
-0.12325733340853333
-0.21591345304396786
-0.2578958500838622
-0.3818354439853749
-0.132941522195411
-0.22352682581183783
-0.39073249221704026
0.4348568146798431
0.1958200630786374
0.5004876104576582
-0.1780123272173635
-0.16453115093233758
0.01768803755607055
-0.39124004769265786
-0.02334787660105966
-0.30255536121574933
-0.04749098957280651
0.24435099683172162
-0.28948249433155604
-0.042854507707434264
0.2331596870782528
-0.084870052665256
-0.3842510874839368
0.1031772906635339
0.20570410008328643
-0.026165156009138844
0.07528608382192388
0.15141343987731534
0.5396390885241182
0.3477147034216739
-1.5795372793696506E-4
0.2912943689882569
-0.19059713334510914
0.25217644555043084
0.015615649344085807
-0.08206682448299873
-0.42830759645423394
-0.002737663375210713
-0.19865859848298775
0.2127068968700885
-0.08951902011863191
-0.503647390228517
-0.3083105954413583
-0.5960503399762258
0.14433165632882627
-0.2818465794286018
-0.24694112959095385
0.17029421850177337
0.0673928872716905
-0.24715841315894552
-0.019907627541115993
0.016982042238357035
-0.14307481586643933
-0.16578250860252536
0.015350241828156528
-0.04346847868007321
-0.12868604920776475
-0.26728432601683005
0.41908752884658285
-3.541754948047592E-4
-0.6283005198312479
-0.21526223519625368
0.5193872118174223
-0.11454318516458227
-0.5614727031954189
-0.2499081511267653
0.11812934473063734
-0.03555201930212249
0.13162357308725273
0.38514744221307806
-0.036780934947643694
-5.313423074389523E-4
0.17798587928141402
0.14060996343885207
0.444072100853288
0.26466271159493465
-0.138158202982287
-0.38324236189097977
-0.050779197364844854
0.24190641182126701
-0.015410678354161924
-0.1004861542008603
0.044531514541878155
-0.4046605157600102
0.11117488570885373
0.02885258384512205
-0.06210042400076007
-0.08031098544749833
-0.11909857691769786
-0.09730185390800516
0.2968702797444794
0.31162535366244987
0.6167015513135757
-0.027681058069193663
-0.03585749757374139
0.17400703040376578
-0.05592328808501687
-0.21465631360322915
-0.03586800582971027
0.6889645335117458
0.0895194107732533
0.058111837947728166
-0.44550771281307155
0.1685350118425901
-0.03920879596822535
-0.033024421937583655
0.20562449494740231
-0.05113195449891667
-0.2537815317438628
-0.031589640407594904
0.06368932452160939
-0.2785024599216263
-0.3082075512301549
-0.39726670253718877
0.028837814526155966
-0.135659839921268
0.2085061372300376
0.008890362956315258
-0.012459676388167949
-0.0017185608913861195
0.32074269422557583
0.08918123375747379
-0.01839871296362827
0.15564671317429607
0.1285392562546089
-0.047465686804704234
0.02378744091738914
0.15263681389934033
-0.09339496361696308
0.7036536765455519
-0.11982436904545428
-0.16707567593101835
-0.1368288649226488
0.037586643552088836
0.050919958322957835
-0.03291646086448218
0.09121861712659428
-0.31782017297449966
0.11600959134750313
-0.1841606405889966
-0.25658642295218786
